<?xml version="1.0"?>
<opencv_storage>
<cascade>
  <stageType>BOOST</stageType>
  <featureType>LBP</featureType>
  <height>24</height>
  <width>24</width>
  <stageParams>
    <boostType>GAB</boostType>
    <minHitRate>9.9900001287460327e-01</minHitRate>
    <maxFalseAlarm>2.0000000298023224e-01</maxFalseAlarm>
    <weightTrimRate>9.4999999999999996e-01</weightTrimRate>
    <maxDepth>1</maxDepth>
    <maxWeakCount>100</maxWeakCount></stageParams>
  <featureParams>
    <maxCatCount>256</maxCatCount>
    <featSize>1</featSize></featureParams>
  <stageNum>10</stageNum>
  <stages>
    <!-- stage 0 -->
    <_>
      <maxWeakCount>10</maxWeakCount>
      <stageThreshold>-1.7935671806335449e+00</stageThreshold>
      <weakClassifiers>
        <_>
          <internalNodes>
            0 -1 8 -50 -70198 -137366561 -2097201 -2360578 -18167058
            -4202497 -50331649</internalNodes>
          <leafValues>
            -8.1125658750534058e-01 6.5506654977798462e-01</leafValues></_>
        <_>
          <internalNodes>
            0 -1 6 -533529857 -357372193 -795676961 -231548673
            1179057663 -836509777 -499979265 -13107201</internalNodes>
          <leafValues>
            -7.1441411972045898e-01 5.7654535770416260e-01</leafValues></_>
        <_>
          <internalNodes>
            0 -1 122 -784924655 -1149778169 -578832513 -1249914105
            -536872033 -4220417 -838871557 -201867257</internalNodes>
          <leafValues>
            -6.2855952978134155e-01 5.3152537345886230e-01</leafValues></_>
        <_>
          <internalNodes>
            0 -1 129 -1082655235 -33628683 2100387097 2138929521
            -1080107780 -1216455172 520117724 -10495491</internalNodes>
          <leafValues>
            -5.2060049772262573e-01 5.8902585506439209e-01</leafValues></_>
        <_>
          <internalNodes>
            0 -1 29 -269484053 1850736618 -6560 -22020126 1501033543
            -764054663 -176797884 -144704385</internalNodes>
          <leafValues>
            -5.3918409347534180e-01 5.6942504644393921e-01</leafValues></_>
        <_>
          <internalNodes>
            0 -1 67 -1344289576 2147481979 -46735623 -6490920
            -1732239928 -2311992 1084156074 -872419074</internalNodes>
          <leafValues>
            -5.9780597686767578e-01 5.0669819116592407e-01</leafValues></_>
        <_>
          <internalNodes>
            0 -1 20 -4718897 -907026449 -218173862 1884880574
            -1141422257 -144482433 -19139875 -251724073</internalNodes>
          <leafValues>
            -5.0796610116958618e-01 5.5972522497177124e-01</leafValues></_>
        <_>
          <internalNodes>
            0 -1 105 -524911 1155530431 1529811248 -651174915 -75000920
            -1396072401 -645328624 -679485967</internalNodes>
          <leafValues>
            -5.7148832082748413e-01 5.0443536043167114e-01</leafValues></_>
        <_>
          <internalNodes>
            0 -1 4 -1968179201 -2001944370 -1333011201 501883570
            725875694 -1899345792 1233772275 -285216015</internalNodes>
          <leafValues>
            -5.5042266845703125e-01 5.1672911643981934e-01</leafValues></_>
        <_>
          <internalNodes>
            0 -1 104 -8964 -1148582358 -351572950 842012168 1240059336
            52685031 -803301312 1131140499</internalNodes>
          <leafValues>
            -7.7899879217147827e-01 3.6732596158981323e-01</leafValues></_></weakClassifiers></_>
    <!-- stage 1 -->
    <_>
      <maxWeakCount>11</maxWeakCount>
      <stageThreshold>-1.4673089981079102e+00</stageThreshold>
      <weakClassifiers>
        <_>
          <internalNodes>
            0 -1 12 -1964310529 -532489 -532513 -1025 -357892609 -17
            -805765121 -536870913</internalNodes>
          <leafValues>
            -7.4759495258331299e-01 6.4934355020523071e-01</leafValues></_>
        <_>
          <internalNodes>
            0 -1 84 -136315051 -136578053 -69211649 -8519681 -19694
            -218893325 -75499741 -67108869</internalNodes>
          <leafValues>
            -6.2320673465728760e-01 6.3272714614868164e-01</leafValues></_>
        <_>
          <internalNodes>
            0 -1 10 -126162177 2138766335 -496850185 -1140785411
            1316736767 -880906241 -109838339 -26543361</internalNodes>
          <leafValues>
            -5.7917046546936035e-01 5.1774722337722778e-01</leafValues></_>
        <_>
          <internalNodes>
            0 -1 36 -353977416 -1073873929 -857294596 -146998660
            -2097153 2143158270 -318917428 -66340</internalNodes>
          <leafValues>
            -6.8119305372238159e-01 3.9517796039581299e-01</leafValues></_>
        <_>
          <internalNodes>
            0 -1 17 -1048593 648544238 1946119714 -620765202 1978629503
            1962407543 -8390828 -134217729</internalNodes>
          <leafValues>
            -5.0160628557205200e-01 5.8113664388656616e-01</leafValues></_>
        <_>
          <internalNodes>
            0 -1 141 -8954029 -416065739 -34380497 1198422615 1408203891
            -67693005 -67733773 -956894089</internalNodes>
          <leafValues>
            -5.4595595598220825e-01 4.6798595786094666e-01</leafValues></_>
        <_>
          <internalNodes>
            0 -1 151 -273695238 -1115620240 -7375440 -138980356
            1017132528 117471800 455688700 1597763071</internalNodes>
          <leafValues>
            -6.3503462076187134e-01 3.6462795734405518e-01</leafValues></_>
        <_>
          <internalNodes>
            0 -1 34 -1099271365 -5077417 -572853379 976915817
            -1694507023 -345877 -327681 -1893704070</internalNodes>
          <leafValues>
            -5.7582843303680420e-01 4.3716621398925781e-01</leafValues></_>
        <_>
          <internalNodes>
            0 -1 40 -22876181 749525410 1951912866 -68160543 176939007
            -969978037 1469797747 -576883985</internalNodes>
          <leafValues>
            -5.3065687417984009e-01 4.5353305339813232e-01</leafValues></_>
        <_>
          <internalNodes>
            0 -1 72 -780797478 1608490730 -1109000705 -121652822
            -1611012166 -1057510 520847530 1428662826</internalNodes>
          <leafValues>
            -5.4767429828643799e-01 4.4219526648521423e-01</leafValues></_>
        <_>
          <internalNodes>
            0 -1 2 -1879066378 -1178225829 -234385218 -83887361
            1964631913 1942886841 -69731350 1996225518</internalNodes>
          <leafValues>
            -6.6102802753448486e-01 3.7770119309425354e-01</leafValues></_></weakClassifiers></_>
    <!-- stage 2 -->
    <_>
      <maxWeakCount>13</maxWeakCount>
      <stageThreshold>-1.3408164978027344e+00</stageThreshold>
      <weakClassifiers>
        <_>
          <internalNodes>
            0 -1 16 -1 -269484310 -2057 -513 -1 -805306369 -134220801 -1</internalNodes>
          <leafValues>
            -6.1837655305862427e-01 8.0839210748672485e-01</leafValues></_>
        <_>
          <internalNodes>
            0 -1 82 -2099375 -134217903 -524289 -524297 -9 -1073741961
            -1 -201328641</internalNodes>
          <leafValues>
            -5.3983193635940552e-01 5.9046679735183716e-01</leafValues></_>
        <_>
          <internalNodes>
            0 -1 19 -46499969 -360581 -705013953 1060699063 406355966
            -1079328769 -67372033 -1090859345</internalNodes>
          <leafValues>
            -5.5424302816390991e-01 4.7159475088119507e-01</leafValues></_>
        <_>
          <internalNodes>
            0 -1 47 -1884553733 -810985438 -1090520105 -671230543
            -2088785921 -806359041 1610561527 -973220619</internalNodes>
          <leafValues>
            -4.6155157685279846e-01 5.1278346776962280e-01</leafValues></_>
        <_>
          <internalNodes>
            0 -1 137 -286263454 -425527456 -356636992 1355480042
            -1409293670 84932455 -251661103 -773851137</internalNodes>
          <leafValues>
            -5.5550026893615723e-01 3.7257286906242371e-01</leafValues></_>
        <_>
          <internalNodes>
            0 -1 140 1060339185 -1414627920 2147295217 -180235
            -1153433605 -1154490452 260970717 -1614852875</internalNodes>
          <leafValues>
            -4.3719336390495300e-01 4.8888960480690002e-01</leafValues></_>
        <_>
          <internalNodes>
            0 -1 45 -1322631173 -138849486 -32770 -776620044 -12615697
            -1026 -1124073474 -657465354</internalNodes>
          <leafValues>
            -4.1797506809234619e-01 5.1179349422454834e-01</leafValues></_>
        <_>
          <internalNodes>
            0 -1 42 -553663233 -1694599334 -1361117490 1348607711
            -553761206 1935542367 -294453297 -96207537</internalNodes>
          <leafValues>
            -4.2992115020751953e-01 5.0139933824539185e-01</leafValues></_>
        <_>
          <internalNodes>
            0 -1 86 -1247244 -559083871 -1610613334 940209800
            -1083068785 321392590 786368008 1127216870</internalNodes>
          <leafValues>
            -6.6214865446090698e-01 3.2847592234611511e-01</leafValues></_>
        <_>
          <internalNodes>
            0 -1 134 -267698107 -637599501 -9480705 -1142197681
            -751756865 -268703125 -768126145 -211298293</internalNodes>
          <leafValues>
            -5.1919436454772949e-01 4.2772430181503296e-01</leafValues></_>
        <_>
          <internalNodes>
            0 -1 87 -661687374 -786498 2046557918 -573774818 1095077256
            -6553606 1415016446 -181406770</internalNodes>
          <leafValues>
            -5.4896908998489380e-01 4.0262666344642639e-01</leafValues></_>
        <_>
          <internalNodes>
            0 -1 133 1040220121 -1347194640 2008249049 -180937868
            933855230 -1080348935 -1084295427 -1626530323</internalNodes>
          <leafValues>
            -5.1365458965301514e-01 4.1697743535041809e-01</leafValues></_>
        <_>
          <internalNodes>
            0 -1 155 -681581498 1733787510 -525344256 1082130414
            1592217094 845934917 1081850598 1919156094</internalNodes>
          <leafValues>
            -7.4358010292053223e-01 2.9603701829910278e-01</leafValues></_></weakClassifiers></_>
    <!-- stage 3 -->
    <_>
      <maxWeakCount>14</maxWeakCount>
      <stageThreshold>-1.3304741382598877e+00</stageThreshold>
      <weakClassifiers>
        <_>
          <internalNodes>
            0 -1 3 -1048577 -1115154 -268435457 -1 -1 -3211452 -1 -1</internalNodes>
          <leafValues>
            -5.7735335826873779e-01 8.2187879085540771e-01</leafValues></_>
        <_>
          <internalNodes>
            0 -1 117 -515 -1346961451 -9052683 -3 -513 -65537 1577049597
            -3</internalNodes>
          <leafValues>
            -4.7136682271957397e-01 5.9168094396591187e-01</leafValues></_>
        <_>
          <internalNodes>
            0 -1 25 -412090902 -810881110 1476359474 -1084640 130003967
            1342176255 100124151 -704645641</internalNodes>
          <leafValues>
            -5.0539064407348633e-01 4.7224956750869751e-01</leafValues></_>
        <_>
          <internalNodes>
            0 -1 37 -896802720 1501259252 -152048641 -42502827
            -1409286161 -1081087765 -2014314673 1240420855</internalNodes>
          <leafValues>
            -6.0349607467651367e-01 3.3845219016075134e-01</leafValues></_>
        <_>
          <internalNodes>
            0 -1 150 -268961169 1181679395 -218368478 1384118110
            -537403838 1165456755 -219155213 1391982535</internalNodes>
          <leafValues>
            -5.9880089759826660e-01 3.4010457992553711e-01</leafValues></_>
        <_>
          <internalNodes>
            0 -1 143 -40412083 -547409133 14478079 1916501879 -469940
            -9098909 -625941761 -1692917761</internalNodes>
          <leafValues>
            -4.4402912259101868e-01 4.3409460783004761e-01</leafValues></_>
        <_>
          <internalNodes>
            0 -1 79 -1217224900 -1610960222 159157690 838709642
            -1621428257 669646979 802072233 1398797743</internalNodes>
          <leafValues>
            -5.6862485408782959e-01 3.6590182781219482e-01</leafValues></_>
        <_>
          <internalNodes>
            0 -1 127 -319824401 -353910809 2130706154 -226756635
            -490818836 1117515751 2051010471 -473979457</internalNodes>
          <leafValues>
            -4.2240783572196960e-01 4.8338571190834045e-01</leafValues></_>
        <_>
          <internalNodes>
            0 -1 65 -1685103730 -203687186 1039134864 1372737534
            -35848485 144767736 1342463674 9402094</internalNodes>
          <leafValues>
            -6.3000929355621338e-01 2.9683962464332581e-01</leafValues></_>
        <_>
          <internalNodes>
            0 -1 148 523500464 -1482228048 1561836448 2137741789
            -1421881089 84668331 -1883265803 1307515128</internalNodes>
          <leafValues>
            -6.0153162479400635e-01 3.2166570425033569e-01</leafValues></_>
        <_>
          <internalNodes>
            0 -1 1 -294191177 -1435833682 -19672105 -822162737
            -154140681 696918183 -267936937 -16781065</internalNodes>
          <leafValues>
            -5.6452161073684692e-01 3.1807050108909607e-01</leafValues></_>
        <_>
          <internalNodes>
            0 -1 71 488151029 -170262571 2110517621 -37962016
            -1433698305 -1048645 -269656325 -1920563804</internalNodes>
          <leafValues>
            -4.6822586655616760e-01 4.2190182209014893e-01</leafValues></_>
        <_>
          <internalNodes>
            0 -1 156 -269492502 613384138 -1125207424 -1433403410
            1969743238 1162051575 -184814925 1156052711</internalNodes>
          <leafValues>
            -6.3580358028411865e-01 2.9987609386444092e-01</leafValues></_>
        <_>
          <internalNodes>
            0 -1 115 -16847876 -549827836 1582040184 758210360 264776156
            992294892 1025093432 2143289277</internalNodes>
          <leafValues>
            -6.4205724000930786e-01 3.0559948086738586e-01</leafValues></_></weakClassifiers></_>
    <!-- stage 4 -->
    <_>
      <maxWeakCount>16</maxWeakCount>
      <stageThreshold>-1.3894480466842651e+00</stageThreshold>
      <weakClassifiers>
        <_>
          <internalNodes>
            0 -1 55 -1074003969 -1027 -6291457 -515 -1073741825 -1
            -1073741825 -8707</internalNodes>
          <leafValues>
            -5.9595096111297607e-01 7.0954954624176025e-01</leafValues></_>
        <_>
          <internalNodes>
            0 -1 26 -743703558 -538707222 9958064 1970500466 -1181697
            -556804993 -134892033 2004318199</internalNodes>
          <leafValues>
            -5.9092462062835693e-01 4.2889872193336487e-01</leafValues></_>
        <_>
          <internalNodes>
            0 -1 52 -2064733186 1608507391 1509602815 -603982337
            -908271617 -537992997 2145893375 -1115254</internalNodes>
          <leafValues>
            -5.3581774234771729e-01 3.9552524685859680e-01</leafValues></_>
        <_>
          <internalNodes>
            0 -1 152 -543424514 -1214600504 2098189776 -37792260
            530759163 505454072 456201725 2136933887</internalNodes>
          <leafValues>
            -5.4646283388137817e-01 3.5469490289688110e-01</leafValues></_>
        <_>
          <internalNodes>
            0 -1 96 -303275 1937484573 -873202689 -1023678481 -340822251
            -357045310 -874513697 -251723905</internalNodes>
          <leafValues>
            -5.3188544511795044e-01 3.6359196901321411e-01</leafValues></_>
        <_>
          <internalNodes>
            0 -1 21 -83892481 -69345634 -620953859 -212632065 -537473025
            -615578036 -33559041 -15732773</internalNodes>
          <leafValues>
            -3.2961133122444153e-01 6.2802505493164062e-01</leafValues></_>
        <_>
          <internalNodes>
            0 -1 91 -381132 -1074120613 -1981862519 -297823192
            1943759597 628753101 1723312655 1826614751</internalNodes>
          <leafValues>
            -5.2716666460037231e-01 3.7288925051689148e-01</leafValues></_>
        <_>
          <internalNodes>
            0 -1 7 1937396735 -229892 -1638019139 1060271958 1911896959
            -6303809 1465907683 1055925294</internalNodes>
          <leafValues>
            -5.8800655603408813e-01 2.9166516661643982e-01</leafValues></_>
        <_>
          <internalNodes>
            0 -1 136 -159825779 2002220919 -889197313 1138204031
            -17781748 2004602799 -891749381 -1290170907</internalNodes>
          <leafValues>
            -4.6129387617111206e-01 3.6459267139434814e-01</leafValues></_>
        <_>
          <internalNodes>
            0 -1 90 -121635345 -731185394 -201606456 1451933668
            -1627681201 268852495 829635076 -492044573</internalNodes>
          <leafValues>
            -4.2354223132133484e-01 4.2851424217224121e-01</leafValues></_>
        <_>
          <internalNodes>
            0 -1 73 -1659259981 2039217889 -1626611819 -43649599
            -405282817 2147219347 110614353 -997289792</internalNodes>
          <leafValues>
            -4.3872073292732239e-01 4.0111306309700012e-01</leafValues></_>
        <_>
          <internalNodes>
            0 -1 53 1559911551 -672113297 -1896718614 481432442
            -757150644 -217888033 -1231934713 1936863615</internalNodes>
          <leafValues>
            -5.8258742094039917e-01 3.1224119663238525e-01</leafValues></_>
        <_>
          <internalNodes>
            0 -1 89 -54304801 -791775451 -67108984 832814851 -1212743729
            -530908203 -142216124 -1058277977</internalNodes>
          <leafValues>
            -4.0016978979110718e-01 4.3817967176437378e-01</leafValues></_>
        <_>
          <internalNodes>
            0 -1 121 1041247093 -1079477256 1001667573 1065170941
            1056971165 957035450 778386431 775816605</internalNodes>
          <leafValues>
            -6.4381593465805054e-01 3.0065369606018066e-01</leafValues></_>
        <_>
          <internalNodes>
            0 -1 147 1062207459 797861771 -87205216 -103884566 390061448
            84881467 354632160 1437594055</internalNodes>
          <leafValues>
            -6.3502663373947144e-01 2.5181213021278381e-01</leafValues></_>
        <_>
          <internalNodes>
            0 -1 98 -604827311 -1635795250 -1684144675 1039922239
            -22750592 -5563671 1080047776 1034084281</internalNodes>
          <leafValues>
            -4.9025648832321167e-01 3.6171412467956543e-01</leafValues></_></weakClassifiers></_>
    <!-- stage 5 -->
    <_>
      <maxWeakCount>17</maxWeakCount>
      <stageThreshold>-1.4326829910278320e+00</stageThreshold>
      <weakClassifiers>
        <_>
          <internalNodes>
            0 -1 44 -1079312389 -860687 -8193 -34080267 -1140851713
            -1537 -1146093569 -513</internalNodes>
          <leafValues>
            -6.2206393480300903e-01 5.9373039007186890e-01</leafValues></_>
        <_>
          <internalNodes>
            0 -1 108 -53387 -4501697 -1353306305 1073692027 -53315
            1069239293 -1140953093 2143289343</internalNodes>
          <leafValues>
            -5.0254100561141968e-01 4.5106169581413269e-01</leafValues></_>
        <_>
          <internalNodes>
            0 -1 120 -16779913 -808534145 -134752649 -538968577
            -572015213 -838864913 -741076224 -797199600</internalNodes>
          <leafValues>
            -5.6162047386169434e-01 3.3970785140991211e-01</leafValues></_>
        <_>
          <internalNodes>
            0 -1 18 -33554449 1961885678 -755008882 -218104210
            2121793375 1733779055 -25166002 -135004161</internalNodes>
          <leafValues>
            -4.1462552547454834e-01 4.6599993109703064e-01</leafValues></_>
        <_>
          <internalNodes>
            0 -1 85 -727198243 -844128327 -1884293729 -37628575
            -990120449 -422580257 1976014183 -2070948413</internalNodes>
          <leafValues>
            -3.4159654378890991e-01 5.3077417612075806e-01</leafValues></_>
        <_>
          <internalNodes>
            0 -1 130 2004874097 -276824543 318714610 1936978419
            2146697096 -569394424 -114598469 285703950</internalNodes>
          <leafValues>
            -4.9059864878654480e-01 3.4283015131950378e-01</leafValues></_>
        <_>
          <internalNodes>
            0 -1 28 -1482424341 -271682614 1138736098 -134226302
            1623981567 1633512829 1735816660 -251660321</internalNodes>
          <leafValues>
            -4.0661901235580444e-01 4.1255554556846619e-01</leafValues></_>
        <_>
          <internalNodes>
            0 -1 62 149312763 905452847 1053605503 1964121567 -73759006
            -69269285 -1074069509 1060249407</internalNodes>
          <leafValues>
            -5.3215134143829346e-01 3.3665210008621216e-01</leafValues></_>
        <_>
          <internalNodes>
            0 -1 126 -267198366 -25693381 -70068806 -215352093
            -398743829 -733607077 -1901073943 1109377307</internalNodes>
          <leafValues>
            -5.4939568042755127e-01 2.8369042277336121e-01</leafValues></_>
        <_>
          <internalNodes>
            0 -1 158 2124401759 410087007 -1665401218 855292895
            -1359263670 -2703521 -739606593 -629407913</internalNodes>
          <leafValues>
            -3.5310584306716919e-01 4.6740907430648804e-01</leafValues></_>
        <_>
          <internalNodes>
            0 -1 9 -4881574 -143265410 -1896944726 -570436481 -150234632
            -693407182 -385900626 -83905043</internalNodes>
          <leafValues>
            -5.6730699539184570e-01 2.8898209333419800e-01</leafValues></_>
        <_>
          <internalNodes>
            0 -1 112 -1382648121 -349290910 -83891489 -135597120
            -1363283979 -1478493314 -206247945 -135272477</internalNodes>
          <leafValues>
            -3.7165194749832153e-01 4.6225872635841370e-01</leafValues></_>
        <_>
          <internalNodes>
            0 -1 57 -1816092933 871607534 797006026 1362822098
            -544864013 314221328 -555579254 268667611</internalNodes>
          <leafValues>
            -5.7342648506164551e-01 3.1637355685234070e-01</leafValues></_>
        <_>
          <internalNodes>
            0 -1 64 -1459487495 -2054627759 -1348993150 -1915953818
            2043116991 -627943001 -727729184 -994131482</internalNodes>
          <leafValues>
            -4.4950851798057556e-01 3.5927602648735046e-01</leafValues></_>
        <_>
          <internalNodes>
            0 -1 157 -35651589 229367450 -1421051408 -2061042424
            1672606930 1067320826 521097721 1609454543</internalNodes>
          <leafValues>
            -4.5306935906410217e-01 3.5838261246681213e-01</leafValues></_>
        <_>
          <internalNodes>
            0 -1 41 -556754241 -50404098 417532636 458877151 -835286281
            -891677621 1591738331 -607216650</internalNodes>
          <leafValues>
            -4.2174813151359558e-01 3.8751059770584106e-01</leafValues></_>
        <_>
          <internalNodes>
            0 -1 114 -25870611 -1485965498 -226565278 -496315929
            41931724 1125878751 1400706400 1473233047</internalNodes>
          <leafValues>
            -5.8302646875381470e-01 2.9499021172523499e-01</leafValues></_></weakClassifiers></_>
    <!-- stage 6 -->
    <_>
      <maxWeakCount>18</maxWeakCount>
      <stageThreshold>-1.3003610372543335e+00</stageThreshold>
      <weakClassifiers>
        <_>
          <internalNodes>
            0 -1 35 -236912645 -168429579 -1 -168431137 -104857601
            -262337 -4198401 -1</internalNodes>
          <leafValues>
            -6.2387317419052124e-01 5.3740686178207397e-01</leafValues></_>
        <_>
          <internalNodes>
            0 -1 23 -67110153 -286330134 868176639 -201657870 -805384193
            -807404870 1466557439 -11521</internalNodes>
          <leafValues>
            -4.4203376770019531e-01 4.7653740644454956e-01</leafValues></_>
        <_>
          <internalNodes>
            0 -1 13 -810836758 -7343686 -437289993 -167807247 -344998155
            -269565963 -1880884737 -811678220</internalNodes>
          <leafValues>
            -4.0990495681762695e-01 4.3902885913848877e-01</leafValues></_>
        <_>
          <internalNodes>
            0 -1 149 -202125302 -1787882441 1282137806 1207360847
            -227872126 -135825593 -1609367553 1932769151</internalNodes>
          <leafValues>
            -5.4789036512374878e-01 3.1985646486282349e-01</leafValues></_>
        <_>
          <internalNodes>
            0 -1 33 -84452098 2101560663 -1296377090 1343372799
            -663337916 2118404420 -34227217 1530101002</internalNodes>
          <leafValues>
            -5.4835933446884155e-01 3.2296004891395569e-01</leafValues></_>
        <_>
          <internalNodes>
            0 -1 138 -9043971 -108036 -1610760579 2037714429 -218562817
            -5084680 1043341247 -8970241</internalNodes>
          <leafValues>
            -3.9985960721969604e-01 4.1841152310371399e-01</leafValues></_>
        <_>
          <internalNodes>
            0 -1 39 -1884342341 -1391542326 -255881036 -604572637
            427740671 217958123 161944823 65487287</internalNodes>
          <leafValues>
            -5.7082414627075195e-01 3.1641304492950439e-01</leafValues></_>
        <_>
          <internalNodes>
            0 -1 81 -554750939 -1121839337 -1251191559 -150348295
            788262621 -550522441 -843407875 -1887740487</internalNodes>
          <leafValues>
            -4.1566985845565796e-01 3.7304192781448364e-01</leafValues></_>
        <_>
          <internalNodes>
            0 -1 56 -1111770629 -39166478 -138412057 -237186144
            1570504671 -1934821377 662020035 -171321409</internalNodes>
          <leafValues>
            -3.3127191662788391e-01 4.6691805124282837e-01</leafValues></_>
        <_>
          <internalNodes>
            0 -1 78 -813785908 -35668556 485762365 1589641143
            -2052740369 430317091 514780414 1849431791</internalNodes>
          <leafValues>
            -4.8343282938003540e-01 3.2637387514114380e-01</leafValues></_>
        <_>
          <internalNodes>
            0 -1 75 -1060119159 -1871004744 -1207980618 -123034120
            -67112465 859758591 1500058884 -433850889</internalNodes>
          <leafValues>
            -4.2440825700759888e-01 3.5368108749389648e-01</leafValues></_>
        <_>
          <internalNodes>
            0 -1 118 -13406427 -363955149 42574500 -103065622 -544473012
            303236099 -1814170372 893078169</internalNodes>
          <leafValues>
            -5.1076596975326538e-01 3.0470207333564758e-01</leafValues></_>
        <_>
          <internalNodes>
            0 -1 123 -34516719 -1076208259 2105518719 -2013833895
            -98730753 1761331875 -1082177281 -1080336901</internalNodes>
          <leafValues>
            -4.5021453499794006e-01 3.3271995186805725e-01</leafValues></_>
        <_>
          <internalNodes>
            0 -1 119 1940870995 -827526658 -537405667 -675389017
            1793849303 133885695 -739543280 -775132780</internalNodes>
          <leafValues>
            -5.5885249376296997e-01 2.7223899960517883e-01</leafValues></_>
        <_>
          <internalNodes>
            0 -1 132 775258033 -32983 729804284 -4630024 -895451715
            -1104511045 489938430 -1610634817</internalNodes>
          <leafValues>
            -3.7188228964805603e-01 4.2292541265487671e-01</leafValues></_>
        <_>
          <internalNodes>
            0 -1 49 -796270446 1441121250 -270553478 1162692340
            -1537785353 1609366484 -1644630822 1279503100</internalNodes>
          <leafValues>
            -5.2876746654510498e-01 3.1065869331359863e-01</leafValues></_>
        <_>
          <internalNodes>
            0 -1 101 1422558616 -1155795062 -1675054206 588603426
            1501227003 2026838479 1466730508 1081074693</internalNodes>
          <leafValues>
            -6.4141386747360229e-01 2.3266027867794037e-01</leafValues></_>
        <_>
          <internalNodes>
            0 -1 58 -641945794 -1182025557 1208489862 1431505167
            -662327809 -1895360851 254271230 1632095215</internalNodes>
          <leafValues>
            -4.9999424815177917e-01 3.1052663922309875e-01</leafValues></_></weakClassifiers></_>
    <!-- stage 7 -->
    <_>
      <maxWeakCount>19</maxWeakCount>
      <stageThreshold>-1.4290667772293091e+00</stageThreshold>
      <weakClassifiers>
        <_>
          <internalNodes>
            0 -1 95 -57985 -8421505 -71696417 2101312511 -34619393
            -147457 -1145045249 -71566337</internalNodes>
          <leafValues>
            -6.0424029827117920e-01 5.2499997615814209e-01</leafValues></_>
        <_>
          <internalNodes>
            0 -1 67 -1075847681 -35693569 -50340098 -14830436 -590291496
            -33695620 -721617154 -868</internalNodes>
          <leafValues>
            -4.6863508224487305e-01 4.5132607221603394e-01</leafValues></_>
        <_>
          <internalNodes>
            0 -1 30 -560267397 536821758 -537137409 -274770 -1938764801
            1325288702 -1073875489 -536884033</internalNodes>
          <leafValues>
            -3.6973506212234497e-01 4.8480409383773804e-01</leafValues></_>
        <_>
          <internalNodes>
            0 -1 46 1106836988 1422327517 -420492035 1432298600
            -101451278 -100699873 -282074322 -1357928274</internalNodes>
          <leafValues>
            -4.8893448710441589e-01 3.0660063028335571e-01</leafValues></_>
        <_>
          <internalNodes>
            0 -1 77 -10571788 289381164 606014605 1610083881 457936183
            254479912 253725351 169323639</internalNodes>
          <leafValues>
            -5.5652183294296265e-01 2.9416033625602722e-01</leafValues></_>
        <_>
          <internalNodes>
            0 -1 48 -1952186381 -880088160 2145384211 -36317903
            557693311 1693351931 -504706089 -1785244427</internalNodes>
          <leafValues>
            -4.9432447552680969e-01 2.6061171293258667e-01</leafValues></_>
        <_>
          <internalNodes>
            0 -1 144 1306951116 -10815881 -406127364 1862989822
            -353742377 791697837 103237085 1461057525</internalNodes>
          <leafValues>
            -5.8052140474319458e-01 2.5479236245155334e-01</leafValues></_>
        <_>
          <internalNodes>
            0 -1 153 -1088422413 -1884668256 -33849359 -35717147
            -2118456149 -1350439492 487167487 -987769410</internalNodes>
          <leafValues>
            -3.0881601572036743e-01 4.6772226691246033e-01</leafValues></_>
        <_>
          <internalNodes>
            0 -1 110 993613585 1978622037 -1414564385 -806905993
            -1074056448 -790761115 -2010006784 -570632458</internalNodes>
          <leafValues>
            -6.2920826673507690e-01 2.2663533687591553e-01</leafValues></_>
        <_>
          <internalNodes>
            0 -1 116 -16892484 -67227653 655215418 498741179 -168417074
            927624376 -1036902213 -144704001</internalNodes>
          <leafValues>
            -4.2288044095039368e-01 3.4976691007614136e-01</leafValues></_>
        <_>
          <internalNodes>
            0 -1 142 -42838563 -1680120481 -264688033 844759819
            -1173301044 -25801123 -1162825988 1916263259</internalNodes>
          <leafValues>
            -4.1437578201293945e-01 3.6166626214981079e-01</leafValues></_>
        <_>
          <internalNodes>
            0 -1 14 435094271 468677610 -1157634061 393311986 44984044
            -1117789204 -805343665 -1074266881</internalNodes>
          <leafValues>
            -3.4341108798980713e-01 4.2302733659744263e-01</leafValues></_>
        <_>
          <internalNodes>
            0 -1 59 -1074123740 -18311901 -538248606 -315662 -1462317363
            -1791070721 -1490037545 -1682727489</internalNodes>
          <leafValues>
            -3.6897093057632446e-01 3.8286036252975464e-01</leafValues></_>
        <_>
          <internalNodes>
            0 -1 5 -1170687183 -355030282 -1593601269 1255860955
            -1308363904 -212145451 -477889500 -419663521</internalNodes>
          <leafValues>
            -5.5642402172088623e-01 2.7453547716140747e-01</leafValues></_>
        <_>
          <internalNodes>
            0 -1 24 1373731234 926673658 -1674721809 1462989301
            1802167191 -83963401 -68439562 508546523</internalNodes>
          <leafValues>
            -4.6761098504066467e-01 2.9698279500007629e-01</leafValues></_>
        <_>
          <internalNodes>
            0 -1 124 -1089402803 2079276399 -356665549 1475032031
            -85882516 -340811909 -97453382 957613333</internalNodes>
          <leafValues>
            -5.3752446174621582e-01 2.6470199227333069e-01</leafValues></_>
        <_>
          <internalNodes>
            0 -1 111 -65936160 1618408198 -140772548 1869085664
            -1428445763 68219228 666873305 1099941265</internalNodes>
          <leafValues>
            -5.7904040813446045e-01 2.4125003814697266e-01</leafValues></_>
        <_>
          <internalNodes>
            0 -1 107 1867459877 571373547 804022474 -213899398
            -404805044 88571215 -487656852 1131887615</internalNodes>
          <leafValues>
            -5.8025521039962769e-01 2.4100363254547119e-01</leafValues></_>
        <_>
          <internalNodes>
            0 -1 104 -891761156 -1194693298 -215466824 301995680
            1103154383 1447227095 1645650688 -687344169</internalNodes>
          <leafValues>
            -5.0474476814270020e-01 2.9406601190567017e-01</leafValues></_></weakClassifiers></_>
    <!-- stage 8 -->
    <_>
      <maxWeakCount>21</maxWeakCount>
      <stageThreshold>-1.4525295495986938e+00</stageThreshold>
      <weakClassifiers>
        <_>
          <internalNodes>
            0 -1 0 -1 -1052754 -1 -1 -9 -8009792 -1 -9</internalNodes>
          <leafValues>
            -5.1078563928604126e-01 7.1303200721740723e-01</leafValues></_>
        <_>
          <internalNodes>
            0 -1 43 -822161665 -536947265 -1201473057 1915903963
            -872493825 -6351290 -4390945 -11314433</internalNodes>
          <leafValues>
            -4.5045611262321472e-01 4.5259085297584534e-01</leafValues></_>
        <_>
          <internalNodes>
            0 -1 80 -995359739 1443041038 1400853725 352547801
            -1074851891 -1289256965 -2167299 -5612065</internalNodes>
          <leafValues>
            -4.2977875471115112e-01 3.8864794373512268e-01</leafValues></_>
        <_>
          <internalNodes>
            0 -1 139 -25690127 -1078004487 1568599293 -33560643 -8914982
            -1430585558 1528605912 1292623312</internalNodes>
          <leafValues>
            -5.0325572490692139e-01 2.5700819492340088e-01</leafValues></_>
        <_>
          <internalNodes>
            0 -1 94 254545697 -1122616972 1069441019 930962812 725241712
            -1379960518 153869757 427495484</internalNodes>
          <leafValues>
            -5.4851830005645752e-01 3.0955189466476440e-01</leafValues></_>
        <_>
          <internalNodes>
            0 -1 88 -167845642 1573201700 -248000535 1715560608
            -1756618620 1534403136 111086598 1928066791</internalNodes>
          <leafValues>
            -5.6291252374649048e-01 2.1066561341285706e-01</leafValues></_>
        <_>
          <internalNodes>
            0 -1 125 -1719691895 905017341 1406092119 1157601526
            -1611664992 -145497370 34407339 -812661809</internalNodes>
          <leafValues>
            -3.4890219569206238e-01 3.8941803574562073e-01</leafValues></_>
        <_>
          <internalNodes>
            0 -1 74 -1993228313 -269806390 -1239556192 -36703295
            249494463 -405041505 928479076 -1058294331</internalNodes>
          <leafValues>
            -4.0389513969421387e-01 3.2152873277664185e-01</leafValues></_>
        <_>
          <internalNodes>
            0 -1 15 1560149730 1607858414 -1711614119 1504624754
            936631211 -672205217 -253777267 -573244421</internalNodes>
          <leafValues>
            -3.8906097412109375e-01 3.4928232431411743e-01</leafValues></_>
        <_>
          <internalNodes>
            0 -1 145 -429497076 -146463467 -1844446984 -819201153
            -889200148 390305140 -491797023 1361050995</internalNodes>
          <leafValues>
            -5.9545433521270752e-01 2.3387256264686584e-01</leafValues></_>
        <_>
          <internalNodes>
            0 -1 61 217865471 -1210943043 2130687738 1047771859
            1519578766 510791263 1063950812 1057110275</internalNodes>
          <leafValues>
            -5.4190742969512939e-01 2.4988389015197754e-01</leafValues></_>
        <_>
          <internalNodes>
            0 -1 76 -570466819 -587268098 552730111 1253308477
            -1064530552 -541205527 345692587 -71764818</internalNodes>
          <leafValues>
            -3.2422894239425659e-01 4.2108181118965149e-01</leafValues></_>
        <_>
          <internalNodes>
            0 -1 160 -75776018 -1496328817 -494941054 -303112193
            2011068262 1420818591 -71878666 -236587037</internalNodes>
          <leafValues>
            -4.3001344799995422e-01 3.3177542686462402e-01</leafValues></_>
        <_>
          <internalNodes>
            0 -1 146 -301994233 -431536265 -659579294 1122669403
            -202574380 1464295971 -126880001 -1020527617</internalNodes>
          <leafValues>
            -3.7468940019607544e-01 3.5498446226119995e-01</leafValues></_>
        <_>
          <internalNodes>
            0 -1 70 -1987147996 895431974 2010954308 389630762
            -1409626899 81692387 291931380 119972767</internalNodes>
          <leafValues>
            -6.0770946741104126e-01 2.2381195425987244e-01</leafValues></_>
        <_>
          <internalNodes>
            0 -1 131 -1435189763 -1162195475 -314443275 -286023428
            -1078026420 -342189808 670373868 2121555220</internalNodes>
          <leafValues>
            -6.7878472805023193e-01 1.8830686807632446e-01</leafValues></_>
        <_>
          <internalNodes>
            0 -1 38 -402894378 -249389 1828212708 1299589206 -87385124
            1637825009 -1339916344 -75968770</internalNodes>
          <leafValues>
            -5.3071492910385132e-01 2.5138276815414429e-01</leafValues></_>
        <_>
          <internalNodes>
            0 -1 135 -73804599 -1358003 -1409413125 -1343371700
            -1168524487 -1344374193 826929133 -1856303812</internalNodes>
          <leafValues>
            -3.9853113889694214e-01 3.4219890832901001e-01</leafValues></_>
        <_>
          <internalNodes>
            0 -1 99 403725645 -582796325 -1378878017 -41238205
            -887593993 -560207747 1754365735 134677923</internalNodes>
          <leafValues>
            -5.3712892532348633e-01 2.6276510953903198e-01</leafValues></_>
        <_>
          <internalNodes>
            0 -1 27 2142200811 -542509152 -1275332112 2146432867
            587038142 1106771967 1953908723 -939524353</internalNodes>
          <leafValues>
            -3.5710635781288147e-01 4.0745061635971069e-01</leafValues></_>
        <_>
          <internalNodes>
            0 -1 69 -541124642 1343331404 -789261990 285998008
            1468181957 -666817622 -118492310 940288906</internalNodes>
          <leafValues>
            -5.2931916713714600e-01 2.7790886163711548e-01</leafValues></_></weakClassifiers></_>
    <!-- stage 9 -->
    <_>
      <maxWeakCount>24</maxWeakCount>
      <stageThreshold>-1.4581311941146851e+00</stageThreshold>
      <weakClassifiers>
        <_>
          <internalNodes>
            0 -1 22 -268435457 -3333 -1 -3073 1333784575 -2057
            2146434047 -1025</internalNodes>
          <leafValues>
            -5.4571509361267090e-01 5.6812524795532227e-01</leafValues></_>
        <_>
          <internalNodes>
            0 -1 83 -992217129 -704708633 -1132554 -590479470 -18878465
            -1 -406327297 -959535200</internalNodes>
          <leafValues>
            -3.6846670508384705e-01 4.7424665093421936e-01</leafValues></_>
        <_>
          <internalNodes>
            0 -1 51 -537135105 -4194714 -88410947 -1193732 -50921556
            -1077954625 -85661522 -67441410</internalNodes>
          <leafValues>
            -3.1890261173248291e-01 4.9066519737243652e-01</leafValues></_>
        <_>
          <internalNodes>
            0 -1 11 -5377 827123934 -1167546241 1363213051 -537923585
            -569851826 -1350864897 -548602113</internalNodes>
          <leafValues>
            -3.8502615690231323e-01 3.7294664978981018e-01</leafValues></_>
        <_>
          <internalNodes>
            0 -1 54 1557946111 2104172541 2121989887 1000365393
            -10597689 -8446457 -8454145 -4568293</internalNodes>
          <leafValues>
            -3.5666844248771667e-01 3.6437693238258362e-01</leafValues></_>
        <_>
          <internalNodes>
            0 -1 103 -301633561 -959514746 -134284788 1122238179
            -253624357 1142947807 -168691902 -137627677</internalNodes>
          <leafValues>
            -3.7521949410438538e-01 3.4730815887451172e-01</leafValues></_>
        <_>
          <internalNodes>
            0 -1 106 -67719260 -1177673666 -1351471611 1326660419
            602417838 1882877614 552593647 1341845359</internalNodes>
          <leafValues>
            -4.9244126677513123e-01 2.5933989882469177e-01</leafValues></_>
        <_>
          <internalNodes>
            0 -1 63 134798935 2044292059 -1380188706 1575816032
            -2018820161 -820174854 -1219500750 -1932778266</internalNodes>
          <leafValues>
            -4.3929803371429443e-01 3.0034455657005310e-01</leafValues></_>
        <_>
          <internalNodes>
            0 -1 66 517937619 -773869473 -753558027 -582458684 703545104
            2106110574 395278718 1067391213</internalNodes>
          <leafValues>
            -3.7729871273040771e-01 3.3847138285636902e-01</leafValues></_>
        <_>
          <internalNodes>
            0 -1 154 892584142 2147450655 1650969550 -331974801
            -1169504593 -9478241 2048552959 -79987881</internalNodes>
          <leafValues>
            -3.2464087009429932e-01 3.9181783795356750e-01</leafValues></_>
        <_>
          <internalNodes>
            0 -1 60 -170982383 -573493095 -1741521039 269090651
            -336091985 -1970718037 -1430260781 428064469</internalNodes>
          <leafValues>
            -3.8483685255050659e-01 3.2591584324836731e-01</leafValues></_>
        <_>
          <internalNodes>
            0 -1 100 -913195691 -48310281 -992288293 625855350
            -627493614 -907049505 -69253359 -69731847</internalNodes>
          <leafValues>
            -4.5222839713096619e-01 2.9452124238014221e-01</leafValues></_>
        <_>
          <internalNodes>
            0 -1 50 -2086407685 1839994278 -677744349 -144837439
            230618861 -1064825457 1205020659 -2049109011</internalNodes>
          <leafValues>
            -3.9406928420066833e-01 3.2417958974838257e-01</leafValues></_>
        <_>
          <internalNodes>
            0 -1 31 2147482319 1903689710 -1099235642 -201593089
            -294171061 -78161945 -161557425 -97255473</internalNodes>
          <leafValues>
            -2.8279420733451843e-01 4.6578508615493774e-01</leafValues></_>
        <_>
          <internalNodes>
            0 -1 93 -1928384729 142543198 -651916679 -1621647387
            263407524 -1962768257 -307431287 256073179</internalNodes>
          <leafValues>
            -4.2132449150085449e-01 3.0718454718589783e-01</leafValues></_>
        <_>
          <internalNodes>
            0 -1 32 -1032917321 -624891186 -532375854 -549265222
            -891959629 -1910270 -576397313 -548141329</internalNodes>
          <leafValues>
            -3.8059297204017639e-01 3.3070644736289978e-01</leafValues></_>
        <_>
          <internalNodes>
            0 -1 159 -620779378 2035669883 552726634 542570367
            -1169688818 -1283503491 -126197126 1924397334</internalNodes>
          <leafValues>
            -5.1123708486557007e-01 2.5470924377441406e-01</leafValues></_>
        <_>
          <internalNodes>
            0 -1 128 -18429716 -84404804 -1179102264 892870296
            1101687278 134431016 1409333311 1976507901</internalNodes>
          <leafValues>
            -5.9059113264083862e-01 2.0268915593624115e-01</leafValues></_>
        <_>
          <internalNodes>
            0 -1 68 -1180141063 -286330391 -1823113248 -34836000
            -1433273477 -389895297 898872768 -838906403</internalNodes>
          <leafValues>
            -3.7153661251068115e-01 3.4843820333480835e-01</leafValues></_>
        <_>
          <internalNodes>
            0 -1 109 -2079391231 -684030673 -1161899844 -256446505
            1714970572 -1341775074 -110564907 570564893</internalNodes>
          <leafValues>
            -5.5920314788818359e-01 2.2176204621791840e-01</leafValues></_>
        <_>
          <internalNodes>
            0 -1 102 -1677207833 -363965778 2066193605 2045606787
            1868820303 1794812365 922810177 -675256863</internalNodes>
          <leafValues>
            -3.7986147403717041e-01 3.4102481603622437e-01</leafValues></_>
        <_>
          <internalNodes>
            0 -1 92 226438405 -2049114301 100486440 1104487072
            -336758427 52908121 -1851852163 342289753</internalNodes>
          <leafValues>
            -5.8869773149490356e-01 2.0874868333339691e-01</leafValues></_>
        <_>
          <internalNodes>
            0 -1 97 -1552671369 -329504449 1606655407 727421822
            -341347115 -987955120 2117775249 991571900</internalNodes>
          <leafValues>
            -4.6315416693687439e-01 2.8624263405799866e-01</leafValues></_>
        <_>
          <internalNodes>
            0 -1 113 -1000713016 -526058514 872087550 -763698688
            -1029703240 139643132 -1754816576 1125351680</internalNodes>
          <leafValues>
            -6.6313499212265015e-01 1.9116550683975220e-01</leafValues></_></weakClassifiers></_></stages>
  <features>
    <_>
      <rect>
        0 5 3 3</rect></_>
    <_>
      <rect>
        0 5 4 4</rect></_>
    <_>
      <rect>
        0 6 8 6</rect></_>
    <_>
      <rect>
        1 5 3 2</rect></_>
    <_>
      <rect>
        1 5 3 3</rect></_>
    <_>
      <rect>
        1 6 4 4</rect></_>
    <_>
      <rect>
        1 11 4 3</rect></_>
    <_>
      <rect>
        1 12 5 4</rect></_>
    <_>
      <rect>
        2 1 7 5</rect></_>
    <_>
      <rect>
        2 8 7 2</rect></_>
    <_>
      <rect>
        2 11 3 3</rect></_>
    <_>
      <rect>
        2 12 2 2</rect></_>
    <_>
      <rect>
        3 2 3 3</rect></_>
    <_>
      <rect>
        3 5 1 2</rect></_>
    <_>
      <rect>
        3 5 2 2</rect></_>
    <_>
      <rect>
        3 5 2 5</rect></_>
    <_>
      <rect>
        3 7 1 1</rect></_>
    <_>
      <rect>
        3 10 1 1</rect></_>
    <_>
      <rect>
        3 11 1 1</rect></_>
    <_>
      <rect>
        3 11 3 4</rect></_>
    <_>
      <rect>
        3 12 1 1</rect></_>
    <_>
      <rect>
        3 15 2 1</rect></_>
    <_>
      <rect>
        4 3 3 1</rect></_>
    <_>
      <rect>
        4 5 2 1</rect></_>
    <_>
      <rect>
        4 6 2 3</rect></_>
    <_>
      <rect>
        4 7 1 1</rect></_>
    <_>
      <rect>
        4 7 2 2</rect></_>
    <_>
      <rect>
        4 8 1 1</rect></_>
    <_>
      <rect>
        4 9 1 1</rect></_>
    <_>
      <rect>
        4 10 1 1</rect></_>
    <_>
      <rect>
        4 10 3 3</rect></_>
    <_>
      <rect>
        4 12 1 1</rect></_>
    <_>
      <rect>
        4 13 2 1</rect></_>
    <_>
      <rect>
        4 14 1 1</rect></_>
    <_>
      <rect>
        4 15 3 2</rect></_>
    <_>
      <rect>
        5 3 2 3</rect></_>
    <_>
      <rect>
        5 4 4 3</rect></_>
    <_>
      <rect>
        5 6 1 3</rect></_>
    <_>
      <rect>
        5 7 4 2</rect></_>
    <_>
      <rect>
        5 8 1 1</rect></_>
    <_>
      <rect>
        5 9 1 1</rect></_>
    <_>
      <rect>
        5 12 2 2</rect></_>
    <_>
      <rect>
        5 13 1 1</rect></_>
    <_>
      <rect>
        5 16 2 1</rect></_>
    <_>
      <rect>
        6 4 1 1</rect></_>
    <_>
      <rect>
        6 5 2 2</rect></_>
    <_>
      <rect>
        6 5 3 4</rect></_>
    <_>
      <rect>
        6 6 1 1</rect></_>
    <_>
      <rect>
        6 7 1 1</rect></_>
    <_>
      <rect>
        6 7 2 2</rect></_>
    <_>
      <rect>
        6 8 1 1</rect></_>
    <_>
      <rect>
        6 8 4 2</rect></_>
    <_>
      <rect>
        6 12 3 3</rect></_>
    <_>
      <rect>
        6 13 1 1</rect></_>
    <_>
      <rect>
        6 15 1 1</rect></_>
    <_>
      <rect>
        7 3 1 1</rect></_>
    <_>
      <rect>
        7 8 1 1</rect></_>
    <_>
      <rect>
        7 8 2 2</rect></_>
    <_>
      <rect>
        7 10 2 2</rect></_>
    <_>
      <rect>
        7 11 1 1</rect></_>
    <_>
      <rect>
        7 12 3 1</rect></_>
    <_>
      <rect>
        7 14 1 1</rect></_>
    <_>
      <rect>
        7 15 1 1</rect></_>
    <_>
      <rect>
        8 5 1 1</rect></_>
    <_>
      <rect>
        8 6 1 1</rect></_>
    <_>
      <rect>
        8 7 2 2</rect></_>
    <_>
      <rect>
        8 7 3 1</rect></_>
    <_>
      <rect>
        8 7 3 2</rect></_>
    <_>
      <rect>
        8 8 1 1</rect></_>
    <_>
      <rect>
        8 10 2 1</rect></_>
    <_>
      <rect>
        8 12 1 1</rect></_>
    <_>
      <rect>
        9 5 1 1</rect></_>
    <_>
      <rect>
        9 5 2 4</rect></_>
    <_>
      <rect>
        9 6 1 1</rect></_>
    <_>
      <rect>
        9 7 1 1</rect></_>
    <_>
      <rect>
        9 7 1 2</rect></_>
    <_>
      <rect>
        9 8 3 2</rect></_>
    <_>
      <rect>
        9 9 2 3</rect></_>
    <_>
      <rect>
        9 10 2 3</rect></_>
    <_>
      <rect>
        9 11 1 2</rect></_>
    <_>
      <rect>
        9 13 2 1</rect></_>
    <_>
      <rect>
        9 14 2 1</rect></_>
    <_>
      <rect>
        10 0 4 6</rect></_>
    <_>
      <rect>
        10 5 1 2</rect></_>
    <_>
      <rect>
        10 6 4 4</rect></_>
    <_>
      <rect>
        10 7 1 1</rect></_>
    <_>
      <rect>
        10 7 1 3</rect></_>
    <_>
      <rect>
        10 7 2 2</rect></_>
    <_>
      <rect>
        10 8 1 3</rect></_>
    <_>
      <rect>
        10 9 1 1</rect></_>
    <_>
      <rect>
        10 10 1 1</rect></_>
    <_>
      <rect>
        10 11 1 2</rect></_>
    <_>
      <rect>
        10 13 1 1</rect></_>
    <_>
      <rect>
        10 14 2 1</rect></_>
    <_>
      <rect>
        10 15 2 1</rect></_>
    <_>
      <rect>
        11 3 2 1</rect></_>
    <_>
      <rect>
        11 3 4 4</rect></_>
    <_>
      <rect>
        11 4 2 1</rect></_>
    <_>
      <rect>
        11 5 2 1</rect></_>
    <_>
      <rect>
        11 6 1 1</rect></_>
    <_>
      <rect>
        11 6 3 4</rect></_>
    <_>
      <rect>
        11 7 1 3</rect></_>
    <_>
      <rect>
        11 8 1 1</rect></_>
    <_>
      <rect>
        11 9 1 1</rect></_>
    <_>
      <rect>
        11 9 1 2</rect></_>
    <_>
      <rect>
        11 10 4 3</rect></_>
    <_>
      <rect>
        11 11 1 2</rect></_>
    <_>
      <rect>
        11 12 1 1</rect></_>
    <_>
      <rect>
        11 12 1 2</rect></_>
    <_>
      <rect>
        11 13 2 1</rect></_>
    <_>
      <rect>
        12 5 3 4</rect></_>
    <_>
      <rect>
        12 7 1 2</rect></_>
    <_>
      <rect>
        12 8 1 1</rect></_>
    <_>
      <rect>
        12 8 1 2</rect></_>
    <_>
      <rect>
        12 10 1 1</rect></_>
    <_>
      <rect>
        12 10 1 3</rect></_>
    <_>
      <rect>
        12 11 1 2</rect></_>
    <_>
      <rect>
        12 11 3 4</rect></_>
    <_>
      <rect>
        12 12 1 1</rect></_>
    <_>
      <rect>
        12 12 4 2</rect></_>
    <_>
      <rect>
        12 13 4 2</rect></_>
    <_>
      <rect>
        12 15 1 1</rect></_>
    <_>
      <rect>
        13 1 1 4</rect></_>
    <_>
      <rect>
        13 3 1 2</rect></_>
    <_>
      <rect>
        13 6 1 1</rect></_>
    <_>
      <rect>
        13 6 2 2</rect></_>
    <_>
      <rect>
        13 8 1 2</rect></_>
    <_>
      <rect>
        13 10 1 1</rect></_>
    <_>
      <rect>
        13 11 1 2</rect></_>
    <_>
      <rect>
        13 12 2 3</rect></_>
    <_>
      <rect>
        13 13 2 1</rect></_>
    <_>
      <rect>
        13 13 2 3</rect></_>
    <_>
      <rect>
        13 14 1 1</rect></_>
    <_>
      <rect>
        13 15 1 1</rect></_>
    <_>
      <rect>
        14 3 1 3</rect></_>
    <_>
      <rect>
        14 5 1 2</rect></_>
    <_>
      <rect>
        14 7 1 1</rect></_>
    <_>
      <rect>
        14 11 1 1</rect></_>
    <_>
      <rect>
        14 13 1 2</rect></_>
    <_>
      <rect>
        14 14 2 2</rect></_>
    <_>
      <rect>
        14 15 1 1</rect></_>
    <_>
      <rect>
        15 2 3 5</rect></_>
    <_>
      <rect>
        15 5 1 1</rect></_>
    <_>
      <rect>
        15 7 1 1</rect></_>
    <_>
      <rect>
        15 8 1 3</rect></_>
    <_>
      <rect>
        15 9 1 2</rect></_>
    <_>
      <rect>
        15 10 1 1</rect></_>
    <_>
      <rect>
        15 12 1 1</rect></_>
    <_>
      <rect>
        15 14 1 1</rect></_>
    <_>
      <rect>
        16 7 1 2</rect></_>
    <_>
      <rect>
        16 10 1 1</rect></_>
    <_>
      <rect>
        16 11 1 2</rect></_>
    <_>
      <rect>
        16 12 1 2</rect></_>
    <_>
      <rect>
        16 15 1 1</rect></_>
    <_>
      <rect>
        17 6 1 2</rect></_>
    <_>
      <rect>
        17 9 1 1</rect></_>
    <_>
      <rect>
        17 11 1 1</rect></_>
    <_>
      <rect>
        17 11 1 2</rect></_>
    <_>
      <rect>
        18 6 1 1</rect></_>
    <_>
      <rect>
        18 8 1 1</rect></_>
    <_>
      <rect>
        18 11 1 1</rect></_></features></cascade>
</opencv_storage>
