<?xml version="1.0"?>
<opencv_storage>
<stage5>
  <maxWeakCount>17</maxWeakCount>
  <stageThreshold>-1.4326829910278320e+00</stageThreshold>
  <weakClassifiers>
    <_>
      <internalNodes>
        0 -1 3946 -1079312389 -860687 -8193 -34080267 -1140851713 -1537
        -1146093569 -513</internalNodes>
      <leafValues>
        -6.2206393480300903e-01 5.9373039007186890e-01</leafValues></_>
    <_>
      <internalNodes>
        0 -1 6353 -53387 -4501697 -1353306305 1073692027 -53315
        1069239293 -1140953093 2143289343</internalNodes>
      <leafValues>
        -5.0254100561141968e-01 4.5106169581413269e-01</leafValues></_>
    <_>
      <internalNodes>
        0 -1 6746 -16779913 -808534145 -134752649 -538968577 -572015213
        -838864913 -741076224 -797199600</internalNodes>
      <leafValues>
        -5.6162047386169434e-01 3.3970785140991211e-01</leafValues></_>
    <_>
      <internalNodes>
        0 -1 2486 -33554449 1961885678 -755008882 -218104210 2121793375
        1733779055 -25166002 -135004161</internalNodes>
      <leafValues>
        -4.1462552547454834e-01 4.6599993109703064e-01</leafValues></_>
    <_>
      <internalNodes>
        0 -1 5892 -727198243 -844128327 -1884293729 -37628575 -990120449
        -422580257 1976014183 -2070948413</internalNodes>
      <leafValues>
        -3.4159654378890991e-01 5.3077417612075806e-01</leafValues></_>
    <_>
      <internalNodes>
        0 -1 7033 2004874097 -276824543 318714610 1936978419 2146697096
        -569394424 -114598469 285703950</internalNodes>
      <leafValues>
        -4.9059864878654480e-01 3.4283015131950378e-01</leafValues></_>
    <_>
      <internalNodes>
        0 -1 3010 -1482424341 -271682614 1138736098 -134226302
        1623981567 1633512829 1735816660 -251660321</internalNodes>
      <leafValues>
        -4.0661901235580444e-01 4.1255554556846619e-01</leafValues></_>
    <_>
      <internalNodes>
        0 -1 4724 149312763 905452847 1053605503 1964121567 -73759006
        -69269285 -1074069509 1060249407</internalNodes>
      <leafValues>
        -5.3215134143829346e-01 3.3665210008621216e-01</leafValues></_>
    <_>
      <internalNodes>
        0 -1 6965 -267198366 -25693381 -70068806 -215352093 -398743829
        -733607077 -1901073943 1109377307</internalNodes>
      <leafValues>
        -5.4939568042755127e-01 2.8369042277336121e-01</leafValues></_>
    <_>
      <internalNodes>
        0 -1 8086 2124401759 410087007 -1665401218 855292895 -1359263670
        -2703521 -739606593 -629407913</internalNodes>
      <leafValues>
        -3.5310584306716919e-01 4.6740907430648804e-01</leafValues></_>
    <_>
      <internalNodes>
        0 -1 1775 -4881574 -143265410 -1896944726 -570436481 -150234632
        -693407182 -385900626 -83905043</internalNodes>
      <leafValues>
        -5.6730699539184570e-01 2.8898209333419800e-01</leafValues></_>
    <_>
      <internalNodes>
        0 -1 6648 -1382648121 -349290910 -83891489 -135597120
        -1363283979 -1478493314 -206247945 -135272477</internalNodes>
      <leafValues>
        -3.7165194749832153e-01 4.6225872635841370e-01</leafValues></_>
    <_>
      <internalNodes>
        0 -1 4590 -1816092933 871607534 797006026 1362822098 -544864013
        314221328 -555579254 268667611</internalNodes>
      <leafValues>
        -5.7342648506164551e-01 3.1637355685234070e-01</leafValues></_>
    <_>
      <internalNodes>
        0 -1 4989 -1459487495 -2054627759 -1348993150 -1915953818
        2043116991 -627943001 -727729184 -994131482</internalNodes>
      <leafValues>
        -4.4950851798057556e-01 3.5927602648735046e-01</leafValues></_>
    <_>
      <internalNodes>
        0 -1 7953 -35651589 229367450 -1421051408 -2061042424 1672606930
        1067320826 521097721 1609454543</internalNodes>
      <leafValues>
        -4.5306935906410217e-01 3.5838261246681213e-01</leafValues></_>
    <_>
      <internalNodes>
        0 -1 3645 -556754241 -50404098 417532636 458877151 -835286281
        -891677621 1591738331 -607216650</internalNodes>
      <leafValues>
        -4.2174813151359558e-01 3.8751059770584106e-01</leafValues></_>
    <_>
      <internalNodes>
        0 -1 6688 -25870611 -1485965498 -226565278 -496315929 41931724
        1125878751 1400706400 1473233047</internalNodes>
      <leafValues>
        -5.8302646875381470e-01 2.9499021172523499e-01</leafValues></_></weakClassifiers></stage5>
</opencv_storage>
