<?xml version="1.0"?>
<opencv_storage>
<stage9>
  <maxWeakCount>24</maxWeakCount>
  <stageThreshold>-1.4581311941146851e+00</stageThreshold>
  <weakClassifiers>
    <_>
      <internalNodes>
        0 -1 2814 -268435457 -3333 -1 -3073 1333784575 -2057 2146434047
        -1025</internalNodes>
      <leafValues>
        -5.4571509361267090e-01 5.6812524795532227e-01</leafValues></_>
    <_>
      <internalNodes>
        0 -1 5845 -992217129 -704708633 -1132554 -590479470 -18878465 -1
        -406327297 -959535200</internalNodes>
      <leafValues>
        -3.6846670508384705e-01 4.7424665093421936e-01</leafValues></_>
    <_>
      <internalNodes>
        0 -1 4100 -537135105 -4194714 -88410947 -1193732 -50921556
        -1077954625 -85661522 -67441410</internalNodes>
      <leafValues>
        -3.1890261173248291e-01 4.9066519737243652e-01</leafValues></_>
    <_>
      <internalNodes>
        0 -1 1875 -5377 827123934 -1167546241 1363213051 -537923585
        -569851826 -1350864897 -548602113</internalNodes>
      <leafValues>
        -3.8502615690231323e-01 3.7294664978981018e-01</leafValues></_>
    <_>
      <internalNodes>
        0 -1 4252 1557946111 2104172541 2121989887 1000365393 -10597689
        -8446457 -8454145 -4568293</internalNodes>
      <leafValues>
        -3.5666844248771667e-01 3.6437693238258362e-01</leafValues></_>
    <_>
      <internalNodes>
        0 -1 6300 -301633561 -959514746 -134284788 1122238179 -253624357
        1142947807 -168691902 -137627677</internalNodes>
      <leafValues>
        -3.7521949410438538e-01 3.4730815887451172e-01</leafValues></_>
    <_>
      <internalNodes>
        0 -1 6337 -67719260 -1177673666 -1351471611 1326660419 602417838
        1882877614 552593647 1341845359</internalNodes>
      <leafValues>
        -4.9244126677513123e-01 2.5933989882469177e-01</leafValues></_>
    <_>
      <internalNodes>
        0 -1 4959 134798935 2044292059 -1380188706 1575816032
        -2018820161 -820174854 -1219500750 -1932778266</internalNodes>
      <leafValues>
        -4.3929803371429443e-01 3.0034455657005310e-01</leafValues></_>
    <_>
      <internalNodes>
        0 -1 5029 517937619 -773869473 -753558027 -582458684 703545104
        2106110574 395278718 1067391213</internalNodes>
      <leafValues>
        -3.7729871273040771e-01 3.3847138285636902e-01</leafValues></_>
    <_>
      <internalNodes>
        0 -1 7903 892584142 2147450655 1650969550 -331974801 -1169504593
        -9478241 2048552959 -79987881</internalNodes>
      <leafValues>
        -3.2464087009429932e-01 3.9181783795356750e-01</leafValues></_>
    <_>
      <internalNodes>
        0 -1 4682 -170982383 -573493095 -1741521039 269090651 -336091985
        -1970718037 -1430260781 428064469</internalNodes>
      <leafValues>
        -3.8483685255050659e-01 3.2591584324836731e-01</leafValues></_>
    <_>
      <internalNodes>
        0 -1 6251 -913195691 -48310281 -992288293 625855350 -627493614
        -907049505 -69253359 -69731847</internalNodes>
      <leafValues>
        -4.5222839713096619e-01 2.9452124238014221e-01</leafValues></_>
    <_>
      <internalNodes>
        0 -1 4084 -2086407685 1839994278 -677744349 -144837439 230618861
        -1064825457 1205020659 -2049109011</internalNodes>
      <leafValues>
        -3.9406928420066833e-01 3.2417958974838257e-01</leafValues></_>
    <_>
      <internalNodes>
        0 -1 3088 2147482319 1903689710 -1099235642 -201593089
        -294171061 -78161945 -161557425 -97255473</internalNodes>
      <leafValues>
        -2.8279420733451843e-01 4.6578508615493774e-01</leafValues></_>
    <_>
      <internalNodes>
        0 -1 6015 -1928384729 142543198 -651916679 -1621647387 263407524
        -1962768257 -307431287 256073179</internalNodes>
      <leafValues>
        -4.2132449150085449e-01 3.0718454718589783e-01</leafValues></_>
    <_>
      <internalNodes>
        0 -1 3115 -1032917321 -624891186 -532375854 -549265222
        -891959629 -1910270 -576397313 -548141329</internalNodes>
      <leafValues>
        -3.8059297204017639e-01 3.3070644736289978e-01</leafValues></_>
    <_>
      <internalNodes>
        0 -1 8108 -620779378 2035669883 552726634 542570367 -1169688818
        -1283503491 -126197126 1924397334</internalNodes>
      <leafValues>
        -5.1123708486557007e-01 2.5470924377441406e-01</leafValues></_>
    <_>
      <internalNodes>
        0 -1 7007 -18429716 -84404804 -1179102264 892870296 1101687278
        134431016 1409333311 1976507901</internalNodes>
      <leafValues>
        -5.9059113264083862e-01 2.0268915593624115e-01</leafValues></_>
    <_>
      <internalNodes>
        0 -1 5044 -1180141063 -286330391 -1823113248 -34836000
        -1433273477 -389895297 898872768 -838906403</internalNodes>
      <leafValues>
        -3.7153661251068115e-01 3.4843820333480835e-01</leafValues></_>
    <_>
      <internalNodes>
        0 -1 6371 -2079391231 -684030673 -1161899844 -256446505
        1714970572 -1341775074 -110564907 570564893</internalNodes>
      <leafValues>
        -5.5920314788818359e-01 2.2176204621791840e-01</leafValues></_>
    <_>
      <internalNodes>
        0 -1 6280 -1677207833 -363965778 2066193605 2045606787
        1868820303 1794812365 922810177 -675256863</internalNodes>
      <leafValues>
        -3.7986147403717041e-01 3.4102481603622437e-01</leafValues></_>
    <_>
      <internalNodes>
        0 -1 6000 226438405 -2049114301 100486440 1104487072 -336758427
        52908121 -1851852163 342289753</internalNodes>
      <leafValues>
        -5.8869773149490356e-01 2.0874868333339691e-01</leafValues></_>
    <_>
      <internalNodes>
        0 -1 6194 -1552671369 -329504449 1606655407 727421822 -341347115
        -987955120 2117775249 991571900</internalNodes>
      <leafValues>
        -4.6315416693687439e-01 2.8624263405799866e-01</leafValues></_>
    <_>
      <internalNodes>
        0 -1 6649 -1000713016 -526058514 872087550 -763698688
        -1029703240 139643132 -1754816576 1125351680</internalNodes>
      <leafValues>
        -6.6313499212265015e-01 1.9116550683975220e-01</leafValues></_></weakClassifiers></stage9>
</opencv_storage>
