<?xml version="1.0"?>
<opencv_storage>
<stage2>
  <maxWeakCount>13</maxWeakCount>
  <stageThreshold>-1.3408164978027344e+00</stageThreshold>
  <weakClassifiers>
    <_>
      <internalNodes>
        0 -1 2353 -1 -269484310 -2057 -513 -1 -805306369 -134220801 -1</internalNodes>
      <leafValues>
        -6.1837655305862427e-01 8.0839210748672485e-01</leafValues></_>
    <_>
      <internalNodes>
        0 -1 5733 -2099375 -134217903 -524289 -524297 -9 -1073741961 -1
        -201328641</internalNodes>
      <leafValues>
        -5.3983193635940552e-01 5.9046679735183716e-01</leafValues></_>
    <_>
      <internalNodes>
        0 -1 2497 -46499969 -360581 -705013953 1060699063 406355966
        -1079328769 -67372033 -1090859345</internalNodes>
      <leafValues>
        -5.5424302816390991e-01 4.7159475088119507e-01</leafValues></_>
    <_>
      <internalNodes>
        0 -1 4018 -1884553733 -810985438 -1090520105 -671230543
        -2088785921 -806359041 1610561527 -973220619</internalNodes>
      <leafValues>
        -4.6155157685279846e-01 5.1278346776962280e-01</leafValues></_>
    <_>
      <internalNodes>
        0 -1 7282 -286263454 -425527456 -356636992 1355480042
        -1409293670 84932455 -251661103 -773851137</internalNodes>
      <leafValues>
        -5.5550026893615723e-01 3.7257286906242371e-01</leafValues></_>
    <_>
      <internalNodes>
        0 -1 7324 1060339185 -1414627920 2147295217 -180235 -1153433605
        -1154490452 260970717 -1614852875</internalNodes>
      <leafValues>
        -4.3719336390495300e-01 4.8888960480690002e-01</leafValues></_>
    <_>
      <internalNodes>
        0 -1 3989 -1322631173 -138849486 -32770 -776620044 -12615697
        -1026 -1124073474 -657465354</internalNodes>
      <leafValues>
        -4.1797506809234619e-01 5.1179349422454834e-01</leafValues></_>
    <_>
      <internalNodes>
        0 -1 3664 -553663233 -1694599334 -1361117490 1348607711
        -553761206 1935542367 -294453297 -96207537</internalNodes>
      <leafValues>
        -4.2992115020751953e-01 5.0139933824539185e-01</leafValues></_>
    <_>
      <internalNodes>
        0 -1 5894 -1247244 -559083871 -1610613334 940209800 -1083068785
        321392590 786368008 1127216870</internalNodes>
      <leafValues>
        -6.6214865446090698e-01 3.2847592234611511e-01</leafValues></_>
    <_>
      <internalNodes>
        0 -1 7152 -267698107 -637599501 -9480705 -1142197681 -751756865
        -268703125 -768126145 -211298293</internalNodes>
      <leafValues>
        -5.1919436454772949e-01 4.2772430181503296e-01</leafValues></_>
    <_>
      <internalNodes>
        0 -1 5898 -661687374 -786498 2046557918 -573774818 1095077256
        -6553606 1415016446 -181406770</internalNodes>
      <leafValues>
        -5.4896908998489380e-01 4.0262666344642639e-01</leafValues></_>
    <_>
      <internalNodes>
        0 -1 7048 1040220121 -1347194640 2008249049 -180937868 933855230
        -1080348935 -1084295427 -1626530323</internalNodes>
      <leafValues>
        -5.1365458965301514e-01 4.1697743535041809e-01</leafValues></_>
    <_>
      <internalNodes>
        0 -1 7934 -681581498 1733787510 -525344256 1082130414 1592217094
        845934917 1081850598 1919156094</internalNodes>
      <leafValues>
        -7.4358010292053223e-01 2.9603701829910278e-01</leafValues></_></weakClassifiers></stage2>
</opencv_storage>
