<?xml version="1.0"?>
<opencv_storage>
<stage1>
  <maxWeakCount>11</maxWeakCount>
  <stageThreshold>-1.4673089981079102e+00</stageThreshold>
  <weakClassifiers>
    <_>
      <internalNodes>
        0 -1 2145 -1964310529 -532489 -532513 -1025 -357892609 -17
        -805765121 -536870913</internalNodes>
      <leafValues>
        -7.4759495258331299e-01 6.4934355020523071e-01</leafValues></_>
    <_>
      <internalNodes>
        0 -1 5889 -136315051 -136578053 -69211649 -8519681 -19694
        -218893325 -75499741 -67108869</internalNodes>
      <leafValues>
        -6.2320673465728760e-01 6.3272714614868164e-01</leafValues></_>
    <_>
      <internalNodes>
        0 -1 1852 -126162177 2138766335 -496850185 -1140785411
        1316736767 -880906241 -109838339 -26543361</internalNodes>
      <leafValues>
        -5.7917046546936035e-01 5.1774722337722778e-01</leafValues></_>
    <_>
      <internalNodes>
        0 -1 3414 -353977416 -1073873929 -857294596 -146998660 -2097153
        2143158270 -318917428 -66340</internalNodes>
      <leafValues>
        -6.8119305372238159e-01 3.9517796039581299e-01</leafValues></_>
    <_>
      <internalNodes>
        0 -1 2458 -1048593 648544238 1946119714 -620765202 1978629503
        1962407543 -8390828 -134217729</internalNodes>
      <leafValues>
        -5.0160628557205200e-01 5.8113664388656616e-01</leafValues></_>
    <_>
      <internalNodes>
        0 -1 7423 -8954029 -416065739 -34380497 1198422615 1408203891
        -67693005 -67733773 -956894089</internalNodes>
      <leafValues>
        -5.4595595598220825e-01 4.6798595786094666e-01</leafValues></_>
    <_>
      <internalNodes>
        0 -1 7769 -273695238 -1115620240 -7375440 -138980356 1017132528
        117471800 455688700 1597763071</internalNodes>
      <leafValues>
        -6.3503462076187134e-01 3.6462795734405518e-01</leafValues></_>
    <_>
      <internalNodes>
        0 -1 3155 -1099271365 -5077417 -572853379 976915817 -1694507023
        -345877 -327681 -1893704070</internalNodes>
      <leafValues>
        -5.7582843303680420e-01 4.3716621398925781e-01</leafValues></_>
    <_>
      <internalNodes>
        0 -1 3562 -22876181 749525410 1951912866 -68160543 176939007
        -969978037 1469797747 -576883985</internalNodes>
      <leafValues>
        -5.3065687417984009e-01 4.5353305339813232e-01</leafValues></_>
    <_>
      <internalNodes>
        0 -1 5428 -780797478 1608490730 -1109000705 -121652822
        -1611012166 -1057510 520847530 1428662826</internalNodes>
      <leafValues>
        -5.4767429828643799e-01 4.4219526648521423e-01</leafValues></_>
    <_>
      <internalNodes>
        0 -1 375 -1879066378 -1178225829 -234385218 -83887361 1964631913
        1942886841 -69731350 1996225518</internalNodes>
      <leafValues>
        -6.6102802753448486e-01 3.7770119309425354e-01</leafValues></_></weakClassifiers></stage1>
</opencv_storage>
