<?xml version="1.0"?>
<opencv_storage>
<stage4>
  <maxWeakCount>16</maxWeakCount>
  <stageThreshold>-1.3894480466842651e+00</stageThreshold>
  <weakClassifiers>
    <_>
      <internalNodes>
        0 -1 4434 -1074003969 -1027 -6291457 -515 -1073741825 -1
        -1073741825 -8707</internalNodes>
      <leafValues>
        -5.9595096111297607e-01 7.0954954624176025e-01</leafValues></_>
    <_>
      <internalNodes>
        0 -1 2956 -743703558 -538707222 9958064 1970500466 -1181697
        -556804993 -134892033 2004318199</internalNodes>
      <leafValues>
        -5.9092462062835693e-01 4.2889872193336487e-01</leafValues></_>
    <_>
      <internalNodes>
        0 -1 4202 -2064733186 1608507391 1509602815 -603982337
        -908271617 -537992997 2145893375 -1115254</internalNodes>
      <leafValues>
        -5.3581774234771729e-01 3.9552524685859680e-01</leafValues></_>
    <_>
      <internalNodes>
        0 -1 7777 -543424514 -1214600504 2098189776 -37792260 530759163
        505454072 456201725 2136933887</internalNodes>
      <leafValues>
        -5.4646283388137817e-01 3.5469490289688110e-01</leafValues></_>
    <_>
      <internalNodes>
        0 -1 6184 -303275 1937484573 -873202689 -1023678481 -340822251
        -357045310 -874513697 -251723905</internalNodes>
      <leafValues>
        -5.3188544511795044e-01 3.6359196901321411e-01</leafValues></_>
    <_>
      <internalNodes>
        0 -1 2587 -83892481 -69345634 -620953859 -212632065 -537473025
        -615578036 -33559041 -15732773</internalNodes>
      <leafValues>
        -3.2961133122444153e-01 6.2802505493164062e-01</leafValues></_>
    <_>
      <internalNodes>
        0 -1 5969 -381132 -1074120613 -1981862519 -297823192 1943759597
        628753101 1723312655 1826614751</internalNodes>
      <leafValues>
        -5.2716666460037231e-01 3.7288925051689148e-01</leafValues></_>
    <_>
      <internalNodes>
        0 -1 1245 1937396735 -229892 -1638019139 1060271958 1911896959
        -6303809 1465907683 1055925294</internalNodes>
      <leafValues>
        -5.8800655603408813e-01 2.9166516661643982e-01</leafValues></_>
    <_>
      <internalNodes>
        0 -1 7225 -159825779 2002220919 -889197313 1138204031 -17781748
        2004602799 -891749381 -1290170907</internalNodes>
      <leafValues>
        -4.6129387617111206e-01 3.6459267139434814e-01</leafValues></_>
    <_>
      <internalNodes>
        0 -1 5952 -121635345 -731185394 -201606456 1451933668
        -1627681201 268852495 829635076 -492044573</internalNodes>
      <leafValues>
        -4.2354223132133484e-01 4.2851424217224121e-01</leafValues></_>
    <_>
      <internalNodes>
        0 -1 5449 -1659259981 2039217889 -1626611819 -43649599
        -405282817 2147219347 110614353 -997289792</internalNodes>
      <leafValues>
        -4.3872073292732239e-01 4.0111306309700012e-01</leafValues></_>
    <_>
      <internalNodes>
        0 -1 4216 1559911551 -672113297 -1896718614 481432442 -757150644
        -217888033 -1231934713 1936863615</internalNodes>
      <leafValues>
        -5.8258742094039917e-01 3.1224119663238525e-01</leafValues></_>
    <_>
      <internalNodes>
        0 -1 5932 -54304801 -791775451 -67108984 832814851 -1212743729
        -530908203 -142216124 -1058277977</internalNodes>
      <leafValues>
        -4.0016978979110718e-01 4.3817967176437378e-01</leafValues></_>
    <_>
      <internalNodes>
        0 -1 6760 1041247093 -1079477256 1001667573 1065170941
        1056971165 957035450 778386431 775816605</internalNodes>
      <leafValues>
        -6.4381593465805054e-01 3.0065369606018066e-01</leafValues></_>
    <_>
      <internalNodes>
        0 -1 7570 1062207459 797861771 -87205216 -103884566 390061448
        84881467 354632160 1437594055</internalNodes>
      <leafValues>
        -6.3502663373947144e-01 2.5181213021278381e-01</leafValues></_>
    <_>
      <internalNodes>
        0 -1 6218 -604827311 -1635795250 -1684144675 1039922239
        -22750592 -5563671 1080047776 1034084281</internalNodes>
      <leafValues>
        -4.9025648832321167e-01 3.6171412467956543e-01</leafValues></_></weakClassifiers></stage4>
</opencv_storage>
