<?xml version="1.0"?>
<opencv_storage>
<stage0>
  <maxWeakCount>5</maxWeakCount>
  <stageThreshold>-1.2669844627380371e+00</stageThreshold>
  <weakClassifiers>
    <_>
      <internalNodes>
        0 -1 967 -3014661 -2625029 -576455205 -4196385 -113180686
        -81532437 -77332481 -1025</internalNodes>
      <leafValues>
        -9.4511413574218750e-01 7.9835194349288940e-01</leafValues></_>
    <_>
      <internalNodes>
        0 -1 6602 -33555233 -656551716 -779759143 -574237219 -335807489
        -88103267 -891298339 -538968097</internalNodes>
      <leafValues>
        -8.5068511962890625e-01 7.6815295219421387e-01</leafValues></_>
    <_>
      <internalNodes>
        0 -1 2178 -1490026573 -284762150 -8390665 -1049104 -13377
        -278134789 -1207992331 -11</internalNodes>
      <leafValues>
        -7.9888159036636353e-01 7.2712814807891846e-01</leafValues></_>
    <_>
      <internalNodes>
        0 -1 2296 -210699010 -6881860 -4746273 -2623210 -1855923970
        -3286825 -73401345 -524289</internalNodes>
      <leafValues>
        -9.0030682086944580e-01 6.1310499906539917e-01</leafValues></_>
    <_>
      <internalNodes>
        0 -1 7303 -268435457 -268445702 -135006479 -100796963 -340799505
        -846464273 -169083695 -842008355</internalNodes>
      <leafValues>
        -8.0348384380340576e-01 7.1459138393402100e-01</leafValues></_></weakClassifiers></stage0>
</opencv_storage>
