<?xml version="1.0"?>
<opencv_storage>
<stage7>
  <maxWeakCount>8</maxWeakCount>
  <stageThreshold>-1.9502470493316650e+00</stageThreshold>
  <weakClassifiers>
    <_>
      <internalNodes>
        0 -1 5391 -705693789 -2098213 -36710945 -134231569 -1049665
        -40241013 -71306513 -33</internalNodes>
      <leafValues>
        -7.3285716772079468e-01 5.9023839235305786e-01</leafValues></_>
    <_>
      <internalNodes>
        0 -1 7615 -1074003973 -1356070918 -10527755 -37749819 -1
        -89129042 2143288309 2147483645</internalNodes>
      <leafValues>
        -7.5109672546386719e-01 4.6587231755256653e-01</leafValues></_>
    <_>
      <internalNodes>
        0 -1 7715 -2 -109840184 -1986536052 295959996 -549749278
        -100675189 -657470005 -572522497</internalNodes>
      <leafValues>
        -7.0232158899307251e-01 4.9248999357223511e-01</leafValues></_>
    <_>
      <internalNodes>
        0 -1 1720 -774833157 -539101217 1001033611 1570618251 301677051
        -205890 2147449755 1595932423</internalNodes>
      <leafValues>
        -7.4007773399353027e-01 4.6863871812820435e-01</leafValues></_>
    <_>
      <internalNodes>
        0 -1 1744 -410322194 -1561933078 -251663658 -226821562 803733503
        -455095425 1996448497 -134742245</internalNodes>
      <leafValues>
        -7.6943308115005493e-01 4.3558737635612488e-01</leafValues></_>
    <_>
      <internalNodes>
        0 -1 5510 -716767254 -674238142 -487611666 -1383101937 -78667825
        -5554102 -138682449 -336793361</internalNodes>
      <leafValues>
        -6.5303713083267212e-01 4.8403671383857727e-01</leafValues></_>
    <_>
      <internalNodes>
        0 -1 5209 1003323383 -50361345 -1123812385 -1060897 -1310733
        2023291819 -33555619 1241508349</internalNodes>
      <leafValues>
        -6.5857821702957153e-01 4.9582949280738831e-01</leafValues></_>
    <_>
      <internalNodes>
        0 -1 2365 1532461047 -536900625 -389585453 -34088707 156170863
        -200982 -1384674739 -4916240</internalNodes>
      <leafValues>
        -6.2906509637832642e-01 5.2784091234207153e-01</leafValues></_></weakClassifiers></stage7>
</opencv_storage>
