<?xml version="1.0"?>
<opencv_storage>
<stage4>
  <maxWeakCount>7</maxWeakCount>
  <stageThreshold>-1.3545041084289551e+00</stageThreshold>
  <weakClassifiers>
    <_>
      <internalNodes>
        0 -1 4931 -135792889 -113 -12385 -69209137 -1009778721 -70521973
        -269488129 -17</internalNodes>
      <leafValues>
        -7.4450355768203735e-01 7.1846437454223633e-01</leafValues></_>
    <_>
      <internalNodes>
        0 -1 7345 -1077936129 -1078198343 -4595717 -536881419 -267265
        -2321 -265223 2147483645</internalNodes>
      <leafValues>
        -7.3938590288162231e-01 6.1244481801986694e-01</leafValues></_>
    <_>
      <internalNodes>
        0 -1 3547 -1180148231 -109453345 -100794369 -519176724
        -269680898 -823148801 9231099 -1997871894</internalNodes>
      <leafValues>
        -7.0866781473159790e-01 6.3156425952911377e-01</leafValues></_>
    <_>
      <internalNodes>
        0 -1 7712 -16789765 2147483647 -1160004814 318241723 -573579506
        -541081861 -1025 2130706431</internalNodes>
      <leafValues>
        -7.7019441127777100e-01 5.3791487216949463e-01</leafValues></_>
    <_>
      <internalNodes>
        0 -1 1625 -1153433677 -540082270 -39181 -18876560 805289983
        -840959377 1275033079 -2144523</internalNodes>
      <leafValues>
        -7.2215533256530762e-01 5.5857771635055542e-01</leafValues></_>
    <_>
      <internalNodes>
        0 -1 2430 -100664422 -67633298 1469833650 -13 -538971654
        -69149740 -67145989 -557193</internalNodes>
      <leafValues>
        -7.3331308364868164e-01 5.6268006563186646e-01</leafValues></_>
    <_>
      <internalNodes>
        0 -1 1319 -1049074 -673190193 -791513858 -287115029 -1076102652
        -2139557 -1049089 -1265</internalNodes>
      <leafValues>
        -7.9975008964538574e-01 4.7487369179725647e-01</leafValues></_></weakClassifiers></stage4>
</opencv_storage>
