<?xml version="1.0"?>
<opencv_storage>
<stage2>
  <maxWeakCount>7</maxWeakCount>
  <stageThreshold>-1.1032676696777344e+00</stageThreshold>
  <weakClassifiers>
    <_>
      <internalNodes>
        0 -1 3984 -227280937 -201326977 -236978689 -203423777 -227018765
        -274705 -134221829 -1</internalNodes>
      <leafValues>
        -7.9400569200515747e-01 7.3947668075561523e-01</leafValues></_>
    <_>
      <internalNodes>
        0 -1 1676 -262214 -79956193 -76810342 -13371393 -19861334
        -9224457 -135047941 -3073</internalNodes>
      <leafValues>
        -8.2545393705368042e-01 5.5098223686218262e-01</leafValues></_>
    <_>
      <internalNodes>
        0 -1 7433 -553693953 -1 -1090524418 -16778497 -25166258
        -17825797 -257 -16777217</internalNodes>
      <leafValues>
        -6.6468983888626099e-01 7.1954154968261719e-01</leafValues></_>
    <_>
      <internalNodes>
        0 -1 5654 -1073742023 799779747 -4194315 -513 -69206017
        -1086324809 -2097217 790626223</internalNodes>
      <leafValues>
        -8.2370746135711670e-01 5.6703966856002808e-01</leafValues></_>
    <_>
      <internalNodes>
        0 -1 6329 -5541889 -7800836 -1516240908 -538051632 -1078218757
        -7606363 -301990435 -1651509761</internalNodes>
      <leafValues>
        -6.9468849897384644e-01 6.5066778659820557e-01</leafValues></_>
    <_>
      <internalNodes>
        0 -1 334 -319815681 -273678421 -1023450890 -33624085 1870593979
        -129 2113881589 -1</internalNodes>
      <leafValues>
        -6.3233274221420288e-01 7.2830373048782349e-01</leafValues></_>
    <_>
      <internalNodes>
        0 -1 4743 2011139901 930569179 -580387873 467137023 -32769
        -4457537 2077196279 1073673205</internalNodes>
      <leafValues>
        -7.2105145454406738e-01 6.0981810092926025e-01</leafValues></_></weakClassifiers></stage2>
</opencv_storage>
