<?xml version="1.0"?>
<opencv_storage>
<stage5>
  <maxWeakCount>7</maxWeakCount>
  <stageThreshold>-1.3811165094375610e+00</stageThreshold>
  <weakClassifiers>
    <_>
      <internalNodes>
        0 -1 4654 -3089 -806363153 -824189202 -251658241 -67109121
        1338768383 -171966465 -201326593</internalNodes>
      <leafValues>
        -7.8887230157852173e-01 5.8780992031097412e-01</leafValues></_>
    <_>
      <internalNodes>
        0 -1 6242 536813567 1608499199 -33 -262149 -1 -269493505
        -2359297 2147483583</internalNodes>
      <leafValues>
        -7.8089356422424316e-01 5.1420265436172485e-01</leafValues></_>
    <_>
      <internalNodes>
        0 -1 2242 -134873103 2147352447 2130616319 -2099090 1932817915
        -801 2138963966 -1025</internalNodes>
      <leafValues>
        -7.8204774856567383e-01 4.7643345594406128e-01</leafValues></_>
    <_>
      <internalNodes>
        0 -1 7611 -17 -1880363025 -543948813 -35089 -71566625 -541070169
        -262285 1610612055</internalNodes>
      <leafValues>
        -7.3873668909072876e-01 5.3066051006317139e-01</leafValues></_>
    <_>
      <internalNodes>
        0 -1 619 -421859633 -30033 -87100161 -20126929 -244042673
        -541602545 -168301825 -11010221</internalNodes>
      <leafValues>
        -6.8418115377426147e-01 5.9770601987838745e-01</leafValues></_>
    <_>
      <internalNodes>
        0 -1 3006 -100798209 -11503749 -522388490 -167444913 -486540549
        -97847314 -1297416274 -98304018</internalNodes>
      <leafValues>
        -6.1049431562423706e-01 6.3334017992019653e-01</leafValues></_>
    <_>
      <internalNodes>
        0 -1 3731 -269726252 -544735841 -682631201 -71388245 -1092043332
        -1069 -339022871 -289472645</internalNodes>
      <leafValues>
        -7.6819980144500732e-01 4.9087756872177124e-01</leafValues></_></weakClassifiers></stage5>
</opencv_storage>
