<?xml version="1.0"?>
<opencv_storage>
<stage6>
  <maxWeakCount>7</maxWeakCount>
  <stageThreshold>-1.3165711164474487e+00</stageThreshold>
  <weakClassifiers>
    <_>
      <internalNodes>
        0 -1 5100 -176162817 -536886305 -821046529 -536872961 -539492385
        -197194 -132609 -131073</internalNodes>
      <leafValues>
        -7.7106976509094238e-01 6.3426691293716431e-01</leafValues></_>
    <_>
      <internalNodes>
        0 -1 1541 -1048653 -540483586 -78643214 -514 -2097153 -84026433
        -279593481 -1025</internalNodes>
      <leafValues>
        -7.3467248678207397e-01 5.7469409704208374e-01</leafValues></_>
    <_>
      <internalNodes>
        0 -1 7282 -1048598 -269484049 -1033931032 -1426194434 -140512286
        1903426515 -202377731 -771751937</internalNodes>
      <leafValues>
        -6.8794512748718262e-01 5.3753244876861572e-01</leafValues></_>
    <_>
      <internalNodes>
        0 -1 7246 1313808382 1610352127 -11010098 -1107951622 174062591
        1112210758 -19922947 -168299009</internalNodes>
      <leafValues>
        -7.3915088176727295e-01 5.0006240606307983e-01</leafValues></_>
    <_>
      <internalNodes>
        0 -1 8036 -630273977 -67180449 -1016405257 -134219321 -221519138
        -70520434 -217916213 -1305804881</internalNodes>
      <leafValues>
        -6.7130392789840698e-01 5.3233259916305542e-01</leafValues></_>
    <_>
      <internalNodes>
        0 -1 3478 -1162732292 -1109402659 -55052289 491421143 -269484033
        -1715738117 -1575489 265281487</internalNodes>
      <leafValues>
        -7.6434326171875000e-01 4.7788280248641968e-01</leafValues></_>
    <_>
      <internalNodes>
        0 -1 4961 -990906617 -3180673 -3145857 -2174001 -1859403889
        -475036685 -1285050383 -135285825</internalNodes>
      <leafValues>
        -6.0706841945648193e-01 6.0906451940536499e-01</leafValues></_></weakClassifiers></stage6>
</opencv_storage>
