<?xml version="1.0"?>
<opencv_storage>
<stage1>
  <maxWeakCount>5</maxWeakCount>
  <stageThreshold>-1.1432781219482422e+00</stageThreshold>
  <weakClassifiers>
    <_>
      <internalNodes>
        0 -1 2440 -524289 -1065 -100671489 -540685 -338698753 -10628097
        -67240449 -655361</internalNodes>
      <leafValues>
        -8.5329711437225342e-01 7.4072140455245972e-01</leafValues></_>
    <_>
      <internalNodes>
        0 -1 1553 -540803073 -2373 -101452525 -11945 -553563869 -4201521
        -11277485 -513</internalNodes>
      <leafValues>
        -7.7447056770324707e-01 7.6034021377563477e-01</leafValues></_>
    <_>
      <internalNodes>
        0 -1 5376 -97 1040184831 -1111572545 1019206655 -1157629697
        -16777217 1019199487 956301311</internalNodes>
      <leafValues>
        -8.5492831468582153e-01 6.1608755588531494e-01</leafValues></_>
    <_>
      <internalNodes>
        0 -1 197 -268435533 -274794570 2147352562 -18594 -269484033
        -33554433 -2131977 -2097225</internalNodes>
      <leafValues>
        -7.5998532772064209e-01 6.2788927555084229e-01</leafValues></_>
    <_>
      <internalNodes>
        0 -1 1977 -67113233 -4194321 -155469089 -50401297 -71304372 -1
        -21299458 -16777345</internalNodes>
      <leafValues>
        -6.9937735795974731e-01 7.1152853965759277e-01</leafValues></_></weakClassifiers></stage1>
</opencv_storage>
