<?xml version="1.0"?>
<opencv_storage>
<stage3>
  <maxWeakCount>7</maxWeakCount>
  <stageThreshold>-1.4736195802688599e+00</stageThreshold>
  <weakClassifiers>
    <_>
      <internalNodes>
        0 -1 2851 2010644479 -134232097 -1049154 -3147521 1903557630
        -158085153 -135266370 -1</internalNodes>
      <leafValues>
        -8.3013558387756348e-01 5.8792012929916382e-01</leafValues></_>
    <_>
      <internalNodes>
        0 -1 4177 -335905 -118424577 -17778733 -50798753 -637534209
        -33554465 -790529 -117916418</internalNodes>
      <leafValues>
        -8.4744524955749512e-01 4.9426698684692383e-01</leafValues></_>
    <_>
      <internalNodes>
        0 -1 1351 -537465137 -655873 -2162689 -4261380 -5288628
        -88343573 -65537 -16781314</internalNodes>
      <leafValues>
        -7.1588230133056641e-01 5.7984155416488647e-01</leafValues></_>
    <_>
      <internalNodes>
        0 -1 7223 -769 -823727036 -671361793 -637809585 -1075843073
        -1078203393 261488146 526384127</internalNodes>
      <leafValues>
        -7.5438588857650757e-01 5.7426440715789795e-01</leafValues></_>
    <_>
      <internalNodes>
        0 -1 4971 938442751 1071610711 -40641057 1040138189 -95846657
        -1074026309 -295682 519823355</internalNodes>
      <leafValues>
        -7.4423295259475708e-01 5.7492482662200928e-01</leafValues></_>
    <_>
      <internalNodes>
        0 -1 7004 -67634182 -1087472322 -674259969 -69206243 -1233129862
        -1356678999 -1612727878 -640680481</internalNodes>
      <leafValues>
        -7.3119896650314331e-01 5.6534695625305176e-01</leafValues></_>
    <_>
      <internalNodes>
        0 -1 7546 -1049618 -268436514 -420544824 -218107922 939520835
        1897920967 -201590795 -167772185</internalNodes>
      <leafValues>
        -7.6083844900131226e-01 5.2446514368057251e-01</leafValues></_></weakClassifiers></stage3>
</opencv_storage>
