<?xml version="1.0"?>
<opencv_storage>
<cascade>
  <stageType>BOOST</stageType>
  <featureType>LBP</featureType>
  <height>24</height>
  <width>24</width>
  <stageParams>
    <boostType>GAB</boostType>
    <minHitRate>9.9900001287460327e-01</minHitRate>
    <maxFalseAlarm>2.0000000298023224e-01</maxFalseAlarm>
    <weightTrimRate>9.4999999999999996e-01</weightTrimRate>
    <maxDepth>1</maxDepth>
    <maxWeakCount>100</maxWeakCount></stageParams>
  <featureParams>
    <maxCatCount>256</maxCatCount>
    <featSize>1</featSize></featureParams>
  <stageNum>10</stageNum>
  <stages>
    <!-- stage 0 -->
    <_>
      <maxWeakCount>6</maxWeakCount>
      <stageThreshold>-8.7885278463363647e-01</stageThreshold>
      <weakClassifiers>
        <_>
          <internalNodes>
            0 -1 61 -34014724 -606382628 -648023585 -304775 -1432687105
            -21239345 -207889153 -4465153</internalNodes>
          <leafValues>
            -8.6857622861862183e-01 5.0111192464828491e-01</leafValues></_>
        <_>
          <internalNodes>
            0 -1 64 -1078436355 -36355 -68157441 -2179 -1076958209
            -1065985 534708223 -4663363</internalNodes>
          <leafValues>
            -7.6937544345855713e-01 5.2681612968444824e-01</leafValues></_>
        <_>
          <internalNodes>
            0 -1 36 -67438086 -8400653 -143468801 -143404933 -16057862
            -69385986 -339481601 1897124171</internalNodes>
          <leafValues>
            -7.7097839117050171e-01 5.0945532321929932e-01</leafValues></_>
        <_>
          <internalNodes>
            0 -1 68 -38020872 -669477864 -115666919 423230769 -628498437
            -606102849 -1682035781 960495039</internalNodes>
          <leafValues>
            -8.0704909563064575e-01 4.7126865386962891e-01</leafValues></_>
        <_>
          <internalNodes>
            0 -1 73 -76609 -54727393 891130005 1049189183 1009687178
            -1089823857 -1464948050 -1464149057</internalNodes>
          <leafValues>
            -6.4936393499374390e-01 5.6868326663970947e-01</leafValues></_>
        <_>
          <internalNodes>
            0 -1 21 -85264134 -69217399 386061691 1444114737 -1946113286
            -72679032 -888931333 1594847705</internalNodes>
          <leafValues>
            -7.7660781145095825e-01 4.8800942301750183e-01</leafValues></_></weakClassifiers></_>
    <!-- stage 1 -->
    <_>
      <maxWeakCount>8</maxWeakCount>
      <stageThreshold>-1.8808286190032959e+00</stageThreshold>
      <weakClassifiers>
        <_>
          <internalNodes>
            0 -1 100 -321 -3105 -1298153538 985656255 -83886530
            -75498561 -93339730 -352321601</internalNodes>
          <leafValues>
            -6.8493801355361938e-01 5.4920017719268799e-01</leafValues></_>
        <_>
          <internalNodes>
            0 -1 33 -10289154 -148636321 -1485077761 -10752809
            1275236095 -561 1180910847 -8436233</internalNodes>
          <leafValues>
            -7.0073264837265015e-01 4.7606194019317627e-01</leafValues></_>
        <_>
          <internalNodes>
            0 -1 37 -18875153 -1137873 -186909697 -10294014 1481919580
            -6864049 -51153409 2134068995</internalNodes>
          <leafValues>
            -7.1040624380111694e-01 4.6283751726150513e-01</leafValues></_>
        <_>
          <internalNodes>
            0 -1 94 1027039231 -786435 1946153983 -4325379 -168952833
            -16926053 -33620225 2147286893</internalNodes>
          <leafValues>
            -6.9929718971252441e-01 4.8670503497123718e-01</leafValues></_>
        <_>
          <internalNodes>
            0 -1 80 -168821508 -652478440 -782501379 492026869
            -874512690 -1380205861 -1930454848 -1999637333</internalNodes>
          <leafValues>
            -7.1213495731353760e-01 4.6638771891593933e-01</leafValues></_>
        <_>
          <internalNodes>
            0 -1 81 299204095 -5899585 -143133697 -165451 1577053691
            -605046373 -587202561 1409081340</internalNodes>
          <leafValues>
            -7.5089204311370850e-01 3.7830644845962524e-01</leafValues></_>
        <_>
          <internalNodes>
            0 -1 107 -16801993 924793607 -1238371154 820968127
            -1049635001 1409258879 -571 -590349353</internalNodes>
          <leafValues>
            -6.0358762741088867e-01 5.4634726047515869e-01</leafValues></_>
        <_>
          <internalNodes>
            0 -1 22 -1497436161 -339804314 -1073763370 -83886100
            1342131935 -838893577 -402694302 -404750409</internalNodes>
          <leafValues>
            -5.3329962491989136e-01 6.0571587085723877e-01</leafValues></_></weakClassifiers></_>
    <!-- stage 2 -->
    <_>
      <maxWeakCount>8</maxWeakCount>
      <stageThreshold>-1.6933909654617310e+00</stageThreshold>
      <weakClassifiers>
        <_>
          <internalNodes>
            0 -1 19 -16781777 -1153 -17367873 -16777217 -8945 -8655042
            -1 -1</internalNodes>
          <leafValues>
            -6.5545833110809326e-01 5.7642149925231934e-01</leafValues></_>
        <_>
          <internalNodes>
            0 -1 82 1026654207 -143261721 -868745217 -67767363
            -572129281 -67111937 -16973825 2080178141</internalNodes>
          <leafValues>
            -7.3464274406433105e-01 4.4297662377357483e-01</leafValues></_>
        <_>
          <internalNodes>
            0 -1 0 -5510150 -340844302 -1171574785 -579854 -1 -375404545
            -539004161 -35339</internalNodes>
          <leafValues>
            -5.8895248174667358e-01 5.5294638872146606e-01</leafValues></_>
        <_>
          <internalNodes>
            0 -1 106 -457 892859711 -56693702 851377950 -104112317
            -168558601 -16860170 -83886209</internalNodes>
          <leafValues>
            -5.7058554887771606e-01 5.3829085826873779e-01</leafValues></_>
        <_>
          <internalNodes>
            0 -1 74 364731903 -4597771 1303898103 2002649053 -571146753
            1056832991 -1266680833 1427948540</internalNodes>
          <leafValues>
            -7.3797869682312012e-01 4.2715203762054443e-01</leafValues></_>
        <_>
          <internalNodes>
            0 -1 47 -38019652 -639672867 -642540291 -167772225
            1057745407 1069264887 -1075578375 2046296031</internalNodes>
          <leafValues>
            -7.4320298433303833e-01 3.8111966848373413e-01</leafValues></_>
        <_>
          <internalNodes>
            0 -1 24 -286331025 -961609817 -21241220 -19464276 1207930815
            -172500257 -672582210 -655516</internalNodes>
          <leafValues>
            -5.9346771240234375e-01 5.2672445774078369e-01</leafValues></_>
        <_>
          <internalNodes>
            0 -1 97 -272891990 -1347686488 -150527 -68558891 -571605537
            -1078198401 -2013317245 -1074267137</internalNodes>
          <leafValues>
            -5.3617525100708008e-01 5.9136235713958740e-01</leafValues></_></weakClassifiers></_>
    <!-- stage 3 -->
    <_>
      <maxWeakCount>10</maxWeakCount>
      <stageThreshold>-1.9163621664047241e+00</stageThreshold>
      <weakClassifiers>
        <_>
          <internalNodes>
            0 -1 89 -2105889 -8321 -152569124 -50724897 -19923380
            -4471873 -16777474 -16777217</internalNodes>
          <leafValues>
            -6.4261984825134277e-01 4.7286063432693481e-01</leafValues></_>
        <_>
          <internalNodes>
            0 -1 23 -290526225 -288424529 -65565442 -66066 1125068799
            -61083253 1929331446 -33</internalNodes>
          <leafValues>
            -5.6776189804077148e-01 4.9309039115905762e-01</leafValues></_>
        <_>
          <internalNodes>
            0 -1 70 523263485 -411082757 2145910771 -212078337
            -1612718465 -72774161 201326559 1527977981</internalNodes>
          <leafValues>
            -6.6282314062118530e-01 4.3718421459197998e-01</leafValues></_>
        <_>
          <internalNodes>
            0 -1 38 1332202957 -2364926 -1750361857 -53750 1214401728
            -124908010 -3473409 1562070367</internalNodes>
          <leafValues>
            -6.9573396444320679e-01 3.7559521198272705e-01</leafValues></_>
        <_>
          <internalNodes>
            0 -1 91 -572541568 291443997 -826385613 993785147 -818952715
            -1413494359 -922759699 -1933837313</internalNodes>
          <leafValues>
            -6.6937857866287231e-01 3.9454439282417297e-01</leafValues></_>
        <_>
          <internalNodes>
            0 -1 2 1931211760 -71683496 -1220642818 992805888 2075000831
            -1476109 2139716607 2147439969</internalNodes>
          <leafValues>
            -7.1028316020965576e-01 3.4671619534492493e-01</leafValues></_>
        <_>
          <internalNodes>
            0 -1 27 -4369 -439360049 -52630454 -29166546 1944013391
            -378311315 -796393877 -9175197</internalNodes>
          <leafValues>
            -5.5502778291702271e-01 4.4737863540649414e-01</leafValues></_>
        <_>
          <internalNodes>
            0 -1 115 -1146553543 -1154155680 -662444009 -275252847
            2079520562 -7409435 -1146735120 -1364205815</internalNodes>
          <leafValues>
            -5.7255357503890991e-01 4.3621522188186646e-01</leafValues></_>
        <_>
          <internalNodes>
            0 -1 40 -960041234 -847776257 -1063331858 1003315918
            1543522555 -270104399 -21628305 -17045908</internalNodes>
          <leafValues>
            -5.2425080537796021e-01 4.6947428584098816e-01</leafValues></_>
        <_>
          <internalNodes>
            0 -1 84 -1078231553 -73665057 1574852189 1600126843
            1807481855 2141712303 251591555 1335810173</internalNodes>
          <leafValues>
            -5.9771132469177246e-01 4.4275668263435364e-01</leafValues></_></weakClassifiers></_>
    <!-- stage 4 -->
    <_>
      <maxWeakCount>12</maxWeakCount>
      <stageThreshold>-1.3320446014404297e+00</stageThreshold>
      <weakClassifiers>
        <_>
          <internalNodes>
            0 -1 66 -612574017 -44051497 -176564801 -577243313
            -1571243073 -1140861993 -1142054977 -1073741825</internalNodes>
          <leafValues>
            -6.2056821584701538e-01 4.5100000500679016e-01</leafValues></_>
        <_>
          <internalNodes>
            0 -1 43 -293714876 -86019585 -21624353 -1157755665 -84129604
            -51875857 -117802529 -352420097</internalNodes>
          <leafValues>
            -7.0409429073333740e-01 3.2978233695030212e-01</leafValues></_>
        <_>
          <internalNodes>
            0 -1 1 -821366794 260104178 2140694422 -136071518 -940056645
            -6558986 -1074672641 -537409673</internalNodes>
          <leafValues>
            -5.3957563638687134e-01 4.2770031094551086e-01</leafValues></_>
        <_>
          <internalNodes>
            0 -1 65 354506751 -274597381 -603555205 1591194619
            -571998465 -67126533 2126380795 335322877</internalNodes>
          <leafValues>
            -6.9430470466613770e-01 3.4816160798072815e-01</leafValues></_>
        <_>
          <internalNodes>
            0 -1 114 -37755804 1835000929 -792495792 1929638754
            -370324796 -987256330 -520107904 -1040192801</internalNodes>
          <leafValues>
            -5.9365582466125488e-01 4.2020654678344727e-01</leafValues></_>
        <_>
          <internalNodes>
            0 -1 78 -33565647 948180379 -175007303 836756127 2096399615
            -338967318 -923284597 -1962939461</internalNodes>
          <leafValues>
            -5.7626783847808838e-01 4.0898457169532776e-01</leafValues></_>
        <_>
          <internalNodes>
            0 -1 88 -1624047710 -1095064176 -1257925231 -1648500835
            -1163132929 -854313 1555511220 -269287433</internalNodes>
          <leafValues>
            -5.4364371299743652e-01 4.1643345355987549e-01</leafValues></_>
        <_>
          <internalNodes>
            0 -1 63 1073569535 -1083705364 290395356 528163797
            -1349878273 -1086338934 1197374399 289709821</internalNodes>
          <leafValues>
            -6.7057842016220093e-01 3.2823887467384338e-01</leafValues></_>
        <_>
          <internalNodes>
            0 -1 14 -805943553 419854159 -1459675558 -1238732266
            1851849723 -115158673 -1006251989 -310906297</internalNodes>
          <leafValues>
            -5.0304263830184937e-01 4.3323731422424316e-01</leafValues></_>
        <_>
          <internalNodes>
            0 -1 54 -1006113049 -1080072333 -22963378 1044831884
            1703545083 -175157448 -92471809 -1041</internalNodes>
          <leafValues>
            -4.3815368413925171e-01 5.4335689544677734e-01</leafValues></_>
        <_>
          <internalNodes>
            0 -1 45 -13051144 -35501553 -482090213 1859092565 724173110
            -80850321 1265832639 1601920755</internalNodes>
          <leafValues>
            -8.5615545511245728e-01 2.7705657482147217e-01</leafValues></_>
        <_>
          <internalNodes>
            0 -1 13 -19399942 -220870188 -1811472197 1562368587
            -661474562 -169226082 -355469073 1397735501</internalNodes>
          <leafValues>
            -6.0797822475433350e-01 3.5320904850959778e-01</leafValues></_></weakClassifiers></_>
    <!-- stage 5 -->
    <_>
      <maxWeakCount>13</maxWeakCount>
      <stageThreshold>-1.1506459712982178e+00</stageThreshold>
      <weakClassifiers>
        <_>
          <internalNodes>
            0 -1 99 -33564945 -2631681 -153100548 -25296897 -629154290
            -19399173 -17040386 -16777217</internalNodes>
          <leafValues>
            -6.4217084646224976e-01 3.0398669838905334e-01</leafValues></_>
        <_>
          <internalNodes>
            0 -1 8 1741678587 -14157330 -147641552 -2099526 1867345919
            -6554625 1932198581 -9</internalNodes>
          <leafValues>
            -5.1465940475463867e-01 4.3826004862785339e-01</leafValues></_>
        <_>
          <internalNodes>
            0 -1 58 -1279767304 -3178499 -25168941 2139089389
            -1410663425 725203807 2077947903 -374280820</internalNodes>
          <leafValues>
            -7.5013810396194458e-01 2.7524197101593018e-01</leafValues></_>
        <_>
          <internalNodes>
            0 -1 96 -8914968 185201408 -779923056 2013197737 -337119506
            -819998532 -307499358 1223685359</internalNodes>
          <leafValues>
            -5.9325116872787476e-01 3.6016988754272461e-01</leafValues></_>
        <_>
          <internalNodes>
            0 -1 3 -315928833 1695445542 -323108014 -270541446 901769723
            1823406843 297267447 -152044545</internalNodes>
          <leafValues>
            -4.8312300443649292e-01 4.1711997985839844e-01</leafValues></_>
        <_>
          <internalNodes>
            0 -1 76 -679256577 -136972295 625080827 534248957 1925635067
            2073680205 1576594943 286193117</internalNodes>
          <leafValues>
            -5.3219938278198242e-01 3.9156007766723633e-01</leafValues></_>
        <_>
          <internalNodes>
            0 -1 18 -16855378 -136590929 1516041983 -1093828085
            1511915598 -131986408 -914292881 -11579637</internalNodes>
          <leafValues>
            -6.0937935113906860e-01 3.2638248801231384e-01</leafValues></_>
        <_>
          <internalNodes>
            0 -1 121 -344987731 -415505533 -408597536 -170490398
            -762578555 1742725323 -442370848 1173876591</internalNodes>
          <leafValues>
            -5.6246715784072876e-01 3.6930865049362183e-01</leafValues></_>
        <_>
          <internalNodes>
            0 -1 69 498621949 -2689969 1614927323 2144205791 -41354305
            1003184331 -675629057 276075993</internalNodes>
          <leafValues>
            -7.1306091547012329e-01 2.7222114801406860e-01</leafValues></_>
        <_>
          <internalNodes>
            0 -1 90 -134556001 -170013729 1049663420 385136263
            -132982600 -66158421 -1431242282 -91029545</internalNodes>
          <leafValues>
            -4.5570832490921021e-01 4.5207232236862183e-01</leafValues></_>
        <_>
          <internalNodes>
            0 -1 77 -54993416 -574923384 1620832595 -67922785 721605379
            -66853325 -1987116033 1068488955</internalNodes>
          <leafValues>
            -7.7200871706008911e-01 2.4793460965156555e-01</leafValues></_>
        <_>
          <internalNodes>
            0 -1 71 1419706283 186374073 -177081039 526384029 -282990110
            -1358772807 -403179870 122529039</internalNodes>
          <leafValues>
            -6.1716818809509277e-01 3.1304541230201721e-01</leafValues></_>
        <_>
          <internalNodes>
            0 -1 9 -179570702 789284143 1342243163 -741362146 -916346439
            -1892065119 1912699777 -196125666</internalNodes>
          <leafValues>
            -4.6022588014602661e-01 4.5598277449607849e-01</leafValues></_></weakClassifiers></_>
    <!-- stage 6 -->
    <_>
      <maxWeakCount>13</maxWeakCount>
      <stageThreshold>-1.5341019630432129e+00</stageThreshold>
      <weakClassifiers>
        <_>
          <internalNodes>
            0 -1 6 -284169217 -839325826 -172023044 -6557026 2080112639
            -214244945 2077181150 -1573</internalNodes>
          <leafValues>
            -5.6889808177947998e-01 3.8284519314765930e-01</leafValues></_>
        <_>
          <internalNodes>
            0 -1 67 -1126408964 2147342271 113215676 -1095389217
            -21005176 -20982329 -1462964498 -117571601</internalNodes>
          <leafValues>
            -5.7191437482833862e-01 3.3404603600502014e-01</leafValues></_>
        <_>
          <internalNodes>
            0 -1 116 -336073813 -2014314498 -145624590 -134221215
            -341607953 -843849293 2044184454 -973606945</internalNodes>
          <leafValues>
            -4.5967957377433777e-01 4.1344451904296875e-01</leafValues></_>
        <_>
          <internalNodes>
            0 -1 26 -5525585 1845661231 -728045258 -81546642 -155202930
            -870941365 -360788370 -8434105</internalNodes>
          <leafValues>
            -4.3687030673027039e-01 4.4701778888702393e-01</leafValues></_>
        <_>
          <internalNodes>
            0 -1 5 -139530312 -763305772 1595477234 -180367722
            1786773503 -1450581871 2011911345 -184552251</internalNodes>
          <leafValues>
            -4.6312189102172852e-01 4.2907774448394775e-01</leafValues></_>
        <_>
          <internalNodes>
            0 -1 57 -537198596 -335587315 -1828470689 -9497147 -72691203
            -829700913 -1683817569 841625605</internalNodes>
          <leafValues>
            -8.1369125843048096e-01 2.3182259500026703e-01</leafValues></_>
        <_>
          <internalNodes>
            0 -1 41 -1723730683 -1710697985 577752 1515152091 -223692791
            -2012538741 -1469996853 -538988133</internalNodes>
          <leafValues>
            -4.2876023054122925e-01 4.3119803071022034e-01</leafValues></_>
        <_>
          <internalNodes>
            0 -1 44 -67416913 2061811885 -157889922 638772162 -105428916
            188097373 -159457302 607315567</internalNodes>
          <leafValues>
            -6.3287299871444702e-01 3.2405647635459900e-01</leafValues></_>
        <_>
          <internalNodes>
            0 -1 110 -1650401861 -1390806280 -679215631 -138543311
            -571482439 -608484209 973059061 377443476</internalNodes>
          <leafValues>
            -5.8833557367324829e-01 3.2566979527473450e-01</leafValues></_>
        <_>
          <internalNodes>
            0 -1 72 -2075368 -648024185 -410939905 -67504713 -1166532918
            -1093678147 -219161893 -25775693</internalNodes>
          <leafValues>
            -4.8601353168487549e-01 3.8035240769386292e-01</leafValues></_>
        <_>
          <internalNodes>
            0 -1 34 -1941033285 -171125362 -669685309 -2305633 987439611
            1267806094 1994347959 1394860018</internalNodes>
          <leafValues>
            -6.0269480943679810e-01 3.1258082389831543e-01</leafValues></_>
        <_>
          <internalNodes>
            0 -1 109 926678435 -1482431544 -170666015 -201879519
            -1189136211 1609617937 637624484 1715429995</internalNodes>
          <leafValues>
            -5.5543142557144165e-01 3.1381130218505859e-01</leafValues></_>
        <_>
          <internalNodes>
            0 -1 111 -117445791 1565371673 326108184 825925810
            -1695054907 -997547799 -69510152 -1614024786</internalNodes>
          <leafValues>
            -4.8383563756942749e-01 3.7297916412353516e-01</leafValues></_></weakClassifiers></_>
    <!-- stage 7 -->
    <_>
      <maxWeakCount>15</maxWeakCount>
      <stageThreshold>-1.3446605205535889e+00</stageThreshold>
      <weakClassifiers>
        <_>
          <internalNodes>
            0 -1 29 -148115469 -76816 -136318977 -2107534 -564146433
            -3156281 -275779585 -2098185</internalNodes>
          <leafValues>
            -5.4133331775665283e-01 3.9511084556579590e-01</leafValues></_>
        <_>
          <internalNodes>
            0 -1 53 1363475916 1977581535 855751055 -135288082
            2094988287 -151853180 -86052881 -270602386</internalNodes>
          <leafValues>
            -4.5638608932495117e-01 4.0490010380744934e-01</leafValues></_>
        <_>
          <internalNodes>
            0 -1 93 490037247 2138433951 -136840737 2146554357
            1373683963 -206000497 1605172223 532184061</internalNodes>
          <leafValues>
            -6.6120022535324097e-01 2.7408054471015930e-01</leafValues></_>
        <_>
          <internalNodes>
            0 -1 11 -353964065 -1087998978 614384766 -4675378 -958347265
            -55091093 1143152895 -83900689</internalNodes>
          <leafValues>
            -4.3929502367973328e-01 4.1586482524871826e-01</leafValues></_>
        <_>
          <internalNodes>
            0 -1 104 -35955058 -613166629 -501310308 -789127562
            1995962444 -20994979 -18089062 -18874913</internalNodes>
          <leafValues>
            -5.2248585224151611e-01 3.8779610395431519e-01</leafValues></_>
        <_>
          <internalNodes>
            0 -1 17 -551572465 -659037913 1351923967 1575992579
            2097904975 2018625129 -265553665 -109053073</internalNodes>
          <leafValues>
            -4.5512658357620239e-01 3.8409343361854553e-01</leafValues></_>
        <_>
          <internalNodes>
            0 -1 62 -589310756 -855793528 1397582299 1422910555
            -1558237555 -1359508205 2068964320 458216151</internalNodes>
          <leafValues>
            -6.8324172496795654e-01 2.8480553627014160e-01</leafValues></_>
        <_>
          <internalNodes>
            0 -1 83 422010831 -270407221 -707366635 1800923325
            -258108721 663423675 388737767 1350450093</internalNodes>
          <leafValues>
            -6.0284668207168579e-01 2.9225093126296997e-01</leafValues></_>
        <_>
          <internalNodes>
            0 -1 108 -1031080006 1931190448 -567588067 -675191971
            -1693338847 -1667002335 -1618363480 -1109733500</internalNodes>
          <leafValues>
            -5.1579958200454712e-01 3.2714024186134338e-01</leafValues></_>
        <_>
          <internalNodes>
            0 -1 79 288710143 -138620721 1139135231 -212475419
            1484966591 1655135619 432173823 1429531580</internalNodes>
          <leafValues>
            -6.4720714092254639e-01 2.4869652092456818e-01</leafValues></_>
        <_>
          <internalNodes>
            0 -1 35 1504361368 -486062433 302076145 -1635037633
            -129987736 -1718909191 2996665 -570474297</internalNodes>
          <leafValues>
            -4.6171995997428894e-01 3.6969316005706787e-01</leafValues></_>
        <_>
          <internalNodes>
            0 -1 20 -114622470 1003977 217147 -1357004709 -474830102
            965427812 1312944478 -834731779</internalNodes>
          <leafValues>
            -6.2526863813400269e-01 2.8948542475700378e-01</leafValues></_>
        <_>
          <internalNodes>
            0 -1 56 -1214733892 -2910837 -1979392744 -1915669561
            -1726155457 505844668 -1807413570 69595127</internalNodes>
          <leafValues>
            -6.9867962598800659e-01 2.2713921964168549e-01</leafValues></_>
        <_>
          <internalNodes>
            0 -1 119 -291328635 59213760 -1861143051 1346409296
            -407409329 -2067021143 -876622672 15724287</internalNodes>
          <leafValues>
            -5.6330031156539917e-01 3.1325259804725647e-01</leafValues></_>
        <_>
          <internalNodes>
            0 -1 98 -1682252367 -469977908 -670051843 1576401245
            1934013844 114409923 1521472502 1904103633</internalNodes>
          <leafValues>
            -6.0407459735870361e-01 2.8123703598976135e-01</leafValues></_></weakClassifiers></_>
    <!-- stage 8 -->
    <_>
      <maxWeakCount>17</maxWeakCount>
      <stageThreshold>-1.5844451189041138e+00</stageThreshold>
      <weakClassifiers>
        <_>
          <internalNodes>
            0 -1 52 -16823041 -2130819 -588251169 -2138145 -70629122
            -21614 -596050946 -12649473</internalNodes>
          <leafValues>
            -5.4850661754608154e-01 3.2371133565902710e-01</leafValues></_>
        <_>
          <internalNodes>
            0 -1 30 -651559952 -442986064 1905458175 2078221282
            -666108951 -86337035 -1685196801 2077186007</internalNodes>
          <leafValues>
            -5.7228124141693115e-01 2.7747839689254761e-01</leafValues></_>
        <_>
          <internalNodes>
            0 -1 112 -1115743211 2136428799 -625221698 -218140001
            -655367947 1105928865 -372507147 -855650373</internalNodes>
          <leafValues>
            -4.9707403779029846e-01 3.1325271725654602e-01</leafValues></_>
        <_>
          <internalNodes>
            0 -1 31 -1843004429 -532352890 -532903376 -1244147470
            1028472319 311580713 1936160485 1895294951</internalNodes>
          <leafValues>
            -5.0384503602981567e-01 3.3294472098350525e-01</leafValues></_>
        <_>
          <internalNodes>
            0 -1 25 -901847833 1885262799 1901084918 -1677789714
            1135606223 941263295 -527718981 -69730490</internalNodes>
          <leafValues>
            -4.0968742966651917e-01 4.0454801917076111e-01</leafValues></_>
        <_>
          <internalNodes>
            0 -1 87 -560997141 -812648672 -720634891 -145231363
            457430266 532240347 1921712127 393115647</internalNodes>
          <leafValues>
            -4.3287548422813416e-01 3.8385581970214844e-01</leafValues></_>
        <_>
          <internalNodes>
            0 -1 60 1358713238 -1244187173 106274572 788379922
            -119945170 -71613790 -252385108 -789254417</internalNodes>
          <leafValues>
            -6.1806637048721313e-01 2.5353476405143738e-01</leafValues></_>
        <_>
          <internalNodes>
            0 -1 48 1433445120 349937988 835507394 -38308198 -104664346
            -1852876324 1364028362 1561194438</internalNodes>
          <leafValues>
            -6.1813992261886597e-01 2.4225373566150665e-01</leafValues></_>
        <_>
          <internalNodes>
            0 -1 120 -355471837 2136056231 1501725616 -201682686
            235644869 -821911357 -906503116 -973349641</internalNodes>
          <leafValues>
            -4.7049576044082642e-01 3.2397717237472534e-01</leafValues></_>
        <_>
          <internalNodes>
            0 -1 75 -1208789893 730456760 1355209207 173359517
            -908528410 725298855 59038131 7236429</internalNodes>
          <leafValues>
            -6.0134267807006836e-01 2.7287015318870544e-01</leafValues></_>
        <_>
          <internalNodes>
            0 -1 10 -433393737 1423372772 -1114308496 -543493010
            102507259 -40718171 -53776147 -16795422</internalNodes>
          <leafValues>
            -4.4509223103523254e-01 3.8289842009544373e-01</leafValues></_>
        <_>
          <internalNodes>
            0 -1 59 1392555996 -1789542411 2113929213 1211596543
            1031469943 -25796611 1068629583 -413663677</internalNodes>
          <leafValues>
            -3.7780186533927917e-01 4.2193660140037537e-01</leafValues></_>
        <_>
          <internalNodes>
            0 -1 101 -1749046085 -840980411 -1881157753 -950555562
            -1424306917 -1346371585 1060306036 -78070190</internalNodes>
          <leafValues>
            -3.0958136916160583e-01 5.2331447601318359e-01</leafValues></_>
        <_>
          <internalNodes>
            0 -1 105 -1235280329 756667663 -1362495426 1052237232
            -1067132577 419635298 -1197335809 943480155</internalNodes>
          <leafValues>
            -6.8789714574813843e-01 2.4567803740501404e-01</leafValues></_>
        <_>
          <internalNodes>
            0 -1 55 -1680814680 -128205881 -1249004004 1031918105
            -108660355 -597457198 -2003700290 -850794117</internalNodes>
          <leafValues>
            -4.6990320086479187e-01 3.6552426218986511e-01</leafValues></_>
        <_>
          <internalNodes>
            0 -1 113 -136406067 404234516 571060283 1567801745
            -1861751285 -1614131393 -1635833832 -1682705414</internalNodes>
          <leafValues>
            -4.3892729282379150e-01 3.8487780094146729e-01</leafValues></_>
        <_>
          <internalNodes>
            0 -1 16 -58733329 2101026727 -16847650 -227016721 -6323
            -25201365 -805833042 -1192755377</internalNodes>
          <leafValues>
            -3.7162777781486511e-01 4.5505762100219727e-01</leafValues></_></weakClassifiers></_>
    <!-- stage 9 -->
    <_>
      <maxWeakCount>21</maxWeakCount>
      <stageThreshold>-1.8056503534317017e+00</stageThreshold>
      <weakClassifiers>
        <_>
          <internalNodes>
            0 -1 42 -38930603 -782527635 -1358824535 1106211289
            -1937169877 -355766065 1753989034 -318767731</internalNodes>
          <leafValues>
            -5.5712127685546875e-01 2.0700219273567200e-01</leafValues></_>
        <_>
          <internalNodes>
            0 -1 39 -20460914 -101351393 -628689665 -1531266658
            -215465908 -548273946 -1095172357 -11667361</internalNodes>
          <leafValues>
            -5.2800148725509644e-01 2.6621976494789124e-01</leafValues></_>
        <_>
          <internalNodes>
            0 -1 50 -1142006275 -739282435 -138499281 -134490883
            20642751 2127268603 2140361663 2147139997</internalNodes>
          <leafValues>
            -5.2291208505630493e-01 2.7370962500572205e-01</leafValues></_>
        <_>
          <internalNodes>
            0 -1 86 -1078198913 -10493957 -1476592705 2003828733
            -134232321 1845354479 1610575599 1432353759</internalNodes>
          <leafValues>
            -3.2389211654663086e-01 4.5248576998710632e-01</leafValues></_>
        <_>
          <internalNodes>
            0 -1 28 -903090352 -592825134 2031730879 -823157805
            -547388166 -1344035453 1271874463 -320867101</internalNodes>
          <leafValues>
            -4.1041606664657593e-01 3.7633997201919556e-01</leafValues></_>
        <_>
          <internalNodes>
            0 -1 117 -1147091037 -1112935504 -1693199979 -137495203
            -897147973 -1296547749 463280949 754733989</internalNodes>
          <leafValues>
            -5.4068595170974731e-01 2.8024569153785706e-01</leafValues></_>
        <_>
          <internalNodes>
            0 -1 92 -201851624 494902576 -1166871693 404262931
            -2085638294 -343817959 -1061172800 -909126838</internalNodes>
          <leafValues>
            -5.8325862884521484e-01 2.5993511080741882e-01</leafValues></_>
        <_>
          <internalNodes>
            0 -1 7 -44632786 218607630 604967164 1192198910 -340727024
            253747801 1145430125 -1408302418</internalNodes>
          <leafValues>
            -6.0414135456085205e-01 2.2545590996742249e-01</leafValues></_>
        <_>
          <internalNodes>
            0 -1 118 -938309541 -747167733 -803890823 306274811
            -716510708 -371157952 -623191854 -559497841</internalNodes>
          <leafValues>
            -4.1483971476554871e-01 3.5647684335708618e-01</leafValues></_>
        <_>
          <internalNodes>
            0 -1 15 -277205857 -553130433 653196157 -701777394
            -358356999 1193508795 1682767759 -545793981</internalNodes>
          <leafValues>
            -3.5728821158409119e-01 4.2357507348060608e-01</leafValues></_>
        <_>
          <internalNodes>
            0 -1 95 487676539 -6822677 830689599 1234530761 -1646919779
            1581056134 21003775 1968504061</internalNodes>
          <leafValues>
            -6.1625123023986816e-01 2.2824741899967194e-01</leafValues></_>
        <_>
          <internalNodes>
            0 -1 85 1837748891 -1450588013 1484845479 1205175005
            1756215802 319443807 1362008599 1431205977</internalNodes>
          <leafValues>
            -5.2138173580169678e-01 2.7110919356346130e-01</leafValues></_>
        <_>
          <internalNodes>
            0 -1 4 -64557634 1661396198 -788069933 1898311582 -804265988
            -195495696 719000499 -185996037</internalNodes>
          <leafValues>
            -4.2224848270416260e-01 3.4216383099555969e-01</leafValues></_>
        <_>
          <internalNodes>
            0 -1 49 1549167748 -1851945467 -729685730 -728167715
            -84803412 -250068758 -41891105 1593774061</internalNodes>
          <leafValues>
            -6.2511575222015381e-01 2.4341548979282379e-01</leafValues></_>
        <_>
          <internalNodes>
            0 -1 46 -1074108680 -1857564637 -820951849 -230430139
            770076411 -66408302 1696928439 1988475493</internalNodes>
          <leafValues>
            -6.3300532102584839e-01 2.1295322477817535e-01</leafValues></_>
        <_>
          <internalNodes>
            0 -1 102 -292889457 234918016 1395515485 1400193606
            -1877802743 -1148510206 531632060 180735416</internalNodes>
          <leafValues>
            -6.3013148307800293e-01 2.3553220927715302e-01</leafValues></_>
        <_>
          <internalNodes>
            0 -1 12 -593038630 1563378246 -1987382881 1562841951
            1329658840 -1179189182 21291146 -865120004</internalNodes>
          <leafValues>
            -5.0582045316696167e-01 3.0974712967872620e-01</leafValues></_>
        <_>
          <internalNodes>
            0 -1 32 421132273 30181504 -1048050912 -1476537916
            1646165759 847931523 1092568882 1121809047</internalNodes>
          <leafValues>
            -6.6406095027923584e-01 2.0995764434337616e-01</leafValues></_>
        <_>
          <internalNodes>
            0 -1 103 -1461823395 2125482431 -1207903421 -1088654919
            -401722858 -225542141 -635799486 -1025311189</internalNodes>
          <leafValues>
            -4.8409524559974670e-01 3.0303794145584106e-01</leafValues></_>
        <_>
          <internalNodes>
            0 -1 51 -1495964965 -145381683 881512469 962068957
            -1688209285 -812014844 579052464 360489213</internalNodes>
          <leafValues>
            -5.4295587539672852e-01 2.5899618864059448e-01</leafValues></_>
        <_>
          <internalNodes>
            0 -1 122 662416005 1704957542 -1290685062 -79265770
            -1017197780 -1044067968 -914001436 -841485562</internalNodes>
          <leafValues>
            -4.1744980216026306e-01 3.6761915683746338e-01</leafValues></_></weakClassifiers></_></stages>
  <features>
    <_>
      <rect>
        0 1 4 3</rect></_>
    <_>
      <rect>
        0 1 5 2</rect></_>
    <_>
      <rect>
        0 2 5 3</rect></_>
    <_>
      <rect>
        0 3 4 1</rect></_>
    <_>
      <rect>
        0 4 2 2</rect></_>
    <_>
      <rect>
        0 4 3 2</rect></_>
    <_>
      <rect>
        0 5 2 2</rect></_>
    <_>
      <rect>
        0 6 3 3</rect></_>
    <_>
      <rect>
        0 7 3 1</rect></_>
    <_>
      <rect>
        0 7 3 4</rect></_>
    <_>
      <rect>
        0 8 2 1</rect></_>
    <_>
      <rect>
        0 8 2 2</rect></_>
    <_>
      <rect>
        0 8 5 3</rect></_>
    <_>
      <rect>
        0 8 8 4</rect></_>
    <_>
      <rect>
        0 9 2 2</rect></_>
    <_>
      <rect>
        0 10 2 2</rect></_>
    <_>
      <rect>
        0 14 2 1</rect></_>
    <_>
      <rect>
        0 14 3 1</rect></_>
    <_>
      <rect>
        0 14 4 2</rect></_>
    <_>
      <rect>
        0 15 3 1</rect></_>
    <_>
      <rect>
        1 5 4 4</rect></_>
    <_>
      <rect>
        1 6 5 4</rect></_>
    <_>
      <rect>
        1 7 2 1</rect></_>
    <_>
      <rect>
        1 9 2 1</rect></_>
    <_>
      <rect>
        1 10 2 1</rect></_>
    <_>
      <rect>
        1 11 2 1</rect></_>
    <_>
      <rect>
        1 11 2 2</rect></_>
    <_>
      <rect>
        1 13 2 1</rect></_>
    <_>
      <rect>
        2 0 3 2</rect></_>
    <_>
      <rect>
        2 1 3 2</rect></_>
    <_>
      <rect>
        2 1 4 3</rect></_>
    <_>
      <rect>
        2 6 2 1</rect></_>
    <_>
      <rect>
        2 6 3 1</rect></_>
    <_>
      <rect>
        2 6 3 3</rect></_>
    <_>
      <rect>
        2 8 4 1</rect></_>
    <_>
      <rect>
        2 9 3 4</rect></_>
    <_>
      <rect>
        2 10 6 3</rect></_>
    <_>
      <rect>
        2 12 3 2</rect></_>
    <_>
      <rect>
        2 12 4 3</rect></_>
    <_>
      <rect>
        2 17 3 1</rect></_>
    <_>
      <rect>
        2 17 5 2</rect></_>
    <_>
      <rect>
        3 0 4 8</rect></_>
    <_>
      <rect>
        3 3 3 7</rect></_>
    <_>
      <rect>
        3 14 3 3</rect></_>
    <_>
      <rect>
        3 15 2 1</rect></_>
    <_>
      <rect>
        4 4 4 4</rect></_>
    <_>
      <rect>
        4 6 3 2</rect></_>
    <_>
      <rect>
        4 7 6 3</rect></_>
    <_>
      <rect>
        4 12 5 4</rect></_>
    <_>
      <rect>
        4 13 3 3</rect></_>
    <_>
      <rect>
        5 9 3 2</rect></_>
    <_>
      <rect>
        5 10 2 1</rect></_>
    <_>
      <rect>
        5 17 1 1</rect></_>
    <_>
      <rect>
        5 18 4 2</rect></_>
    <_>
      <rect>
        5 19 3 1</rect></_>
    <_>
      <rect>
        6 0 4 2</rect></_>
    <_>
      <rect>
        6 2 4 2</rect></_>
    <_>
      <rect>
        6 7 3 4</rect></_>
    <_>
      <rect>
        6 9 4 2</rect></_>
    <_>
      <rect>
        7 18 4 2</rect></_>
    <_>
      <rect>
        8 3 5 2</rect></_>
    <_>
      <rect>
        8 4 3 5</rect></_>
    <_>
      <rect>
        8 5 5 5</rect></_>
    <_>
      <rect>
        8 7 2 1</rect></_>
    <_>
      <rect>
        8 9 2 2</rect></_>
    <_>
      <rect>
        8 11 2 1</rect></_>
    <_>
      <rect>
        9 0 4 4</rect></_>
    <_>
      <rect>
        9 2 4 2</rect></_>
    <_>
      <rect>
        9 4 5 4</rect></_>
    <_>
      <rect>
        9 8 1 1</rect></_>
    <_>
      <rect>
        9 8 2 1</rect></_>
    <_>
      <rect>
        9 14 4 2</rect></_>
    <_>
      <rect>
        10 0 3 2</rect></_>
    <_>
      <rect>
        10 2 4 3</rect></_>
    <_>
      <rect>
        10 10 1 1</rect></_>
    <_>
      <rect>
        10 13 2 1</rect></_>
    <_>
      <rect>
        10 14 1 1</rect></_>
    <_>
      <rect>
        11 4 3 4</rect></_>
    <_>
      <rect>
        11 6 4 2</rect></_>
    <_>
      <rect>
        11 9 1 1</rect></_>
    <_>
      <rect>
        11 9 4 3</rect></_>
    <_>
      <rect>
        11 10 1 1</rect></_>
    <_>
      <rect>
        11 11 1 1</rect></_>
    <_>
      <rect>
        11 11 2 1</rect></_>
    <_>
      <rect>
        11 14 1 1</rect></_>
    <_>
      <rect>
        11 14 2 1</rect></_>
    <_>
      <rect>
        11 15 1 1</rect></_>
    <_>
      <rect>
        11 15 2 1</rect></_>
    <_>
      <rect>
        11 16 3 2</rect></_>
    <_>
      <rect>
        12 3 3 1</rect></_>
    <_>
      <rect>
        12 4 3 2</rect></_>
    <_>
      <rect>
        12 8 4 2</rect></_>
    <_>
      <rect>
        12 9 4 2</rect></_>
    <_>
      <rect>
        12 10 1 1</rect></_>
    <_>
      <rect>
        12 11 1 1</rect></_>
    <_>
      <rect>
        12 12 1 1</rect></_>
    <_>
      <rect>
        12 12 3 2</rect></_>
    <_>
      <rect>
        12 15 4 2</rect></_>
    <_>
      <rect>
        12 16 1 1</rect></_>
    <_>
      <rect>
        13 4 3 1</rect></_>
    <_>
      <rect>
        13 4 3 2</rect></_>
    <_>
      <rect>
        13 5 3 5</rect></_>
    <_>
      <rect>
        13 7 3 5</rect></_>
    <_>
      <rect>
        14 2 1 1</rect></_>
    <_>
      <rect>
        14 5 3 1</rect></_>
    <_>
      <rect>
        14 7 2 1</rect></_>
    <_>
      <rect>
        14 7 3 1</rect></_>
    <_>
      <rect>
        14 8 3 1</rect></_>
    <_>
      <rect>
        14 12 2 4</rect></_>
    <_>
      <rect>
        14 15 2 1</rect></_>
    <_>
      <rect>
        14 16 1 1</rect></_>
    <_>
      <rect>
        15 8 3 2</rect></_>
    <_>
      <rect>
        15 9 2 1</rect></_>
    <_>
      <rect>
        15 10 2 3</rect></_>
    <_>
      <rect>
        15 10 3 2</rect></_>
    <_>
      <rect>
        15 14 1 3</rect></_>
    <_>
      <rect>
        15 14 3 1</rect></_>
    <_>
      <rect>
        15 17 1 1</rect></_>
    <_>
      <rect>
        16 4 1 1</rect></_>
    <_>
      <rect>
        16 11 2 2</rect></_>
    <_>
      <rect>
        17 11 2 1</rect></_>
    <_>
      <rect>
        17 12 2 1</rect></_>
    <_>
      <rect>
        19 11 1 1</rect></_></features></cascade>
</opencv_storage>
