<?xml version="1.0"?>
<opencv_storage>
<stage8>
  <maxWeakCount>17</maxWeakCount>
  <stageThreshold>-1.5844451189041138e+00</stageThreshold>
  <weakClassifiers>
    <_>
      <internalNodes>
        0 -1 3730 -16823041 -2130819 -588251169 -2138145 -70629122
        -21614 -596050946 -12649473</internalNodes>
      <leafValues>
        -5.4850661754608154e-01 3.2371133565902710e-01</leafValues></_>
    <_>
      <internalNodes>
        0 -1 1459 -651559952 -442986064 1905458175 2078221282 -666108951
        -86337035 -1685196801 2077186007</internalNodes>
      <leafValues>
        -5.7228124141693115e-01 2.7747839689254761e-01</leafValues></_>
    <_>
      <internalNodes>
        0 -1 7536 -1115743211 2136428799 -625221698 -218140001
        -655367947 1105928865 -372507147 -855650373</internalNodes>
      <leafValues>
        -4.9707403779029846e-01 3.1325271725654602e-01</leafValues></_>
    <_>
      <internalNodes>
        0 -1 1673 -1843004429 -532352890 -532903376 -1244147470
        1028472319 311580713 1936160485 1895294951</internalNodes>
      <leafValues>
        -5.0384503602981567e-01 3.3294472098350525e-01</leafValues></_>
    <_>
      <internalNodes>
        0 -1 1202 -901847833 1885262799 1901084918 -1677789714
        1135606223 941263295 -527718981 -69730490</internalNodes>
      <leafValues>
        -4.0968742966651917e-01 4.0454801917076111e-01</leafValues></_>
    <_>
      <internalNodes>
        0 -1 6395 -560997141 -812648672 -720634891 -145231363 457430266
        532240347 1921712127 393115647</internalNodes>
      <leafValues>
        -4.3287548422813416e-01 3.8385581970214844e-01</leafValues></_>
    <_>
      <internalNodes>
        0 -1 4923 1358713238 -1244187173 106274572 788379922 -119945170
        -71613790 -252385108 -789254417</internalNodes>
      <leafValues>
        -6.1806637048721313e-01 2.5353476405143738e-01</leafValues></_>
    <_>
      <internalNodes>
        0 -1 3107 1433445120 349937988 835507394 -38308198 -104664346
        -1852876324 1364028362 1561194438</internalNodes>
      <leafValues>
        -6.1813992261886597e-01 2.4225373566150665e-01</leafValues></_>
    <_>
      <internalNodes>
        0 -1 7956 -355471837 2136056231 1501725616 -201682686 235644869
        -821911357 -906503116 -973349641</internalNodes>
      <leafValues>
        -4.7049576044082642e-01 3.2397717237472534e-01</leafValues></_>
    <_>
      <internalNodes>
        0 -1 6003 -1208789893 730456760 1355209207 173359517 -908528410
        725298855 59038131 7236429</internalNodes>
      <leafValues>
        -6.0134267807006836e-01 2.7287015318870544e-01</leafValues></_>
    <_>
      <internalNodes>
        0 -1 421 -433393737 1423372772 -1114308496 -543493010 102507259
        -40718171 -53776147 -16795422</internalNodes>
      <leafValues>
        -4.4509223103523254e-01 3.8289842009544373e-01</leafValues></_>
    <_>
      <internalNodes>
        0 -1 4766 1392555996 -1789542411 2113929213 1211596543
        1031469943 -25796611 1068629583 -413663677</internalNodes>
      <leafValues>
        -3.7780186533927917e-01 4.2193660140037537e-01</leafValues></_>
    <_>
      <internalNodes>
        0 -1 6929 -1749046085 -840980411 -1881157753 -950555562
        -1424306917 -1346371585 1060306036 -78070190</internalNodes>
      <leafValues>
        -3.0958136916160583e-01 5.2331447601318359e-01</leafValues></_>
    <_>
      <internalNodes>
        0 -1 7230 -1235280329 756667663 -1362495426 1052237232
        -1067132577 419635298 -1197335809 943480155</internalNodes>
      <leafValues>
        -6.8789714574813843e-01 2.4567803740501404e-01</leafValues></_>
    <_>
      <internalNodes>
        0 -1 3797 -1680814680 -128205881 -1249004004 1031918105
        -108660355 -597457198 -2003700290 -850794117</internalNodes>
      <leafValues>
        -4.6990320086479187e-01 3.6552426218986511e-01</leafValues></_>
    <_>
      <internalNodes>
        0 -1 7552 -136406067 404234516 571060283 1567801745 -1861751285
        -1614131393 -1635833832 -1682705414</internalNodes>
      <leafValues>
        -4.3892729282379150e-01 3.8487780094146729e-01</leafValues></_>
    <_>
      <internalNodes>
        0 -1 619 -58733329 2101026727 -16847650 -227016721 -6323
        -25201365 -805833042 -1192755377</internalNodes>
      <leafValues>
        -3.7162777781486511e-01 4.5505762100219727e-01</leafValues></_></weakClassifiers></stage8>
</opencv_storage>
