<?xml version="1.0"?>
<opencv_storage>
<stage2>
  <maxWeakCount>8</maxWeakCount>
  <stageThreshold>-1.6933909654617310e+00</stageThreshold>
  <weakClassifiers>
    <_>
      <internalNodes>
        0 -1 646 -16781777 -1153 -17367873 -16777217 -8945 -8655042 -1
        -1</internalNodes>
      <leafValues>
        -6.5545833110809326e-01 5.7642149925231934e-01</leafValues></_>
    <_>
      <internalNodes>
        0 -1 6336 1026654207 -143261721 -868745217 -67767363 -572129281
        -67111937 -16973825 2080178141</internalNodes>
      <leafValues>
        -7.3464274406433105e-01 4.4297662377357483e-01</leafValues></_>
    <_>
      <internalNodes>
        0 -1 87 -5510150 -340844302 -1171574785 -579854 -1 -375404545
        -539004161 -35339</internalNodes>
      <leafValues>
        -5.8895248174667358e-01 5.5294638872146606e-01</leafValues></_>
    <_>
      <internalNodes>
        0 -1 7235 -457 892859711 -56693702 851377950 -104112317
        -168558601 -16860170 -83886209</internalNodes>
      <leafValues>
        -5.7058554887771606e-01 5.3829085826873779e-01</leafValues></_>
    <_>
      <internalNodes>
        0 -1 5952 364731903 -4597771 1303898103 2002649053 -571146753
        1056832991 -1266680833 1427948540</internalNodes>
      <leafValues>
        -7.3797869682312012e-01 4.2715203762054443e-01</leafValues></_>
    <_>
      <internalNodes>
        0 -1 2977 -38019652 -639672867 -642540291 -167772225 1057745407
        1069264887 -1075578375 2046296031</internalNodes>
      <leafValues>
        -7.4320298433303833e-01 3.8111966848373413e-01</leafValues></_>
    <_>
      <internalNodes>
        0 -1 1174 -286331025 -961609817 -21241220 -19464276 1207930815
        -172500257 -672582210 -655516</internalNodes>
      <leafValues>
        -5.9346771240234375e-01 5.2672445774078369e-01</leafValues></_>
    <_>
      <internalNodes>
        0 -1 6770 -272891990 -1347686488 -150527 -68558891 -571605537
        -1078198401 -2013317245 -1074267137</internalNodes>
      <leafValues>
        -5.3617525100708008e-01 5.9136235713958740e-01</leafValues></_></weakClassifiers></stage2>
</opencv_storage>
