<?xml version="1.0"?>
<opencv_storage>
<stage1>
  <maxWeakCount>8</maxWeakCount>
  <stageThreshold>-1.8808286190032959e+00</stageThreshold>
  <weakClassifiers>
    <_>
      <internalNodes>
        0 -1 6908 -321 -3105 -1298153538 985656255 -83886530 -75498561
        -93339730 -352321601</internalNodes>
      <leafValues>
        -6.8493801355361938e-01 5.4920017719268799e-01</leafValues></_>
    <_>
      <internalNodes>
        0 -1 1681 -10289154 -148636321 -1485077761 -10752809 1275236095
        -561 1180910847 -8436233</internalNodes>
      <leafValues>
        -7.0073264837265015e-01 4.7606194019317627e-01</leafValues></_>
    <_>
      <internalNodes>
        0 -1 1879 -18875153 -1137873 -186909697 -10294014 1481919580
        -6864049 -51153409 2134068995</internalNodes>
      <leafValues>
        -7.1040624380111694e-01 4.6283751726150513e-01</leafValues></_>
    <_>
      <internalNodes>
        0 -1 6704 1027039231 -786435 1946153983 -4325379 -168952833
        -16926053 -33620225 2147286893</internalNodes>
      <leafValues>
        -6.9929718971252441e-01 4.8670503497123718e-01</leafValues></_>
    <_>
      <internalNodes>
        0 -1 6317 -168821508 -652478440 -782501379 492026869 -874512690
        -1380205861 -1930454848 -1999637333</internalNodes>
      <leafValues>
        -7.1213495731353760e-01 4.6638771891593933e-01</leafValues></_>
    <_>
      <internalNodes>
        0 -1 6320 299204095 -5899585 -143133697 -165451 1577053691
        -605046373 -587202561 1409081340</internalNodes>
      <leafValues>
        -7.5089204311370850e-01 3.7830644845962524e-01</leafValues></_>
    <_>
      <internalNodes>
        0 -1 7250 -16801993 924793607 -1238371154 820968127 -1049635001
        1409258879 -571 -590349353</internalNodes>
      <leafValues>
        -6.0358762741088867e-01 5.4634726047515869e-01</leafValues></_>
    <_>
      <internalNodes>
        0 -1 1070 -1497436161 -339804314 -1073763370 -83886100
        1342131935 -838893577 -402694302 -404750409</internalNodes>
      <leafValues>
        -5.3329962491989136e-01 6.0571587085723877e-01</leafValues></_></weakClassifiers></stage1>
</opencv_storage>
