<?xml version="1.0"?>
<opencv_storage>
<stage5>
  <maxWeakCount>13</maxWeakCount>
  <stageThreshold>-1.1506459712982178e+00</stageThreshold>
  <weakClassifiers>
    <_>
      <internalNodes>
        0 -1 6907 -33564945 -2631681 -153100548 -25296897 -629154290
        -19399173 -17040386 -16777217</internalNodes>
      <leafValues>
        -6.4217084646224976e-01 3.0398669838905334e-01</leafValues></_>
    <_>
      <internalNodes>
        0 -1 386 1741678587 -14157330 -147641552 -2099526 1867345919
        -6554625 1932198581 -9</internalNodes>
      <leafValues>
        -5.1465940475463867e-01 4.3826004862785339e-01</leafValues></_>
    <_>
      <internalNodes>
        0 -1 4130 -1279767304 -3178499 -25168941 2139089389 -1410663425
        725203807 2077947903 -374280820</internalNodes>
      <leafValues>
        -7.5013810396194458e-01 2.7524197101593018e-01</leafValues></_>
    <_>
      <internalNodes>
        0 -1 6729 -8914968 185201408 -779923056 2013197737 -337119506
        -819998532 -307499358 1223685359</internalNodes>
      <leafValues>
        -5.9325116872787476e-01 3.6016988754272461e-01</leafValues></_>
    <_>
      <internalNodes>
        0 -1 197 -315928833 1695445542 -323108014 -270541446 901769723
        1823406843 297267447 -152044545</internalNodes>
      <leafValues>
        -4.8312300443649292e-01 4.1711997985839844e-01</leafValues></_>
    <_>
      <internalNodes>
        0 -1 6012 -679256577 -136972295 625080827 534248957 1925635067
        2073680205 1576594943 286193117</internalNodes>
      <leafValues>
        -5.3219938278198242e-01 3.9156007766723633e-01</leafValues></_>
    <_>
      <internalNodes>
        0 -1 626 -16855378 -136590929 1516041983 -1093828085 1511915598
        -131986408 -914292881 -11579637</internalNodes>
      <leafValues>
        -6.0937935113906860e-01 3.2638248801231384e-01</leafValues></_>
    <_>
      <internalNodes>
        0 -1 7964 -344987731 -415505533 -408597536 -170490398 -762578555
        1742725323 -442370848 1173876591</internalNodes>
      <leafValues>
        -5.6246715784072876e-01 3.6930865049362183e-01</leafValues></_>
    <_>
      <internalNodes>
        0 -1 5504 498621949 -2689969 1614927323 2144205791 -41354305
        1003184331 -675629057 276075993</internalNodes>
      <leafValues>
        -7.1306091547012329e-01 2.7222114801406860e-01</leafValues></_>
    <_>
      <internalNodes>
        0 -1 6569 -134556001 -170013729 1049663420 385136263 -132982600
        -66158421 -1431242282 -91029545</internalNodes>
      <leafValues>
        -4.5570832490921021e-01 4.5207232236862183e-01</leafValues></_>
    <_>
      <internalNodes>
        0 -1 6203 -54993416 -574923384 1620832595 -67922785 721605379
        -66853325 -1987116033 1068488955</internalNodes>
      <leafValues>
        -7.7200871706008911e-01 2.4793460965156555e-01</leafValues></_>
    <_>
      <internalNodes>
        0 -1 5639 1419706283 186374073 -177081039 526384029 -282990110
        -1358772807 -403179870 122529039</internalNodes>
      <leafValues>
        -6.1716818809509277e-01 3.1304541230201721e-01</leafValues></_>
    <_>
      <internalNodes>
        0 -1 389 -179570702 789284143 1342243163 -741362146 -916346439
        -1892065119 1912699777 -196125666</internalNodes>
      <leafValues>
        -4.6022588014602661e-01 4.5598277449607849e-01</leafValues></_></weakClassifiers></stage5>
</opencv_storage>
