<?xml version="1.0"?>
<opencv_storage>
<stage7>
  <maxWeakCount>15</maxWeakCount>
  <stageThreshold>-1.3446605205535889e+00</stageThreshold>
  <weakClassifiers>
    <_>
      <internalNodes>
        0 -1 1451 -148115469 -76816 -136318977 -2107534 -564146433
        -3156281 -275779585 -2098185</internalNodes>
      <leafValues>
        -5.4133331775665283e-01 3.9511084556579590e-01</leafValues></_>
    <_>
      <internalNodes>
        0 -1 3749 1363475916 1977581535 855751055 -135288082 2094988287
        -151853180 -86052881 -270602386</internalNodes>
      <leafValues>
        -4.5638608932495117e-01 4.0490010380744934e-01</leafValues></_>
    <_>
      <internalNodes>
        0 -1 6688 490037247 2138433951 -136840737 2146554357 1373683963
        -206000497 1605172223 532184061</internalNodes>
      <leafValues>
        -6.6120022535324097e-01 2.7408054471015930e-01</leafValues></_>
    <_>
      <internalNodes>
        0 -1 422 -353964065 -1087998978 614384766 -4675378 -958347265
        -55091093 1143152895 -83900689</internalNodes>
      <leafValues>
        -4.3929502367973328e-01 4.1586482524871826e-01</leafValues></_>
    <_>
      <internalNodes>
        0 -1 7201 -35955058 -613166629 -501310308 -789127562 1995962444
        -20994979 -18089062 -18874913</internalNodes>
      <leafValues>
        -5.2248585224151611e-01 3.8779610395431519e-01</leafValues></_>
    <_>
      <internalNodes>
        0 -1 622 -551572465 -659037913 1351923967 1575992579 2097904975
        2018625129 -265553665 -109053073</internalNodes>
      <leafValues>
        -4.5512658357620239e-01 3.8409343361854553e-01</leafValues></_>
    <_>
      <internalNodes>
        0 -1 4987 -589310756 -855793528 1397582299 1422910555
        -1558237555 -1359508205 2068964320 458216151</internalNodes>
      <leafValues>
        -6.8324172496795654e-01 2.8480553627014160e-01</leafValues></_>
    <_>
      <internalNodes>
        0 -1 6340 422010831 -270407221 -707366635 1800923325 -258108721
        663423675 388737767 1350450093</internalNodes>
      <leafValues>
        -6.0284668207168579e-01 2.9225093126296997e-01</leafValues></_>
    <_>
      <internalNodes>
        0 -1 7301 -1031080006 1931190448 -567588067 -675191971
        -1693338847 -1667002335 -1618363480 -1109733500</internalNodes>
      <leafValues>
        -5.1579958200454712e-01 3.2714024186134338e-01</leafValues></_>
    <_>
      <internalNodes>
        0 -1 6300 288710143 -138620721 1139135231 -212475419 1484966591
        1655135619 432173823 1429531580</internalNodes>
      <leafValues>
        -6.4720714092254639e-01 2.4869652092456818e-01</leafValues></_>
    <_>
      <internalNodes>
        0 -1 1792 1504361368 -486062433 302076145 -1635037633 -129987736
        -1718909191 2996665 -570474297</internalNodes>
      <leafValues>
        -4.6171995997428894e-01 3.6969316005706787e-01</leafValues></_>
    <_>
      <internalNodes>
        0 -1 1002 -114622470 1003977 217147 -1357004709 -474830102
        965427812 1312944478 -834731779</internalNodes>
      <leafValues>
        -6.2526863813400269e-01 2.8948542475700378e-01</leafValues></_>
    <_>
      <internalNodes>
        0 -1 3884 -1214733892 -2910837 -1979392744 -1915669561
        -1726155457 505844668 -1807413570 69595127</internalNodes>
      <leafValues>
        -6.9867962598800659e-01 2.2713921964168549e-01</leafValues></_>
    <_>
      <internalNodes>
        0 -1 7773 -291328635 59213760 -1861143051 1346409296 -407409329
        -2067021143 -876622672 15724287</internalNodes>
      <leafValues>
        -5.6330031156539917e-01 3.1325259804725647e-01</leafValues></_>
    <_>
      <internalNodes>
        0 -1 6772 -1682252367 -469977908 -670051843 1576401245
        1934013844 114409923 1521472502 1904103633</internalNodes>
      <leafValues>
        -6.0407459735870361e-01 2.8123703598976135e-01</leafValues></_></weakClassifiers></stage7>
</opencv_storage>
