<?xml version="1.0"?>
<opencv_storage>
<stage4>
  <maxWeakCount>12</maxWeakCount>
  <stageThreshold>-1.3320446014404297e+00</stageThreshold>
  <weakClassifiers>
    <_>
      <internalNodes>
        0 -1 5271 -612574017 -44051497 -176564801 -577243313 -1571243073
        -1140861993 -1142054977 -1073741825</internalNodes>
      <leafValues>
        -6.2056821584701538e-01 4.5100000500679016e-01</leafValues></_>
    <_>
      <internalNodes>
        0 -1 2571 -293714876 -86019585 -21624353 -1157755665 -84129604
        -51875857 -117802529 -352420097</internalNodes>
      <leafValues>
        -7.0409429073333740e-01 3.2978233695030212e-01</leafValues></_>
    <_>
      <internalNodes>
        0 -1 93 -821366794 260104178 2140694422 -136071518 -940056645
        -6558986 -1074672641 -537409673</internalNodes>
      <leafValues>
        -5.3957563638687134e-01 4.2770031094551086e-01</leafValues></_>
    <_>
      <internalNodes>
        0 -1 5118 354506751 -274597381 -603555205 1591194619 -571998465
        -67126533 2126380795 335322877</internalNodes>
      <leafValues>
        -6.9430470466613770e-01 3.4816160798072815e-01</leafValues></_>
    <_>
      <internalNodes>
        0 -1 7555 -37755804 1835000929 -792495792 1929638754 -370324796
        -987256330 -520107904 -1040192801</internalNodes>
      <leafValues>
        -5.9365582466125488e-01 4.2020654678344727e-01</leafValues></_>
    <_>
      <internalNodes>
        0 -1 6255 -33565647 948180379 -175007303 836756127 2096399615
        -338967318 -923284597 -1962939461</internalNodes>
      <leafValues>
        -5.7626783847808838e-01 4.0898457169532776e-01</leafValues></_>
    <_>
      <internalNodes>
        0 -1 6409 -1624047710 -1095064176 -1257925231 -1648500835
        -1163132929 -854313 1555511220 -269287433</internalNodes>
      <leafValues>
        -5.4364371299743652e-01 4.1643345355987549e-01</leafValues></_>
    <_>
      <internalNodes>
        0 -1 5024 1073569535 -1083705364 290395356 528163797 -1349878273
        -1086338934 1197374399 289709821</internalNodes>
      <leafValues>
        -6.7057842016220093e-01 3.2823887467384338e-01</leafValues></_>
    <_>
      <internalNodes>
        0 -1 462 -805943553 419854159 -1459675558 -1238732266 1851849723
        -115158673 -1006251989 -310906297</internalNodes>
      <leafValues>
        -5.0304263830184937e-01 4.3323731422424316e-01</leafValues></_>
    <_>
      <internalNodes>
        0 -1 3756 -1006113049 -1080072333 -22963378 1044831884
        1703545083 -175157448 -92471809 -1041</internalNodes>
      <leafValues>
        -4.3815368413925171e-01 5.4335689544677734e-01</leafValues></_>
    <_>
      <internalNodes>
        0 -1 2863 -13051144 -35501553 -482090213 1859092565 724173110
        -80850321 1265832639 1601920755</internalNodes>
      <leafValues>
        -8.5615545511245728e-01 2.7705657482147217e-01</leafValues></_>
    <_>
      <internalNodes>
        0 -1 454 -19399942 -220870188 -1811472197 1562368587 -661474562
        -169226082 -355469073 1397735501</internalNodes>
      <leafValues>
        -6.0797822475433350e-01 3.5320904850959778e-01</leafValues></_></weakClassifiers></stage4>
</opencv_storage>
