<?xml version="1.0"?>
<opencv_storage>
<stage3>
  <maxWeakCount>10</maxWeakCount>
  <stageThreshold>-1.9163621664047241e+00</stageThreshold>
  <weakClassifiers>
    <_>
      <internalNodes>
        0 -1 6542 -2105889 -8321 -152569124 -50724897 -19923380 -4471873
        -16777474 -16777217</internalNodes>
      <leafValues>
        -6.4261984825134277e-01 4.7286063432693481e-01</leafValues></_>
    <_>
      <internalNodes>
        0 -1 1140 -290526225 -288424529 -65565442 -66066 1125068799
        -61083253 1929331446 -33</internalNodes>
      <leafValues>
        -5.6776189804077148e-01 4.9309039115905762e-01</leafValues></_>
    <_>
      <internalNodes>
        0 -1 5509 523263485 -411082757 2145910771 -212078337 -1612718465
        -72774161 201326559 1527977981</internalNodes>
      <leafValues>
        -6.6282314062118530e-01 4.3718421459197998e-01</leafValues></_>
    <_>
      <internalNodes>
        0 -1 1884 1332202957 -2364926 -1750361857 -53750 1214401728
        -124908010 -3473409 1562070367</internalNodes>
      <leafValues>
        -6.9573396444320679e-01 3.7559521198272705e-01</leafValues></_>
    <_>
      <internalNodes>
        0 -1 6664 -572541568 291443997 -826385613 993785147 -818952715
        -1413494359 -922759699 -1933837313</internalNodes>
      <leafValues>
        -6.6937857866287231e-01 3.9454439282417297e-01</leafValues></_>
    <_>
      <internalNodes>
        0 -1 150 1931211760 -71683496 -1220642818 992805888 2075000831
        -1476109 2139716607 2147439969</internalNodes>
      <leafValues>
        -7.1028316020965576e-01 3.4671619534492493e-01</leafValues></_>
    <_>
      <internalNodes>
        0 -1 1257 -4369 -439360049 -52630454 -29166546 1944013391
        -378311315 -796393877 -9175197</internalNodes>
      <leafValues>
        -5.5502778291702271e-01 4.4737863540649414e-01</leafValues></_>
    <_>
      <internalNodes>
        0 -1 7593 -1146553543 -1154155680 -662444009 -275252847
        2079520562 -7409435 -1146735120 -1364205815</internalNodes>
      <leafValues>
        -5.7255357503890991e-01 4.3621522188186646e-01</leafValues></_>
    <_>
      <internalNodes>
        0 -1 1984 -960041234 -847776257 -1063331858 1003315918
        1543522555 -270104399 -21628305 -17045908</internalNodes>
      <leafValues>
        -5.2425080537796021e-01 4.6947428584098816e-01</leafValues></_>
    <_>
      <internalNodes>
        0 -1 6380 -1078231553 -73665057 1574852189 1600126843 1807481855
        2141712303 251591555 1335810173</internalNodes>
      <leafValues>
        -5.9771132469177246e-01 4.4275668263435364e-01</leafValues></_></weakClassifiers></stage3>
</opencv_storage>
