<?xml version="1.0"?>
<opencv_storage>
<stage9>
  <maxWeakCount>21</maxWeakCount>
  <stageThreshold>-1.8056503534317017e+00</stageThreshold>
  <weakClassifiers>
    <_>
      <internalNodes>
        0 -1 2198 -38930603 -782527635 -1358824535 1106211289
        -1937169877 -355766065 1753989034 -318767731</internalNodes>
      <leafValues>
        -5.5712127685546875e-01 2.0700219273567200e-01</leafValues></_>
    <_>
      <internalNodes>
        0 -1 1979 -20460914 -101351393 -628689665 -1531266658 -215465908
        -548273946 -1095172357 -11667361</internalNodes>
      <leafValues>
        -5.2800148725509644e-01 2.6621976494789124e-01</leafValues></_>
    <_>
      <internalNodes>
        0 -1 3573 -1142006275 -739282435 -138499281 -134490883 20642751
        2127268603 2140361663 2147139997</internalNodes>
      <leafValues>
        -5.2291208505630493e-01 2.7370962500572205e-01</leafValues></_>
    <_>
      <internalNodes>
        0 -1 6392 -1078198913 -10493957 -1476592705 2003828733
        -134232321 1845354479 1610575599 1432353759</internalNodes>
      <leafValues>
        -3.2389211654663086e-01 4.5248576998710632e-01</leafValues></_>
    <_>
      <internalNodes>
        0 -1 1397 -903090352 -592825134 2031730879 -823157805 -547388166
        -1344035453 1271874463 -320867101</internalNodes>
      <leafValues>
        -4.1041606664657593e-01 3.7633997201919556e-01</leafValues></_>
    <_>
      <internalNodes>
        0 -1 7615 -1147091037 -1112935504 -1693199979 -137495203
        -897147973 -1296547749 463280949 754733989</internalNodes>
      <leafValues>
        -5.4068595170974731e-01 2.8024569153785706e-01</leafValues></_>
    <_>
      <internalNodes>
        0 -1 6684 -201851624 494902576 -1166871693 404262931 -2085638294
        -343817959 -1061172800 -909126838</internalNodes>
      <leafValues>
        -5.8325862884521484e-01 2.5993511080741882e-01</leafValues></_>
    <_>
      <internalNodes>
        0 -1 342 -44632786 218607630 604967164 1192198910 -340727024
        253747801 1145430125 -1408302418</internalNodes>
      <leafValues>
        -6.0414135456085205e-01 2.2545590996742249e-01</leafValues></_>
    <_>
      <internalNodes>
        0 -1 7694 -938309541 -747167733 -803890823 306274811 -716510708
        -371157952 -623191854 -559497841</internalNodes>
      <leafValues>
        -4.1483971476554871e-01 3.5647684335708618e-01</leafValues></_>
    <_>
      <internalNodes>
        0 -1 501 -277205857 -553130433 653196157 -701777394 -358356999
        1193508795 1682767759 -545793981</internalNodes>
      <leafValues>
        -3.5728821158409119e-01 4.2357507348060608e-01</leafValues></_>
    <_>
      <internalNodes>
        0 -1 6720 487676539 -6822677 830689599 1234530761 -1646919779
        1581056134 21003775 1968504061</internalNodes>
      <leafValues>
        -6.1625123023986816e-01 2.2824741899967194e-01</leafValues></_>
    <_>
      <internalNodes>
        0 -1 6383 1837748891 -1450588013 1484845479 1205175005
        1756215802 319443807 1362008599 1431205977</internalNodes>
      <leafValues>
        -5.2138173580169678e-01 2.7110919356346130e-01</leafValues></_>
    <_>
      <internalNodes>
        0 -1 239 -64557634 1661396198 -788069933 1898311582 -804265988
        -195495696 719000499 -185996037</internalNodes>
      <leafValues>
        -4.2224848270416260e-01 3.4216383099555969e-01</leafValues></_>
    <_>
      <internalNodes>
        0 -1 3120 1549167748 -1851945467 -729685730 -728167715 -84803412
        -250068758 -41891105 1593774061</internalNodes>
      <leafValues>
        -6.2511575222015381e-01 2.4341548979282379e-01</leafValues></_>
    <_>
      <internalNodes>
        0 -1 2927 -1074108680 -1857564637 -820951849 -230430139
        770076411 -66408302 1696928439 1988475493</internalNodes>
      <leafValues>
        -6.3300532102584839e-01 2.1295322477817535e-01</leafValues></_>
    <_>
      <internalNodes>
        0 -1 6963 -292889457 234918016 1395515485 1400193606 -1877802743
        -1148510206 531632060 180735416</internalNodes>
      <leafValues>
        -6.3013148307800293e-01 2.3553220927715302e-01</leafValues></_>
    <_>
      <internalNodes>
        0 -1 438 -593038630 1563378246 -1987382881 1562841951 1329658840
        -1179189182 21291146 -865120004</internalNodes>
      <leafValues>
        -5.0582045316696167e-01 3.0974712967872620e-01</leafValues></_>
    <_>
      <internalNodes>
        0 -1 1679 421132273 30181504 -1048050912 -1476537916 1646165759
        847931523 1092568882 1121809047</internalNodes>
      <leafValues>
        -6.6406095027923584e-01 2.0995764434337616e-01</leafValues></_>
    <_>
      <internalNodes>
        0 -1 7129 -1461823395 2125482431 -1207903421 -1088654919
        -401722858 -225542141 -635799486 -1025311189</internalNodes>
      <leafValues>
        -4.8409524559974670e-01 3.0303794145584106e-01</leafValues></_>
    <_>
      <internalNodes>
        0 -1 3596 -1495964965 -145381683 881512469 962068957 -1688209285
        -812014844 579052464 360489213</internalNodes>
      <leafValues>
        -5.4295587539672852e-01 2.5899618864059448e-01</leafValues></_>
    <_>
      <internalNodes>
        0 -1 8254 662416005 1704957542 -1290685062 -79265770 -1017197780
        -1044067968 -914001436 -841485562</internalNodes>
      <leafValues>
        -4.1744980216026306e-01 3.6761915683746338e-01</leafValues></_></weakClassifiers></stage9>
</opencv_storage>
