<?xml version="1.0"?>
<opencv_storage>
<cascade>
  <stageType>BOOST</stageType>
  <featureType>LBP</featureType>
  <height>24</height>
  <width>24</width>
  <stageParams>
    <boostType>GAB</boostType>
    <minHitRate>9.9900001287460327e-01</minHitRate>
    <maxFalseAlarm>2.0000000298023224e-01</maxFalseAlarm>
    <weightTrimRate>9.4999999999999996e-01</weightTrimRate>
    <maxDepth>1</maxDepth>
    <maxWeakCount>100</maxWeakCount></stageParams>
  <featureParams>
    <maxCatCount>256</maxCatCount>
    <featSize>1</featSize></featureParams>
  <stageNum>10</stageNum>
  <stages>
    <!-- stage 0 -->
    <_>
      <maxWeakCount>10</maxWeakCount>
      <stageThreshold>-1.3156378269195557e+00</stageThreshold>
      <weakClassifiers>
        <_>
          <internalNodes>
            0 -1 27 -84219141 -4456481 -1036983557 -80684289 -891764481
            -896743713 -153105665 -10485761</internalNodes>
          <leafValues>
            -6.5770989656448364e-01 6.8660813570022583e-01</leafValues></_>
        <_>
          <internalNodes>
            0 -1 109 -551823088 -10489088 1595922715 -551575797
            -1416908160 -102006270 453749643 -3509</internalNodes>
          <leafValues>
            -6.5198761224746704e-01 5.8550655841827393e-01</leafValues></_>
        <_>
          <internalNodes>
            0 -1 28 -16777225 1223688187 -26218910 -219218258 -268959921
            1966604159 -134250938 -184549377</internalNodes>
          <leafValues>
            -4.9396592378616333e-01 5.8725583553314209e-01</leafValues></_>
        <_>
          <internalNodes>
            0 -1 94 -585106216 -570425908 -1654795215 -539117583
            -539045745 -1614807105 -1932228151 -640684047</internalNodes>
          <leafValues>
            -4.9219703674316406e-01 5.5263686180114746e-01</leafValues></_>
        <_>
          <internalNodes>
            0 -1 157 -264318 -139198993 -1275112862 -1140851725
            -18877558 1415576327 -608964608 -134217729</internalNodes>
          <leafValues>
            -5.9109908342361450e-01 4.3914526700973511e-01</leafValues></_>
        <_>
          <internalNodes>
            0 -1 41 -105198854 -692436864 1377886330 -717748215
            -1058405633 -940356869 -8918529 -605044021</internalNodes>
          <leafValues>
            -4.8047390580177307e-01 5.2389091253280640e-01</leafValues></_>
        <_>
          <internalNodes>
            0 -1 42 -536870917 -2106661457 -16781518 -84017561
            1895259749 -992018433 -415762603 -320864385</internalNodes>
          <leafValues>
            -4.2819288372993469e-01 5.7507997751235962e-01</leafValues></_>
        <_>
          <internalNodes>
            0 -1 187 -1078992897 -1078284808 83764477 -583368899
            706240254 1018887676 477365469 -33589803</internalNodes>
          <leafValues>
            -4.8284125328063965e-01 5.0571423768997192e-01</leafValues></_>
        <_>
          <internalNodes>
            0 -1 48 -427921689 1025470077 2062810879 1894972283
            -276869507 2137611335 -151062785 -530915602</internalNodes>
          <leafValues>
            -4.5026683807373047e-01 5.2134048938751221e-01</leafValues></_>
        <_>
          <internalNodes>
            0 -1 59 -1090523633 114519034 -16847132 -226754561 131352069
            1629834547 -28356410 -432801025</internalNodes>
          <leafValues>
            -5.2578979730606079e-01 4.4966098666191101e-01</leafValues></_></weakClassifiers></_>
    <!-- stage 1 -->
    <_>
      <maxWeakCount>15</maxWeakCount>
      <stageThreshold>-1.3310213088989258e+00</stageThreshold>
      <weakClassifiers>
        <_>
          <internalNodes>
            0 -1 114 -134219269 -71569295 -3145733 -2593 -209997182
            -204361293 -73417805 -67109893</internalNodes>
          <leafValues>
            -5.8762580156326294e-01 6.2943571805953979e-01</leafValues></_>
        <_>
          <internalNodes>
            0 -1 83 -570622465 -108035 424214271 1601855485 -838939396
            1575637118 -1615134982 -1078263809</internalNodes>
          <leafValues>
            -5.1458650827407837e-01 5.1536619663238525e-01</leafValues></_>
        <_>
          <internalNodes>
            0 -1 49 -3364136 -205604176 -673319203 -2115878 -1193820418
            -19137570 -3408933 -1145066818</internalNodes>
          <leafValues>
            -6.0541069507598877e-01 3.9336878061294556e-01</leafValues></_>
        <_>
          <internalNodes>
            0 -1 189 -201326614 -292880438 -40544 -489709859 -42470201
            84893667 -167782925 -672663553</internalNodes>
          <leafValues>
            -5.0828605890274048e-01 4.6482387185096741e-01</leafValues></_>
        <_>
          <internalNodes>
            0 -1 8 -1018186761 -1377392030 580883190 -135273750
            1843394559 -330439616 358085631 -271583793</internalNodes>
          <leafValues>
            -3.8355928659439087e-01 5.8882838487625122e-01</leafValues></_>
        <_>
          <internalNodes>
            0 -1 60 -553657089 -49324173 -353706258 1882390491
            -226868660 1880314747 -4268470 -142935169</internalNodes>
          <leafValues>
            -4.4056025147438049e-01 4.6339911222457886e-01</leafValues></_>
        <_>
          <internalNodes>
            0 -1 193 -226501025 -109879429 -353370370 1659043839
            2134530638 2138503023 -17105673 -232587401</internalNodes>
          <leafValues>
            -4.2259499430656433e-01 4.7229489684104919e-01</leafValues></_>
        <_>
          <internalNodes>
            0 -1 119 209653527 353525558 -8938509 -141598921 268381677
            -1894035672 533497277 -1610918664</internalNodes>
          <leafValues>
            -4.2760443687438965e-01 4.6064066886901855e-01</leafValues></_>
        <_>
          <internalNodes>
            0 -1 16 -75503921 -1330726145 -94363500 -1308429585
            -548861620 1346693189 266325582 1114636111</internalNodes>
          <leafValues>
            -5.6937116384506226e-01 3.6006709933280945e-01</leafValues></_>
        <_>
          <internalNodes>
            0 -1 150 456273717 1060274036 1005428221 2105375741
            -1276280835 -1146214276 733855164 -1954804548</internalNodes>
          <leafValues>
            -5.6379342079162598e-01 3.5360229015350342e-01</leafValues></_>
        <_>
          <internalNodes>
            0 -1 38 1598087935 -540573560 -951218441 1462059522
            -2046235922 -829791928 1808072619 1270873837</internalNodes>
          <leafValues>
            -4.9167808890342712e-01 3.9959660172462463e-01</leafValues></_>
        <_>
          <internalNodes>
            0 -1 191 -1342177301 1106239215 2096618930 -364058674
            -1218970771 76493293 -142607945 1356332518</internalNodes>
          <leafValues>
            -5.6523054838180542e-01 3.3975261449813843e-01</leafValues></_>
        <_>
          <internalNodes>
            0 -1 74 387922780 353712902 1908013023 -1121995986
            1878989384 -70517928 -4370481 -15864930</internalNodes>
          <leafValues>
            -5.1396042108535767e-01 4.0198403596878052e-01</leafValues></_>
        <_>
          <internalNodes>
            0 -1 161 -1350633679 -1976650449 -1230538927 -1648371847
            -1084702789 -1968256087 -1578905599 -1895829707</internalNodes>
          <leafValues>
            -4.6282935142517090e-01 4.2287290096282959e-01</leafValues></_>
        <_>
          <internalNodes>
            0 -1 77 -1383859215 761872642 -102763785 1407730017
            268419071 -1922695593 770699765 141574516</internalNodes>
          <leafValues>
            -5.7066327333450317e-01 3.4357890486717224e-01</leafValues></_></weakClassifiers></_>
    <!-- stage 2 -->
    <_>
      <maxWeakCount>16</maxWeakCount>
      <stageThreshold>-1.3652058839797974e+00</stageThreshold>
      <weakClassifiers>
        <_>
          <internalNodes>
            0 -1 1 -706744577 -119545618 831484927 -100685057 -67109889
            -69279621 -167776257 -3329</internalNodes>
          <leafValues>
            -5.4291415214538574e-01 6.2955975532531738e-01</leafValues></_>
        <_>
          <internalNodes>
            0 -1 131 -146803781 -547487841 -46425807 -15205445 -4220742
            -1220595273 -240004815 -608175173</internalNodes>
          <leafValues>
            -4.5123249292373657e-01 5.3094637393951416e-01</leafValues></_>
        <_>
          <internalNodes>
            0 -1 72 1224629503 -545292489 2126446334 842694271
            -864400308 -1083023593 -17105714 -12910593</internalNodes>
          <leafValues>
            -4.5715749263763428e-01 4.7223448753356934e-01</leafValues></_>
        <_>
          <internalNodes>
            0 -1 23 -1347420253 -269488214 -1241514381 -1050784
            -273728005 -268435457 1966412273 -2575</internalNodes>
          <leafValues>
            -3.7904345989227295e-01 5.4262477159500122e-01</leafValues></_>
        <_>
          <internalNodes>
            0 -1 185 -629254049 1935310175 -83935622 1379062777
            -1350836722 1795947343 -25234722 -93651329</internalNodes>
          <leafValues>
            -4.2923495173454285e-01 4.7169297933578491e-01</leafValues></_>
        <_>
          <internalNodes>
            0 -1 70 1607003900 1499433967 -952967169 -550408209
            1149770239 -541585550 -812089361 -883377222</internalNodes>
          <leafValues>
            -4.6527263522148132e-01 4.1180500388145447e-01</leafValues></_>
        <_>
          <internalNodes>
            0 -1 162 -73838503 1744780127 -86245457 -1209134249
            -568743345 -32897 -89458197 -616844369</internalNodes>
          <leafValues>
            -4.0737006068229675e-01 4.6050208806991577e-01</leafValues></_>
        <_>
          <internalNodes>
            0 -1 198 -16781585 602406895 -419443026 -1057054746
            2147439943 -8388745 -302125193 -220725259</internalNodes>
          <leafValues>
            -3.8594514131546021e-01 4.9875488877296448e-01</leafValues></_>
        <_>
          <internalNodes>
            0 -1 62 -4497665 2147180399 1986952830 1376939745 -17412530
            -1082630564 -69937 -1409089</internalNodes>
          <leafValues>
            -3.6629593372344971e-01 5.1133561134338379e-01</leafValues></_>
        <_>
          <internalNodes>
            0 -1 4 -1460667466 -1210118370 -1024581494 -2100385074
            -1266730534 -168349852 -269946930 -17562</internalNodes>
          <leafValues>
            -5.2138537168502808e-01 3.4114286303520203e-01</leafValues></_>
        <_>
          <internalNodes>
            0 -1 30 -1082163459 528293757 -1095082168 1563451103
            -1082241972 2137937517 -70754748 -1094914567</internalNodes>
          <leafValues>
            -4.6323710680007935e-01 3.9339980483055115e-01</leafValues></_>
        <_>
          <internalNodes>
            0 -1 183 1060765667 -1349785728 -369166927 -102892107
            259845839 -1987130341 368313537 1173738997</internalNodes>
          <leafValues>
            -5.5142372846603394e-01 3.4678882360458374e-01</leafValues></_>
        <_>
          <internalNodes>
            0 -1 40 1945102062 2137265894 1451181742 1399280644
            1489722024 1342654830 1902300111 1465604543</internalNodes>
          <leafValues>
            -5.8461976051330566e-01 3.0181005597114563e-01</leafValues></_>
        <_>
          <internalNodes>
            0 -1 153 -989870640 -6423749 -1477544010 1454110442
            1647969329 1642926399 554423770 1087864963</internalNodes>
          <leafValues>
            -5.6817638874053955e-01 3.0249541997909546e-01</leafValues></_>
        <_>
          <internalNodes>
            0 -1 151 -1141500555 -70187603 -71331361 -1430823075
            2104064725 -86073403 -237062913 -15171845</internalNodes>
          <leafValues>
            -4.3698111176490784e-01 4.3110397458076477e-01</leafValues></_>
        <_>
          <internalNodes>
            0 -1 118 -570676739 -1145688278 60688767 727418537
            -1367680275 663159486 -212866321 2147429050</internalNodes>
          <leafValues>
            -4.9388843774795532e-01 3.3595356345176697e-01</leafValues></_></weakClassifiers></_>
    <!-- stage 3 -->
    <_>
      <maxWeakCount>19</maxWeakCount>
      <stageThreshold>-1.4997675418853760e+00</stageThreshold>
      <weakClassifiers>
        <_>
          <internalNodes>
            0 -1 13 -269487117 -273682774 -67111945 -527445 -1
            -808452145 -134219777 -2049</internalNodes>
          <leafValues>
            -5.1822549104690552e-01 5.9756100177764893e-01</leafValues></_>
        <_>
          <internalNodes>
            0 -1 182 -263254 -812916854 -305135744 -269487217
            -1080560765 84768002 1433916883 1432354815</internalNodes>
          <leafValues>
            -5.8577483892440796e-01 3.3955982327461243e-01</leafValues></_>
        <_>
          <internalNodes>
            0 -1 22 -716049413 -148397365 -539099137 1339001579
            -610075653 -6315802 -8225 -536872257</internalNodes>
          <leafValues>
            -3.2452595233917236e-01 6.0404062271118164e-01</leafValues></_>
        <_>
          <internalNodes>
            0 -1 169 -9046019 -543424528 1496808881 -51911 523401704
            -1087369996 454067707 -1124131603</internalNodes>
          <leafValues>
            -4.4742298126220703e-01 3.7988400459289551e-01</leafValues></_>
        <_>
          <internalNodes>
            0 -1 25 -537461014 -97273090 1345470538 -549794817
            -795685654 1343234712 -545662051 1601568767</internalNodes>
          <leafValues>
            -4.9474501609802246e-01 3.5915285348892212e-01</leafValues></_>
        <_>
          <internalNodes>
            0 -1 146 -1003620 -2932983 86060324 456669560 -80829543
            589891712 722643132 2143266813</internalNodes>
          <leafValues>
            -5.6130605936050415e-01 3.0583098530769348e-01</leafValues></_>
        <_>
          <internalNodes>
            0 -1 171 -44979 -10800829 1660122863 -763470409 -42084340
            -14682593 -1201882369 -1291257221</internalNodes>
          <leafValues>
            -4.0924876928329468e-01 4.2242437601089478e-01</leafValues></_>
        <_>
          <internalNodes>
            0 -1 165 -219483710 -609599617 1070687824 -543015217
            -1303207517 19232168 -472742495 -1019230293</internalNodes>
          <leafValues>
            -4.8189198970794678e-01 3.6507216095924377e-01</leafValues></_>
        <_>
          <internalNodes>
            0 -1 85 1568570613 -8749323 -88933121 -128422035 -541144870
            -45661557 -1075905793 -1074632837</internalNodes>
          <leafValues>
            -4.2155200242996216e-01 4.1326373815536499e-01</leafValues></_>
        <_>
          <internalNodes>
            0 -1 186 -228863921 1566537047 -471335314 1147599695
            -499716030 -704643225 -88867333 -766784673</internalNodes>
          <leafValues>
            -3.5381439328193665e-01 4.7285369038581848e-01</leafValues></_>
        <_>
          <internalNodes>
            0 -1 98 -1202827052 -1080052777 -26179 -35768267 -1428955937
            -1054213 -2000532338 -1076166577</internalNodes>
          <leafValues>
            -4.6945428848266602e-01 3.2668411731719971e-01</leafValues></_>
        <_>
          <internalNodes>
            0 -1 43 -9437465 550326254 -132128192 2128608975 846196301
            273931210 1934943813 -134479873</internalNodes>
          <leafValues>
            -4.2208847403526306e-01 3.7653723359107971e-01</leafValues></_>
        <_>
          <internalNodes>
            0 -1 137 238305045 972345020 1005909951 1031748473
            1043611629 1069967197 1027341247 -1658292028</internalNodes>
          <leafValues>
            -5.1015323400497437e-01 3.1419670581817627e-01</leafValues></_>
        <_>
          <internalNodes>
            0 -1 155 -27003444 -141562501 -213224926 -202673272
            -1527382642 1134160396 397226130 1464451583</internalNodes>
          <leafValues>
            -4.9803394079208374e-01 3.1349617242813110e-01</leafValues></_>
        <_>
          <internalNodes>
            0 -1 82 428649996 528420656 -382474209 454899997 -833432068
            526324158 1236986475 89128895</internalNodes>
          <leafValues>
            -6.4738082885742188e-01 2.6349619030952454e-01</leafValues></_>
        <_>
          <internalNodes>
            0 -1 6 78549632 2140124033 -840469194 -175117733 154005983
            -608189518 172700879 -857761851</internalNodes>
          <leafValues>
            -4.8599028587341309e-01 3.1321579217910767e-01</leafValues></_>
        <_>
          <internalNodes>
            0 -1 199 -271844401 -1884356694 -337120527 -471007288
            1743988351 -1937834025 1978455281 -235077634</internalNodes>
          <leafValues>
            -3.7060153484344482e-01 4.2146369814872742e-01</leafValues></_>
        <_>
          <internalNodes>
            0 -1 97 1568146549 536179928 -34048129 -1206888707
            -1664578066 2142915130 -1111983233 -1616365634</internalNodes>
          <leafValues>
            -4.4627565145492554e-01 3.5170707106590271e-01</leafValues></_>
        <_>
          <internalNodes>
            0 -1 57 -604519730 1525580512 82638 1939312882 1311015040
            46215974 1869243605 934639606</internalNodes>
          <leafValues>
            -6.3453549146652222e-01 2.7060416340827942e-01</leafValues></_></weakClassifiers></_>
    <!-- stage 4 -->
    <_>
      <maxWeakCount>19</maxWeakCount>
      <stageThreshold>-1.2010343074798584e+00</stageThreshold>
      <weakClassifiers>
        <_>
          <internalNodes>
            0 -1 18 -269813761 -262145 -1082369 -4195361 -538247169
            -335873 -539041793 -2049</internalNodes>
          <leafValues>
            -4.7445255517959595e-01 6.6528767347335815e-01</leafValues></_>
        <_>
          <internalNodes>
            0 -1 53 -1046220381 -235413661 -140511781 -704678573
            -1901069397 -536872961 -1984956737 1089455591</internalNodes>
          <leafValues>
            -4.2564725875854492e-01 4.4161945581436157e-01</leafValues></_>
        <_>
          <internalNodes>
            0 -1 123 1970665239 1467839965 920875647 2008013775
            -203948621 -3149 1946124223 -470288449</internalNodes>
          <leafValues>
            -3.8865476846694946e-01 4.2376494407653809e-01</leafValues></_>
        <_>
          <internalNodes>
            0 -1 177 792133617 -1357719904 -672172559 -16399 -1416890373
            -1953766743 234804733 -572533323</internalNodes>
          <leafValues>
            -4.0232670307159424e-01 3.9175817370414734e-01</leafValues></_>
        <_>
          <internalNodes>
            0 -1 156 -68485126 1001923504 786441848 463158008 -358354952
            303104250 1059264680 1397217707</internalNodes>
          <leafValues>
            -5.1791667938232422e-01 3.1432133913040161e-01</leafValues></_>
        <_>
          <internalNodes>
            0 -1 17 -68159505 -33035 -16912834 -264699917 -1074313972
            -1134639537 -307298344 -29360209</internalNodes>
          <leafValues>
            -3.1389507651329041e-01 4.8464930057525635e-01</leafValues></_>
        <_>
          <internalNodes>
            0 -1 88 -1381303303 837614448 1035991007 1431434196
            -1077937155 1877982621 -1342349841 -1699215488</internalNodes>
          <leafValues>
            -4.1551581025123596e-01 3.7025582790374756e-01</leafValues></_>
        <_>
          <internalNodes>
            0 -1 144 -83 -26759410 1925181962 1927853034 -469893175
            1104129867 -1285184632 -674393612</internalNodes>
          <leafValues>
            -3.5683697462081909e-01 4.3376657366752625e-01</leafValues></_>
        <_>
          <internalNodes>
            0 -1 10 -522000657 -538525945 -487529825 -1109724177
            -62012417 -10736716 1707467406 -200804369</internalNodes>
          <leafValues>
            -3.9709278941154480e-01 3.7494832277297974e-01</leafValues></_>
        <_>
          <internalNodes>
            0 -1 64 2077409278 -1075216561 1493040629 1428223084
            -1968558097 -346842421 -620941617 -253393665</internalNodes>
          <leafValues>
            -3.8331031799316406e-01 3.7824782729148865e-01</leafValues></_>
        <_>
          <internalNodes>
            0 -1 181 -134252606 -846465105 1982718464 1124004815
            1905685762 71512343 1423922564 1401282431</internalNodes>
          <leafValues>
            -6.3294708728790283e-01 2.4442312121391296e-01</leafValues></_>
        <_>
          <internalNodes>
            0 -1 93 -13043492 -1313384 -167782051 2141166941 -17896001
            -604307784 -1879146535 -1426712392</internalNodes>
          <leafValues>
            -5.3501784801483154e-01 2.4927365779876709e-01</leafValues></_>
        <_>
          <internalNodes>
            0 -1 190 1876951035 724178848 186238176 -1614824964
            228051449 899047600 394089941 1859738071</internalNodes>
          <leafValues>
            -4.5466792583465576e-01 3.0290347337722778e-01</leafValues></_>
        <_>
          <internalNodes>
            0 -1 45 -1073751313 953137129 -87370134 -1204094226
            -185641916 88955147 -10993084 -1235755683</internalNodes>
          <leafValues>
            -4.8477941751480103e-01 2.8985348343849182e-01</leafValues></_>
        <_>
          <internalNodes>
            0 -1 127 -228526776 1890319120 -1112590853 -208801628
            -498491025 -14725989 -1008513053 1359725194</internalNodes>
          <leafValues>
            -4.9145954847335815e-01 2.8838899731636047e-01</leafValues></_>
        <_>
          <internalNodes>
            0 -1 142 -748713764 -1147502079 325137042 2100802171
            1163911043 -1288501216 1599826376 1426424450</internalNodes>
          <leafValues>
            -4.9009197950363159e-01 2.8798660635948181e-01</leafValues></_>
        <_>
          <internalNodes>
            0 -1 170 -77702049 996030733 -94743809 820927335 -34031030
            -67436741 -1438860562 -1171593985</internalNodes>
          <leafValues>
            -3.7050220370292664e-01 3.8785332441329956e-01</leafValues></_>
        <_>
          <internalNodes>
            0 -1 5 996717290 -251954376 1833040815 -1813171827 970513139
            -151057934 -1081831733 -4670334</internalNodes>
          <leafValues>
            -4.4385021924972534e-01 3.2522422075271606e-01</leafValues></_>
        <_>
          <internalNodes>
            0 -1 174 1600369585 -1549160535 792163296 -9487107
            -543162965 -1895105248 648007935 -1112565350</internalNodes>
          <leafValues>
            -2.8268519043922424e-01 5.1448374986648560e-01</leafValues></_></weakClassifiers></_>
    <!-- stage 5 -->
    <_>
      <maxWeakCount>21</maxWeakCount>
      <stageThreshold>-1.2592135667800903e+00</stageThreshold>
      <weakClassifiers>
        <_>
          <internalNodes>
            0 -1 7 -135268353 -1056018 -201590785 -201593873 -1 -3145908
            2011168767 -1</internalNodes>
          <leafValues>
            -4.5362168550491333e-01 6.6560763120651245e-01</leafValues></_>
        <_>
          <internalNodes>
            0 -1 184 -230539193 -11534497 -821409 -14684921 -499974449
            -76546117 -496304385 -503122081</internalNodes>
          <leafValues>
            -4.1487172245979309e-01 4.0195500850677490e-01</leafValues></_>
        <_>
          <internalNodes>
            0 -1 46 -967122210 -315393 -904707505 -244190501 201229215
            -808740938 -809775185 -818286913</internalNodes>
          <leafValues>
            -4.3440446257591248e-01 3.5848230123519897e-01</leafValues></_>
        <_>
          <internalNodes>
            0 -1 42 -503349273 1758456238 -203494910 -17301777
            1652029303 68215799 1699211079 -134219785</internalNodes>
          <leafValues>
            -4.5555806159973145e-01 2.8929200768470764e-01</leafValues></_>
        <_>
          <internalNodes>
            0 -1 73 -33661443 2147360113 2113568763 1610292727
            -1610985732 -553483 -549782022 -1078296577</internalNodes>
          <leafValues>
            -3.0234134197235107e-01 4.5041865110397339e-01</leafValues></_>
        <_>
          <internalNodes>
            0 -1 19 325006078 469671706 1067912362 1072554911 1789212670
            2130607206 2008640495 1851706190</internalNodes>
          <leafValues>
            -5.1256918907165527e-01 2.4981397390365601e-01</leafValues></_>
        <_>
          <internalNodes>
            0 -1 107 -1074218820 1073585580 297273498 1073722175
            -1641771318 299634988 1139772107 1802484731</internalNodes>
          <leafValues>
            -4.9075281620025635e-01 2.9217103123664856e-01</leafValues></_>
        <_>
          <internalNodes>
            0 -1 143 -134777031 -1155006473 -281716455 -83494985
            1371525514 93180351 -1055657552 -795091557</internalNodes>
          <leafValues>
            -4.5247203111648560e-01 3.0803778767585754e-01</leafValues></_>
        <_>
          <internalNodes>
            0 -1 112 -1953488975 -1141015050 -1344405505 -243976745
            -1409552451 -72913545 -1921710868 -2012466124</internalNodes>
          <leafValues>
            -4.2494302988052368e-01 3.1120494008064270e-01</leafValues></_>
        <_>
          <internalNodes>
            0 -1 196 -1681915909 -1893011544 1560248305 -148499
            -818817153 -810617510 1845058549 -872546307</internalNodes>
          <leafValues>
            -3.0957382917404175e-01 4.2786610126495361e-01</leafValues></_>
        <_>
          <internalNodes>
            0 -1 140 -342108791 -375407831 -1813268046 -1240995198
            -262222411 -1772885777 -208685931 1439679166</internalNodes>
          <leafValues>
            -3.6691156029701233e-01 3.7277543544769287e-01</leafValues></_>
        <_>
          <internalNodes>
            0 -1 65 -1276065026 1540523186 1386607651 393602817
            -1734170120 -22545466 -1978992979 448620799</internalNodes>
          <leafValues>
            -4.4722324609756470e-01 3.0055764317512512e-01</leafValues></_>
        <_>
          <internalNodes>
            0 -1 56 -269502430 1560014378 -72037372 -772083902 215194837
            7296787 1112478787 2003302317</internalNodes>
          <leafValues>
            -5.0445324182510376e-01 2.3567311465740204e-01</leafValues></_>
        <_>
          <internalNodes>
            0 -1 145 1836527167 1958703019 1652542080 1928559358
            -847253879 120563715 -484446076 -787510065</internalNodes>
          <leafValues>
            -3.2560044527053833e-01 3.7631618976593018e-01</leafValues></_>
        <_>
          <internalNodes>
            0 -1 154 -1923153929 -1101071558 1546379257 -218405953
            -593577027 -1676102000 536107389 -584778632</internalNodes>
          <leafValues>
            -4.4083845615386963e-01 2.8471019864082336e-01</leafValues></_>
        <_>
          <internalNodes>
            0 -1 61 1257662190 1600826957 1525213410 2041772519 71356414
            -1056765948 105350879 1112237886</internalNodes>
          <leafValues>
            -5.6548762321472168e-01 2.3364497721195221e-01</leafValues></_>
        <_>
          <internalNodes>
            0 -1 36 260796577 -1116736221 -1282 -646470288 1877686249
            -268443777 1200089985 81481968</internalNodes>
          <leafValues>
            -5.5526030063629150e-01 2.2649452090263367e-01</leafValues></_>
        <_>
          <internalNodes>
            0 -1 78 -612311581 1811676643 1837331211 -170659465
            -1882313153 2059396742 -32558219 805934302</internalNodes>
          <leafValues>
            -3.7702888250350952e-01 3.5232457518577576e-01</leafValues></_>
        <_>
          <internalNodes>
            0 -1 135 -8934465 -145752081 1391403662 -682450008
            -1543770482 17237946 -251922258 -783066645</internalNodes>
          <leafValues>
            -3.0584350228309631e-01 4.4252887368202209e-01</leafValues></_>
        <_>
          <internalNodes>
            0 -1 192 -96810401 2034236919 -1074823237 -1436172425
            -202510810 -524290 -486648614 -99606962</internalNodes>
          <leafValues>
            -3.1998491287231445e-01 4.0347862243652344e-01</leafValues></_>
        <_>
          <internalNodes>
            0 -1 102 -1017145889 -662995500 -1626493167 -578979075
            -344822877 636928623 521112451 -537660721</internalNodes>
          <leafValues>
            -2.9038068652153015e-01 4.4636225700378418e-01</leafValues></_></weakClassifiers></_>
    <!-- stage 6 -->
    <_>
      <maxWeakCount>23</maxWeakCount>
      <stageThreshold>-1.1865206956863403e+00</stageThreshold>
      <weakClassifiers>
        <_>
          <internalNodes>
            0 -1 11 -273944073 -1029 -513 -3085 -806620689 -1 -806619153
            -540018697</internalNodes>
          <leafValues>
            -4.7037652134895325e-01 5.3602695465087891e-01</leafValues></_>
        <_>
          <internalNodes>
            0 -1 63 -824783113 -44799113 -84477185 -210706689 1342162844
            -8433827 -1074331777 -11317537</internalNodes>
          <leafValues>
            -3.6289110779762268e-01 4.3707677721977234e-01</leafValues></_>
        <_>
          <internalNodes>
            0 -1 100 -1626800167 -538846732 -8397825 2136830804
            -1111656449 -71303201 1073592538 -628615744</internalNodes>
          <leafValues>
            -3.7676554918289185e-01 3.8706895709037781e-01</leafValues></_>
        <_>
          <internalNodes>
            0 -1 126 1597898649 -704818415 -174722561 -143135417
            -1614824540 -167775293 -2002147058 -67109377</internalNodes>
          <leafValues>
            -3.8436347246170044e-01 3.4236812591552734e-01</leafValues></_>
        <_>
          <internalNodes>
            0 -1 180 2062504143 2147423067 -502013202 1112234175
            -79971776 1933239306 -224724886 842792831</internalNodes>
          <leafValues>
            -4.8680278658866882e-01 2.7627369761466980e-01</leafValues></_>
        <_>
          <internalNodes>
            0 -1 159 1865756593 -41521245 165920752 1875516210
            -100858120 85927882 -1756708616 536816079</internalNodes>
          <leafValues>
            -4.2971220612525940e-01 3.0710986256599426e-01</leafValues></_>
        <_>
          <internalNodes>
            0 -1 37 220975491 -717226589 1073739635 -6295179 1794105087
            -402653235 -1885417124 -998776329</internalNodes>
          <leafValues>
            -3.1855812668800354e-01 3.7661436200141907e-01</leafValues></_>
        <_>
          <internalNodes>
            0 -1 128 -71895300 -96147070 1535052682 872145634 1791879391
            42979646 -204532982 1393550730</internalNodes>
          <leafValues>
            -4.5814767479896545e-01 2.5942555069923401e-01</leafValues></_>
        <_>
          <internalNodes>
            0 -1 149 221720369 490368944 469625336 2109419928 2144284605
            322320959 1599633884 445520096</internalNodes>
          <leafValues>
            -6.1019861698150635e-01 1.8840442597866058e-01</leafValues></_>
        <_>
          <internalNodes>
            0 -1 124 1041175516 -1229251236 1433794687 1711520335
            -289149936 -155682044 256586431 -13402132</internalNodes>
          <leafValues>
            -4.4020971655845642e-01 2.6240763068199158e-01</leafValues></_>
        <_>
          <internalNodes>
            0 -1 115 1608879087 -34253858 25109672 2077567852 332376762
            33948290 1077848842 1464592714</internalNodes>
          <leafValues>
            -3.8311269879341125e-01 3.0468237400054932e-01</leafValues></_>
        <_>
          <internalNodes>
            0 -1 31 -1101058515 1073575559 -25396657 -229050585
            2146913864 -315139559 2126315086 -62260107</internalNodes>
          <leafValues>
            -3.9462196826934814e-01 2.9908004403114319e-01</leafValues></_>
        <_>
          <internalNodes>
            0 -1 103 -573769288 -950182981 1153999155 1168478213
            -1465153918 -344306472 252570274 213770998</internalNodes>
          <leafValues>
            -5.0672787427902222e-01 2.4027937650680542e-01</leafValues></_>
        <_>
          <internalNodes>
            0 -1 26 1139469019 1596584706 -9281365 -761542514 -864237605
            -959626864 -675174093 -692010051</internalNodes>
          <leafValues>
            -3.7773361802101135e-01 3.0849137902259827e-01</leafValues></_>
        <_>
          <internalNodes>
            0 -1 195 -537412829 -2088247318 1402991200 -352403460
            -112437811 2865315 -1294224909 -706431811</internalNodes>
          <leafValues>
            -3.7289249897003174e-01 3.1172028183937073e-01</leafValues></_>
        <_>
          <internalNodes>
            0 -1 173 -192 95405859 -421030688 1644134378 -537922168
            18807044 1423806676 316650731</internalNodes>
          <leafValues>
            -5.5035340785980225e-01 2.1386902034282684e-01</leafValues></_>
        <_>
          <internalNodes>
            0 -1 51 -1681897509 1541632682 -1681943137 1472557335
            -1953961145 -1050402 61865304 1426019791</internalNodes>
          <leafValues>
            -3.8907566666603088e-01 3.0763986706733704e-01</leafValues></_>
        <_>
          <internalNodes>
            0 -1 81 -593404449 -588796427 402055261 1341520085
            -328229401 1148560741 1089378396 1830234359</internalNodes>
          <leafValues>
            -3.0598208308219910e-01 3.8417339324951172e-01</leafValues></_>
        <_>
          <internalNodes>
            0 -1 122 67845951 -1441784104 802914301 -1352728588
            -1089224740 800587707 -1713726019 -1612729126</internalNodes>
          <leafValues>
            -2.8685826063156128e-01 4.0215173363685608e-01</leafValues></_>
        <_>
          <internalNodes>
            0 -1 32 -1114414031 -1115163030 -347103523 -629286602
            -1111794213 -1919422981 -1145340467 -895417139</internalNodes>
          <leafValues>
            -3.4384936094284058e-01 3.4048587083816528e-01</leafValues></_>
        <_>
          <internalNodes>
            0 -1 68 1815804330 -582962078 -1222284564 389112432
            1313300960 172726210 486538605 142436215</internalNodes>
          <leafValues>
            -5.3259891271591187e-01 2.1186196804046631e-01</leafValues></_>
        <_>
          <internalNodes>
            0 -1 58 638504494 -1680127345 -2100174289 67888703
            1331547879 1308689059 -1318483741 1173115765</internalNodes>
          <leafValues>
            -5.5792248249053955e-01 2.0997990667819977e-01</leafValues></_>
        <_>
          <internalNodes>
            0 -1 39 -1700105238 -1073809758 366183364 -201960862
            1724309486 112107502 1175042732 407859934</internalNodes>
          <leafValues>
            -4.9142745137214661e-01 2.2554598748683929e-01</leafValues></_></weakClassifiers></_>
    <!-- stage 7 -->
    <_>
      <maxWeakCount>24</maxWeakCount>
      <stageThreshold>-1.1635369062423706e+00</stageThreshold>
      <weakClassifiers>
        <_>
          <internalNodes>
            0 -1 21 -1051649 -1049878 -201853953 -147590237 -1 -1048625
            -673185797 -1</internalNodes>
          <leafValues>
            -4.2909044027328491e-01 6.0353839397430420e-01</leafValues></_>
        <_>
          <internalNodes>
            0 -1 44 -41987 1073305437 -16917537 490241885 -4567844
            1610243757 -1078305286 -5308417</internalNodes>
          <leafValues>
            -3.8865560293197632e-01 3.6866748332977295e-01</leafValues></_>
        <_>
          <internalNodes>
            0 -1 139 -286493052 -7177 -4194305 -70257718 -285217627
            -705232399 -461378130 -674512768</internalNodes>
          <leafValues>
            -4.3238726258277893e-01 3.0269113183021545e-01</leafValues></_>
        <_>
          <internalNodes>
            0 -1 194 -5242945 1067646458 1878621940 -273940536 535844607
            789249500 1836933085 -34603009</internalNodes>
          <leafValues>
            -3.1181520223617554e-01 3.9696523547172546e-01</leafValues></_>
        <_>
          <internalNodes>
            0 -1 176 1057357809 -1374687944 863591920 -1049099
            -1544880645 218889353 289313013 387957205</internalNodes>
          <leafValues>
            -4.8014256358146667e-01 2.6108291745185852e-01</leafValues></_>
        <_>
          <internalNodes>
            0 -1 129 -664493910 -88424821 870195720 330967210 1682425032
            1662060682 1665611778 1397223630</internalNodes>
          <leafValues>
            -5.0843328237533569e-01 2.5876438617706299e-01</leafValues></_>
        <_>
          <internalNodes>
            0 -1 110 -1661069995 -25647745 -1887477921 -1617383745
            -1677853259 -35700769 -6472515 -1098146627</internalNodes>
          <leafValues>
            -3.0178716778755188e-01 3.8700747489929199e-01</leafValues></_>
        <_>
          <internalNodes>
            0 -1 3 410382591 -1578522398 -1387662731 -857888002
            -1336347917 -355425108 -1748633961 -352388300</internalNodes>
          <leafValues>
            -3.5562077164649963e-01 3.0813026428222656e-01</leafValues></_>
        <_>
          <internalNodes>
            0 -1 167 -628967432 -575064647 516633072 498807738
            -1911358279 169047520 1883574717 -706759765</internalNodes>
          <leafValues>
            -3.9144605398178101e-01 2.8539282083511353e-01</leafValues></_>
        <_>
          <internalNodes>
            0 -1 84 481582335 -143370185 2123915974 439425803
            -1617803196 860970759 -1075646513 472529919</internalNodes>
          <leafValues>
            -4.7506058216094971e-01 2.3606580495834351e-01</leafValues></_>
        <_>
          <internalNodes>
            0 -1 108 -629178315 -787282377 1222441463 1530598325
            -2089450499 -1558212609 -788603907 -1619371075</internalNodes>
          <leafValues>
            -3.1772369146347046e-01 3.4983396530151367e-01</leafValues></_>
        <_>
          <internalNodes>
            0 -1 75 -1431822927 801501684 -853570081 399045824 221194675
            737082285 261052363 168430804</internalNodes>
          <leafValues>
            -6.0869359970092773e-01 1.9162097573280334e-01</leafValues></_>
        <_>
          <internalNodes>
            0 -1 47 -134783249 1605836766 -92373253 2144566591 -696244
            1031232773 -290393473 -278664129</internalNodes>
          <leafValues>
            -2.6349878311157227e-01 4.3077826499938965e-01</leafValues></_>
        <_>
          <internalNodes>
            0 -1 117 -541290956 -19300565 17573935 1898127626 1534953379
            1225460386 1973268386 1461182987</internalNodes>
          <leafValues>
            -4.1585421562194824e-01 2.6224926114082336e-01</leafValues></_>
        <_>
          <internalNodes>
            0 -1 133 -880845137 -835753815 1031795338 1406858154
            1910275259 135250055 1943599824 -773918264</internalNodes>
          <leafValues>
            -3.3957406878471375e-01 3.1388965249061584e-01</leafValues></_>
        <_>
          <internalNodes>
            0 -1 160 -13254723 983006713 1631973469 -12813320 775705565
            599399009 245934302 1044254116</internalNodes>
          <leafValues>
            -4.7779938578605652e-01 2.4584056437015533e-01</leafValues></_>
        <_>
          <internalNodes>
            0 -1 24 -1646300574 1019691234 -1157466098 1070854403
            -2067573553 853304520 895151758 1952405485</internalNodes>
          <leafValues>
            -5.2636611461639404e-01 2.0657700300216675e-01</leafValues></_>
        <_>
          <internalNodes>
            0 -1 52 459414524 -1951232711 266852495 888254670 1510478822
            1744894341 2117032548 888497790</internalNodes>
          <leafValues>
            -5.1643592119216919e-01 2.1438367664813995e-01</leafValues></_>
        <_>
          <internalNodes>
            0 -1 179 -1146627553 836675545 1893422598 316332874
            871856970 1020261179 -2884802 1920409175</internalNodes>
          <leafValues>
            -4.7541666030883789e-01 2.2375585138797760e-01</leafValues></_>
        <_>
          <internalNodes>
            0 -1 9 562567856 -520490400 1854639747 -1366400322
            -1793428704 2020776032 -1763183596 -76945660</internalNodes>
          <leafValues>
            -4.8058587312698364e-01 2.1289007365703583e-01</leafValues></_>
        <_>
          <internalNodes>
            0 -1 172 -411049726 222147375 -221520928 576442227
            -738238460 358073665 1888482226 1377517223</internalNodes>
          <leafValues>
            -6.1231851577758789e-01 1.8109256029129028e-01</leafValues></_>
        <_>
          <internalNodes>
            0 -1 101 -859244461 -1631659779 883342844 -1187768028
            -876130587 -1149523013 -2012992171 -1903427484</internalNodes>
          <leafValues>
            -3.7755030393600464e-01 2.7641516923904419e-01</leafValues></_>
        <_>
          <internalNodes>
            0 -1 90 -888217638 -80283777 618954537 1345576893 2078125826
            -1110042803 75910798 751547518</internalNodes>
          <leafValues>
            -4.3027985095977783e-01 2.5401738286018372e-01</leafValues></_>
        <_>
          <internalNodes>
            0 -1 34 -5582351 -47525204 1840198909 -1790872653 -569415811
            2096001003 1196246072 -822377223</internalNodes>
          <leafValues>
            -2.8785789012908936e-01 3.7076541781425476e-01</leafValues></_></weakClassifiers></_>
    <!-- stage 8 -->
    <_>
      <maxWeakCount>27</maxWeakCount>
      <stageThreshold>-1.2312933206558228e+00</stageThreshold>
      <weakClassifiers>
        <_>
          <internalNodes>
            0 -1 0 -547356705 -13569 1904210911 -7341057 -69206017
            -8429377 -3105 -2049</internalNodes>
          <leafValues>
            -3.9368164539337158e-01 7.3014259338378906e-01</leafValues></_>
        <_>
          <internalNodes>
            0 -1 76 -76521764 -1073766413 -9307907 1966839544 845339647
            -67184897 -924154738 -83890466</internalNodes>
          <leafValues>
            -4.0827038884162903e-01 3.1111061573028564e-01</leafValues></_>
        <_>
          <internalNodes>
            0 -1 71 -570647041 -1222697475 1576017146 530275641 -8856484
            1564106202 1606065662 -1</internalNodes>
          <leafValues>
            -2.9824659228324890e-01 3.7949183583259583e-01</leafValues></_>
        <_>
          <internalNodes>
            0 -1 152 -550175251 212139003 -7864341 -1379349 -12059139
            -2008426085 -34603171 -581042373</internalNodes>
          <leafValues>
            -3.4986224770545959e-01 3.0482420325279236e-01</leafValues></_>
        <_>
          <internalNodes>
            0 -1 197 -159922561 -209862657 -285219202 -385995909
            -9994674 -151234691 -88162690 -128057485</internalNodes>
          <leafValues>
            -2.7695605158805847e-01 3.8007655739784241e-01</leafValues></_>
        <_>
          <internalNodes>
            0 -1 136 -82003 -33870701 121318451 2004563439 -604258581
            263921819 1518316203 1342176411</internalNodes>
          <leafValues>
            -2.8341141343116760e-01 3.5977697372436523e-01</leafValues></_>
        <_>
          <internalNodes>
            0 -1 14 1739454208 1015544322 396870156 1945621375
            -756811785 -190080089 1918105551 1954002599</internalNodes>
          <leafValues>
            -4.3563669919967651e-01 2.3929436504840851e-01</leafValues></_>
        <_>
          <internalNodes>
            0 -1 163 -1074374435 -547463345 -558893409 -230945
            1718970376 -67179698 -1876674310 -1441226771</internalNodes>
          <leafValues>
            -3.4989100694656372e-01 2.9672035574913025e-01</leafValues></_>
        <_>
          <internalNodes>
            0 -1 166 -420551416 -474251427 -765001920 -152831122
            -822350386 67625221 -1061620490 1159433613</internalNodes>
          <leafValues>
            -4.9945670366287231e-01 1.8707880377769470e-01</leafValues></_>
        <_>
          <internalNodes>
            0 -1 33 1869593564 421536260 786931551 -1346797577 442701046
            -1298516996 2045079551 1071435335</internalNodes>
          <leafValues>
            -3.7237879633903503e-01 2.7596816420555115e-01</leafValues></_>
        <_>
          <internalNodes>
            0 -1 79 -1448551968 -777736024 -1143096510 -672021035
            544992767 -256529934 -2093518411 -1923250773</internalNodes>
          <leafValues>
            -3.5810944437980652e-01 2.6499083638191223e-01</leafValues></_>
        <_>
          <internalNodes>
            0 -1 67 -1079918613 1202317282 -1074053341 -788863
            -1363430405 -1057734785 -1749588105 -865794729</internalNodes>
          <leafValues>
            -2.9233011603355408e-01 3.2893583178520203e-01</leafValues></_>
        <_>
          <internalNodes>
            0 -1 130 -170090540 1610057215 490549010 1007354589
            -254413550 -1174615251 1029371715 -1660815857</internalNodes>
          <leafValues>
            -3.7601932883262634e-01 2.5968325138092041e-01</leafValues></_>
        <_>
          <internalNodes>
            0 -1 55 -607088496 -762676662 1372107001 21002091 -633160489
            -455097897 497110155 1340077642</internalNodes>
          <leafValues>
            -4.7971880435943604e-01 2.1271908283233643e-01</leafValues></_>
        <_>
          <internalNodes>
            0 -1 113 -34689282 -205085787 -1394662167 1936294442
            -1760309885 2009047439 -1556930493 1397744138</internalNodes>
          <leafValues>
            -3.8790261745452881e-01 2.6557683944702148e-01</leafValues></_>
        <_>
          <internalNodes>
            0 -1 96 -1666373849 -1840882910 492631577 494826039
            -532338187 -1014398027 636386813 2105500410</internalNodes>
          <leafValues>
            -3.2132944464683533e-01 3.1357392668724060e-01</leafValues></_>
        <_>
          <internalNodes>
            0 -1 121 -1911608573 -1685949636 1522039653 2138719797
            724777328 -1363413110 895286757 4131848</internalNodes>
          <leafValues>
            -4.9829575419425964e-01 1.9812633097171783e-01</leafValues></_>
        <_>
          <internalNodes>
            0 -1 158 2054148001 -166842379 192345776 1938964478
            -503878011 50548557 -1823485444 400255423</internalNodes>
          <leafValues>
            -3.6717286705970764e-01 2.7413144707679749e-01</leafValues></_>
        <_>
          <internalNodes>
            0 -1 35 1173208562 481875099 467006231 368102901 1920154034
            -543194265 2039214062 -785015378</internalNodes>
          <leafValues>
            -3.9775907993316650e-01 2.4887479841709137e-01</leafValues></_>
        <_>
          <internalNodes>
            0 -1 125 470027637 368851583 2033364829 260319162
            -1157545988 771719919 -1632063627 100675860</internalNodes>
          <leafValues>
            -5.8309894800186157e-01 1.7361460626125336e-01</leafValues></_>
        <_>
          <internalNodes>
            0 -1 86 -827656587 -1381090061 1575751509 1813577598
            -813978639 -1355109011 501513396 -841751828</internalNodes>
          <leafValues>
            -3.0201998353004456e-01 3.2894954085350037e-01</leafValues></_>
        <_>
          <internalNodes>
            0 -1 178 529682457 2138177595 -659614645 34871664 -821233594
            1596165187 -233001413 318797791</internalNodes>
          <leafValues>
            -4.9564725160598755e-01 1.9741123914718628e-01</leafValues></_>
        <_>
          <internalNodes>
            0 -1 105 -654312212 1897480653 1641658882 334603145
            -521344562 406536621 424324526 -783699537</internalNodes>
          <leafValues>
            -3.2288181781768799e-01 3.1897684931755066e-01</leafValues></_>
        <_>
          <internalNodes>
            0 -1 91 2039021034 1412543976 1878389762 -1341001221
            -1993165063 594898734 -1284250465 -1692215346</internalNodes>
          <leafValues>
            -3.1072539091110229e-01 3.3782687783241272e-01</leafValues></_>
        <_>
          <internalNodes>
            0 -1 2 1165987046 -1201865122 -81225054 -1374904814
            1687901903 -680437639 -331004082 5106222</internalNodes>
          <leafValues>
            -5.5957466363906860e-01 1.7238876223564148e-01</leafValues></_>
        <_>
          <internalNodes>
            0 -1 148 795291445 -236041546 28208734 2012937178 -320573772
            167856136 -1496524599 857634217</internalNodes>
          <leafValues>
            -4.5357266068458557e-01 2.1982632577419281e-01</leafValues></_>
        <_>
          <internalNodes>
            0 -1 188 1035644923 -1346835536 350494837 -102790795
            933517774 -1180156180 1609579997 -1082361006</internalNodes>
          <leafValues>
            -3.8315075635910034e-01 2.6915642619132996e-01</leafValues></_></weakClassifiers></_>
    <!-- stage 9 -->
    <_>
      <maxWeakCount>28</maxWeakCount>
      <stageThreshold>-1.3103384971618652e+00</stageThreshold>
      <weakClassifiers>
        <_>
          <internalNodes>
            0 -1 50 -335905 -1089 -10337 -2049 -2433073 -69206945
            -544538625 -327681</internalNodes>
          <leafValues>
            -4.3800538778305054e-01 5.2054792642593384e-01</leafValues></_>
        <_>
          <internalNodes>
            0 -1 20 -37757005 -1123346 503298002 -5214 -33554437
            -537924097 -673222057 -1067053</internalNodes>
          <leafValues>
            -2.5264000892639160e-01 5.0853556394577026e-01</leafValues></_>
        <_>
          <internalNodes>
            0 -1 92 -1912685573 -25153 221523151 1501241339 -1980573488
            498097656 1069526975 -1</internalNodes>
          <leafValues>
            -2.6510250568389893e-01 4.1152012348175049e-01</leafValues></_>
        <_>
          <internalNodes>
            0 -1 132 -52428807 -17892062 -173711875 -89132437 -809500693
            -551772344 -100668596 -1935868476</internalNodes>
          <leafValues>
            -3.9848914742469788e-01 2.6568207144737244e-01</leafValues></_>
        <_>
          <internalNodes>
            0 -1 66 -106178141 -34628861 -540032237 -713034925
            -357838113 -1184120850 -1515997293 -757092097</internalNodes>
          <leafValues>
            -2.1661843359470367e-01 4.5065799355506897e-01</leafValues></_>
        <_>
          <internalNodes>
            0 -1 116 -1352855287 1138444059 -1777872591 -1958758125
            -538065750 -1409377953 -1851092863 -1190218189</internalNodes>
          <leafValues>
            -3.6487329006195068e-01 3.0247381329536438e-01</leafValues></_>
        <_>
          <internalNodes>
            0 -1 147 1315375655 -157618321 1123019326 -202179622
            -1355859314 1159547535 -472016133 -548684309</internalNodes>
          <leafValues>
            -3.2717642188072205e-01 3.1329366564750671e-01</leafValues></_>
        <_>
          <internalNodes>
            0 -1 29 -218104019 1584494427 -362894 1964703718 -8696808
            1602190431 -8463270 -42008725</internalNodes>
          <leafValues>
            -2.9399383068084717e-01 3.4996533393859863e-01</leafValues></_>
        <_>
          <internalNodes>
            0 -1 175 -4875267 -4546716 1845333179 -167805475 -1078264065
            -1993158224 792264191 -294658593</internalNodes>
          <leafValues>
            -2.2637809813022614e-01 4.3120473623275757e-01</leafValues></_>
        <_>
          <internalNodes>
            0 -1 104 -243485765 -1280462367 1871119878 1004083623
            437167771 1796180772 590684702 1913059998</internalNodes>
          <leafValues>
            -3.7338593602180481e-01 2.5471362471580505e-01</leafValues></_>
        <_>
          <internalNodes>
            0 -1 12 132264575 1828186874 -741051521 1362348799
            1531474538 -37358866 -280006163 -67255315</internalNodes>
          <leafValues>
            -2.8492185473442078e-01 3.2747048139572144e-01</leafValues></_>
        <_>
          <internalNodes>
            0 -1 99 1579081424 123145559 -345604 775627550 1543388783
            2076277527 1249381710 1874398206</internalNodes>
          <leafValues>
            -4.3077683448791504e-01 2.1097773313522339e-01</leafValues></_>
        <_>
          <internalNodes>
            0 -1 15 -2025901295 -218235469 -1610612972 -4259853
            1803026355 -529532999 931123008 -723084</internalNodes>
          <leafValues>
            -2.8997966647148132e-01 3.2771673798561096e-01</leafValues></_>
        <_>
          <internalNodes>
            0 -1 106 -168784716 1092880417 30810370 66028106 471311345
            1887311456 1224760110 1493615274</internalNodes>
          <leafValues>
            -4.6931123733520508e-01 1.9595646858215332e-01</leafValues></_>
        <_>
          <internalNodes>
            0 -1 95 478090781 -1858784684 -40903971 -683679067 128421795
            -1698906321 -1931688203 -1182628281</internalNodes>
          <leafValues>
            -2.7975583076477051e-01 3.4172266721725464e-01</leafValues></_>
        <_>
          <internalNodes>
            0 -1 138 1583157557 360458619 -134403073 -1657992870
            510226896 -4359833 208692924 134571441</internalNodes>
          <leafValues>
            -4.9193373322486877e-01 2.0079982280731201e-01</leafValues></_>
        <_>
          <internalNodes>
            0 -1 69 -278150070 1369834020 -269682977 1496568432
            -685276784 -1872296600 -544082450 780096415</internalNodes>
          <leafValues>
            -4.0519952774047852e-01 2.3970068991184235e-01</leafValues></_>
        <_>
          <internalNodes>
            0 -1 120 408431357 362353661 421797725 490315001 122961404
            536562095 792656127 506076476</internalNodes>
          <leafValues>
            -5.2120411396026611e-01 1.8021458387374878e-01</leafValues></_>
        <_>
          <internalNodes>
            0 -1 141 -298887518 -335817884 1447491147 -741813262
            -690626113 1370079118 1966733272 -739384428</internalNodes>
          <leafValues>
            -3.3145582675933838e-01 2.9365622997283936e-01</leafValues></_>
        <_>
          <internalNodes>
            0 -1 89 -1172087557 -151725202 -853603025 -574244510
            -369902717 947652242 140520440 -2118149</internalNodes>
          <leafValues>
            -2.2877056896686554e-01 4.1840246319770813e-01</leafValues></_>
        <_>
          <internalNodes>
            0 -1 164 -485809912 -214976705 -760185048 1111881726
            -1908613044 1178578228 1343618225 1394082237</internalNodes>
          <leafValues>
            -5.1960098743438721e-01 1.8687333166599274e-01</leafValues></_>
        <_>
          <internalNodes>
            0 -1 87 -841089585 -268560804 -1113571053 -539721891
            1467847555 1650719562 247959243 -386802788</internalNodes>
          <leafValues>
            -2.6451617479324341e-01 3.7858110666275024e-01</leafValues></_>
        <_>
          <internalNodes>
            0 -1 134 -170348612 -12043350 1162153484 1661444691
            2079818363 1367418922 -148514112 1095625242</internalNodes>
          <leafValues>
            -4.2341673374176025e-01 2.2874137759208679e-01</leafValues></_>
        <_>
          <internalNodes>
            0 -1 168 -1486883959 1289222134 1959034385 2144332223
            -610556008 356906204 -537941744 1951719364</internalNodes>
          <leafValues>
            -4.6654051542282104e-01 2.1054294705390930e-01</leafValues></_>
        <_>
          <internalNodes>
            0 -1 118 1576975165 1601645338 222120221 1850410538
            -2032220982 780271754 1615767503 1204537374</internalNodes>
          <leafValues>
            -3.8375070691108704e-01 2.5889322161674500e-01</leafValues></_>
        <_>
          <internalNodes>
            0 -1 111 899437336 1729052681 866543101 550289373 921509120
            -2105738748 -1631349238 1408876447</internalNodes>
          <leafValues>
            -5.6273877620697021e-01 1.7894987761974335e-01</leafValues></_>
        <_>
          <internalNodes>
            0 -1 54 1470722097 -1349781333 702493525 -35942095
            1588852987 -1231680577 1028068951 -570985259</internalNodes>
          <leafValues>
            -3.0768138170242310e-01 3.3367598056793213e-01</leafValues></_>
        <_>
          <internalNodes>
            0 -1 80 -1792968222 1239896166 -1723120124 89613507
            -494200618 1101001813 903306899 1380631438</internalNodes>
          <leafValues>
            -4.3317711353302002e-01 2.2703328728675842e-01</leafValues></_></weakClassifiers></_></stages>
  <features>
    <_>
      <rect>
        0 3 4 5</rect></_>
    <_>
      <rect>
        0 5 4 4</rect></_>
    <_>
      <rect>
        0 7 3 4</rect></_>
    <_>
      <rect>
        0 7 5 3</rect></_>
    <_>
      <rect>
        0 7 7 2</rect></_>
    <_>
      <rect>
        0 9 8 3</rect></_>
    <_>
      <rect>
        1 0 2 5</rect></_>
    <_>
      <rect>
        1 4 3 3</rect></_>
    <_>
      <rect>
        1 5 3 2</rect></_>
    <_>
      <rect>
        1 5 6 4</rect></_>
    <_>
      <rect>
        1 12 4 2</rect></_>
    <_>
      <rect>
        2 1 2 4</rect></_>
    <_>
      <rect>
        2 4 3 4</rect></_>
    <_>
      <rect>
        2 5 2 2</rect></_>
    <_>
      <rect>
        2 6 2 3</rect></_>
    <_>
      <rect>
        2 8 1 2</rect></_>
    <_>
      <rect>
        2 11 2 2</rect></_>
    <_>
      <rect>
        2 13 1 1</rect></_>
    <_>
      <rect>
        3 2 3 3</rect></_>
    <_>
      <rect>
        3 3 6 3</rect></_>
    <_>
      <rect>
        3 5 2 1</rect></_>
    <_>
      <rect>
        3 5 2 2</rect></_>
    <_>
      <rect>
        3 6 4 4</rect></_>
    <_>
      <rect>
        3 7 1 1</rect></_>
    <_>
      <rect>
        3 8 2 2</rect></_>
    <_>
      <rect>
        3 9 2 3</rect></_>
    <_>
      <rect>
        3 9 3 3</rect></_>
    <_>
      <rect>
        3 10 3 3</rect></_>
    <_>
      <rect>
        3 11 1 1</rect></_>
    <_>
      <rect>
        3 11 1 2</rect></_>
    <_>
      <rect>
        3 12 1 2</rect></_>
    <_>
      <rect>
        3 14 1 1</rect></_>
    <_>
      <rect>
        4 2 1 3</rect></_>
    <_>
      <rect>
        4 2 5 3</rect></_>
    <_>
      <rect>
        4 4 2 2</rect></_>
    <_>
      <rect>
        4 4 2 5</rect></_>
    <_>
      <rect>
        4 5 1 2</rect></_>
    <_>
      <rect>
        4 6 1 2</rect></_>
    <_>
      <rect>
        4 6 3 3</rect></_>
    <_>
      <rect>
        4 7 2 2</rect></_>
    <_>
      <rect>
        4 7 2 3</rect></_>
    <_>
      <rect>
        4 9 3 3</rect></_>
    <_>
      <rect>
        4 10 1 1</rect></_>
    <_>
      <rect>
        4 11 1 1</rect></_>
    <_>
      <rect>
        4 11 1 3</rect></_>
    <_>
      <rect>
        4 12 1 1</rect></_>
    <_>
      <rect>
        4 12 3 2</rect></_>
    <_>
      <rect>
        4 15 1 1</rect></_>
    <_>
      <rect>
        4 15 2 1</rect></_>
    <_>
      <rect>
        5 0 5 8</rect></_>
    <_>
      <rect>
        5 1 2 4</rect></_>
    <_>
      <rect>
        5 4 2 3</rect></_>
    <_>
      <rect>
        5 4 3 3</rect></_>
    <_>
      <rect>
        5 5 1 3</rect></_>
    <_>
      <rect>
        5 7 1 1</rect></_>
    <_>
      <rect>
        5 8 4 4</rect></_>
    <_>
      <rect>
        5 9 1 2</rect></_>
    <_>
      <rect>
        5 10 2 1</rect></_>
    <_>
      <rect>
        5 10 4 2</rect></_>
    <_>
      <rect>
        5 12 1 1</rect></_>
    <_>
      <rect>
        5 13 1 1</rect></_>
    <_>
      <rect>
        5 13 2 1</rect></_>
    <_>
      <rect>
        5 14 1 1</rect></_>
    <_>
      <rect>
        5 15 2 1</rect></_>
    <_>
      <rect>
        6 6 3 2</rect></_>
    <_>
      <rect>
        6 6 3 3</rect></_>
    <_>
      <rect>
        6 7 1 2</rect></_>
    <_>
      <rect>
        6 8 1 1</rect></_>
    <_>
      <rect>
        6 9 2 1</rect></_>
    <_>
      <rect>
        6 10 2 1</rect></_>
    <_>
      <rect>
        6 11 3 3</rect></_>
    <_>
      <rect>
        6 12 1 2</rect></_>
    <_>
      <rect>
        6 14 1 1</rect></_>
    <_>
      <rect>
        6 14 1 2</rect></_>
    <_>
      <rect>
        7 3 4 3</rect></_>
    <_>
      <rect>
        7 4 1 2</rect></_>
    <_>
      <rect>
        7 4 3 3</rect></_>
    <_>
      <rect>
        7 6 1 1</rect></_>
    <_>
      <rect>
        7 6 1 2</rect></_>
    <_>
      <rect>
        7 8 1 1</rect></_>
    <_>
      <rect>
        7 8 1 2</rect></_>
    <_>
      <rect>
        7 8 3 1</rect></_>
    <_>
      <rect>
        7 11 3 2</rect></_>
    <_>
      <rect>
        7 13 1 2</rect></_>
    <_>
      <rect>
        7 14 1 1</rect></_>
    <_>
      <rect>
        7 15 1 1</rect></_>
    <_>
      <rect>
        8 5 2 1</rect></_>
    <_>
      <rect>
        8 5 4 4</rect></_>
    <_>
      <rect>
        8 6 1 1</rect></_>
    <_>
      <rect>
        8 8 2 1</rect></_>
    <_>
      <rect>
        8 8 3 2</rect></_>
    <_>
      <rect>
        8 9 1 1</rect></_>
    <_>
      <rect>
        8 12 1 2</rect></_>
    <_>
      <rect>
        8 12 3 3</rect></_>
    <_>
      <rect>
        8 12 4 3</rect></_>
    <_>
      <rect>
        8 13 2 1</rect></_>
    <_>
      <rect>
        8 14 3 1</rect></_>
    <_>
      <rect>
        8 16 1 1</rect></_>
    <_>
      <rect>
        9 3 2 3</rect></_>
    <_>
      <rect>
        9 5 3 2</rect></_>
    <_>
      <rect>
        9 6 1 1</rect></_>
    <_>
      <rect>
        9 6 2 1</rect></_>
    <_>
      <rect>
        9 6 4 4</rect></_>
    <_>
      <rect>
        9 7 3 3</rect></_>
    <_>
      <rect>
        9 8 1 2</rect></_>
    <_>
      <rect>
        9 10 1 1</rect></_>
    <_>
      <rect>
        9 10 1 2</rect></_>
    <_>
      <rect>
        9 11 1 2</rect></_>
    <_>
      <rect>
        9 13 2 1</rect></_>
    <_>
      <rect>
        10 3 3 5</rect></_>
    <_>
      <rect>
        10 4 2 1</rect></_>
    <_>
      <rect>
        10 4 4 4</rect></_>
    <_>
      <rect>
        10 6 1 1</rect></_>
    <_>
      <rect>
        10 6 1 3</rect></_>
    <_>
      <rect>
        10 6 4 4</rect></_>
    <_>
      <rect>
        10 9 1 2</rect></_>
    <_>
      <rect>
        10 9 3 3</rect></_>
    <_>
      <rect>
        10 10 1 2</rect></_>
    <_>
      <rect>
        10 11 1 2</rect></_>
    <_>
      <rect>
        10 14 2 1</rect></_>
    <_>
      <rect>
        10 15 1 1</rect></_>
    <_>
      <rect>
        10 15 2 1</rect></_>
    <_>
      <rect>
        10 16 2 1</rect></_>
    <_>
      <rect>
        11 2 4 5</rect></_>
    <_>
      <rect>
        11 4 3 3</rect></_>
    <_>
      <rect>
        11 5 1 1</rect></_>
    <_>
      <rect>
        11 6 3 3</rect></_>
    <_>
      <rect>
        11 7 1 2</rect></_>
    <_>
      <rect>
        11 8 1 2</rect></_>
    <_>
      <rect>
        11 9 1 2</rect></_>
    <_>
      <rect>
        11 9 2 2</rect></_>
    <_>
      <rect>
        11 9 3 3</rect></_>
    <_>
      <rect>
        11 9 4 5</rect></_>
    <_>
      <rect>
        11 10 1 1</rect></_>
    <_>
      <rect>
        11 10 1 2</rect></_>
    <_>
      <rect>
        11 11 1 1</rect></_>
    <_>
      <rect>
        11 11 1 2</rect></_>
    <_>
      <rect>
        11 15 1 1</rect></_>
    <_>
      <rect>
        12 5 1 1</rect></_>
    <_>
      <rect>
        12 7 1 2</rect></_>
    <_>
      <rect>
        12 8 1 2</rect></_>
    <_>
      <rect>
        12 9 1 1</rect></_>
    <_>
      <rect>
        12 9 1 2</rect></_>
    <_>
      <rect>
        12 9 3 3</rect></_>
    <_>
      <rect>
        12 10 1 1</rect></_>
    <_>
      <rect>
        12 11 1 1</rect></_>
    <_>
      <rect>
        12 11 1 2</rect></_>
    <_>
      <rect>
        12 12 1 1</rect></_>
    <_>
      <rect>
        12 13 1 1</rect></_>
    <_>
      <rect>
        12 14 1 1</rect></_>
    <_>
      <rect>
        12 15 1 1</rect></_>
    <_>
      <rect>
        13 3 1 2</rect></_>
    <_>
      <rect>
        13 6 3 6</rect></_>
    <_>
      <rect>
        13 8 1 2</rect></_>
    <_>
      <rect>
        13 9 3 5</rect></_>
    <_>
      <rect>
        13 10 1 1</rect></_>
    <_>
      <rect>
        13 10 1 2</rect></_>
    <_>
      <rect>
        13 11 2 1</rect></_>
    <_>
      <rect>
        13 12 1 1</rect></_>
    <_>
      <rect>
        13 13 1 1</rect></_>
    <_>
      <rect>
        13 14 1 2</rect></_>
    <_>
      <rect>
        13 15 2 1</rect></_>
    <_>
      <rect>
        14 5 1 2</rect></_>
    <_>
      <rect>
        14 6 1 1</rect></_>
    <_>
      <rect>
        14 9 1 1</rect></_>
    <_>
      <rect>
        14 9 1 2</rect></_>
    <_>
      <rect>
        14 10 1 1</rect></_>
    <_>
      <rect>
        14 10 1 2</rect></_>
    <_>
      <rect>
        14 10 3 2</rect></_>
    <_>
      <rect>
        14 13 1 2</rect></_>
    <_>
      <rect>
        15 6 1 1</rect></_>
    <_>
      <rect>
        15 7 1 1</rect></_>
    <_>
      <rect>
        15 10 1 1</rect></_>
    <_>
      <rect>
        15 11 1 1</rect></_>
    <_>
      <rect>
        15 13 1 1</rect></_>
    <_>
      <rect>
        15 13 1 2</rect></_>
    <_>
      <rect>
        15 14 1 1</rect></_>
    <_>
      <rect>
        15 15 1 1</rect></_>
    <_>
      <rect>
        16 7 1 1</rect></_>
    <_>
      <rect>
        16 7 2 1</rect></_>
    <_>
      <rect>
        16 8 1 1</rect></_>
    <_>
      <rect>
        16 11 1 1</rect></_>
    <_>
      <rect>
        16 12 1 1</rect></_>
    <_>
      <rect>
        16 14 1 1</rect></_>
    <_>
      <rect>
        17 2 1 4</rect></_>
    <_>
      <rect>
        17 7 1 1</rect></_>
    <_>
      <rect>
        17 7 1 2</rect></_>
    <_>
      <rect>
        17 11 1 3</rect></_>
    <_>
      <rect>
        17 11 1 4</rect></_>
    <_>
      <rect>
        17 12 1 1</rect></_>
    <_>
      <rect>
        17 12 1 2</rect></_>
    <_>
      <rect>
        17 12 2 1</rect></_>
    <_>
      <rect>
        18 4 1 3</rect></_>
    <_>
      <rect>
        18 8 1 1</rect></_>
    <_>
      <rect>
        18 10 1 3</rect></_>
    <_>
      <rect>
        18 12 1 1</rect></_>
    <_>
      <rect>
        18 14 1 1</rect></_>
    <_>
      <rect>
        19 8 1 1</rect></_>
    <_>
      <rect>
        19 10 1 1</rect></_>
    <_>
      <rect>
        19 13 1 1</rect></_></features></cascade>
</opencv_storage>
