<?xml version="1.0"?>
<opencv_storage>
<stage5>
  <maxWeakCount>21</maxWeakCount>
  <stageThreshold>-1.2592135667800903e+00</stageThreshold>
  <weakClassifiers>
    <_>
      <internalNodes>
        0 -1 953 -135268353 -1056018 -201590785 -201593873 -1 -3145908
        2011168767 -1</internalNodes>
      <leafValues>
        -4.5362168550491333e-01 6.6560763120651245e-01</leafValues></_>
    <_>
      <internalNodes>
        0 -1 7853 -230539193 -11534497 -821409 -14684921 -499974449
        -76546117 -496304385 -503122081</internalNodes>
      <leafValues>
        -4.1487172245979309e-01 4.0195500850677490e-01</leafValues></_>
    <_>
      <internalNodes>
        0 -1 3097 -967122210 -315393 -904707505 -244190501 201229215
        -808740938 -809775185 -818286913</internalNodes>
      <leafValues>
        -4.3440446257591248e-01 3.5848230123519897e-01</leafValues></_>
    <_>
      <internalNodes>
        0 -1 3040 -503349273 1758456238 -203494910 -17301777 1652029303
        68215799 1699211079 -134219785</internalNodes>
      <leafValues>
        -4.5555806159973145e-01 2.8929200768470764e-01</leafValues></_>
    <_>
      <internalNodes>
        0 -1 4235 -33661443 2147360113 2113568763 1610292727 -1610985732
        -553483 -549782022 -1078296577</internalNodes>
      <leafValues>
        -3.0234134197235107e-01 4.5041865110397339e-01</leafValues></_>
    <_>
      <internalNodes>
        0 -1 2215 325006078 469671706 1067912362 1072554911 1789212670
        2130607206 2008640495 1851706190</internalNodes>
      <leafValues>
        -5.1256918907165527e-01 2.4981397390365601e-01</leafValues></_>
    <_>
      <internalNodes>
        0 -1 5575 -1074218820 1073585580 297273498 1073722175
        -1641771318 299634988 1139772107 1802484731</internalNodes>
      <leafValues>
        -4.9075281620025635e-01 2.9217103123664856e-01</leafValues></_>
    <_>
      <internalNodes>
        0 -1 6680 -134777031 -1155006473 -281716455 -83494985 1371525514
        93180351 -1055657552 -795091557</internalNodes>
      <leafValues>
        -4.5247203111648560e-01 3.0803778767585754e-01</leafValues></_>
    <_>
      <internalNodes>
        0 -1 5868 -1953488975 -1141015050 -1344405505 -243976745
        -1409552451 -72913545 -1921710868 -2012466124</internalNodes>
      <leafValues>
        -4.2494302988052368e-01 3.1120494008064270e-01</leafValues></_>
    <_>
      <internalNodes>
        0 -1 8158 -1681915909 -1893011544 1560248305 -148499 -818817153
        -810617510 1845058549 -872546307</internalNodes>
      <leafValues>
        -3.0957382917404175e-01 4.2786610126495361e-01</leafValues></_>
    <_>
      <internalNodes>
        0 -1 6649 -342108791 -375407831 -1813268046 -1240995198
        -262222411 -1772885777 -208685931 1439679166</internalNodes>
      <leafValues>
        -3.6691156029701233e-01 3.7277543544769287e-01</leafValues></_>
    <_>
      <internalNodes>
        0 -1 4032 -1276065026 1540523186 1386607651 393602817
        -1734170120 -22545466 -1978992979 448620799</internalNodes>
      <leafValues>
        -4.4722324609756470e-01 3.0055764317512512e-01</leafValues></_>
    <_>
      <internalNodes>
        0 -1 3563 -269502430 1560014378 -72037372 -772083902 215194837
        7296787 1112478787 2003302317</internalNodes>
      <leafValues>
        -5.0445324182510376e-01 2.3567311465740204e-01</leafValues></_>
    <_>
      <internalNodes>
        0 -1 6704 1836527167 1958703019 1652542080 1928559358 -847253879
        120563715 -484446076 -787510065</internalNodes>
      <leafValues>
        -3.2560044527053833e-01 3.7631618976593018e-01</leafValues></_>
    <_>
      <internalNodes>
        0 -1 6993 -1923153929 -1101071558 1546379257 -218405953
        -593577027 -1676102000 536107389 -584778632</internalNodes>
      <leafValues>
        -4.4083845615386963e-01 2.8471019864082336e-01</leafValues></_>
    <_>
      <internalNodes>
        0 -1 3667 1257662190 1600826957 1525213410 2041772519 71356414
        -1056765948 105350879 1112237886</internalNodes>
      <leafValues>
        -5.6548762321472168e-01 2.3364497721195221e-01</leafValues></_>
    <_>
      <internalNodes>
        0 -1 2879 260796577 -1116736221 -1282 -646470288 1877686249
        -268443777 1200089985 81481968</internalNodes>
      <leafValues>
        -5.5526030063629150e-01 2.2649452090263367e-01</leafValues></_>
    <_>
      <internalNodes>
        0 -1 4530 -612311581 1811676643 1837331211 -170659465
        -1882313153 2059396742 -32558219 805934302</internalNodes>
      <leafValues>
        -3.7702888250350952e-01 3.5232457518577576e-01</leafValues></_>
    <_>
      <internalNodes>
        0 -1 6336 -8934465 -145752081 1391403662 -682450008 -1543770482
        17237946 -251922258 -783066645</internalNodes>
      <leafValues>
        -3.0584350228309631e-01 4.4252887368202209e-01</leafValues></_>
    <_>
      <internalNodes>
        0 -1 8064 -96810401 2034236919 -1074823237 -1436172425
        -202510810 -524290 -486648614 -99606962</internalNodes>
      <leafValues>
        -3.1998491287231445e-01 4.0347862243652344e-01</leafValues></_>
    <_>
      <internalNodes>
        0 -1 5470 -1017145889 -662995500 -1626493167 -578979075
        -344822877 636928623 521112451 -537660721</internalNodes>
      <leafValues>
        -2.9038068652153015e-01 4.4636225700378418e-01</leafValues></_></weakClassifiers></stage5>
</opencv_storage>
