<?xml version="1.0"?>
<opencv_storage>
<stage9>
  <maxWeakCount>28</maxWeakCount>
  <stageThreshold>-1.3103384971618652e+00</stageThreshold>
  <weakClassifiers>
    <_>
      <internalNodes>
        0 -1 3278 -335905 -1089 -10337 -2049 -2433073 -69206945
        -544538625 -327681</internalNodes>
      <leafValues>
        -4.3800538778305054e-01 5.2054792642593384e-01</leafValues></_>
    <_>
      <internalNodes>
        0 -1 2275 -37757005 -1123346 503298002 -5214 -33554437
        -537924097 -673222057 -1067053</internalNodes>
      <leafValues>
        -2.5264000892639160e-01 5.0853556394577026e-01</leafValues></_>
    <_>
      <internalNodes>
        0 -1 5135 -1912685573 -25153 221523151 1501241339 -1980573488
        498097656 1069526975 -1</internalNodes>
      <leafValues>
        -2.6510250568389893e-01 4.1152012348175049e-01</leafValues></_>
    <_>
      <internalNodes>
        0 -1 6319 -52428807 -17892062 -173711875 -89132437 -809500693
        -551772344 -100668596 -1935868476</internalNodes>
      <leafValues>
        -3.9848914742469788e-01 2.6568207144737244e-01</leafValues></_>
    <_>
      <internalNodes>
        0 -1 4055 -106178141 -34628861 -540032237 -713034925 -357838113
        -1184120850 -1515997293 -757092097</internalNodes>
      <leafValues>
        -2.1661843359470367e-01 4.5065799355506897e-01</leafValues></_>
    <_>
      <internalNodes>
        0 -1 5944 -1352855287 1138444059 -1777872591 -1958758125
        -538065750 -1409377953 -1851092863 -1190218189</internalNodes>
      <leafValues>
        -3.6487329006195068e-01 3.0247381329536438e-01</leafValues></_>
    <_>
      <internalNodes>
        0 -1 6720 1315375655 -157618321 1123019326 -202179622
        -1355859314 1159547535 -472016133 -548684309</internalNodes>
      <leafValues>
        -3.2717642188072205e-01 3.1329366564750671e-01</leafValues></_>
    <_>
      <internalNodes>
        0 -1 2487 -218104019 1584494427 -362894 1964703718 -8696808
        1602190431 -8463270 -42008725</internalNodes>
      <leafValues>
        -2.9399383068084717e-01 3.4996533393859863e-01</leafValues></_>
    <_>
      <internalNodes>
        0 -1 7583 -4875267 -4546716 1845333179 -167805475 -1078264065
        -1993158224 792264191 -294658593</internalNodes>
      <leafValues>
        -2.2637809813022614e-01 4.3120473623275757e-01</leafValues></_>
    <_>
      <internalNodes>
        0 -1 5505 -243485765 -1280462367 1871119878 1004083623 437167771
        1796180772 590684702 1913059998</internalNodes>
      <leafValues>
        -3.7338593602180481e-01 2.5471362471580505e-01</leafValues></_>
    <_>
      <internalNodes>
        0 -1 1598 132264575 1828186874 -741051521 1362348799 1531474538
        -37358866 -280006163 -67255315</internalNodes>
      <leafValues>
        -2.8492185473442078e-01 3.2747048139572144e-01</leafValues></_>
    <_>
      <internalNodes>
        0 -1 5432 1579081424 123145559 -345604 775627550 1543388783
        2076277527 1249381710 1874398206</internalNodes>
      <leafValues>
        -4.3077683448791504e-01 2.1097773313522339e-01</leafValues></_>
    <_>
      <internalNodes>
        0 -1 1745 -2025901295 -218235469 -1610612972 -4259853 1803026355
        -529532999 931123008 -723084</internalNodes>
      <leafValues>
        -2.8997966647148132e-01 3.2771673798561096e-01</leafValues></_>
    <_>
      <internalNodes>
        0 -1 5555 -168784716 1092880417 30810370 66028106 471311345
        1887311456 1224760110 1493615274</internalNodes>
      <leafValues>
        -4.6931123733520508e-01 1.9595646858215332e-01</leafValues></_>
    <_>
      <internalNodes>
        0 -1 5157 478090781 -1858784684 -40903971 -683679067 128421795
        -1698906321 -1931688203 -1182628281</internalNodes>
      <leafValues>
        -2.7975583076477051e-01 3.4172266721725464e-01</leafValues></_>
    <_>
      <internalNodes>
        0 -1 6580 1583157557 360458619 -134403073 -1657992870 510226896
        -4359833 208692924 134571441</internalNodes>
      <leafValues>
        -4.9193373322486877e-01 2.0079982280731201e-01</leafValues></_>
    <_>
      <internalNodes>
        0 -1 4148 -278150070 1369834020 -269682977 1496568432 -685276784
        -1872296600 -544082450 780096415</internalNodes>
      <leafValues>
        -4.0519952774047852e-01 2.3970068991184235e-01</leafValues></_>
    <_>
      <internalNodes>
        0 -1 6024 408431357 362353661 421797725 490315001 122961404
        536562095 792656127 506076476</internalNodes>
      <leafValues>
        -5.2120411396026611e-01 1.8021458387374878e-01</leafValues></_>
    <_>
      <internalNodes>
        0 -1 6668 -298887518 -335817884 1447491147 -741813262 -690626113
        1370079118 1966733272 -739384428</internalNodes>
      <leafValues>
        -3.3145582675933838e-01 2.9365622997283936e-01</leafValues></_>
    <_>
      <internalNodes>
        0 -1 5049 -1172087557 -151725202 -853603025 -574244510
        -369902717 947652242 140520440 -2118149</internalNodes>
      <leafValues>
        -2.2877056896686554e-01 4.1840246319770813e-01</leafValues></_>
    <_>
      <internalNodes>
        0 -1 7255 -485809912 -214976705 -760185048 1111881726
        -1908613044 1178578228 1343618225 1394082237</internalNodes>
      <leafValues>
        -5.1960098743438721e-01 1.8687333166599274e-01</leafValues></_>
    <_>
      <internalNodes>
        0 -1 4980 -841089585 -268560804 -1113571053 -539721891
        1467847555 1650719562 247959243 -386802788</internalNodes>
      <leafValues>
        -2.6451617479324341e-01 3.7858110666275024e-01</leafValues></_>
    <_>
      <internalNodes>
        0 -1 6321 -170348612 -12043350 1162153484 1661444691 2079818363
        1367418922 -148514112 1095625242</internalNodes>
      <leafValues>
        -4.2341673374176025e-01 2.2874137759208679e-01</leafValues></_>
    <_>
      <internalNodes>
        0 -1 7279 -1486883959 1289222134 1959034385 2144332223
        -610556008 356906204 -537941744 1951719364</internalNodes>
      <leafValues>
        -4.6654051542282104e-01 2.1054294705390930e-01</leafValues></_>
    <_>
      <internalNodes>
        0 -1 5969 1576975165 1601645338 222120221 1850410538 -2032220982
        780271754 1615767503 1204537374</internalNodes>
      <leafValues>
        -3.8375070691108704e-01 2.5889322161674500e-01</leafValues></_>
    <_>
      <internalNodes>
        0 -1 5841 899437336 1729052681 866543101 550289373 921509120
        -2105738748 -1631349238 1408876447</internalNodes>
      <leafValues>
        -5.6273877620697021e-01 1.7894987761974335e-01</leafValues></_>
    <_>
      <internalNodes>
        0 -1 3502 1470722097 -1349781333 702493525 -35942095 1588852987
        -1231680577 1028068951 -570985259</internalNodes>
      <leafValues>
        -3.0768138170242310e-01 3.3367598056793213e-01</leafValues></_>
    <_>
      <internalNodes>
        0 -1 4585 -1792968222 1239896166 -1723120124 89613507 -494200618
        1101001813 903306899 1380631438</internalNodes>
      <leafValues>
        -4.3317711353302002e-01 2.2703328728675842e-01</leafValues></_></weakClassifiers></stage9>
</opencv_storage>
