<?xml version="1.0"?>
<opencv_storage>
<stage0>
  <maxWeakCount>10</maxWeakCount>
  <stageThreshold>-1.3156378269195557e+00</stageThreshold>
  <weakClassifiers>
    <_>
      <internalNodes>
        0 -1 2468 -84219141 -4456481 -1036983557 -80684289 -891764481
        -896743713 -153105665 -10485761</internalNodes>
      <leafValues>
        -6.5770989656448364e-01 6.8660813570022583e-01</leafValues></_>
    <_>
      <internalNodes>
        0 -1 5810 -551823088 -10489088 1595922715 -551575797 -1416908160
        -102006270 453749643 -3509</internalNodes>
      <leafValues>
        -6.5198761224746704e-01 5.8550655841827393e-01</leafValues></_>
    <_>
      <internalNodes>
        0 -1 2486 -16777225 1223688187 -26218910 -219218258 -268959921
        1966604159 -134250938 -184549377</internalNodes>
      <leafValues>
        -4.9396592378616333e-01 5.8725583553314209e-01</leafValues></_>
    <_>
      <internalNodes>
        0 -1 5148 -585106216 -570425908 -1654795215 -539117583
        -539045745 -1614807105 -1932228151 -640684047</internalNodes>
      <leafValues>
        -4.9219703674316406e-01 5.5263686180114746e-01</leafValues></_>
    <_>
      <internalNodes>
        0 -1 7010 -264318 -139198993 -1275112862 -1140851725 -18877558
        1415576327 -608964608 -134217729</internalNodes>
      <leafValues>
        -5.9109908342361450e-01 4.3914526700973511e-01</leafValues></_>
    <_>
      <internalNodes>
        0 -1 3022 -105198854 -692436864 1377886330 -717748215
        -1058405633 -940356869 -8918529 -605044021</internalNodes>
      <leafValues>
        -4.8047390580177307e-01 5.2389091253280640e-01</leafValues></_>
    <_>
      <internalNodes>
        0 -1 3040 -536870917 -2106661457 -16781518 -84017561 1895259749
        -992018433 -415762603 -320864385</internalNodes>
      <leafValues>
        -4.2819288372993469e-01 5.7507997751235962e-01</leafValues></_>
    <_>
      <internalNodes>
        0 -1 7954 -1078992897 -1078284808 83764477 -583368899 706240254
        1018887676 477365469 -33589803</internalNodes>
      <leafValues>
        -4.8284125328063965e-01 5.0571423768997192e-01</leafValues></_>
    <_>
      <internalNodes>
        0 -1 3151 -427921689 1025470077 2062810879 1894972283 -276869507
        2137611335 -151062785 -530915602</internalNodes>
      <leafValues>
        -4.5026683807373047e-01 5.2134048938751221e-01</leafValues></_>
    <_>
      <internalNodes>
        0 -1 3640 -1090523633 114519034 -16847132 -226754561 131352069
        1629834547 -28356410 -432801025</internalNodes>
      <leafValues>
        -5.2578979730606079e-01 4.4966098666191101e-01</leafValues></_></weakClassifiers></stage0>
</opencv_storage>
