<?xml version="1.0"?>
<opencv_storage>
<stage7>
  <maxWeakCount>24</maxWeakCount>
  <stageThreshold>-1.1635369062423706e+00</stageThreshold>
  <weakClassifiers>
    <_>
      <internalNodes>
        0 -1 2276 -1051649 -1049878 -201853953 -147590237 -1 -1048625
        -673185797 -1</internalNodes>
      <leafValues>
        -4.2909044027328491e-01 6.0353839397430420e-01</leafValues></_>
    <_>
      <internalNodes>
        0 -1 3066 -41987 1073305437 -16917537 490241885 -4567844
        1610243757 -1078305286 -5308417</internalNodes>
      <leafValues>
        -3.8865560293197632e-01 3.6866748332977295e-01</leafValues></_>
    <_>
      <internalNodes>
        0 -1 6629 -286493052 -7177 -4194305 -70257718 -285217627
        -705232399 -461378130 -674512768</internalNodes>
      <leafValues>
        -4.3238726258277893e-01 3.0269113183021545e-01</leafValues></_>
    <_>
      <internalNodes>
        0 -1 8130 -5242945 1067646458 1878621940 -273940536 535844607
        789249500 1836933085 -34603009</internalNodes>
      <leafValues>
        -3.1181520223617554e-01 3.9696523547172546e-01</leafValues></_>
    <_>
      <internalNodes>
        0 -1 7591 1057357809 -1374687944 863591920 -1049099 -1544880645
        218889353 289313013 387957205</internalNodes>
      <leafValues>
        -4.8014256358146667e-01 2.6108291745185852e-01</leafValues></_>
    <_>
      <internalNodes>
        0 -1 6301 -664493910 -88424821 870195720 330967210 1682425032
        1662060682 1665611778 1397223630</internalNodes>
      <leafValues>
        -5.0843328237533569e-01 2.5876438617706299e-01</leafValues></_>
    <_>
      <internalNodes>
        0 -1 5826 -1661069995 -25647745 -1887477921 -1617383745
        -1677853259 -35700769 -6472515 -1098146627</internalNodes>
      <leafValues>
        -3.0178716778755188e-01 3.8700747489929199e-01</leafValues></_>
    <_>
      <internalNodes>
        0 -1 398 410382591 -1578522398 -1387662731 -857888002
        -1336347917 -355425108 -1748633961 -352388300</internalNodes>
      <leafValues>
        -3.5562077164649963e-01 3.0813026428222656e-01</leafValues></_>
    <_>
      <internalNodes>
        0 -1 7271 -628967432 -575064647 516633072 498807738 -1911358279
        169047520 1883574717 -706759765</internalNodes>
      <leafValues>
        -3.9144605398178101e-01 2.8539282083511353e-01</leafValues></_>
    <_>
      <internalNodes>
        0 -1 4709 481582335 -143370185 2123915974 439425803 -1617803196
        860970759 -1075646513 472529919</internalNodes>
      <leafValues>
        -4.7506058216094971e-01 2.3606580495834351e-01</leafValues></_>
    <_>
      <internalNodes>
        0 -1 5617 -629178315 -787282377 1222441463 1530598325
        -2089450499 -1558212609 -788603907 -1619371075</internalNodes>
      <leafValues>
        -3.1772369146347046e-01 3.4983396530151367e-01</leafValues></_>
    <_>
      <internalNodes>
        0 -1 4470 -1431822927 801501684 -853570081 399045824 221194675
        737082285 261052363 168430804</internalNodes>
      <leafValues>
        -6.0869359970092773e-01 1.9162097573280334e-01</leafValues></_>
    <_>
      <internalNodes>
        0 -1 3148 -134783249 1605836766 -92373253 2144566591 -696244
        1031232773 -290393473 -278664129</internalNodes>
      <leafValues>
        -2.6349878311157227e-01 4.3077826499938965e-01</leafValues></_>
    <_>
      <internalNodes>
        0 -1 5953 -541290956 -19300565 17573935 1898127626 1534953379
        1225460386 1973268386 1461182987</internalNodes>
      <leafValues>
        -4.1585421562194824e-01 2.6224926114082336e-01</leafValues></_>
    <_>
      <internalNodes>
        0 -1 6320 -880845137 -835753815 1031795338 1406858154 1910275259
        135250055 1943599824 -773918264</internalNodes>
      <leafValues>
        -3.3957406878471375e-01 3.1388965249061584e-01</leafValues></_>
    <_>
      <internalNodes>
        0 -1 7040 -13254723 983006713 1631973469 -12813320 775705565
        599399009 245934302 1044254116</internalNodes>
      <leafValues>
        -4.7779938578605652e-01 2.4584056437015533e-01</leafValues></_>
    <_>
      <internalNodes>
        0 -1 2394 -1646300574 1019691234 -1157466098 1070854403
        -2067573553 853304520 895151758 1952405485</internalNodes>
      <leafValues>
        -5.2636611461639404e-01 2.0657700300216675e-01</leafValues></_>
    <_>
      <internalNodes>
        0 -1 3408 459414524 -1951232711 266852495 888254670 1510478822
        1744894341 2117032548 888497790</internalNodes>
      <leafValues>
        -5.1643592119216919e-01 2.1438367664813995e-01</leafValues></_>
    <_>
      <internalNodes>
        0 -1 7735 -1146627553 836675545 1893422598 316332874 871856970
        1020261179 -2884802 1920409175</internalNodes>
      <leafValues>
        -4.7541666030883789e-01 2.2375585138797760e-01</leafValues></_>
    <_>
      <internalNodes>
        0 -1 1014 562567856 -520490400 1854639747 -1366400322
        -1793428704 2020776032 -1763183596 -76945660</internalNodes>
      <leafValues>
        -4.8058587312698364e-01 2.1289007365703583e-01</leafValues></_>
    <_>
      <internalNodes>
        0 -1 7546 -411049726 222147375 -221520928 576442227 -738238460
        358073665 1888482226 1377517223</internalNodes>
      <leafValues>
        -6.1231851577758789e-01 1.8109256029129028e-01</leafValues></_>
    <_>
      <internalNodes>
        0 -1 5455 -859244461 -1631659779 883342844 -1187768028
        -876130587 -1149523013 -2012992171 -1903427484</internalNodes>
      <leafValues>
        -3.7755030393600464e-01 2.7641516923904419e-01</leafValues></_>
    <_>
      <internalNodes>
        0 -1 5055 -888217638 -80283777 618954537 1345576893 2078125826
        -1110042803 75910798 751547518</internalNodes>
      <leafValues>
        -4.3027985095977783e-01 2.5401738286018372e-01</leafValues></_>
    <_>
      <internalNodes>
        0 -1 2849 -5582351 -47525204 1840198909 -1790872653 -569415811
        2096001003 1196246072 -822377223</internalNodes>
      <leafValues>
        -2.8785789012908936e-01 3.7076541781425476e-01</leafValues></_></weakClassifiers></stage7>
</opencv_storage>
