<?xml version="1.0"?>
<opencv_storage>
<stage6>
  <maxWeakCount>23</maxWeakCount>
  <stageThreshold>-1.1865206956863403e+00</stageThreshold>
  <weakClassifiers>
    <_>
      <internalNodes>
        0 -1 1446 -273944073 -1029 -513 -3085 -806620689 -1 -806619153
        -540018697</internalNodes>
      <leafValues>
        -4.7037652134895325e-01 5.3602695465087891e-01</leafValues></_>
    <_>
      <internalNodes>
        0 -1 3703 -824783113 -44799113 -84477185 -210706689 1342162844
        -8433827 -1074331777 -11317537</internalNodes>
      <leafValues>
        -3.6289110779762268e-01 4.3707677721977234e-01</leafValues></_>
    <_>
      <internalNodes>
        0 -1 5449 -1626800167 -538846732 -8397825 2136830804 -1111656449
        -71303201 1073592538 -628615744</internalNodes>
      <leafValues>
        -3.7676554918289185e-01 3.8706895709037781e-01</leafValues></_>
    <_>
      <internalNodes>
        0 -1 6250 1597898649 -704818415 -174722561 -143135417
        -1614824540 -167775293 -2002147058 -67109377</internalNodes>
      <leafValues>
        -3.8436347246170044e-01 3.4236812591552734e-01</leafValues></_>
    <_>
      <internalNodes>
        0 -1 7740 2062504143 2147423067 -502013202 1112234175 -79971776
        1933239306 -224724886 842792831</internalNodes>
      <leafValues>
        -4.8680278658866882e-01 2.7627369761466980e-01</leafValues></_>
    <_>
      <internalNodes>
        0 -1 7030 1865756593 -41521245 165920752 1875516210 -100858120
        85927882 -1756708616 536816079</internalNodes>
      <leafValues>
        -4.2971220612525940e-01 3.0710986256599426e-01</leafValues></_>
    <_>
      <internalNodes>
        0 -1 2915 220975491 -717226589 1073739635 -6295179 1794105087
        -402653235 -1885417124 -998776329</internalNodes>
      <leafValues>
        -3.1855812668800354e-01 3.7661436200141907e-01</leafValues></_>
    <_>
      <internalNodes>
        0 -1 6281 -71895300 -96147070 1535052682 872145634 1791879391
        42979646 -204532982 1393550730</internalNodes>
      <leafValues>
        -4.5814767479896545e-01 2.5942555069923401e-01</leafValues></_>
    <_>
      <internalNodes>
        0 -1 6748 221720369 490368944 469625336 2109419928 2144284605
        322320959 1599633884 445520096</internalNodes>
      <leafValues>
        -6.1019861698150635e-01 1.8840442597866058e-01</leafValues></_>
    <_>
      <internalNodes>
        0 -1 6202 1041175516 -1229251236 1433794687 1711520335
        -289149936 -155682044 256586431 -13402132</internalNodes>
      <leafValues>
        -4.4020971655845642e-01 2.6240763068199158e-01</leafValues></_>
    <_>
      <internalNodes>
        0 -1 5933 1608879087 -34253858 25109672 2077567852 332376762
        33948290 1077848842 1464592714</internalNodes>
      <leafValues>
        -3.8311269879341125e-01 3.0468237400054932e-01</leafValues></_>
    <_>
      <internalNodes>
        0 -1 2563 -1101058515 1073575559 -25396657 -229050585 2146913864
        -315139559 2126315086 -62260107</internalNodes>
      <leafValues>
        -3.9462196826934814e-01 2.9908004403114319e-01</leafValues></_>
    <_>
      <internalNodes>
        0 -1 5491 -573769288 -950182981 1153999155 1168478213
        -1465153918 -344306472 252570274 213770998</internalNodes>
      <leafValues>
        -5.0672787427902222e-01 2.4027937650680542e-01</leafValues></_>
    <_>
      <internalNodes>
        0 -1 2435 1139469019 1596584706 -9281365 -761542514 -864237605
        -959626864 -675174093 -692010051</internalNodes>
      <leafValues>
        -3.7773361802101135e-01 3.0849137902259827e-01</leafValues></_>
    <_>
      <internalNodes>
        0 -1 8144 -537412829 -2088247318 1402991200 -352403460
        -112437811 2865315 -1294224909 -706431811</internalNodes>
      <leafValues>
        -3.7289249897003174e-01 3.1172028183937073e-01</leafValues></_>
    <_>
      <internalNodes>
        0 -1 7558 -192 95405859 -421030688 1644134378 -537922168
        18807044 1423806676 316650731</internalNodes>
      <leafValues>
        -5.5035340785980225e-01 2.1386902034282684e-01</leafValues></_>
    <_>
      <internalNodes>
        0 -1 3402 -1681897509 1541632682 -1681943137 1472557335
        -1953961145 -1050402 61865304 1426019791</internalNodes>
      <leafValues>
        -3.8907566666603088e-01 3.0763986706733704e-01</leafValues></_>
    <_>
      <internalNodes>
        0 -1 4594 -593404449 -588796427 402055261 1341520085 -328229401
        1148560741 1089378396 1830234359</internalNodes>
      <leafValues>
        -3.0598208308219910e-01 3.8417339324951172e-01</leafValues></_>
    <_>
      <internalNodes>
        0 -1 6038 67845951 -1441784104 802914301 -1352728588 -1089224740
        800587707 -1713726019 -1612729126</internalNodes>
      <leafValues>
        -2.8685826063156128e-01 4.0215173363685608e-01</leafValues></_>
    <_>
      <internalNodes>
        0 -1 2760 -1114414031 -1115163030 -347103523 -629286602
        -1111794213 -1919422981 -1145340467 -895417139</internalNodes>
      <leafValues>
        -3.4384936094284058e-01 3.4048587083816528e-01</leafValues></_>
    <_>
      <internalNodes>
        0 -1 4119 1815804330 -582962078 -1222284564 389112432 1313300960
        172726210 486538605 142436215</internalNodes>
      <leafValues>
        -5.3259891271591187e-01 2.1186196804046631e-01</leafValues></_>
    <_>
      <internalNodes>
        0 -1 3605 638504494 -1680127345 -2100174289 67888703 1331547879
        1308689059 -1318483741 1173115765</internalNodes>
      <leafValues>
        -5.5792248249053955e-01 2.0997990667819977e-01</leafValues></_>
    <_>
      <internalNodes>
        0 -1 2956 -1700105238 -1073809758 366183364 -201960862
        1724309486 112107502 1175042732 407859934</internalNodes>
      <leafValues>
        -4.9142745137214661e-01 2.2554598748683929e-01</leafValues></_></weakClassifiers></stage6>
</opencv_storage>
