<?xml version="1.0"?>
<opencv_storage>
<stage8>
  <maxWeakCount>27</maxWeakCount>
  <stageThreshold>-1.2312933206558228e+00</stageThreshold>
  <weakClassifiers>
    <_>
      <internalNodes>
        0 -1 201 -547356705 -13569 1904210911 -7341057 -69206017
        -8429377 -3105 -2049</internalNodes>
      <leafValues>
        -3.9368164539337158e-01 7.3014259338378906e-01</leafValues></_>
    <_>
      <internalNodes>
        0 -1 4483 -76521764 -1073766413 -9307907 1966839544 845339647
        -67184897 -924154738 -83890466</internalNodes>
      <leafValues>
        -4.0827038884162903e-01 3.1111061573028564e-01</leafValues></_>
    <_>
      <internalNodes>
        0 -1 4193 -570647041 -1222697475 1576017146 530275641 -8856484
        1564106202 1606065662 -1</internalNodes>
      <leafValues>
        -2.9824659228324890e-01 3.7949183583259583e-01</leafValues></_>
    <_>
      <internalNodes>
        0 -1 6948 -550175251 212139003 -7864341 -1379349 -12059139
        -2008426085 -34603171 -581042373</internalNodes>
      <leafValues>
        -3.4986224770545959e-01 3.0482420325279236e-01</leafValues></_>
    <_>
      <internalNodes>
        0 -1 8240 -159922561 -209862657 -285219202 -385995909 -9994674
        -151234691 -88162690 -128057485</internalNodes>
      <leafValues>
        -2.7695605158805847e-01 3.8007655739784241e-01</leafValues></_>
    <_>
      <internalNodes>
        0 -1 6337 -82003 -33870701 121318451 2004563439 -604258581
        263921819 1518316203 1342176411</internalNodes>
      <leafValues>
        -2.8341141343116760e-01 3.5977697372436523e-01</leafValues></_>
    <_>
      <internalNodes>
        0 -1 1675 1739454208 1015544322 396870156 1945621375 -756811785
        -190080089 1918105551 1954002599</internalNodes>
      <leafValues>
        -4.3563669919967651e-01 2.3929436504840851e-01</leafValues></_>
    <_>
      <internalNodes>
        0 -1 7207 -1074374435 -547463345 -558893409 -230945 1718970376
        -67179698 -1876674310 -1441226771</internalNodes>
      <leafValues>
        -3.4989100694656372e-01 2.9672035574913025e-01</leafValues></_>
    <_>
      <internalNodes>
        0 -1 7270 -420551416 -474251427 -765001920 -152831122 -822350386
        67625221 -1061620490 1159433613</internalNodes>
      <leafValues>
        -4.9945670366287231e-01 1.8707880377769470e-01</leafValues></_>
    <_>
      <internalNodes>
        0 -1 2788 1869593564 421536260 786931551 -1346797577 442701046
        -1298516996 2045079551 1071435335</internalNodes>
      <leafValues>
        -3.7237879633903503e-01 2.7596816420555115e-01</leafValues></_>
    <_>
      <internalNodes>
        0 -1 4584 -1448551968 -777736024 -1143096510 -672021035
        544992767 -256529934 -2093518411 -1923250773</internalNodes>
      <leafValues>
        -3.5810944437980652e-01 2.6499083638191223e-01</leafValues></_>
    <_>
      <internalNodes>
        0 -1 4084 -1079918613 1202317282 -1074053341 -788863 -1363430405
        -1057734785 -1749588105 -865794729</internalNodes>
      <leafValues>
        -2.9233011603355408e-01 3.2893583178520203e-01</leafValues></_>
    <_>
      <internalNodes>
        0 -1 6306 -170090540 1610057215 490549010 1007354589 -254413550
        -1174615251 1029371715 -1660815857</internalNodes>
      <leafValues>
        -3.7601932883262634e-01 2.5968325138092041e-01</leafValues></_>
    <_>
      <internalNodes>
        0 -1 3550 -607088496 -762676662 1372107001 21002091 -633160489
        -455097897 497110155 1340077642</internalNodes>
      <leafValues>
        -4.7971880435943604e-01 2.1271908283233643e-01</leafValues></_>
    <_>
      <internalNodes>
        0 -1 5870 -34689282 -205085787 -1394662167 1936294442
        -1760309885 2009047439 -1556930493 1397744138</internalNodes>
      <leafValues>
        -3.8790261745452881e-01 2.6557683944702148e-01</leafValues></_>
    <_>
      <internalNodes>
        0 -1 5175 -1666373849 -1840882910 492631577 494826039 -532338187
        -1014398027 636386813 2105500410</internalNodes>
      <leafValues>
        -3.2132944464683533e-01 3.1357392668724060e-01</leafValues></_>
    <_>
      <internalNodes>
        0 -1 6027 -1911608573 -1685949636 1522039653 2138719797
        724777328 -1363413110 895286757 4131848</internalNodes>
      <leafValues>
        -4.9829575419425964e-01 1.9812633097171783e-01</leafValues></_>
    <_>
      <internalNodes>
        0 -1 7018 2054148001 -166842379 192345776 1938964478 -503878011
        50548557 -1823485444 400255423</internalNodes>
      <leafValues>
        -3.6717286705970764e-01 2.7413144707679749e-01</leafValues></_>
    <_>
      <internalNodes>
        0 -1 2852 1173208562 481875099 467006231 368102901 1920154034
        -543194265 2039214062 -785015378</internalNodes>
      <leafValues>
        -3.9775907993316650e-01 2.4887479841709137e-01</leafValues></_>
    <_>
      <internalNodes>
        0 -1 6212 470027637 368851583 2033364829 260319162 -1157545988
        771719919 -1632063627 100675860</internalNodes>
      <leafValues>
        -5.8309894800186157e-01 1.7361460626125336e-01</leafValues></_>
    <_>
      <internalNodes>
        0 -1 4965 -827656587 -1381090061 1575751509 1813577598
        -813978639 -1355109011 501513396 -841751828</internalNodes>
      <leafValues>
        -3.0201998353004456e-01 3.2894954085350037e-01</leafValues></_>
    <_>
      <internalNodes>
        0 -1 7730 529682457 2138177595 -659614645 34871664 -821233594
        1596165187 -233001413 318797791</internalNodes>
      <leafValues>
        -4.9564725160598755e-01 1.9741123914718628e-01</leafValues></_>
    <_>
      <internalNodes>
        0 -1 5554 -654312212 1897480653 1641658882 334603145 -521344562
        406536621 424324526 -783699537</internalNodes>
      <leafValues>
        -3.2288181781768799e-01 3.1897684931755066e-01</leafValues></_>
    <_>
      <internalNodes>
        0 -1 5069 2039021034 1412543976 1878389762 -1341001221
        -1993165063 594898734 -1284250465 -1692215346</internalNodes>
      <leafValues>
        -3.1072539091110229e-01 3.3782687783241272e-01</leafValues></_>
    <_>
      <internalNodes>
        0 -1 389 1165987046 -1201865122 -81225054 -1374904814 1687901903
        -680437639 -331004082 5106222</internalNodes>
      <leafValues>
        -5.5957466363906860e-01 1.7238876223564148e-01</leafValues></_>
    <_>
      <internalNodes>
        0 -1 6736 795291445 -236041546 28208734 2012937178 -320573772
        167856136 -1496524599 857634217</internalNodes>
      <leafValues>
        -4.5357266068458557e-01 2.1982632577419281e-01</leafValues></_>
    <_>
      <internalNodes>
        0 -1 7955 1035644923 -1346835536 350494837 -102790795 933517774
        -1180156180 1609579997 -1082361006</internalNodes>
      <leafValues>
        -3.8315075635910034e-01 2.6915642619132996e-01</leafValues></_></weakClassifiers></stage8>
</opencv_storage>
