<?xml version="1.0"?>
<opencv_storage>
<stage1>
  <maxWeakCount>15</maxWeakCount>
  <stageThreshold>-1.3310213088989258e+00</stageThreshold>
  <weakClassifiers>
    <_>
      <internalNodes>
        0 -1 5889 -134219269 -71569295 -3145733 -2593 -209997182
        -204361293 -73417805 -67109893</internalNodes>
      <leafValues>
        -5.8762580156326294e-01 6.2943571805953979e-01</leafValues></_>
    <_>
      <internalNodes>
        0 -1 4695 -570622465 -108035 424214271 1601855485 -838939396
        1575637118 -1615134982 -1078263809</internalNodes>
      <leafValues>
        -5.1458650827407837e-01 5.1536619663238525e-01</leafValues></_>
    <_>
      <internalNodes>
        0 -1 3259 -3364136 -205604176 -673319203 -2115878 -1193820418
        -19137570 -3408933 -1145066818</internalNodes>
      <leafValues>
        -6.0541069507598877e-01 3.9336878061294556e-01</leafValues></_>
    <_>
      <internalNodes>
        0 -1 7960 -201326614 -292880438 -40544 -489709859 -42470201
        84893667 -167782925 -672663553</internalNodes>
      <leafValues>
        -5.0828605890274048e-01 4.6482387185096741e-01</leafValues></_>
    <_>
      <internalNodes>
        0 -1 994 -1018186761 -1377392030 580883190 -135273750 1843394559
        -330439616 358085631 -271583793</internalNodes>
      <leafValues>
        -3.8355928659439087e-01 5.8882838487625122e-01</leafValues></_>
    <_>
      <internalNodes>
        0 -1 3664 -553657089 -49324173 -353706258 1882390491 -226868660
        1880314747 -4268470 -142935169</internalNodes>
      <leafValues>
        -4.4056025147438049e-01 4.6339911222457886e-01</leafValues></_>
    <_>
      <internalNodes>
        0 -1 8108 -226501025 -109879429 -353370370 1659043839 2134530638
        2138503023 -17105673 -232587401</internalNodes>
      <leafValues>
        -4.2259499430656433e-01 4.7229489684104919e-01</leafValues></_>
    <_>
      <internalNodes>
        0 -1 6015 209653527 353525558 -8938509 -141598921 268381677
        -1894035672 533497277 -1610918664</internalNodes>
      <leafValues>
        -4.2760443687438965e-01 4.6064066886901855e-01</leafValues></_>
    <_>
      <internalNodes>
        0 -1 1847 -75503921 -1330726145 -94363500 -1308429585 -548861620
        1346693189 266325582 1114636111</internalNodes>
      <leafValues>
        -5.6937116384506226e-01 3.6006709933280945e-01</leafValues></_>
    <_>
      <internalNodes>
        0 -1 6760 456273717 1060274036 1005428221 2105375741 -1276280835
        -1146214276 733855164 -1954804548</internalNodes>
      <leafValues>
        -5.6379342079162598e-01 3.5360229015350342e-01</leafValues></_>
    <_>
      <internalNodes>
        0 -1 2928 1598087935 -540573560 -951218441 1462059522
        -2046235922 -829791928 1808072619 1270873837</internalNodes>
      <leafValues>
        -4.9167808890342712e-01 3.9959660172462463e-01</leafValues></_>
    <_>
      <internalNodes>
        0 -1 7964 -1342177301 1106239215 2096618930 -364058674
        -1218970771 76493293 -142607945 1356332518</internalNodes>
      <leafValues>
        -5.6523054838180542e-01 3.3975261449813843e-01</leafValues></_>
    <_>
      <internalNodes>
        0 -1 4457 387922780 353712902 1908013023 -1121995986 1878989384
        -70517928 -4370481 -15864930</internalNodes>
      <leafValues>
        -5.1396042108535767e-01 4.0198403596878052e-01</leafValues></_>
    <_>
      <internalNodes>
        0 -1 7051 -1350633679 -1976650449 -1230538927 -1648371847
        -1084702789 -1968256087 -1578905599 -1895829707</internalNodes>
      <leafValues>
        -4.6282935142517090e-01 4.2287290096282959e-01</leafValues></_>
    <_>
      <internalNodes>
        0 -1 4529 -1383859215 761872642 -102763785 1407730017 268419071
        -1922695593 770699765 141574516</internalNodes>
      <leafValues>
        -5.7066327333450317e-01 3.4357890486717224e-01</leafValues></_></weakClassifiers></stage1>
</opencv_storage>
