<?xml version="1.0"?>
<opencv_storage>
<cascade>
  <stageType>BOOST</stageType>
  <featureType>LBP</featureType>
  <height>24</height>
  <width>24</width>
  <stageParams>
    <boostType>GAB</boostType>
    <minHitRate>9.9900001287460327e-01</minHitRate>
    <maxFalseAlarm>3.0000001192092896e-01</maxFalseAlarm>
    <weightTrimRate>9.4999999999999996e-01</weightTrimRate>
    <maxDepth>1</maxDepth>
    <maxWeakCount>100</maxWeakCount></stageParams>
  <featureParams>
    <maxCatCount>256</maxCatCount>
    <featSize>1</featSize></featureParams>
  <stageNum>10</stageNum>
  <stages>
    <!-- stage 0 -->
    <_>
      <maxWeakCount>17</maxWeakCount>
      <stageThreshold>-2.3090431690216064e+00</stageThreshold>
      <weakClassifiers>
        <_>
          <internalNodes>
            0 -1 60 -1049622 -1048594 -67112717 -1 -18 244064204 -2049
            -1</internalNodes>
          <leafValues>
            -6.4497447013854980e-01 6.0470503568649292e-01</leafValues></_>
        <_>
          <internalNodes>
            0 -1 471 -13 -1347420229 -15 -13 -188 -1892679853 1442837749
            -536871435</internalNodes>
          <leafValues>
            -4.4727930426597595e-01 6.0682088136672974e-01</leafValues></_>
        <_>
          <internalNodes>
            0 -1 5 -268439553 -269488410 587195122 -4366 2147483647 -1
            2013231092 -2057</internalNodes>
          <leafValues>
            -4.2668890953063965e-01 5.8795881271362305e-01</leafValues></_>
        <_>
          <internalNodes>
            0 -1 179 -203885928 -682585414 1460163036 1472451551
            -101125638 -71651166 1360002015 1531968255</internalNodes>
          <leafValues>
            -5.7975351810455322e-01 3.9673933386802673e-01</leafValues></_>
        <_>
          <internalNodes>
            0 -1 24 -16781585 -286329106 -218107138 -487653634
            -134218427 1330511695 -184556304 -195559553</internalNodes>
          <leafValues>
            -4.8567229509353638e-01 3.8929617404937744e-01</leafValues></_>
        <_>
          <internalNodes>
            0 -1 415 1071628067 601880575 1996452402 -218433805
            -268435699 -271581361 -3148 -150994945</internalNodes>
          <leafValues>
            -3.7273859977722168e-01 4.7204205393791199e-01</leafValues></_>
        <_>
          <internalNodes>
            0 -1 121 -17109266 -80498825 -17121608 976420479 1257897992
            -835007649 -889533761 -612933769</internalNodes>
          <leafValues>
            -4.5030978322029114e-01 3.6901685595512390e-01</leafValues></_>
        <_>
          <internalNodes>
            0 -1 36 -487588609 -940642322 1895792126 -231736350
            1425929982 1279676228 1365735153 -404752541</internalNodes>
          <leafValues>
            -3.7478753924369812e-01 3.9407995343208313e-01</leafValues></_>
        <_>
          <internalNodes>
            0 -1 136 -16822657 -293675009 -16842757 -75825281 -16823204
            -825335937 -218300417 -25756033</internalNodes>
          <leafValues>
            -3.0626821517944336e-01 4.8595809936523438e-01</leafValues></_>
        <_>
          <internalNodes>
            0 -1 323 -730081451 -1084932259 803200127 1415446367
            -355475941 -1093667044 -2131558501 -598212793</internalNodes>
          <leafValues>
            -3.0089783668518066e-01 4.4971919059753418e-01</leafValues></_>
        <_>
          <internalNodes>
            0 -1 461 -201326729 2012479487 -218107142 -218169345 -12466
            -8388769 -16777266 -16777219</internalNodes>
          <leafValues>
            -2.3836317658424377e-01 5.6629115343093872e-01</leafValues></_>
        <_>
          <internalNodes>
            0 -1 159 870788899 -336662613 -150996304 1929378790
            2147483519 1330085727 -234915979 1954021207</internalNodes>
          <leafValues>
            -4.8458084464073181e-01 2.9517439007759094e-01</leafValues></_>
        <_>
          <internalNodes>
            0 -1 396 -1048825 -1359216657 -83886158 -219743233 -4236017
            1342177263 -134742236 -454557705</internalNodes>
          <leafValues>
            -4.4186311960220337e-01 2.8768858313560486e-01</leafValues></_>
        <_>
          <internalNodes>
            0 -1 379 251596405 -142647521 -218105089 847249151 -16823196
            -8446017 -83920203 -298123531</internalNodes>
          <leafValues>
            -3.5214716196060181e-01 3.6609122157096863e-01</leafValues></_>
        <_>
          <internalNodes>
            0 -1 401 800128893 -1080254475 -2051 -4444691 -1073872899
            -289538058 -1130611203 -1107472908</internalNodes>
          <leafValues>
            -3.0532968044281006e-01 4.0688320994377136e-01</leafValues></_>
        <_>
          <internalNodes>
            0 -1 432 720857967 -1048705 -219680009 1929052158 -267698
            2004877151 -150997308 -360776067</internalNodes>
          <leafValues>
            -3.1642210483551025e-01 3.9322188496589661e-01</leafValues></_>
        <_>
          <internalNodes>
            0 -1 98 -1364197389 -1422919774 -1074284553 -16779792
            -1343258753 -269484053 1340044785 -838863371</internalNodes>
          <leafValues>
            -2.8181865811347961e-01 4.2358016967773438e-01</leafValues></_></weakClassifiers></_>
    <!-- stage 1 -->
    <_>
      <maxWeakCount>22</maxWeakCount>
      <stageThreshold>-2.2299530506134033e+00</stageThreshold>
      <weakClassifiers>
        <_>
          <internalNodes>
            0 -1 73 -69207302 -67108865 458789528 -69207041 -70255894
            -540147764 -69206018 -2100257</internalNodes>
          <leafValues>
            -5.9534382820129395e-01 5.2823173999786377e-01</leafValues></_>
        <_>
          <internalNodes>
            0 -1 56 -890306817 -810827777 -807411713 1602181119
            -892408081 -805306369 -1060846379 -805349377</internalNodes>
          <leafValues>
            -4.6021506190299988e-01 5.1706576347351074e-01</leafValues></_>
        <_>
          <internalNodes>
            0 -1 325 -134217961 1465384791 1044365110 271777527
            -10486001 -9437361 -8417 -536870913</internalNodes>
          <leafValues>
            -3.8129165768623352e-01 5.0379484891891479e-01</leafValues></_>
        <_>
          <internalNodes>
            0 -1 134 -41345 -268501153 -16844801 -93126657 -45986
            -822125473 -16842753 -25165953</internalNodes>
          <leafValues>
            -3.0926775932312012e-01 5.6795841455459595e-01</leafValues></_>
        <_>
          <internalNodes>
            0 -1 154 -68643 -167780897 318771984 521372608 -628172833
            -1882302977 1243567071 1510425579</internalNodes>
          <leafValues>
            -4.5019090175628662e-01 3.9418506622314453e-01</leafValues></_>
        <_>
          <internalNodes>
            0 -1 38 -5 -273678417 -134219821 -77 -129 -268443777
            -134219785 -2057</internalNodes>
          <leafValues>
            -1.9475369155406952e-01 6.9739091396331787e-01</leafValues></_>
        <_>
          <internalNodes>
            0 -1 452 -268435661 -1347682390 -67116045 -2061 -67109108
            -1892679921 -16779787 -838860801</internalNodes>
          <leafValues>
            -3.0901232361793518e-01 5.4873859882354736e-01</leafValues></_>
        <_>
          <internalNodes>
            0 -1 97 -225910144 -537736518 67240205 1537186263 -8723720
            -254754656 1397484367 1909309870</internalNodes>
          <leafValues>
            -5.4270744323730469e-01 2.2642704844474792e-01</leafValues></_>
        <_>
          <internalNodes>
            0 -1 481 -272629765 -1347420246 -218270991 -1291845701
            -301992115 -1895305377 352055797 1568667127</internalNodes>
          <leafValues>
            -3.3307456970214844e-01 3.7359136343002319e-01</leafValues></_>
        <_>
          <internalNodes>
            0 -1 196 662126387 -272171094 -704646287 -83953744
            2147483643 -806355047 2013263861 -16779471</internalNodes>
          <leafValues>
            -3.3385172486305237e-01 3.6963376402854919e-01</leafValues></_>
        <_>
          <internalNodes>
            0 -1 326 -8388833 2139094911 -16779653 1929314298 -538968307
            -10486433 -687869189 -589299777</internalNodes>
          <leafValues>
            -2.4353599548339844e-01 4.7237941622734070e-01</leafValues></_>
        <_>
          <internalNodes>
            0 -1 267 800636925 -1075118083 -1 -200708 2146435061 -1
            -1644173891 -131628</internalNodes>
          <leafValues>
            -2.6972508430480957e-01 4.2624130845069885e-01</leafValues></_>
        <_>
          <internalNodes>
            0 -1 284 -1347457129 -273744030 -184552461 -151716044
            1879048191 -814219305 1459582933 1090319860</internalNodes>
          <leafValues>
            -3.9706498384475708e-01 2.9351136088371277e-01</leafValues></_>
        <_>
          <internalNodes>
            0 -1 46 -2424838 -537890818 2146864893 2142382754 -977253328
            -1889644556 -537423873 1610548255</internalNodes>
          <leafValues>
            -3.8513004779815674e-01 2.9192593693733215e-01</leafValues></_>
        <_>
          <internalNodes>
            0 -1 62 -285212673 -1410334810 -1006636814 -134217858
            1337917435 -842006533 2004841459 -536873217</internalNodes>
          <leafValues>
            -2.3817224800586700e-01 4.3708908557891846e-01</leafValues></_>
        <_>
          <internalNodes>
            0 -1 446 -287347073 -1073741953 -219417857 -220660737
            -16789940 -8389546 -151066924 -83888129</internalNodes>
          <leafValues>
            -2.3924829065799713e-01 4.4695329666137695e-01</leafValues></_>
        <_>
          <internalNodes>
            0 -1 69 -8717798 -336687158 -608530191 -72680517 -2146152
            -1723052224 -537455368 1532711387</internalNodes>
          <leafValues>
            -3.7203043699264526e-01 2.8435444831848145e-01</leafValues></_>
        <_>
          <internalNodes>
            0 -1 382 780085821 -1101138081 -220269827 855048127
            -27398588 -8430017 1823501305 1516132196</internalNodes>
          <leafValues>
            -4.2142096161842346e-01 2.4031536281108856e-01</leafValues></_>
        <_>
          <internalNodes>
            0 -1 48 -1052929 -271581241 -352324877 -85524545 -8434613
            -41984177 -168302891 -817889921</internalNodes>
          <leafValues>
            -2.5031960010528564e-01 4.2184066772460938e-01</leafValues></_>
        <_>
          <internalNodes>
            0 -1 394 1870659367 -806486097 -420484382 -536871045
            -67109107 218619662 -167775056 -186843212</internalNodes>
          <leafValues>
            -3.1542092561721802e-01 3.0960327386856079e-01</leafValues></_>
        <_>
          <internalNodes>
            0 -1 222 -63974384 -199983408 -1129603649 -589300329
            -50627393 -642001812 352304366 471792957</internalNodes>
          <leafValues>
            -3.8911691308021545e-01 2.5493061542510986e-01</leafValues></_>
        <_>
          <internalNodes>
            0 -1 125 -403706009 737144431 -688986450 -1291912482
            -805318904 1326440205 -268449539 2012545005</internalNodes>
          <leafValues>
            -3.6865723133087158e-01 2.5527295470237732e-01</leafValues></_></weakClassifiers></_>
    <!-- stage 2 -->
    <_>
      <maxWeakCount>30</maxWeakCount>
      <stageThreshold>-2.2701227664947510e+00</stageThreshold>
      <weakClassifiers>
        <_>
          <internalNodes>
            0 -1 95 -286326785 -269488129 -805306369 -9 -823197713
            -268435457 -807405569 -536870913</internalNodes>
          <leafValues>
            -4.8402035236358643e-01 5.7225686311721802e-01</leafValues></_>
        <_>
          <internalNodes>
            0 -1 258 -251659012 501087733 -1157628168 -1073741829
            -33554947 -1107296257 -44712916 1061158843</internalNodes>
          <leafValues>
            -4.9578595161437988e-01 3.8130545616149902e-01</leafValues></_>
        <_>
          <internalNodes>
            0 -1 89 -269549569 -5575950 -33793 -56590 -805306369 -9
            2147448823 -34825</internalNodes>
          <leafValues>
            -2.9671269655227661e-01 5.6634449958801270e-01</leafValues></_>
        <_>
          <internalNodes>
            0 -1 327 -16619 1063206709 -1292142721 846461823 -536871332
            -1096909260 -1610746625 -1090519041</internalNodes>
          <leafValues>
            -3.9838057756423950e-01 3.8345167040824890e-01</leafValues></_>
        <_>
          <internalNodes>
            0 -1 135 -41473 -107012 -1 -1073865218 -83951617 -1342243329
            -65537 -65537</internalNodes>
          <leafValues>
            -2.3922367393970490e-01 5.5450159311294556e-01</leafValues></_>
        <_>
          <internalNodes>
            0 -1 105 -286982417 -825244667 -831597488 1079198807
            -658178097 -892351793 1514658271 1531925847</internalNodes>
          <leafValues>
            -4.0909454226493835e-01 3.2656133174896240e-01</leafValues></_>
        <_>
          <internalNodes>
            0 -1 128 -2097281 -268542129 -151334157 1914371775 -307681
            1333747022 1988027604 1920139123</internalNodes>
          <leafValues>
            -4.0441083908081055e-01 2.7855703234672546e-01</leafValues></_>
        <_>
          <internalNodes>
            0 -1 436 -1101 -1425286630 -704646415 -541065291 -815796472
            -1894987520 -706744080 -821035013</internalNodes>
          <leafValues>
            -2.9280203580856323e-01 3.6710727214813232e-01</leafValues></_>
        <_>
          <internalNodes>
            0 -1 31 -209736786 -69488705 574033727 925349689 -214451282
            -207518332 1895804927 1447406849</internalNodes>
          <leafValues>
            -3.9900761842727661e-01 2.8221055865287781e-01</leafValues></_>
        <_>
          <internalNodes>
            0 -1 203 -135464451 -10485811 856764944 -48500015 -271778849
            190634205 -1607796002 2030162279</internalNodes>
          <leafValues>
            -3.4923142194747925e-01 2.8106403350830078e-01</leafValues></_>
        <_>
          <internalNodes>
            0 -1 61 -500170821 -1548748894 -268439565 -239209054
            -9437185 -2097153 -709888521 -268437515</internalNodes>
          <leafValues>
            -2.0673084259033203e-01 4.5751899480819702e-01</leafValues></_>
        <_>
          <internalNodes>
            0 -1 251 -1179869 -269553750 -150997193 -220790990
            -335544337 -1880359170 -740395146 -553714059</internalNodes>
          <leafValues>
            -2.6417604088783264e-01 3.6198690533638000e-01</leafValues></_>
        <_>
          <internalNodes>
            0 -1 444 -285274529 2132761941 1916795611 1918894079
            -538982388 -4256169 -218176780 -92274689</internalNodes>
          <leafValues>
            -2.4920953810214996e-01 3.5633805394172668e-01</leafValues></_>
        <_>
          <internalNodes>
            0 -1 22 -72065 -17519617 -436011305 -1371477452 -19594128
            -555463481 1350036703 -297509345</internalNodes>
          <leafValues>
            -3.1928858160972595e-01 2.8156855702400208e-01</leafValues></_>
        <_>
          <internalNodes>
            0 -1 242 720314163 -269582422 1944024051 -219417808
            2142502143 -874512385 1457518580 1425536965</internalNodes>
          <leafValues>
            -3.7142542004585266e-01 2.3809401690959930e-01</leafValues></_>
        <_>
          <internalNodes>
            0 -1 123 -338631184 -81254428 800368638 993145778 1140870846
            1325453036 530310655 1398866775</internalNodes>
          <leafValues>
            -4.4430899620056152e-01 1.9006021320819855e-01</leafValues></_>
        <_>
          <internalNodes>
            0 -1 405 -150995081 1391976311 1929375858 1358626482 -528638
            -93520003 -293602708 -587203746</internalNodes>
          <leafValues>
            -3.0332368612289429e-01 2.8784587979316711e-01</leafValues></_>
        <_>
          <internalNodes>
            0 -1 413 620733775 2139062139 1920988127 1913192439
            -335558132 -8389825 -629211152 1617753854</internalNodes>
          <leafValues>
            -3.5346198081970215e-01 2.4533282220363617e-01</leafValues></_>
        <_>
          <internalNodes>
            0 -1 64 -531693837 -1548819806 250549239 1116731314 5193147
            -1945313586 1163351287 1204778935</internalNodes>
          <leafValues>
            -3.8232010602951050e-01 2.1623970568180084e-01</leafValues></_>
        <_>
          <internalNodes>
            0 -1 450 -134161 -1414857798 847245474 854589082 -33579233
            1191704431 -210774032 1400764409</internalNodes>
          <leafValues>
            -3.3994480967521667e-01 2.5143283605575562e-01</leafValues></_>
        <_>
          <internalNodes>
            0 -1 369 -1356267531 -8587140 -1613763107 -1610745372
            783891965 -1888190991 -1951965699 255806497</internalNodes>
          <leafValues>
            -3.1711146235466003e-01 2.7010187506675720e-01</leafValues></_>
        <_>
          <internalNodes>
            0 -1 18 -525521 -97616897 -1245562 -85004545 2138513231
            -109846665 -25703094 -25690501</internalNodes>
          <leafValues>
            -1.9346779584884644e-01 4.0785750746726990e-01</leafValues></_>
        <_>
          <internalNodes>
            0 -1 238 -1683431503 2109416242 1073741821 1432165746
            -1212506183 -1078215365 1052123133 505025917</internalNodes>
          <leafValues>
            -3.7938928604125977e-01 2.2056475281715393e-01</leafValues></_>
        <_>
          <internalNodes>
            0 -1 376 -287564683 2122268671 -151093633 574390071
            1872514636 -19963905 -88441155 740304496</internalNodes>
          <leafValues>
            -4.1997238993644714e-01 1.7642043530941010e-01</leafValues></_>
        <_>
          <internalNodes>
            0 -1 312 -552823300 1895873712 -1343375944 -543306060
            1937571261 798556158 418188380 674439931</internalNodes>
          <leafValues>
            -3.9904281497001648e-01 1.9157791137695312e-01</leafValues></_>
        <_>
          <internalNodes>
            0 -1 188 1811926803 -1347486038 1943343825 1996420672
            -436228353 -1903230977 1409284085 -956432452</internalNodes>
          <leafValues>
            -2.7119824290275574e-01 2.7545663714408875e-01</leafValues></_>
        <_>
          <internalNodes>
            0 -1 483 -1096024065 -1079443628 1879015411 -12714539
            -1212416260 -1074954763 -1111932931 -54534787</internalNodes>
          <leafValues>
            -1.9435226917266846e-01 3.9314910769462585e-01</leafValues></_>
        <_>
          <internalNodes>
            0 -1 364 789097180 1058077946 224755052 -1078469255
            1589619369 -1108468998 14520565 225686644</internalNodes>
          <leafValues>
            -4.1228374838829041e-01 1.8182176351547241e-01</leafValues></_>
        <_>
          <internalNodes>
            0 -1 486 -403701917 1996475655 568684812 6730598 -9961728
            -151847049 -618688922 -991560861</internalNodes>
          <leafValues>
            -2.7923378348350525e-01 2.6310497522354126e-01</leafValues></_>
        <_>
          <internalNodes>
            0 -1 180 2074770361 368526615 55705559 1565481059 -887039046
            -205833613 -887891969 -35660457</internalNodes>
          <leafValues>
            -2.0744767785072327e-01 3.5719484090805054e-01</leafValues></_></weakClassifiers></_>
    <!-- stage 3 -->
    <_>
      <maxWeakCount>37</maxWeakCount>
      <stageThreshold>-2.1442923545837402e+00</stageThreshold>
      <weakClassifiers>
        <_>
          <internalNodes>
            0 -1 278 -193 2134900543 -1 -1 -1 -1 -1090535489 -1</internalNodes>
          <leafValues>
            -3.8536906242370605e-01 7.0562237501144409e-01</leafValues></_>
        <_>
          <internalNodes>
            0 -1 453 -4194305 -1145307208 1576525309 -3 -1077936708
            -1078420320 486923741 -13107211</internalNodes>
          <leafValues>
            -3.1740275025367737e-01 5.1351779699325562e-01</leafValues></_>
        <_>
          <internalNodes>
            0 -1 16 -1 -65537 -268522242 -4259842 -41731 -537928209
            -4256548 -1</internalNodes>
          <leafValues>
            -2.0063397288322449e-01 6.5238642692565918e-01</leafValues></_>
        <_>
          <internalNodes>
            0 -1 101 -353708293 -273945693 229375827 1932736305 50467579
            -1364471869 1095073779 -1572877</internalNodes>
          <leafValues>
            -3.8502228260040283e-01 3.3794683218002319e-01</leafValues></_>
        <_>
          <internalNodes>
            0 -1 1 -136314898 -604250113 366950399 1608507391 -234883601
            -29307456 2147475407 1170595790</internalNodes>
          <leafValues>
            -4.0551093220710754e-01 2.7792742848396301e-01</leafValues></_>
        <_>
          <internalNodes>
            0 -1 262 353681405 1901983485 1601387518 2080076792
            939065341 2147287036 993541100 1001914600</internalNodes>
          <leafValues>
            -3.5699185729026794e-01 3.3538949489593506e-01</leafValues></_>
        <_>
          <internalNodes>
            0 -1 434 -2129 800063483 -67109974 -1277167619 -244
            1461695822 -142608393 -134348803</internalNodes>
          <leafValues>
            -2.6046583056449890e-01 3.8580700755119324e-01</leafValues></_>
        <_>
          <internalNodes>
            0 -1 78 -495785914 1934813951 -93127938 1918041847
            1342098504 1309626231 -838891009 1467469639</internalNodes>
          <leafValues>
            -4.5186793804168701e-01 2.2178083658218384e-01</leafValues></_>
        <_>
          <internalNodes>
            0 -1 93 -1431568397 -5506062 -35337 -2109200 -274727937 -1
            -536870913 -2571</internalNodes>
          <leafValues>
            -1.8129979074001312e-01 5.0705468654632568e-01</leafValues></_>
        <_>
          <internalNodes>
            0 -1 381 1728006269 -27304833 -224986373 1384054655
            -17348536 -8397954 -287511819 2054094805</internalNodes>
          <leafValues>
            -3.6331722140312195e-01 2.4079276621341705e-01</leafValues></_>
        <_>
          <internalNodes>
            0 -1 115 -268506370 -875565201 251189498 457169663
            -805649238 -884176636 1610498303 -632103081</internalNodes>
          <leafValues>
            -3.0132538080215454e-01 2.9224818944931030e-01</leafValues></_>
        <_>
          <internalNodes>
            0 -1 303 -167978248 -134769696 16818062 355934118
            -1092556616 -1459805896 606330638 822543118</internalNodes>
          <leafValues>
            -4.4772332906723022e-01 1.9318179786205292e-01</leafValues></_>
        <_>
          <internalNodes>
            0 -1 469 -67108997 -1347747934 -206310416 -234883728
            -268435633 -1892679894 1407186421 -546310657</internalNodes>
          <leafValues>
            -2.3977419734001160e-01 3.2944631576538086e-01</leafValues></_>
        <_>
          <internalNodes>
            0 -1 362 -1124122978 -1078575212 -1930757390 -251922763
            1340018436 -828391667 -1761627210 -704905217</internalNodes>
          <leafValues>
            -3.3007457852363586e-01 2.3203177750110626e-01</leafValues></_>
        <_>
          <internalNodes>
            0 -1 270 -1294948476 -706170961 -1841515664 -460835
            -1141526529 -8540177 -1275199489 68488453</internalNodes>
          <leafValues>
            -3.5145121812820435e-01 2.1393892168998718e-01</leafValues></_>
        <_>
          <internalNodes>
            0 -1 21 -92285185 -890854674 -83954946 -1167529238
            -159432689 -817148338 -151527177 -28836273</internalNodes>
          <leafValues>
            -2.5857037305831909e-01 2.7966886758804321e-01</leafValues></_>
        <_>
          <internalNodes>
            0 -1 340 -1137132036 -22004420 1035258876 1073364424
            1061107901 1706384894 364723452 1068973834</internalNodes>
          <leafValues>
            -3.9017829298973083e-01 1.8190638720989227e-01</leafValues></_>
        <_>
          <internalNodes>
            0 -1 148 -420481061 -1347504214 935310327 -153258144
            268419071 -1894844501 1474246391 1609561399</internalNodes>
          <leafValues>
            -2.7838850021362305e-01 2.6630368828773499e-01</leafValues></_>
        <_>
          <internalNodes>
            0 -1 411 -1360057769 1061117779 307654911 846913518
            -1358968820 -277881986 1257962228 2051078517</internalNodes>
          <leafValues>
            -3.8097691535949707e-01 1.8723437190055847e-01</leafValues></_>
        <_>
          <internalNodes>
            0 -1 439 -152104429 -604768425 -82838673 -83429601
            -1705307429 -67633195 -1306883362 -1877804514</internalNodes>
          <leafValues>
            -2.4434606730937958e-01 2.7553811669349670e-01</leafValues></_>
        <_>
          <internalNodes>
            0 -1 230 -1313145675 1597754545 1073741823 1610566997
            -1078204485 -4653315 1060896766 1307561269</internalNodes>
          <leafValues>
            -2.7570995688438416e-01 2.5996050238609314e-01</leafValues></_>
        <_>
          <internalNodes>
            0 -1 122 -262274 1427967485 -1615156166 227655602
            -1676099800 -4530379 1289919931 -558228453</internalNodes>
          <leafValues>
            -2.5838142633438110e-01 2.4629677832126617e-01</leafValues></_>
        <_>
          <internalNodes>
            0 -1 462 -813695215 -176162817 1296555012 1306903935
            -268437632 -239081666 -817365248 -873465998</internalNodes>
          <leafValues>
            -2.1819831430912018e-01 2.8673633933067322e-01</leafValues></_>
        <_>
          <internalNodes>
            0 -1 160 -19339345 1536159631 -184565805 847227830
            -545274161 1262667916 1744231775 1548218204</internalNodes>
          <leafValues>
            -2.5548717379570007e-01 2.4905745685100555e-01</leafValues></_>
        <_>
          <internalNodes>
            0 -1 139 -819331077 -68553998 -839026689 -1060686
            -1989149441 -19398657 1325236223 -1614850315</internalNodes>
          <leafValues>
            -1.5907967090606689e-01 4.0473723411560059e-01</leafValues></_>
        <_>
          <internalNodes>
            0 -1 150 -235951630 -1886418430 1058395506 7822851
            -2016477473 243826178 -900432419 -363856265</internalNodes>
          <leafValues>
            -2.5673821568489075e-01 2.6056283712387085e-01</leafValues></_>
        <_>
          <internalNodes>
            0 -1 356 -1400943345 -1098973377 1936982015 847151103
            -295440775 -1350570625 -18810119 407033268</internalNodes>
          <leafValues>
            -3.0228471755981445e-01 2.1253770589828491e-01</leafValues></_>
        <_>
          <internalNodes>
            0 -1 210 828699636 -8801064 -738378753 1505441816 -766903045
            -822232090 -1413674838 1741498890</internalNodes>
          <leafValues>
            -2.9247495532035828e-01 2.1338911354541779e-01</leafValues></_>
        <_>
          <internalNodes>
            0 -1 451 -672137413 -1355808854 -478151776 1937604593
            -136337912 256900908 1442817777 1162805231</internalNodes>
          <leafValues>
            -2.8660690784454346e-01 2.1447184681892395e-01</leafValues></_>
        <_>
          <internalNodes>
            0 -1 440 -28159803 -58847147 -1 -125569 -495218245
            -554763266 974232025 -1690673345</internalNodes>
          <leafValues>
            -2.5227376818656921e-01 2.4352201819419861e-01</leafValues></_>
        <_>
          <internalNodes>
            0 -1 70 -1422134529 449841310 -1615892998 322624694
            725032445 219879934 -1682743942 -613164932</internalNodes>
          <leafValues>
            -2.3037746548652649e-01 2.7151125669479370e-01</leafValues></_>
        <_>
          <internalNodes>
            0 -1 167 786722548 -10735635 658224946 781922850 1609484231
            -599495217 671033215 1657054189</internalNodes>
          <leafValues>
            -3.3670303225517273e-01 1.7603267729282379e-01</leafValues></_>
        <_>
          <internalNodes>
            0 -1 6 -271585373 -122171005 -134512641 -336334142
            -177213697 -2103417 -84937762 -101713945</internalNodes>
          <leafValues>
            -1.3398715853691101e-01 4.7905045747756958e-01</leafValues></_>
        <_>
          <internalNodes>
            0 -1 239 -469976147 -1175111373 1026883052 1467559461
            -354624007 1306409395 246503788 179494392</internalNodes>
          <leafValues>
            -2.9542794823646545e-01 2.0689955353736877e-01</leafValues></_>
        <_>
          <internalNodes>
            0 -1 236 736303891 -1893532320 1946121200 -592085004
            1874448127 251133951 2012739029 1283224661</internalNodes>
          <leafValues>
            -3.7906742095947266e-01 1.6096106171607971e-01</leafValues></_>
        <_>
          <internalNodes>
            0 -1 131 -16818561 -303407265 1928777971 1920614391 -8453052
            1339754078 -185674035 2138240955</internalNodes>
          <leafValues>
            -2.8297439217567444e-01 2.1110111474990845e-01</leafValues></_>
        <_>
          <internalNodes>
            0 -1 319 -59791757 1997501760 -64852677 -997937326 121081602
            -1095247894 515858079 369032055</internalNodes>
          <leafValues>
            -2.7307197451591492e-01 2.1796843409538269e-01</leafValues></_></weakClassifiers></_>
    <!-- stage 4 -->
    <_>
      <maxWeakCount>44</maxWeakCount>
      <stageThreshold>-2.1079416275024414e+00</stageThreshold>
      <weakClassifiers>
        <_>
          <internalNodes>
            0 -1 276 -1077936129 -5505041 -134220813 -131073 -1879048193
            -1 -1207961609 -1</internalNodes>
          <leafValues>
            -3.8520625233650208e-01 6.1637240648269653e-01</leafValues></_>
        <_>
          <internalNodes>
            0 -1 272 -163 -131073 1073692479 989855743 -16778472
            -16777217 -1157645638 -1157628161</internalNodes>
          <leafValues>
            -3.0769881606101990e-01 4.8028364777565002e-01</leafValues></_>
        <_>
          <internalNodes>
            0 -1 108 -656129 -806384508 -620765729 -788542241 -1
            -335575857 -83894305 -603990049</internalNodes>
          <leafValues>
            -2.6951810717582703e-01 5.1681005954742432e-01</leafValues></_>
        <_>
          <internalNodes>
            0 -1 137 -41729 -106497 -16842753 -1073823746 -16888580
            -107265 -18415617 -1090600961</internalNodes>
          <leafValues>
            -2.4660316109657288e-01 4.4160741567611694e-01</leafValues></_>
        <_>
          <internalNodes>
            0 -1 355 -65633 -10485985 1739323382 -715784193 -1349521662
            -1147145629 -2046560461 -808454145</internalNodes>
          <leafValues>
            -2.8514882922172546e-01 3.4609854221343994e-01</leafValues></_>
        <_>
          <internalNodes>
            0 -1 213 -151521995 806419893 -4342275 -1077937153 -33580611
            1039965629 -327308248 675278783</internalNodes>
          <leafValues>
            -2.8769272565841675e-01 3.0723157525062561e-01</leafValues></_>
        <_>
          <internalNodes>
            0 -1 183 -1174345032 2108947930 318971850 1506808402
            -1866935558 -73758542 -257036305 330241363</internalNodes>
          <leafValues>
            -4.6291771531105042e-01 1.8366381525993347e-01</leafValues></_>
        <_>
          <internalNodes>
            0 -1 66 -286332210 -285220338 -201369396 -10567090
            -1543773573 -1166880000 1434448339 1396898371</internalNodes>
          <leafValues>
            -3.5689178109169006e-01 2.2301357984542847e-01</leafValues></_>
        <_>
          <internalNodes>
            0 -1 237 -1481671885 -139806032 536868863 -671615979
            -282132545 -1884618761 1342109694 -588327428</internalNodes>
          <leafValues>
            -2.4351246654987335e-01 3.0950194597244263e-01</leafValues></_>
        <_>
          <internalNodes>
            0 -1 40 -4113 -269488145 -83946766 -5 -1 -805306657
            2010609654 -134217729</internalNodes>
          <leafValues>
            -1.7984347045421600e-01 4.2490258812904358e-01</leafValues></_>
        <_>
          <internalNodes>
            0 -1 341 -1648380488 -1414297430 -1925239504 -1086878604
            -835740225 -1892430151 485823741 221508275</internalNodes>
          <leafValues>
            -3.4651359915733337e-01 2.2143785655498505e-01</leafValues></_>
        <_>
          <internalNodes>
            0 -1 322 -76823036 375205380 2058713695 273694335 -562291170
            -21094884 486324475 521863038</internalNodes>
          <leafValues>
            -4.3013271689414978e-01 1.6053318977355957e-01</leafValues></_>
        <_>
          <internalNodes>
            0 -1 431 -47876 -1078917635 -9740289 465245695 -268456197
            -210376707 2123563003 1058266620</internalNodes>
          <leafValues>
            -2.8550574183464050e-01 2.3377643525600433e-01</leafValues></_>
        <_>
          <internalNodes>
            0 -1 74 -625260457 1572552956 -818251265 431534328
            -268542468 1576932508 -863044100 -579675912</internalNodes>
          <leafValues>
            -2.7249056100845337e-01 2.4476177990436554e-01</leafValues></_>
        <_>
          <internalNodes>
            0 -1 51 -896603401 262087443 -537920001 -548448489
            -338771977 2136997631 -821263375 -815972107</internalNodes>
          <leafValues>
            -2.8647646307945251e-01 2.2956614196300507e-01</leafValues></_>
        <_>
          <internalNodes>
            0 -1 293 -985344708 2079391741 -536954630 -1090504968
            1593081340 -9077392 -1091079 776811226</internalNodes>
          <leafValues>
            -3.5577476024627686e-01 1.7746673524379730e-01</leafValues></_>
        <_>
          <internalNodes>
            0 -1 454 -541065437 -1349845080 -142691856 -33590800
            -269484536 235863306 1087358193 1308619515</internalNodes>
          <leafValues>
            -2.8768223524093628e-01 2.1371504664421082e-01</leafValues></_>
        <_>
          <internalNodes>
            0 -1 52 -830410755 -609161232 -65537 -33823054 1577025009
            -589897 787628012 -134789131</internalNodes>
          <leafValues>
            -1.8620634078979492e-01 3.1979572772979736e-01</leafValues></_>
        <_>
          <internalNodes>
            0 -1 207 -237971716 1964314389 1263876664 1714434994
            1365007606 1572626429 131860475 171013113</internalNodes>
          <leafValues>
            -3.9237001538276672e-01 1.5535871684551239e-01</leafValues></_>
        <_>
          <internalNodes>
            0 -1 425 -361021360 1535015004 1652227039 1937382782
            -893762824 -83952825 -124200712 -113582349</internalNodes>
          <leafValues>
            -2.7599027752876282e-01 2.1250396966934204e-01</leafValues></_>
        <_>
          <internalNodes>
            0 -1 99 -353509897 1638836962 1945588144 -675957518
            1273822719 234733247 1472165751 134150135</internalNodes>
          <leafValues>
            -3.0024191737174988e-01 1.9512212276458740e-01</leafValues></_>
        <_>
          <internalNodes>
            0 -1 132 -44553 -107073 -176424961 532370815 -490808067
            -277151753 -595919009 -549717009</internalNodes>
          <leafValues>
            -1.4454817771911621e-01 4.1427281498908997e-01</leafValues></_>
        <_>
          <internalNodes>
            0 -1 430 788474415 1652555647 1929114351 1918823295
            -352596984 1048469375 -218171674 1919614583</internalNodes>
          <leafValues>
            -3.2613229751586914e-01 1.8346606194972992e-01</leafValues></_>
        <_>
          <internalNodes>
            0 -1 194 -140 -1141326952 -545325836 1429602165 -1913892556
            -251938118 -286370787 421974451</internalNodes>
          <leafValues>
            -3.1608933210372925e-01 1.8913301825523376e-01</leafValues></_>
        <_>
          <internalNodes>
            0 -1 465 -2097217 -1447493638 -1049300 -1075511373 -137340
            -1934576208 -164592 -33554665</internalNodes>
          <leafValues>
            -2.0208668708801270e-01 3.0396729707717896e-01</leafValues></_>
        <_>
          <internalNodes>
            0 -1 94 -626264325 -1657031183 -843229697 1843885013
            -815339606 -337923 1338108911 -840991046</internalNodes>
          <leafValues>
            -1.5509361028671265e-01 3.4257772564888000e-01</leafValues></_>
        <_>
          <internalNodes>
            0 -1 473 774938419 -1918830752 -37781667 -1073938891
            926285561 -1096157185 267192828 209519924</internalNodes>
          <leafValues>
            -3.2008969783782959e-01 1.7179155349731445e-01</leafValues></_>
        <_>
          <internalNodes>
            0 -1 190 -1280262503 -46169935 1065320413 402590782
            -1884594757 -4538309 804749309 1479171396</internalNodes>
          <leafValues>
            -3.2545059919357300e-01 1.6320894658565521e-01</leafValues></_>
        <_>
          <internalNodes>
            0 -1 2 -187198842 1347003391 -808460339 -204015377
            2096624895 1894896178 -146736177 -791610674</internalNodes>
          <leafValues>
            -2.9812824726104736e-01 1.8606929481029510e-01</leafValues></_>
        <_>
          <internalNodes>
            0 -1 397 791691069 -1095700995 -1082707972 -1476567339
            255361013 -1342313997 531570036 -1612753579</internalNodes>
          <leafValues>
            -2.8200948238372803e-01 1.9388481974601746e-01</leafValues></_>
        <_>
          <internalNodes>
            0 -1 12 -696785137 -1100430082 1322191375 -35197138
            1046836159 -1158349569 2053578264 -193595897</internalNodes>
          <leafValues>
            -1.9071653485298157e-01 2.8687423467636108e-01</leafValues></_>
        <_>
          <internalNodes>
            0 -1 387 671071917 1962864573 1819277934 568851452 895483660
            -301957364 1986357042 1162735565</internalNodes>
          <leafValues>
            -2.9285773634910583e-01 1.7880904674530029e-01</leafValues></_>
        <_>
          <internalNodes>
            0 -1 271 -1035424812 -2757747 225271807 -1623855210
            -1437807619 -1078620250 1574264447 523050414</internalNodes>
          <leafValues>
            -2.8796645998954773e-01 1.8087325990200043e-01</leafValues></_>
        <_>
          <internalNodes>
            0 -1 488 1877999507 800051114 -222302064 16711472 2127543820
            240050045 1173877137 1416493031</internalNodes>
          <leafValues>
            -3.0118706822395325e-01 1.7755264043807983e-01</leafValues></_>
        <_>
          <internalNodes>
            0 -1 153 -220187422 -280040466 1357995634 810529568
            1199481339 -598933624 1618368310 1732733646</internalNodes>
          <leafValues>
            -3.2207128405570984e-01 1.6157339513301849e-01</leafValues></_>
        <_>
          <internalNodes>
            0 -1 126 -172094144 1439999869 -983638 219824026 1282410528
            -134300663 -911705960 1316115482</internalNodes>
          <leafValues>
            -3.9240038394927979e-01 1.2802337110042572e-01</leafValues></_>
        <_>
          <internalNodes>
            0 -1 163 -391765296 -1521546540 657007392 1059207938
            50077638 265117535 906835423 1515462981</internalNodes>
          <leafValues>
            -4.4280719757080078e-01 1.0789203643798828e-01</leafValues></_>
        <_>
          <internalNodes>
            0 -1 80 -2887685 -1126417 -222366981 -210043017 -268497844
            -831644545 -218695682 -15466625</internalNodes>
          <leafValues>
            -1.4637383818626404e-01 3.5555621981620789e-01</leafValues></_>
        <_>
          <internalNodes>
            0 -1 151 1858074551 -273764694 1523052851 -218712528
            184548799 -1903165494 1474263031 -150994953</internalNodes>
          <leafValues>
            -2.0999309420585632e-01 2.4364046752452850e-01</leafValues></_>
        <_>
          <internalNodes>
            0 -1 240 -746786567 -154062155 855836942 907320250 -51517379
            -1696661136 2032476950 -1141392581</internalNodes>
          <leafValues>
            -1.9459755718708038e-01 2.6432946324348450e-01</leafValues></_>
        <_>
          <internalNodes>
            0 -1 383 787441725 587026299 1111096319 307920894 738184260
            -12616129 75287798 1411937908</internalNodes>
          <leafValues>
            -3.6213326454162598e-01 1.3580355048179626e-01</leafValues></_>
        <_>
          <internalNodes>
            0 -1 403 -554148523 -25231513 -1208516609 -805404737
            -569320316 2138238719 -84738066 993034070</internalNodes>
          <leafValues>
            -2.4254889786243439e-01 2.0188887417316437e-01</leafValues></_>
        <_>
          <internalNodes>
            0 -1 8 1181678322 1701833892 1291286474 -185604474
            1103455406 720660230 -801737328 -437819421</internalNodes>
          <leafValues>
            -3.1349670886993408e-01 1.5942040085792542e-01</leafValues></_>
        <_>
          <internalNodes>
            0 -1 208 1862225411 1877888910 385503744 2054110074
            536698388 -883996858 -420195593 1400503892</internalNodes>
          <leafValues>
            -3.1792193651199341e-01 1.5202003717422485e-01</leafValues></_></weakClassifiers></_>
    <!-- stage 5 -->
    <_>
      <maxWeakCount>52</maxWeakCount>
      <stageThreshold>-2.0654187202453613e+00</stageThreshold>
      <weakClassifiers>
        <_>
          <internalNodes>
            0 -1 117 -1281 -536884993 1606090750 1569382394 -1 -43585
            -65538 -536879621</internalNodes>
          <leafValues>
            -3.7913933396339417e-01 5.5385518074035645e-01</leafValues></_>
        <_>
          <internalNodes>
            0 -1 221 -202331480 -33753091 -36389891 -655363 -671747
            -671745 -147457 -715785267</internalNodes>
          <leafValues>
            -3.5390865802764893e-01 3.8526815176010132e-01</leafValues></_>
        <_>
          <internalNodes>
            0 -1 291 -572727812 -65539 -805511682 -546120198 670858741
            2138398709 -1 -17410</internalNodes>
          <leafValues>
            -3.4319067001342773e-01 3.3166205883026123e-01</leafValues></_>
        <_>
          <internalNodes>
            0 -1 35 -269487125 -134219789 -1 -705170445 -268435457 -2057
            -268435457 -671090697</internalNodes>
          <leafValues>
            -2.0145708322525024e-01 5.5041050910949707e-01</leafValues></_>
        <_>
          <internalNodes>
            0 -1 143 -4011030 -5111825 829619185 -682361857 -1075376146
            -1371267260 -34079235 1064771562</internalNodes>
          <leafValues>
            -3.8505384325981140e-01 2.4924170970916748e-01</leafValues></_>
        <_>
          <internalNodes>
            0 -1 480 -1101 -1884553302 1929343664 1925182387 -276826341
            -1894776981 1476391409 1199568375</internalNodes>
          <leafValues>
            -3.1921792030334473e-01 2.6762783527374268e-01</leafValues></_>
        <_>
          <internalNodes>
            0 -1 324 -537115584 -539177914 -298324153 -851072673
            782958499 -1157631581 238017855 -1347421189</internalNodes>
          <leafValues>
            -4.0848460793495178e-01 1.7998678982257843e-01</leafValues></_>
        <_>
          <internalNodes>
            0 -1 50 -2049 -65793 -16842881 -7012353 -604044044 -768898
            -85131265 -1</internalNodes>
          <leafValues>
            -1.3318163156509399e-01 4.7497403621673584e-01</leafValues></_>
        <_>
          <internalNodes>
            0 -1 345 -1346425035 673988376 -1077953546 1069531130
            2138439165 1073560575 -637534980 -1375734532</internalNodes>
          <leafValues>
            -2.4158988893032074e-01 2.8342491388320923e-01</leafValues></_>
        <_>
          <internalNodes>
            0 -1 118 -332050 -79713489 -26050828 -1288044553 -558219252
            -616708467 1610405567 324263761</internalNodes>
          <leafValues>
            -3.0085554718971252e-01 2.0769585669040680e-01</leafValues></_>
        <_>
          <internalNodes>
            0 -1 246 -212020259 -144706561 991108602 1060618146
            -25184033 -1143073959 1024456702 -103304193</internalNodes>
          <leafValues>
            -1.7759039998054504e-01 3.4944450855255127e-01</leafValues></_>
        <_>
          <internalNodes>
            0 -1 57 -1700004869 -648163087 -536870913 -547367439
            -8626977 -2097153 -874774785 -606087691</internalNodes>
          <leafValues>
            -1.7183773219585419e-01 3.6411902308464050e-01</leafValues></_>
        <_>
          <internalNodes>
            0 -1 443 -487718904 -205898138 -17825793 -362886 -1574818885
            -21299215 -2112689528 -166013752</internalNodes>
          <leafValues>
            -3.3375737071037292e-01 1.8585309386253357e-01</leafValues></_>
        <_>
          <internalNodes>
            0 -1 333 -271061201 -276824193 -1107953793 1977417727
            -268439755 -1887715782 1878327285 1282206656</internalNodes>
          <leafValues>
            -2.5173407793045044e-01 2.3952233791351318e-01</leafValues></_>
        <_>
          <internalNodes>
            0 -1 224 1069285361 -1559495712 -527373 -1188384 796917695
            -1351090177 402388977 233774525</internalNodes>
          <leafValues>
            -2.8634586930274963e-01 1.9403003156185150e-01</leafValues></_>
        <_>
          <internalNodes>
            0 -1 421 -1342329041 805240703 -834794802 -17827846 -4339
            1998452591 -452991241 -132099</internalNodes>
          <leafValues>
            -2.1434247493743896e-01 2.7429577708244324e-01</leafValues></_>
        <_>
          <internalNodes>
            0 -1 318 -620759279 -665256107 -59048194 -1676362982
            1985983498 2130706395 711965307 -1292632198</internalNodes>
          <leafValues>
            -2.8040963411331177e-01 2.0004446804523468e-01</leafValues></_>
        <_>
          <internalNodes>
            0 -1 456 -88080965 -1416904782 -465568271 -1107330319
            1937768376 -1129734232 -849519107 -849348769</internalNodes>
          <leafValues>
            -1.7683653533458710e-01 2.9726958274841309e-01</leafValues></_>
        <_>
          <internalNodes>
            0 -1 379 249498869 -75554977 -252056833 305558751
            -1627435968 -8446083 -122621198 976387959</internalNodes>
          <leafValues>
            -3.3442711830139160e-01 1.5749597549438477e-01</leafValues></_>
        <_>
          <internalNodes>
            0 -1 189 -954062045 -1750880224 1476391295 -536981452
            -809828421 -1880097370 1606350269 -624232076</internalNodes>
          <leafValues>
            -2.4886161088943481e-01 2.1123151481151581e-01</leafValues></_>
        <_>
          <internalNodes>
            0 -1 199 1601492901 -1150582357 527752446 1379218227
            1434113199 1535869314 1316902075 -858267728</internalNodes>
          <leafValues>
            -2.0556475222110748e-01 2.5091439485549927e-01</leafValues></_>
        <_>
          <internalNodes>
            0 -1 84 -222059770 1366753148 599602158 935851982
            -1371406424 335648972 582583214 252510216</internalNodes>
          <leafValues>
            -3.2260841131210327e-01 1.5715435147285461e-01</leafValues></_>
        <_>
          <internalNodes>
            0 -1 282 801926003 -274006174 -264375437 -33952784 268398591
            -810558017 2008905718 518584311</internalNodes>
          <leafValues>
            -2.7380719780921936e-01 1.8179887533187866e-01</leafValues></_>
        <_>
          <internalNodes>
            0 -1 37 -68255962 -1964005814 444505278 212847636 1044394848
            811791978 1531428097 1115649058</internalNodes>
          <leafValues>
            -3.9053604006767273e-01 1.2603691220283508e-01</leafValues></_>
        <_>
          <internalNodes>
            0 -1 294 72357173 2147245949 -25297155 1011899517 -654770571
            -165881 -21185027 708460541</internalNodes>
          <leafValues>
            -3.1185987591743469e-01 1.5680165588855743e-01</leafValues></_>
        <_>
          <internalNodes>
            0 -1 158 -1411451084 -102782038 -67177097 2033284983
            1845118376 -1656968446 -838968865 -81212929</internalNodes>
          <leafValues>
            -2.2424714267253876e-01 2.1840646862983704e-01</leafValues></_>
        <_>
          <internalNodes>
            0 -1 489 -67109049 -167788780 -336330753 -36307387 -58725854
            -274438 -386043910 -520619145</internalNodes>
          <leafValues>
            -1.4615088701248169e-01 3.5811358690261841e-01</leafValues></_>
        <_>
          <internalNodes>
            0 -1 195 -1393756104 -250872230 -222680828 1895512725
            -417137295 -843778626 1881094344 270197475</internalNodes>
          <leafValues>
            -3.8479098677635193e-01 1.2779137492179871e-01</leafValues></_>
        <_>
          <internalNodes>
            0 -1 460 -360984365 -134516737 -205558785 -1076212433
            -667756295 -25362465 -1162674453 -1976928769</internalNodes>
          <leafValues>
            -1.7148002982139587e-01 2.9509299993515015e-01</leafValues></_>
        <_>
          <internalNodes>
            0 -1 211 -18395485 -806402577 -27905487 -201342981
            2130134082 1333513439 -220571905 -786433</internalNodes>
          <leafValues>
            -1.5717367827892303e-01 3.0034595727920532e-01</leafValues></_>
        <_>
          <internalNodes>
            0 -1 138 973668307 918216176 -2586 -559116 802611199
            -17839913 -1711838354 503256561</internalNodes>
          <leafValues>
            -2.3686482012271881e-01 2.1797344088554382e-01</leafValues></_>
        <_>
          <internalNodes>
            0 -1 360 -1610956825 -537004203 1968321655 948233598
            653245960 -565383355 783726214 -11010195</internalNodes>
          <leafValues>
            -2.0103375613689423e-01 2.3280364274978638e-01</leafValues></_>
        <_>
          <internalNodes>
            0 -1 103 -289408005 -810549430 -536895051 -201625104
            767524351 -805306417 1337947639 -807405577</internalNodes>
          <leafValues>
            -1.6900286078453064e-01 2.8891068696975708e-01</leafValues></_>
        <_>
          <internalNodes>
            0 -1 314 -921659012 -27984524 -1629613352 -1122012303
            1599471601 -1153566992 736967288 797646990</internalNodes>
          <leafValues>
            -2.5589755177497864e-01 1.7444178462028503e-01</leafValues></_>
        <_>
          <internalNodes>
            0 -1 351 1280654421 1920417590 -1306969378 679149153
            -641868600 -17880779 -1192045831 70287127</internalNodes>
          <leafValues>
            -3.1115138530731201e-01 1.4237046241760254e-01</leafValues></_>
        <_>
          <internalNodes>
            0 -1 149 -257539854 -382799894 -92815822 844183074 871333874
            -905119254 1081540091 1331691512</internalNodes>
          <leafValues>
            -2.8248080611228943e-01 1.6161732375621796e-01</leafValues></_>
        <_>
          <internalNodes>
            0 -1 390 922525344 3043438 1823407786 -1607991314 1730127628
            1598481804 -449846605 655750460</internalNodes>
          <leafValues>
            -3.4977748990058899e-01 1.2611578404903412e-01</leafValues></_>
        <_>
          <internalNodes>
            0 -1 9 1877272178 1827647162 -854938615 -1343880994
            -78514589 2071962320 -1073531119 1108017394</internalNodes>
          <leafValues>
            -3.5331737995147705e-01 1.2499682605266571e-01</leafValues></_>
        <_>
          <internalNodes>
            0 -1 124 -807005923 1505363067 1303363325 496586865
            -1396941844 -1078061932 -990085699 -559785825</internalNodes>
          <leafValues>
            -2.3957650363445282e-01 1.8433912098407745e-01</leafValues></_>
        <_>
          <internalNodes>
            0 -1 142 -1976902448 -1359360013 1875328355 343212593
            -1751119632 -1326196528 1162180546 -270447440</internalNodes>
          <leafValues>
            -3.4449926018714905e-01 1.2486930191516876e-01</leafValues></_>
        <_>
          <internalNodes>
            0 -1 170 -18882961 -819180532 1991816944 2050029564
            -151036707 -805354018 -226822464 2049058398</internalNodes>
          <leafValues>
            -2.7128186821937561e-01 1.6377441585063934e-01</leafValues></_>
        <_>
          <internalNodes>
            0 -1 317 272686916 1895692285 -411435601 -302128151
            1929198535 2007085046 -4194513 -2031776986</internalNodes>
          <leafValues>
            -2.1589472889900208e-01 2.1119232475757599e-01</leafValues></_>
        <_>
          <internalNodes>
            0 -1 45 -538444097 -7613730 1270510335 -780470405 -968686372
            1584286911 -71903762 -9445510</internalNodes>
          <leafValues>
            -1.2138671427965164e-01 3.4977975487709045e-01</leafValues></_>
        <_>
          <internalNodes>
            0 -1 410 518505159 847248988 1053488100 819198930 -2389496
            -1403094520 318121910 459774715</internalNodes>
          <leafValues>
            -2.4457910656929016e-01 1.8401095271110535e-01</leafValues></_>
        <_>
          <internalNodes>
            0 -1 455 532640513 -1356137184 -1596333135 -1233979984
            770440744 -1962148574 216880341 1585431796</internalNodes>
          <leafValues>
            -3.1491893529891968e-01 1.4372397959232330e-01</leafValues></_>
        <_>
          <internalNodes>
            0 -1 166 -365198044 1102950279 -293650660 1286978489
            1324402082 -71032606 -575514689 -630760261</internalNodes>
          <leafValues>
            -2.0699004828929901e-01 2.2488009929656982e-01</leafValues></_>
        <_>
          <internalNodes>
            0 -1 176 811388944 1089488568 -313533297 -12157250 718095159
            2092437424 1110114231 -1902098524</internalNodes>
          <leafValues>
            -3.2419022917747498e-01 1.2978421151638031e-01</leafValues></_>
        <_>
          <internalNodes>
            0 -1 146 1832567483 -1904292098 1296871197 391540545
            -1644750594 -1309145884 -709956313 1730577763</internalNodes>
          <leafValues>
            -2.0070366561412811e-01 2.1421782672405243e-01</leafValues></_>
        <_>
          <internalNodes>
            0 -1 250 -514011176 -1517821259 252387000 455356840
            -690582545 1541133246 215812830 -54259521</internalNodes>
          <leafValues>
            -2.4717502295970917e-01 1.8159668147563934e-01</leafValues></_>
        <_>
          <internalNodes>
            0 -1 449 467627531 -1886439970 -1564282334 577437258
            -1075852464 1280309071 -252185648 1080942077</internalNodes>
          <leafValues>
            -3.2831609249114990e-01 1.2474956363439560e-01</leafValues></_>
        <_>
          <internalNodes>
            0 -1 384 917521540 -147503628 2140540711 1005456446
            -2112672008 -210035489 -2111636689 105907236</internalNodes>
          <leafValues>
            -4.5220789313316345e-01 9.0042755007743835e-02</leafValues></_>
        <_>
          <internalNodes>
            0 -1 251 -10092765 1300938664 -134286826 -227018446
            -1079310358 -1882509633 2133190588 -740825219</internalNodes>
          <leafValues>
            -1.8265171349048615e-01 2.2724181413650513e-01</leafValues></_></weakClassifiers></_>
    <!-- stage 6 -->
    <_>
      <maxWeakCount>63</maxWeakCount>
      <stageThreshold>-1.9780778884887695e+00</stageThreshold>
      <weakClassifiers>
        <_>
          <internalNodes>
            0 -1 477 -3141 -1078198278 -8389380 -4456456 2134636475
            1060175800 1595137496 -12853761</internalNodes>
          <leafValues>
            -3.9475530385971069e-01 4.4624683260917664e-01</leafValues></_>
        <_>
          <internalNodes>
            0 -1 92 -201329682 -203685890 997683709 1608515583 -67633410
            -1544287744 2146172415 1599078222</internalNodes>
          <leafValues>
            -4.5583364367485046e-01 2.6946273446083069e-01</leafValues></_>
        <_>
          <internalNodes>
            0 -1 17 -1 -1 -1426407682 -65537 -47892 -45057 -12546 -1</internalNodes>
          <leafValues>
            -1.8665862083435059e-01 6.1886703968048096e-01</leafValues></_>
        <_>
          <internalNodes>
            0 -1 309 -782959660 -44696580 -148482 -71683339 -2294787
            1987402645 -1 -17670</internalNodes>
          <leafValues>
            -3.1837281584739685e-01 2.8142160177230835e-01</leafValues></_>
        <_>
          <internalNodes>
            0 -1 193 -16980 -1677747791 -541073923 -545432265 -704864851
            -1715557973 1560108543 -935669826</internalNodes>
          <leafValues>
            -2.4999384582042694e-01 2.9200333356857300e-01</leafValues></_>
        <_>
          <internalNodes>
            0 -1 470 -1078198403 -4456592 -1099432449 -8397315
            -1078198532 -4559480 1043521023 -8401667</internalNodes>
          <leafValues>
            -1.8255031108856201e-01 3.6280328035354614e-01</leafValues></_>
        <_>
          <internalNodes>
            0 -1 442 -3085 -1 1929376507 1927281663 -67113589 -513
            -16777217 -1</internalNodes>
          <leafValues>
            -1.4816509187221527e-01 4.7723546624183655e-01</leafValues></_>
        <_>
          <internalNodes>
            0 -1 301 -302190809 -304152705 1912599519 2147352567
            -807420417 -805568517 2013263863 1560082406</internalNodes>
          <leafValues>
            -2.4646395444869995e-01 2.6994717121124268e-01</leafValues></_>
        <_>
          <internalNodes>
            0 -1 420 -17301585 -1431114309 -8291 162201487 -134218320
            -1162362889 -524512 -1077937349</internalNodes>
          <leafValues>
            -1.9712795317173004e-01 2.9256939888000488e-01</leafValues></_>
        <_>
          <internalNodes>
            0 -1 145 -1977463566 -1151603023 1869598065 1897074737
            222825720 -1080439804 1330118575 -1074301519</internalNodes>
          <leafValues>
            -3.6165329813957214e-01 1.6375684738159180e-01</leafValues></_>
        <_>
          <internalNodes>
            0 -1 198 939029989 1336846246 -29659269 -120097998
            1937700002 1246283720 1425465178 1901328280</internalNodes>
          <leafValues>
            -2.9442977905273438e-01 1.9258902966976166e-01</leafValues></_>
        <_>
          <internalNodes>
            0 -1 65 -2049 -407896190 -2189 -202394126 1342177263
            -833618098 1442805751 1465902051</internalNodes>
          <leafValues>
            -2.2020111978054047e-01 2.4342463910579681e-01</leafValues></_>
        <_>
          <internalNodes>
            0 -1 446 -151024049 2013256831 -224462593 1929314240
            -16790004 -18883489 -84085002 -86315265</internalNodes>
          <leafValues>
            -2.2568355500698090e-01 2.5226688385009766e-01</leafValues></_>
        <_>
          <internalNodes>
            0 -1 217 4069 -134250507 2147344367 -1073762459 26234301
            -33726529 -1073782801 -1073803325</internalNodes>
          <leafValues>
            -1.5673334896564484e-01 3.1917047500610352e-01</leafValues></_>
        <_>
          <internalNodes>
            0 -1 63 -1895926214 -1342232452 -343973897 1567910940
            -1955924294 -71670789 -1948938086 185762816</internalNodes>
          <leafValues>
            -3.7108767032623291e-01 1.3368757069110870e-01</leafValues></_>
        <_>
          <internalNodes>
            0 -1 255 31243260 357641137 265793784 -553634640 248883692
            746401789 443891694 810889591</internalNodes>
          <leafValues>
            -3.6590379476547241e-01 1.2460114061832428e-01</leafValues></_>
        <_>
          <internalNodes>
            0 -1 229 254442291 -1364558038 -234901391 -33685840
            -1344276545 -1884422150 331215859 502134263</internalNodes>
          <leafValues>
            -2.8630396723747253e-01 1.6253577172756195e-01</leafValues></_>
        <_>
          <internalNodes>
            0 -1 231 1396244128 1907955739 723509902 292751951 -88466527
            -71632621 -233177342 358746222</internalNodes>
          <leafValues>
            -3.4249669313430786e-01 1.3306964933872223e-01</leafValues></_>
        <_>
          <internalNodes>
            0 -1 459 243223575 2143255551 -9454593 -524673 2063490300
            -49297 -17142564 1919975262</internalNodes>
          <leafValues>
            -2.3772613704204559e-01 1.9120591878890991e-01</leafValues></_>
        <_>
          <internalNodes>
            0 -1 435 -1207966941 -1347422230 -405799006 -150997265
            -2363896 -821035772 -998398217 -981469763</internalNodes>
          <leafValues>
            -2.1419253945350647e-01 2.2292353212833405e-01</leafValues></_>
        <_>
          <internalNodes>
            0 -1 82 -12545 -536936497 -757140749 -1146945569 -46002
            -847356065 -154668290 -142868609</internalNodes>
          <leafValues>
            -1.3385677337646484e-01 3.3141294121742249e-01</leafValues></_>
        <_>
          <internalNodes>
            0 -1 0 -420483482 27996159 -269533192 1072119802 1944059253
            -524353 -1072300556 1844738550</internalNodes>
          <leafValues>
            -2.8735882043838501e-01 1.5589302778244019e-01</leafValues></_>
        <_>
          <internalNodes>
            0 -1 409 914227372 -67152427 -673226899 1606046972 777561262
            -1141061635 606140584 604043556</internalNodes>
          <leafValues>
            -3.9490690827369690e-01 1.0904568433761597e-01</leafValues></_>
        <_>
          <internalNodes>
            0 -1 385 391376895 -541592579 -1079249721 -541196292
            -1387100158 -27873664 -1006505309 -812648609</internalNodes>
          <leafValues>
            -1.6249123215675354e-01 2.7816143631935120e-01</leafValues></_>
        <_>
          <internalNodes>
            0 -1 72 -1679591297 465001083 1070824382 1503166202
            1071602940 -571713356 -1610679048 -870446856</internalNodes>
          <leafValues>
            -2.3919029533863068e-01 1.8596437573432922e-01</leafValues></_>
        <_>
          <internalNodes>
            0 -1 423 781203317 -1410009600 2145211377 -171148816
            1067581375 -271779894 95712759 502748337</internalNodes>
          <leafValues>
            -2.8196886181831360e-01 1.5231952071189880e-01</leafValues></_>
        <_>
          <internalNodes>
            0 -1 347 -973738235 586907517 -1085280402 -287473753
            2004742005 1996488575 -269746417 -1358992889</internalNodes>
          <leafValues>
            -1.7885251343250275e-01 2.4599137902259827e-01</leafValues></_>
        <_>
          <internalNodes>
            0 -1 41 -262368 1582476990 -273004761 -1364658333 -302188784
            -1117969039 -1610811643 1173310529</internalNodes>
          <leafValues>
            -2.7013999223709106e-01 1.4849926531314850e-01</leafValues></_>
        <_>
          <internalNodes>
            0 -1 306 -1522408132 -1090078550 -1913652884 -1087952332
            -1787514945 1025682483 216864812 203747415</internalNodes>
          <leafValues>
            -3.2673972845077515e-01 1.2589411437511444e-01</leafValues></_>
        <_>
          <internalNodes>
            0 -1 441 1054755927 2127900543 -96768001 1048469374
            1996425308 -1074303617 1958365400 806518644</internalNodes>
          <leafValues>
            -3.2890942692756653e-01 1.2439954280853271e-01</leafValues></_>
        <_>
          <internalNodes>
            0 -1 120 -83893275 1130360813 -1090663745 2080374526
            -822673280 -569884662 -69740577 -33203</internalNodes>
          <leafValues>
            -1.5304873883724213e-01 2.7164420485496521e-01</leafValues></_>
        <_>
          <internalNodes>
            0 -1 55 -355877953 1596500642 -2013342765 -36982030
            1323163583 -1140981773 1610445796 -1409321481</internalNodes>
          <leafValues>
            -1.6347441077232361e-01 2.4398516118526459e-01</leafValues></_>
        <_>
          <internalNodes>
            0 -1 477 705834310 -496333679 2142457105 796263549
            -1255141448 -124045438 -1220804573 1154774832</internalNodes>
          <leafValues>
            -2.8087681531906128e-01 1.4049978554248810e-01</leafValues></_>
        <_>
          <internalNodes>
            0 -1 468 -416598221 -273744990 1916526816 -219749904
            -552616180 252047166 1469936113 91092435</internalNodes>
          <leafValues>
            -2.9866456985473633e-01 1.3250771164894104e-01</leafValues></_>
        <_>
          <internalNodes>
            0 -1 495 -167772345 -243437585 -1531990289 -521803097
            -164346 -100361 -1463325778 -520749145</internalNodes>
          <leafValues>
            -1.4477324485778809e-01 2.7514162659645081e-01</leafValues></_>
        <_>
          <internalNodes>
            0 -1 54 -223620141 -705359522 -842055684 -1783213828
            2049689343 1497167839 -892469267 -909117446</internalNodes>
          <leafValues>
            -1.2789814174175262e-01 3.0132651329040527e-01</leafValues></_>
        <_>
          <internalNodes>
            0 -1 147 -223187511 -1148214751 -1479086757 1111842321
            64901293 -569594973 -2024427533 -346039558</internalNodes>
          <leafValues>
            -1.7163589596748352e-01 2.2172829508781433e-01</leafValues></_>
        <_>
          <internalNodes>
            0 -1 363 1409077132 111560422 1875372834 -1481966096
            1993845512 -150732628 -1560829422 1735358246</internalNodes>
          <leafValues>
            -2.9622602462768555e-01 1.2998577952384949e-01</leafValues></_>
        <_>
          <internalNodes>
            0 -1 193 -2000896201 -89546188 2113732084 2037758711
            -696527444 -67131593 -964763714 1071643813</internalNodes>
          <leafValues>
            -1.6010195016860962e-01 2.4435447156429291e-01</leafValues></_>
        <_>
          <internalNodes>
            0 -1 127 -15543019 1567905055 -100716754 796077866
            1852484784 -6785793 -35479623 -319366097</internalNodes>
          <leafValues>
            -1.8147325515747070e-01 2.1159335970878601e-01</leafValues></_>
        <_>
          <internalNodes>
            0 -1 245 -143141459 -1174723669 1296723404 1348940790
            -1665229415 -609690710 -831004754 -591409868</internalNodes>
          <leafValues>
            -1.4910410344600677e-01 2.5093674659729004e-01</leafValues></_>
        <_>
          <internalNodes>
            0 -1 241 -1095182055 -1420916874 -1869202145 -1157353695
            1327238195 -1887530061 1478448136 46088119</internalNodes>
          <leafValues>
            -2.1845820546150208e-01 1.7392660677433014e-01</leafValues></_>
        <_>
          <internalNodes>
            0 -1 185 -1708208935 2125754301 858516075 1188334526
            -50539267 -36044368 -1203122333 -1282691663</internalNodes>
          <leafValues>
            -1.7996014654636383e-01 2.1291598677635193e-01</leafValues></_>
        <_>
          <internalNodes>
            0 -1 253 1878830887 1794043818 -38875626 1390017058
            -219250988 59469583 -436242441 -639271049</internalNodes>
          <leafValues>
            -2.0721498131752014e-01 1.8767137825489044e-01</leafValues></_>
        <_>
          <internalNodes>
            0 -1 378 -327726219 1593710423 956267263 1920605786
            -537112764 -612417195 -29823234 773881694</internalNodes>
          <leafValues>
            -2.8093421459197998e-01 1.3829304277896881e-01</leafValues></_>
        <_>
          <internalNodes>
            0 -1 447 984223800 884086346 263876540 2007637374 741226420
            1907658868 657673464 521280777</internalNodes>
          <leafValues>
            -4.0039551258087158e-01 9.1295316815376282e-02</leafValues></_>
        <_>
          <internalNodes>
            0 -1 42 -989855761 -2031091803 -4723036 -447416610
            1207954429 1927216127 1601140550 1391984599</internalNodes>
          <leafValues>
            -2.4242074787616730e-01 1.5934361517429352e-01</leafValues></_>
        <_>
          <internalNodes>
            0 -1 302 390029093 101168171 1845285374 271875706 259936085
            1578086213 1088795636 1157593816</internalNodes>
          <leafValues>
            -3.0675271153450012e-01 1.2280540168285370e-01</leafValues></_>
        <_>
          <internalNodes>
            0 -1 49 -491609058 -67986929 880000727 -428832204 -179878396
            1249643767 1012878175 71761922</internalNodes>
          <leafValues>
            -3.3881551027297974e-01 1.0794703662395477e-01</leafValues></_>
        <_>
          <internalNodes>
            0 -1 371 -521863283 -184750329 -303038609 -34717754
            506560493 -185221225 -1393926339 -189274301</internalNodes>
          <leafValues>
            -1.4616613090038300e-01 2.5870269536972046e-01</leafValues></_>
        <_>
          <internalNodes>
            0 -1 77 -285759998 1263434410 1114567342 822016702
            -269637370 1332651372 1996467437 1623573314</internalNodes>
          <leafValues>
            -3.7294092774391174e-01 1.0291485488414764e-01</leafValues></_>
        <_>
          <internalNodes>
            0 -1 152 -273960031 -68246880 993743741 1533397268 261797370
            -536871696 1300485627 -884289165</internalNodes>
          <leafValues>
            -1.6696624457836151e-01 2.2489370405673981e-01</leafValues></_>
        <_>
          <internalNodes>
            0 -1 162 -1095057860 -1892834012 -543883716 253768038
            -2064642010 1472001935 188243381 322114705</internalNodes>
          <leafValues>
            -3.4539508819580078e-01 1.0924620181322098e-01</leafValues></_>
        <_>
          <internalNodes>
            0 -1 93 581760883 883747760 -541634561 -274804620 998076279
            -1122500617 234805117 233271537</internalNodes>
          <leafValues>
            -2.6321727037429810e-01 1.4188228547573090e-01</leafValues></_>
        <_>
          <internalNodes>
            0 -1 281 -855642608 -591868676 -100690612 -225574844
            -1189177824 -1464278849 -1674765052 314033841</internalNodes>
          <leafValues>
            -3.9503648877143860e-01 9.0491741895675659e-02</leafValues></_>
        <_>
          <internalNodes>
            0 -1 328 1725954007 -1088964849 1056503423 341311063
            -285245794 -301056378 -1729143841 -1623208625</internalNodes>
          <leafValues>
            -1.3636659085750580e-01 2.7969387173652649e-01</leafValues></_>
        <_>
          <internalNodes>
            0 -1 266 1612836772 897048445 1064732429 -1107429745
            1065090731 885090060 -931320050 1692387846</internalNodes>
          <leafValues>
            -2.1305200457572937e-01 1.6897617280483246e-01</leafValues></_>
        <_>
          <internalNodes>
            0 -1 178 -1977954808 -1750148210 1147463441 1976712957
            -1242691294 -1095493192 1429725227 1353078916</internalNodes>
          <leafValues>
            -4.2324137687683105e-01 8.9540392160415649e-02</leafValues></_>
        <_>
          <internalNodes>
            0 -1 233 795499443 791293858 298152688 -555165712 804239285
            -816840785 628602596 1152185504</internalNodes>
          <leafValues>
            -3.0762615799903870e-01 1.1496672034263611e-01</leafValues></_>
        <_>
          <internalNodes>
            0 -1 348 -21177251 -570524297 -21012497 -8470549 -1103738736
            2113224223 -1095229526 -1439527567</internalNodes>
          <leafValues>
            -1.6135528683662415e-01 2.3399078845977783e-01</leafValues></_>
        <_>
          <internalNodes>
            0 -1 235 280495116 1437664017 304872148 535888657
            -1456802499 -74314103 303455980 204084273</internalNodes>
          <leafValues>
            -4.1817644238471985e-01 9.3244977295398712e-02</leafValues></_>
        <_>
          <internalNodes>
            0 -1 357 -554770762 -84230162 -143771625 -1364464274
            780789181 1232878907 209541503 -644120432</internalNodes>
          <leafValues>
            -2.0741367340087891e-01 1.8090535700321198e-01</leafValues></_>
        <_>
          <internalNodes>
            0 -1 116 121420515 -1095785806 1228806296 -215033654
            -1425357536 -368614682 162927860 -539537326</internalNodes>
          <leafValues>
            -1.9525484740734100e-01 1.9622457027435303e-01</leafValues></_></weakClassifiers></_>
    <!-- stage 7 -->
    <_>
      <maxWeakCount>73</maxWeakCount>
      <stageThreshold>-1.9715392589569092e+00</stageThreshold>
      <weakClassifiers>
        <_>
          <internalNodes>
            0 -1 71 -805306373 -805306369 255523770 -549781574
            -537919489 -536916738 -536872517 -536879617</internalNodes>
          <leafValues>
            -3.8600704073905945e-01 3.6808532476425171e-01</leafValues></_>
        <_>
          <internalNodes>
            0 -1 175 -4980743 -4457996 -1 -10763 -1 -1 -1 -8707</internalNodes>
          <leafValues>
            -1.9313186407089233e-01 5.7412046194076538e-01</leafValues></_>
        <_>
          <internalNodes>
            0 -1 299 1414852132 -1119879377 1568538623 964295551
            -536916049 -40923509 -839059472 -41049350</internalNodes>
          <leafValues>
            -3.9674621820449829e-01 2.1870388090610504e-01</leafValues></_>
        <_>
          <internalNodes>
            0 -1 173 -1338394724 2002244957 -1275085842 1935636991
            -1424949252 2001597405 -1281705270 856295432</internalNodes>
          <leafValues>
            -3.6852774024009705e-01 2.0251345634460449e-01</leafValues></_>
        <_>
          <internalNodes>
            0 -1 485 -67114417 -67109009 -142623873 -219 -1304708438
            -262216 844365819 -227016833</internalNodes>
          <leafValues>
            -1.5280310809612274e-01 4.3203639984130859e-01</leafValues></_>
        <_>
          <internalNodes>
            0 -1 254 600519599 391196567 670249834 1162154802
            -1073762161 1600065327 400405375 1188321141</internalNodes>
          <leafValues>
            -3.0535581707954407e-01 2.2731411457061768e-01</leafValues></_>
        <_>
          <internalNodes>
            0 -1 91 1941045216 -2110051 806363686 1979178495 -1210581001
            -9630577 933740539 939465199</internalNodes>
          <leafValues>
            -2.8154486417770386e-01 2.0132677257061005e-01</leafValues></_>
        <_>
          <internalNodes>
            0 -1 414 2130447548 2075854077 -56405 1069240311 -352868097
            -76165153 -494927941 -550269583</internalNodes>
          <leafValues>
            -2.5961932539939880e-01 2.2409422695636749e-01</leafValues></_>
        <_>
          <internalNodes>
            0 -1 13 -352387073 -67108865 -16778497 -391190850 2138457124
            -656653196 -20737 -285278618</internalNodes>
          <leafValues>
            -2.1185149252414703e-01 2.5622138381004333e-01</leafValues></_>
        <_>
          <internalNodes>
            0 -1 129 -75541001 -2207499 368556031 1562072511 -268476930
            -1359062800 -571284481 -544473153</internalNodes>
          <leafValues>
            -1.2884311378002167e-01 3.8693973422050476e-01</leafValues></_>
        <_>
          <internalNodes>
            0 -1 416 -150995013 -1324107781 -4456453 -1156859137
            -279466225 -183464051 -147852365 -1088421890</internalNodes>
          <leafValues>
            -1.6964526474475861e-01 3.2444965839385986e-01</leafValues></_>
        <_>
          <internalNodes>
            0 -1 39 -1849362689 -1610678281 -817509027 98700802
            -218509059 -1208494091 -187701763 -594633</internalNodes>
          <leafValues>
            -1.8462499976158142e-01 2.8454142808914185e-01</leafValues></_>
        <_>
          <internalNodes>
            0 -1 320 -16844013 1458765779 -88150146 886242422
            -1195499745 1056946171 1069157182 349338962</internalNodes>
          <leafValues>
            -3.4367170929908752e-01 1.3681520521640778e-01</leafValues></_>
        <_>
          <internalNodes>
            0 -1 367 -214368772 -285448104 -537096966 -2166788 924132793
            -1365230148 257625851 529729797</internalNodes>
          <leafValues>
            -3.0761706829071045e-01 1.5642178058624268e-01</leafValues></_>
        <_>
          <internalNodes>
            0 -1 343 -1088438403 990916602 -1107313154 -4317200
            905422333 653534899 955190524 515336263</internalNodes>
          <leafValues>
            -2.5576373934745789e-01 1.8531207740306854e-01</leafValues></_>
        <_>
          <internalNodes>
            0 -1 107 -219680005 -269571158 -627646701 -227069135
            234616570 -271718168 1893167345 -2449</internalNodes>
          <leafValues>
            -1.8849630653858185e-01 2.2326937317848206e-01</leafValues></_>
        <_>
          <internalNodes>
            0 -1 6 -873463837 -5770301 -135004161 -1208485917 -1054979
            -18874401 -69211137 -135792905</internalNodes>
          <leafValues>
            -1.1292210221290588e-01 3.8248634338378906e-01</leafValues></_>
        <_>
          <internalNodes>
            0 -1 201 -71640300 790110961 -1616099500 1528134517
            -1363655680 -1078313288 -1373700137 136453439</internalNodes>
          <leafValues>
            -3.5794204473495483e-01 1.2345033138990402e-01</leafValues></_>
        <_>
          <internalNodes>
            0 -1 407 -16822529 -8429729 -223087873 1920892926 -21639992
            -9478561 -21186339 2050719740</internalNodes>
          <leafValues>
            -1.7900645732879639e-01 2.3221902549266815e-01</leafValues></_>
        <_>
          <internalNodes>
            0 -1 288 -1212326621 -336921618 -58806426 -84230224
            -1698709765 -1964280133 -706937394 -990122411</internalNodes>
          <leafValues>
            -2.0360764861106873e-01 2.0820426940917969e-01</leafValues></_>
        <_>
          <internalNodes>
            0 -1 112 -775627532 -1898018642 406476924 139645430
            -708262692 -1726480251 -897819494 440260040</internalNodes>
          <leafValues>
            -3.7202385067939758e-01 1.0546402633190155e-01</leafValues></_>
        <_>
          <internalNodes>
            0 -1 71 -1807073482 2067720838 -571464669 703983455
            -1986493136 1844750124 -985617860 708866560</internalNodes>
          <leafValues>
            -2.5284314155578613e-01 1.5391808748245239e-01</leafValues></_>
        <_>
          <internalNodes>
            0 -1 25 -419958865 -1118257 2147480063 -3010574 2139057989
            -806354995 -1342179329 -9209484</internalNodes>
          <leafValues>
            -1.6562813520431519e-01 2.5376719236373901e-01</leafValues></_>
        <_>
          <internalNodes>
            0 -1 471 -4733533 715304882 1677720560 -1245718544 -9458424
            -2029125851 1501507828 1432878582</internalNodes>
          <leafValues>
            -2.7163204550743103e-01 1.5158128738403320e-01</leafValues></_>
        <_>
          <internalNodes>
            0 -1 32 -899228683 201302706 805162942 1600009010 -683163653
            -1107597341 1595210659 -269555790</internalNodes>
          <leafValues>
            -2.0014214515686035e-01 1.9422629475593567e-01</leafValues></_>
        <_>
          <internalNodes>
            0 -1 215 -417135323 1442738036 -1082278577 -1522049683
            -152380932 -201803815 -33845281 -454337105</internalNodes>
          <leafValues>
            -1.5068270266056061e-01 2.5550559163093567e-01</leafValues></_>
        <_>
          <internalNodes>
            0 -1 226 -1313153860 -585661951 536870623 1427490309
            -1087685379 -71568147 523214334 -1617966036</internalNodes>
          <leafValues>
            -2.3423485457897186e-01 1.6374878585338593e-01</leafValues></_>
        <_>
          <internalNodes>
            0 -1 329 1163898089 -1057179172 -1225070780 1323364173
            1329424418 -2135999943 -1900056826 1160204134</internalNodes>
          <leafValues>
            -3.1044501066207886e-01 1.2191797047853470e-01</leafValues></_>
        <_>
          <internalNodes>
            0 -1 225 -644164613 -1150444816 1203753439 1573744729
            -1358759942 -282083337 1602991611 -551692322</internalNodes>
          <leafValues>
            -1.2900285422801971e-01 2.8117468953132629e-01</leafValues></_>
        <_>
          <internalNodes>
            0 -1 300 362184661 -1085444267 -262417 -649595362 1728018139
            -276418621 720306131 -1095580465</internalNodes>
          <leafValues>
            -1.4862121641635895e-01 2.5248491764068604e-01</leafValues></_>
        <_>
          <internalNodes>
            0 -1 472 -277940355 -1749373038 1302592957 -112298571
            -454492744 -1280264024 -277250899 2102916970</internalNodes>
          <leafValues>
            -1.5896007418632507e-01 2.2529377043247223e-01</leafValues></_>
        <_>
          <internalNodes>
            0 -1 311 -1906332740 -14139461 -1611199762 -269600094
            1542924973 1970757311 -1979762566 -486706633</internalNodes>
          <leafValues>
            -1.9587481021881104e-01 1.8643084168434143e-01</leafValues></_>
        <_>
          <internalNodes>
            0 -1 172 -17076609 -268546225 -151191847 2051211263
            -83993507 1340038879 -287408932 2050103818</internalNodes>
          <leafValues>
            -2.4528211355209351e-01 1.4470784366130829e-01</leafValues></_>
        <_>
          <internalNodes>
            0 -1 389 1073606575 518516561 -1528846482 1918811534
            2126368268 1937729047 -423301534 1951790164</internalNodes>
          <leafValues>
            -2.4771486222743988e-01 1.3478600978851318e-01</leafValues></_>
        <_>
          <internalNodes>
            0 -1 463 -475067697 805191454 -1569193985 842721279
            -335591348 1598889039 -218303290 -796917938</internalNodes>
          <leafValues>
            -2.0360404253005981e-01 1.6318689286708832e-01</leafValues></_>
        <_>
          <internalNodes>
            0 -1 380 807555536 1018633707 1946115563 1073631711
            1319126447 -1073856769 1334231822 53085345</internalNodes>
          <leafValues>
            -3.4945306181907654e-01 9.6590235829353333e-02</leafValues></_>
        <_>
          <internalNodes>
            0 -1 81 -704905488 2077892284 -16548005 257670446
            -1158200088 481347700 -61744103 1449068159</internalNodes>
          <leafValues>
            -1.8246087431907654e-01 1.8463000655174255e-01</leafValues></_>
        <_>
          <internalNodes>
            0 -1 156 -1337974684 1158327215 2059296530 316914438
            1400259781 1531757706 1945526099 1247171382</internalNodes>
          <leafValues>
            -3.3930459618568420e-01 9.9024161696434021e-02</leafValues></_>
        <_>
          <internalNodes>
            0 -1 412 -521507700 264043518 -872420819 -604087345
            -674104331 -1636368389 -209733888 -1986660538</internalNodes>
          <leafValues>
            -2.2180986404418945e-01 1.5331558883190155e-01</leafValues></_>
        <_>
          <internalNodes>
            0 -1 273 118800177 799567012 -1577200912 -571622300
            100660983 788455423 223826420 206918889</internalNodes>
          <leafValues>
            -3.3105438947677612e-01 1.0311809182167053e-01</leafValues></_>
        <_>
          <internalNodes>
            0 -1 475 -22560169 -536871041 -218240771 -76021763 -84949282
            -536911939 -889553281 -84213894</internalNodes>
          <leafValues>
            -1.1710345745086670e-01 2.9261958599090576e-01</leafValues></_>
        <_>
          <internalNodes>
            0 -1 386 -268439633 -1228968097 -479463441 1941962687
            -343937460 -1350615203 -218104338 -75631633</internalNodes>
          <leafValues>
            -1.1079970747232437e-01 3.0268961191177368e-01</leafValues></_>
        <_>
          <internalNodes>
            0 -1 248 1937265761 1428832042 1794273132 1525887986
            1517950002 1667912610 -2097248918 1826095072</internalNodes>
          <leafValues>
            -2.2893284261226654e-01 1.4755447208881378e-01</leafValues></_>
        <_>
          <internalNodes>
            0 -1 110 -1493191757 -1884377174 -130096974 1924462112
            769331194 1326447951 1207915719 1466955223</internalNodes>
          <leafValues>
            -2.6751756668090820e-01 1.2651872634887695e-01</leafValues></_>
        <_>
          <internalNodes>
            0 -1 346 1684327749 -1226833921 1845476271 -864051673
            -59105531 -1241647113 -1204597457 -521731549</internalNodes>
          <leafValues>
            -1.6107709705829620e-01 2.0272868871688843e-01</leafValues></_>
        <_>
          <internalNodes>
            0 -1 438 -2111539423 -1491009568 -8970446 -1073941036
            749301753 -1347715089 533419429 488834101</internalNodes>
          <leafValues>
            -2.9128658771514893e-01 1.1301052570343018e-01</leafValues></_>
        <_>
          <internalNodes>
            0 -1 297 -1509526606 1414545296 -1128382660 -1125324294
            -833671412 349599594 232724238 290683986</internalNodes>
          <leafValues>
            -2.7245834469795227e-01 1.2202059477567673e-01</leafValues></_>
        <_>
          <internalNodes>
            0 -1 492 -587768353 437416954 -1380552524 523283382
            1912561145 758799869 -856220944 1029523142</internalNodes>
          <leafValues>
            -2.0528709888458252e-01 1.6643388569355011e-01</leafValues></_>
        <_>
          <internalNodes>
            0 -1 307 -525399812 -1071207894 -838899116 -269557795
            660585908 -844311554 -924278967 -869216014</internalNodes>
          <leafValues>
            -2.5713932514190674e-01 1.2651082873344421e-01</leafValues></_>
        <_>
          <internalNodes>
            0 -1 280 1882245264 1420916722 1090768774 1278574670
            -125781200 -755351952 -1389789854 -1255794320</internalNodes>
          <leafValues>
            -3.1230154633522034e-01 1.1099191755056381e-01</leafValues></_>
        <_>
          <internalNodes>
            0 -1 368 -1087397967 -1078457614 230432118 -570527760
            1667225016 1286895035 -1916335005 531825822</internalNodes>
          <leafValues>
            -1.9682775437831879e-01 1.7985029518604279e-01</leafValues></_>
        <_>
          <internalNodes>
            0 -1 342 226299789 754719959 268283810 -2098316822
            1272343927 372341719 -1304737532 -2134704298</internalNodes>
          <leafValues>
            -2.4721439182758331e-01 1.3552917540073395e-01</leafValues></_>
        <_>
          <internalNodes>
            0 -1 349 -21347120 1511951108 -135201509 -146788588
            385645806 -1155612738 -1982002146 1028297782</internalNodes>
          <leafValues>
            -2.6715746521949768e-01 1.2127516418695450e-01</leafValues></_>
        <_>
          <internalNodes>
            0 -1 197 -1926121183 -1826447310 1207431679 1507709013
            455507446 -1515475777 1591107007 -545591959</internalNodes>
          <leafValues>
            -1.7424476146697998e-01 1.8907938897609711e-01</leafValues></_>
        <_>
          <internalNodes>
            0 -1 7 1156511526 1191175822 -829325378 106429504 375568160
            -9161716 2113190784 1155922952</internalNodes>
          <leafValues>
            -3.2233616709709167e-01 1.0417719930410385e-01</leafValues></_>
        <_>
          <internalNodes>
            0 -1 29 -487346386 1890516382 -436224081 1940963308
            1366818628 829788150 1845360298 1907490564</internalNodes>
          <leafValues>
            -2.3403133451938629e-01 1.4260873198509216e-01</leafValues></_>
        <_>
          <internalNodes>
            0 -1 467 -357606485 -1415254198 1658835490 1928311392
            -2119089 105312015 1674934245 1164830668</internalNodes>
          <leafValues>
            -2.5776287913322449e-01 1.2645211815834045e-01</leafValues></_>
        <_>
          <internalNodes>
            0 -1 139 -1448411148 -1851530062 257843196 -319962912
            200631539 687193599 1234075486 234584038</internalNodes>
          <leafValues>
            -2.2177515923976898e-01 1.5054729580879211e-01</leafValues></_>
        <_>
          <internalNodes>
            0 -1 287 -1011026983 1049605110 117590303 991310654
            -1804217797 -1422281805 498981410 -1860946945</internalNodes>
          <leafValues>
            -1.6589936614036560e-01 1.9494360685348511e-01</leafValues></_>
        <_>
          <internalNodes>
            0 -1 426 784010327 -59553953 -1300434209 307519406
            -624967616 -1355456937 2024852452 441110798</internalNodes>
          <leafValues>
            -2.7480337023735046e-01 1.1826536059379578e-01</leafValues></_>
        <_>
          <internalNodes>
            0 -1 391 1576905519 1857992687 1735176076 1251934050
            -92295412 1060601727 -736249130 -1237975175</internalNodes>
          <leafValues>
            -1.8298709392547607e-01 1.7843924462795258e-01</leafValues></_>
        <_>
          <internalNodes>
            0 -1 315 -1005518867 1975434990 2094453724 -1101678354
            -1141607948 -168201990 -347309751 -2058549246</internalNodes>
          <leafValues>
            -1.8709604442119598e-01 1.7566064000129700e-01</leafValues></_>
        <_>
          <internalNodes>
            0 -1 424 -154677131 1520042552 1009045564 859894867
            -832107558 -1965225712 1096249750 -1856865701</internalNodes>
          <leafValues>
            -2.0012809336185455e-01 1.5812027454376221e-01</leafValues></_>
        <_>
          <internalNodes>
            0 -1 161 -269291224 -2092192857 -536970753 -799024141
            1560200356 1523630607 -1845830145 -615026733</internalNodes>
          <leafValues>
            -1.7089980840682983e-01 1.8426240980625153e-01</leafValues></_>
        <_>
          <internalNodes>
            0 -1 20 -998249969 1584390135 -1191198994 -659489170
            104814405 2137603644 2042133596 1074917190</internalNodes>
          <leafValues>
            -2.5466698408126831e-01 1.2567342817783356e-01</leafValues></_>
        <_>
          <internalNodes>
            0 -1 181 -299308807 -1108086817 1526865735 1354830704
            -637938064 -105256902 -1106378833 -1230306892</internalNodes>
          <leafValues>
            -1.7958924174308777e-01 1.7833466827869415e-01</leafValues></_>
        <_>
          <internalNodes>
            0 -1 141 1604504992 1454431984 4451633 739663789 -1846131984
            907040448 1432878129 290477528</internalNodes>
          <leafValues>
            -3.6917206645011902e-01 9.0959616005420685e-02</leafValues></_>
        <_>
          <internalNodes>
            0 -1 304 -302551289 -1410662486 -1784948327 -167906734
            212422453 -1895957631 1325266756 310114242</internalNodes>
          <leafValues>
            -1.9828723371028900e-01 1.6301690042018890e-01</leafValues></_>
        <_>
          <internalNodes>
            0 -1 295 1073934115 382294909 -1319899314 -575844729
            -168325785 905297636 -335554033 1088800551</internalNodes>
          <leafValues>
            -2.1238045394420624e-01 1.5002043545246124e-01</leafValues></_>
        <_>
          <internalNodes>
            0 -1 305 1444836863 -1886464300 1303663049 648792694
            -1275853519 2101193652 481154056 -4851977</internalNodes>
          <leafValues>
            -1.5479867160320282e-01 2.0271058380603790e-01</leafValues></_>
        <_>
          <internalNodes>
            0 -1 114 -339808186 -1842360310 1537134902 -748289958
            781923348 -1570102060 119297229 -548974498</internalNodes>
          <leafValues>
            -1.8491293489933014e-01 1.7255812883377075e-01</leafValues></_>
        <_>
          <internalNodes>
            0 -1 130 -482736194 -583455883 -46879778 798176797
            -289880902 -620964619 -730587617 -453049207</internalNodes>
          <leafValues>
            -1.5979349613189697e-01 1.9866292178630829e-01</leafValues></_>
        <_>
          <internalNodes>
            0 -1 220 267446242 463513588 301829356 1844403364 895313653
            956071933 -860156243 -682015291</internalNodes>
          <leafValues>
            -2.1032314002513885e-01 1.5249617397785187e-01</leafValues></_></weakClassifiers></_>
    <!-- stage 8 -->
    <_>
      <maxWeakCount>85</maxWeakCount>
      <stageThreshold>-1.9376341104507446e+00</stageThreshold>
      <weakClassifiers>
        <_>
          <internalNodes>
            0 -1 478 -8389637 -1078198278 2004089336 -8659463 -71568389
            789249978 1528549881 -616824837</internalNodes>
          <leafValues>
            -3.6831006407737732e-01 3.8870888948440552e-01</leafValues></_>
        <_>
          <internalNodes>
            0 -1 404 -8225 -1 -4194305 -532513 -83895590 -1 -1157891329
            -1157660673</internalNodes>
          <leafValues>
            -1.6787271201610565e-01 6.1208271980285645e-01</leafValues></_>
        <_>
          <internalNodes>
            0 -1 118 -17109265 -4214801 -1363493185 -1140867329
            -822426482 -826355827 1257950463 -620756993</internalNodes>
          <leafValues>
            -2.5720793008804321e-01 3.5389733314514160e-01</leafValues></_>
        <_>
          <internalNodes>
            0 -1 427 -335545617 1073725055 -1073758277 1056963291
            -276825592 -30147040 855089911 -67109893</internalNodes>
          <leafValues>
            -2.2008565068244934e-01 3.0707868933677673e-01</leafValues></_>
        <_>
          <internalNodes>
            0 -1 43 -1280574465 -570426369 -1086398466 2143223754
            1597967612 1509709236 -65542 -1028</internalNodes>
          <leafValues>
            -1.9806836545467377e-01 3.1772461533546448e-01</leafValues></_>
        <_>
          <internalNodes>
            0 -1 59 -278860033 -1627402537 -549462085 1337972063
            -554894596 -1166020993 -821559605 -342898885</internalNodes>
          <leafValues>
            -2.1065771579742432e-01 2.6248294115066528e-01</leafValues></_>
        <_>
          <internalNodes>
            0 -1 187 -84106575 -924744 655044680 1472566005 -1114121
            -1702678278 -183501298 856664763</internalNodes>
          <leafValues>
            -2.8152224421501160e-01 1.8626622855663300e-01</leafValues></_>
        <_>
          <internalNodes>
            0 -1 216 -67633355 892663097 -1539 -1077946403 -1145438280
            -1112148227 -4195016 -1665147489</internalNodes>
          <leafValues>
            -1.6819091141223907e-01 2.8742697834968567e-01</leafValues></_>
        <_>
          <internalNodes>
            0 -1 184 2080290727 -1145357903 -176165380 1557880181
            -21054033 -1683967709 1325326270 1485503998</internalNodes>
          <leafValues>
            -2.2432172298431396e-01 2.1120578050613403e-01</leafValues></_>
        <_>
          <internalNodes>
            0 -1 429 -1493351012 -1243671051 2144096766 1605328350
            2133065726 -235801675 657653738 353569148</internalNodes>
          <leafValues>
            -2.8687369823455811e-01 1.6455584764480591e-01</leafValues></_>
        <_>
          <internalNodes>
            0 -1 34 -273681477 -36720208 -838860803 -135269646
            1610554622 -126877985 -285409281 -34605067</internalNodes>
          <leafValues>
            -1.4143453538417816e-01 3.0900833010673523e-01</leafValues></_>
        <_>
          <internalNodes>
            0 -1 388 2136403777 -30146574 -298061893 -550404107 -9328113
            -11760444 -141171725 -552730658</internalNodes>
          <leafValues>
            -1.6914486885070801e-01 2.5407722592353821e-01</leafValues></_>
        <_>
          <internalNodes>
            0 -1 321 976669716 990952709 2135981887 1510439775
            -554936418 -1079103574 -583494435 -1145138791</internalNodes>
          <leafValues>
            -2.8429129719734192e-01 1.4305385947227478e-01</leafValues></_>
        <_>
          <internalNodes>
            0 -1 26 -436277577 -134967593 -1398343937 -871568802
            -144441344 -9157520 1781792565 -599296913</internalNodes>
          <leafValues>
            -2.4477165937423706e-01 1.6412213444709778e-01</leafValues></_>
        <_>
          <internalNodes>
            0 -1 243 -1181899 -206901614 1340069887 -671089605
            -1438974537 -1960063569 46855934 -790691844</internalNodes>
          <leafValues>
            -1.6129764914512634e-01 2.4786882102489471e-01</leafValues></_>
        <_>
          <internalNodes>
            0 -1 393 -1023416397 -1061227073 -272729166 -1732575301
            530439453 -1648496755 -1344324670 -2138178097</internalNodes>
          <leafValues>
            -2.1932980418205261e-01 1.7635634541511536e-01</leafValues></_>
        <_>
          <internalNodes>
            0 -1 263 1431697383 2002386935 1440071407 -35835922
            -67830529 -117610513 -285229137 -4145</internalNodes>
          <leafValues>
            -9.4502143561840057e-02 3.8395902514457703e-01</leafValues></_>
        <_>
          <internalNodes>
            0 -1 150 1708271101 -946960637 -11215504 1111973655
            -271581721 -1614268926 1180094942 1598521207</internalNodes>
          <leafValues>
            -2.3773147165775299e-01 1.5735557675361633e-01</leafValues></_>
        <_>
          <internalNodes>
            0 -1 479 774029109 -202314220 -142639745 -8581307 775069352
            -5611524 707816830 757095805</internalNodes>
          <leafValues>
            -3.0513191223144531e-01 1.1252240091562271e-01</leafValues></_>
        <_>
          <internalNodes>
            0 -1 257 -884169844 -363025577 -1318636814 1606628034
            1288514364 1582578997 2077703420 10289152</internalNodes>
          <leafValues>
            -3.5213974118232727e-01 9.5929034054279327e-02</leafValues></_>
        <_>
          <internalNodes>
            0 -1 336 389537739 1145254101 82836751 895664114 1107283340
            -180042044 1087357623 -170492602</internalNodes>
          <leafValues>
            -1.6298112273216248e-01 2.1157045662403107e-01</leafValues></_>
        <_>
          <internalNodes>
            0 -1 90 -861220942 154994683 -315138180 1162690425
            1862962784 1853288695 1191625184 1275021034</internalNodes>
          <leafValues>
            -3.2950669527053833e-01 1.0132063925266266e-01</leafValues></_>
        <_>
          <internalNodes>
            0 -1 289 -1017711652 890221094 1327648040 235839008
            -1494967395 36982943 136583356 481571057</internalNodes>
          <leafValues>
            -3.3817872405052185e-01 1.0141530632972717e-01</leafValues></_>
        <_>
          <internalNodes>
            0 -1 354 1683975205 -44082625 -213099523 276496379
            -354444196 -8508881 2019884724 1884356272</internalNodes>
          <leafValues>
            -2.5657334923744202e-01 1.2957945466041565e-01</leafValues></_>
        <_>
          <internalNodes>
