<?xml version="1.0"?>
<opencv_storage>
<stage1>
  <maxWeakCount>22</maxWeakCount>
  <stageThreshold>-2.2299530506134033e+00</stageThreshold>
  <weakClassifiers>
    <_>
      <internalNodes>
        0 -1 1807 -69207302 -67108865 458789528 -69207041 -70255894
        -540147764 -69206018 -2100257</internalNodes>
      <leafValues>
        -5.9534382820129395e-01 5.2823173999786377e-01</leafValues></_>
    <_>
      <internalNodes>
        0 -1 1452 -890306817 -810827777 -807411713 1602181119 -892408081
        -805306369 -1060846379 -805349377</internalNodes>
      <leafValues>
        -4.6021506190299988e-01 5.1706576347351074e-01</leafValues></_>
    <_>
      <internalNodes>
        0 -1 5349 -134217961 1465384791 1044365110 271777527 -10486001
        -9437361 -8417 -536870913</internalNodes>
      <leafValues>
        -3.8129165768623352e-01 5.0379484891891479e-01</leafValues></_>
    <_>
      <internalNodes>
        0 -1 2584 -41345 -268501153 -16844801 -93126657 -45986
        -822125473 -16842753 -25165953</internalNodes>
      <leafValues>
        -3.0926775932312012e-01 5.6795841455459595e-01</leafValues></_>
    <_>
      <internalNodes>
        0 -1 2935 -68643 -167780897 318771984 521372608 -628172833
        -1882302977 1243567071 1510425579</internalNodes>
      <leafValues>
        -4.5019090175628662e-01 3.9418506622314453e-01</leafValues></_>
    <_>
      <internalNodes>
        0 -1 981 -5 -273678417 -134219821 -77 -129 -268443777 -134219785
        -2057</internalNodes>
      <leafValues>
        -1.9475369155406952e-01 6.9739091396331787e-01</leafValues></_>
    <_>
      <internalNodes>
        0 -1 7294 -268435661 -1347682390 -67116045 -2061 -67109108
        -1892679921 -16779787 -838860801</internalNodes>
      <leafValues>
        -3.0901232361793518e-01 5.4873859882354736e-01</leafValues></_>
    <_>
      <internalNodes>
        0 -1 2161 -225910144 -537736518 67240205 1537186263 -8723720
        -254754656 1397484367 1909309870</internalNodes>
      <leafValues>
        -5.4270744323730469e-01 2.2642704844474792e-01</leafValues></_>
    <_>
      <internalNodes>
        0 -1 7790 -272629765 -1347420246 -218270991 -1291845701
        -301992115 -1895305377 352055797 1568667127</internalNodes>
      <leafValues>
        -3.3307456970214844e-01 3.7359136343002319e-01</leafValues></_>
    <_>
      <internalNodes>
        0 -1 3502 662126387 -272171094 -704646287 -83953744 2147483643
        -806355047 2013263861 -16779471</internalNodes>
      <leafValues>
        -3.3385172486305237e-01 3.6963376402854919e-01</leafValues></_>
    <_>
      <internalNodes>
        0 -1 5368 -8388833 2139094911 -16779653 1929314298 -538968307
        -10486433 -687869189 -589299777</internalNodes>
      <leafValues>
        -2.4353599548339844e-01 4.7237941622734070e-01</leafValues></_>
    <_>
      <internalNodes>
        0 -1 4324 800636925 -1075118083 -1 -200708 2146435061 -1
        -1644173891 -131628</internalNodes>
      <leafValues>
        -2.6972508430480957e-01 4.2624130845069885e-01</leafValues></_>
    <_>
      <internalNodes>
        0 -1 4529 -1347457129 -273744030 -184552461 -151716044
        1879048191 -814219305 1459582933 1090319860</internalNodes>
      <leafValues>
        -3.9706498384475708e-01 2.9351136088371277e-01</leafValues></_>
    <_>
      <internalNodes>
        0 -1 1244 -2424838 -537890818 2146864893 2142382754 -977253328
        -1889644556 -537423873 1610548255</internalNodes>
      <leafValues>
        -3.8513004779815674e-01 2.9192593693733215e-01</leafValues></_>
    <_>
      <internalNodes>
        0 -1 1541 -285212673 -1410334810 -1006636814 -134217858
        1337917435 -842006533 2004841459 -536873217</internalNodes>
      <leafValues>
        -2.3817224800586700e-01 4.3708908557891846e-01</leafValues></_>
    <_>
      <internalNodes>
        0 -1 7225 -287347073 -1073741953 -219417857 -220660737 -16789940
        -8389546 -151066924 -83888129</internalNodes>
      <leafValues>
        -2.3924829065799713e-01 4.4695329666137695e-01</leafValues></_>
    <_>
      <internalNodes>
        0 -1 1722 -8717798 -336687158 -608530191 -72680517 -2146152
        -1723052224 -537455368 1532711387</internalNodes>
      <leafValues>
        -3.7203043699264526e-01 2.8435444831848145e-01</leafValues></_>
    <_>
      <internalNodes>
        0 -1 6212 780085821 -1101138081 -220269827 855048127 -27398588
        -8430017 1823501305 1516132196</internalNodes>
      <leafValues>
        -4.2142096161842346e-01 2.4031536281108856e-01</leafValues></_>
    <_>
      <internalNodes>
        0 -1 1275 -1052929 -271581241 -352324877 -85524545 -8434613
        -41984177 -168302891 -817889921</internalNodes>
      <leafValues>
        -2.5031960010528564e-01 4.2184066772460938e-01</leafValues></_>
    <_>
      <internalNodes>
        0 -1 6340 1870659367 -806486097 -420484382 -536871045 -67109107
        218619662 -167775056 -186843212</internalNodes>
      <leafValues>
        -3.1542092561721802e-01 3.0960327386856079e-01</leafValues></_>
    <_>
      <internalNodes>
        0 -1 3807 -63974384 -199983408 -1129603649 -589300329 -50627393
        -642001812 352304366 471792957</internalNodes>
      <leafValues>
        -3.8911691308021545e-01 2.5493061542510986e-01</leafValues></_>
    <_>
      <internalNodes>
        0 -1 2490 -403706009 737144431 -688986450 -1291912482 -805318904
        1326440205 -268449539 2012545005</internalNodes>
      <leafValues>
        -3.6865723133087158e-01 2.5527295470237732e-01</leafValues></_></weakClassifiers></stage1>
</opencv_storage>
