<?xml version="1.0"?>
<opencv_storage>
<stage3>
  <maxWeakCount>37</maxWeakCount>
  <stageThreshold>-2.1442923545837402e+00</stageThreshold>
  <weakClassifiers>
    <_>
      <internalNodes>
        0 -1 4455 -193 2134900543 -1 -1 -1 -1 -1090535489 -1</internalNodes>
      <leafValues>
        -3.8536906242370605e-01 7.0562237501144409e-01</leafValues></_>
    <_>
      <internalNodes>
        0 -1 7300 -4194305 -1145307208 1576525309 -3 -1077936708
        -1078420320 486923741 -13107211</internalNodes>
      <leafValues>
        -3.1740275025367737e-01 5.1351779699325562e-01</leafValues></_>
    <_>
      <internalNodes>
        0 -1 379 -1 -65537 -268522242 -4259842 -41731 -537928209
        -4256548 -1</internalNodes>
      <leafValues>
        -2.0063397288322449e-01 6.5238642692565918e-01</leafValues></_>
    <_>
      <internalNodes>
        0 -1 2194 -353708293 -273945693 229375827 1932736305 50467579
        -1364471869 1095073779 -1572877</internalNodes>
      <leafValues>
        -3.8502228260040283e-01 3.3794683218002319e-01</leafValues></_>
    <_>
      <internalNodes>
        0 -1 51 -136314898 -604250113 366950399 1608507391 -234883601
        -29307456 2147475407 1170595790</internalNodes>
      <leafValues>
        -4.0551093220710754e-01 2.7792742848396301e-01</leafValues></_>
    <_>
      <internalNodes>
        0 -1 4286 353681405 1901983485 1601387518 2080076792 939065341
        2147287036 993541100 1001914600</internalNodes>
      <leafValues>
        -3.5699185729026794e-01 3.3538949489593506e-01</leafValues></_>
    <_>
      <internalNodes>
        0 -1 6994 -2129 800063483 -67109974 -1277167619 -244 1461695822
        -142608393 -134348803</internalNodes>
      <leafValues>
        -2.6046583056449890e-01 3.8580700755119324e-01</leafValues></_>
    <_>
      <internalNodes>
        0 -1 1879 -495785914 1934813951 -93127938 1918041847 1342098504
        1309626231 -838891009 1467469639</internalNodes>
      <leafValues>
        -4.5186793804168701e-01 2.2178083658218384e-01</leafValues></_>
    <_>
      <internalNodes>
        0 -1 2129 -1431568397 -5506062 -35337 -2109200 -274727937 -1
        -536870913 -2571</internalNodes>
      <leafValues>
        -1.8129979074001312e-01 5.0705468654632568e-01</leafValues></_>
    <_>
      <internalNodes>
        0 -1 6188 1728006269 -27304833 -224986373 1384054655 -17348536
        -8397954 -287511819 2054094805</internalNodes>
      <leafValues>
        -3.6331722140312195e-01 2.4079276621341705e-01</leafValues></_>
    <_>
      <internalNodes>
        0 -1 2395 -268506370 -875565201 251189498 457169663 -805649238
        -884176636 1610498303 -632103081</internalNodes>
      <leafValues>
        -3.0132538080215454e-01 2.9224818944931030e-01</leafValues></_>
    <_>
      <internalNodes>
        0 -1 4968 -167978248 -134769696 16818062 355934118 -1092556616
        -1459805896 606330638 822543118</internalNodes>
      <leafValues>
        -4.4772332906723022e-01 1.9318179786205292e-01</leafValues></_>
    <_>
      <internalNodes>
        0 -1 7582 -67108997 -1347747934 -206310416 -234883728 -268435633
        -1892679894 1407186421 -546310657</internalNodes>
      <leafValues>
        -2.3977419734001160e-01 3.2944631576538086e-01</leafValues></_>
    <_>
      <internalNodes>
        0 -1 5881 -1124122978 -1078575212 -1930757390 -251922763
        1340018436 -828391667 -1761627210 -704905217</internalNodes>
      <leafValues>
        -3.3007457852363586e-01 2.3203177750110626e-01</leafValues></_>
    <_>
      <internalNodes>
        0 -1 4371 -1294948476 -706170961 -1841515664 -460835 -1141526529
        -8540177 -1275199489 68488453</internalNodes>
      <leafValues>
        -3.5145121812820435e-01 2.1393892168998718e-01</leafValues></_>
    <_>
      <internalNodes>
        0 -1 565 -92285185 -890854674 -83954946 -1167529238 -159432689
        -817148338 -151527177 -28836273</internalNodes>
      <leafValues>
        -2.5857037305831909e-01 2.7966886758804321e-01</leafValues></_>
    <_>
      <internalNodes>
        0 -1 5560 -1137132036 -22004420 1035258876 1073364424 1061107901
        1706384894 364723452 1068973834</internalNodes>
      <leafValues>
        -3.9017829298973083e-01 1.8190638720989227e-01</leafValues></_>
    <_>
      <internalNodes>
        0 -1 2878 -420481061 -1347504214 935310327 -153258144 268419071
        -1894844501 1474246391 1609561399</internalNodes>
      <leafValues>
        -2.7838850021362305e-01 2.6630368828773499e-01</leafValues></_>
    <_>
      <internalNodes>
        0 -1 6604 -1360057769 1061117779 307654911 846913518 -1358968820
        -277881986 1257962228 2051078517</internalNodes>
      <leafValues>
        -3.8097691535949707e-01 1.8723437190055847e-01</leafValues></_>
    <_>
      <internalNodes>
        0 -1 7117 -152104429 -604768425 -82838673 -83429601 -1705307429
        -67633195 -1306883362 -1877804514</internalNodes>
      <leafValues>
        -2.4434606730937958e-01 2.7553811669349670e-01</leafValues></_>
    <_>
      <internalNodes>
        0 -1 3948 -1313145675 1597754545 1073741823 1610566997
        -1078204485 -4653315 1060896766 1307561269</internalNodes>
      <leafValues>
        -2.7570995688438416e-01 2.5996050238609314e-01</leafValues></_>
    <_>
      <internalNodes>
        0 -1 2469 -262274 1427967485 -1615156166 227655602 -1676099800
        -4530379 1289919931 -558228453</internalNodes>
      <leafValues>
        -2.5838142633438110e-01 2.4629677832126617e-01</leafValues></_>
    <_>
      <internalNodes>
        0 -1 7444 -813695215 -176162817 1296555012 1306903935 -268437632
        -239081666 -817365248 -873465998</internalNodes>
      <leafValues>
        -2.1819831430912018e-01 2.8673633933067322e-01</leafValues></_>
    <_>
      <internalNodes>
        0 -1 2986 -19339345 1536159631 -184565805 847227830 -545274161
        1262667916 1744231775 1548218204</internalNodes>
      <leafValues>
        -2.5548717379570007e-01 2.4905745685100555e-01</leafValues></_>
    <_>
      <internalNodes>
        0 -1 2723 -819331077 -68553998 -839026689 -1060686 -1989149441
        -19398657 1325236223 -1614850315</internalNodes>
      <leafValues>
        -1.5907967090606689e-01 4.0473723411560059e-01</leafValues></_>
    <_>
      <internalNodes>
        0 -1 2886 -235951630 -1886418430 1058395506 7822851 -2016477473
        243826178 -900432419 -363856265</internalNodes>
      <leafValues>
        -2.5673821568489075e-01 2.6056283712387085e-01</leafValues></_>
    <_>
      <internalNodes>
        0 -1 5844 -1400943345 -1098973377 1936982015 847151103
        -295440775 -1350570625 -18810119 407033268</internalNodes>
      <leafValues>
        -3.0228471755981445e-01 2.1253770589828491e-01</leafValues></_>
    <_>
      <internalNodes>
        0 -1 3631 828699636 -8801064 -738378753 1505441816 -766903045
        -822232090 -1413674838 1741498890</internalNodes>
      <leafValues>
        -2.9247495532035828e-01 2.1338911354541779e-01</leafValues></_>
    <_>
      <internalNodes>
        0 -1 7282 -672137413 -1355808854 -478151776 1937604593
        -136337912 256900908 1442817777 1162805231</internalNodes>
      <leafValues>
        -2.8660690784454346e-01 2.1447184681892395e-01</leafValues></_>
    <_>
      <internalNodes>
        0 -1 7131 -28159803 -58847147 -1 -125569 -495218245 -554763266
        974232025 -1690673345</internalNodes>
      <leafValues>
        -2.5227376818656921e-01 2.4352201819419861e-01</leafValues></_>
    <_>
      <internalNodes>
        0 -1 1746 -1422134529 449841310 -1615892998 322624694 725032445
        219879934 -1682743942 -613164932</internalNodes>
      <leafValues>
        -2.3037746548652649e-01 2.7151125669479370e-01</leafValues></_>
    <_>
      <internalNodes>
        0 -1 3053 786722548 -10735635 658224946 781922850 1609484231
        -599495217 671033215 1657054189</internalNodes>
      <leafValues>
        -3.3670303225517273e-01 1.7603267729282379e-01</leafValues></_>
    <_>
      <internalNodes>
        0 -1 178 -271585373 -122171005 -134512641 -336334142 -177213697
        -2103417 -84937762 -101713945</internalNodes>
      <leafValues>
        -1.3398715853691101e-01 4.7905045747756958e-01</leafValues></_>
    <_>
      <internalNodes>
        0 -1 4027 -469976147 -1175111373 1026883052 1467559461
        -354624007 1306409395 246503788 179494392</internalNodes>
      <leafValues>
        -2.9542794823646545e-01 2.0689955353736877e-01</leafValues></_>
    <_>
      <internalNodes>
        0 -1 4018 736303891 -1893532320 1946121200 -592085004 1874448127
        251133951 2012739029 1283224661</internalNodes>
      <leafValues>
        -3.7906742095947266e-01 1.6096106171607971e-01</leafValues></_>
    <_>
      <internalNodes>
        0 -1 2563 -16818561 -303407265 1928777971 1920614391 -8453052
        1339754078 -185674035 2138240955</internalNodes>
      <leafValues>
        -2.8297439217567444e-01 2.1110111474990845e-01</leafValues></_>
    <_>
      <internalNodes>
        0 -1 5272 -59791757 1997501760 -64852677 -997937326 121081602
        -1095247894 515858079 369032055</internalNodes>
      <leafValues>
        -2.7307197451591492e-01 2.1796843409538269e-01</leafValues></_></weakClassifiers></stage3>
</opencv_storage>
