<?xml version="1.0"?>
<opencv_storage>
<stage9>
  <maxWeakCount>97</maxWeakCount>
  <stageThreshold>-1.8366340398788452e+00</stageThreshold>
  <weakClassifiers>
    <_>
      <internalNodes>
        0 -1 5097 -4521985 -1103561729 -4259970 -1162149889 1567686653
        -1086527505 -53255 -1</internalNodes>
      <leafValues>
        -3.5215801000595093e-01 3.7269604206085205e-01</leafValues></_>
    <_>
      <internalNodes>
        0 -1 1872 -41473 1442795728 -1914699777 1576883709 -285278210
        -1090614064 -857800721 -570425345</internalNodes>
      <leafValues>
        -1.9918441772460938e-01 4.4509246945381165e-01</leafValues></_>
    <_>
      <internalNodes>
        0 -1 5800 -9445387 -8409347 1073182591 1945615359 -139524
        -21086498 -572719617 -1</internalNodes>
      <leafValues>
        -1.6627618670463562e-01 4.5287555456161499e-01</leafValues></_>
    <_>
      <internalNodes>
        0 -1 7936 -44549 -1682243654 -273949708 -4458542 -265221
        993198010 1600118264 -545521926</internalNodes>
      <leafValues>
        -1.9047862291336060e-01 3.2452276349067688e-01</leafValues></_>
    <_>
      <internalNodes>
        0 -1 5859 -4653092 -101449801 1563160546 -55181961 -1146097917
        -1148914708 1191964979 -817499697</internalNodes>
      <leafValues>
        -2.9895135760307312e-01 1.5937894582748413e-01</leafValues></_>
    <_>
      <internalNodes>
        0 -1 1421 855578530 -202115334 544416295 939507711 -1241566729
        -476710 2010593279 939473919</internalNodes>
      <leafValues>
        -2.7370536327362061e-01 1.9241364300251007e-01</leafValues></_>
    <_>
      <internalNodes>
        0 -1 4169 -1073867341 -67429314 -43139 -580952705 -215041
        -34812674 2147169023 -10485765</internalNodes>
      <leafValues>
        -1.4137315750122070e-01 3.4266942739486694e-01</leafValues></_>
    <_>
      <internalNodes>
        0 -1 2189 -1343947284 -1644181252 -268535305 1560549885
        -356189198 -1699077382 -1965098101 -1971136360</internalNodes>
      <leafValues>
        -3.0529174208641052e-01 1.4641493558883667e-01</leafValues></_>
    <_>
      <internalNodes>
        0 -1 2178 -357564421 -73142094 -537807371 -34638608 -838860933
        -8205 1308587447 1476122084</internalNodes>
      <leafValues>
        -1.8734180927276611e-01 2.3291608691215515e-01</leafValues></_>
    <_>
      <internalNodes>
        0 -1 4095 -746723619 -547356758 598974458 453165038 -10503461
        -615312880 -201352709 -255353939</internalNodes>
      <leafValues>
        -1.9039008021354675e-01 2.3145538568496704e-01</leafValues></_>
    <_>
      <internalNodes>
        0 -1 4529 -3188865 -814950613 1971287031 -9046094 -13148457
        268435423 1406662471 134856631</internalNodes>
      <leafValues>
        -1.9184143841266632e-01 2.1100455522537231e-01</leafValues></_>
    <_>
      <internalNodes>
        0 -1 5744 -1963044875 -656587563 195517438 -656642730 171714874
        -222594189 775039994 -1944048769</internalNodes>
      <leafValues>
        -2.4801383912563324e-01 1.4905069768428802e-01</leafValues></_>
    <_>
      <internalNodes>
        0 -1 5398 1591623880 -729020 666885103 -1252776626 888348827
        -294209 624162083 121569485</internalNodes>
      <leafValues>
        -3.2620534300804138e-01 1.1201618611812592e-01</leafValues></_>
    <_>
      <internalNodes>
        0 -1 4027 -76218460 -67814987 2134175724 2138380608 -1895901761
        -547407045 247356330 153247648</internalNodes>
      <leafValues>
        -3.0698052048683167e-01 1.1040309071540833e-01</leafValues></_>
    <_>
      <internalNodes>
        0 -1 5969 -134236179 -286490753 -1220628818 -1091682310
        -306761371 1073703765 -4220625 -1310756364</internalNodes>
      <leafValues>
        -1.6195940971374512e-01 2.2143632173538208e-01</leafValues></_>
    <_>
      <internalNodes>
        0 -1 2290 -352999553 900951294 -1081139453 -1618833936 -17184865
        -578945607 -1564608513 -99649601</internalNodes>
      <leafValues>
        -1.4955851435661316e-01 2.3717279732227325e-01</leafValues></_>
    <_>
      <internalNodes>
        0 -1 378 -34147585 -158009089 -657482162 -93913346 1937104383
        -103417857 -12105140 -93323541</internalNodes>
      <leafValues>
        -1.4104597270488739e-01 2.5220164656639099e-01</leafValues></_>
    <_>
      <internalNodes>
        0 -1 3088 -83901901 -1007882771 850407610 1920728991 -285226928
        -814227595 -1292193028 2065034825</internalNodes>
      <leafValues>
        -2.0835906267166138e-01 1.6715490818023682e-01</leafValues></_>
    <_>
      <internalNodes>
        0 -1 4320 1911810031 -168427529 -1108500497 -530705 2016524271
        1978740731 -4199473 -872946873</internalNodes>
      <leafValues>
        -1.1320012062788010e-01 2.9137921333312988e-01</leafValues></_>
    <_>
      <internalNodes>
        0 -1 7294 -310415597 -1481965654 -1543774032 -201600526
        -68157688 -1894852337 280737009 1429075963</internalNodes>
      <leafValues>
        -2.3534943163394928e-01 1.3773344457149506e-01</leafValues></_>
    <_>
      <internalNodes>
        0 -1 4307 8388868 2130642935 -1092091921 751510127 -1429190988
        -34121225 -16909905 -1359012017</internalNodes>
      <leafValues>
        -1.8840162456035614e-01 1.6687728464603424e-01</leafValues></_>
    <_>
      <internalNodes>
        0 -1 5553 -923603032 1222801406 -914366695 -860321473
        -1571356751 1286373271 -56314111 -1859520240</internalNodes>
      <leafValues>
        -2.6349574327468872e-01 1.1472022533416748e-01</leafValues></_>
    <_>
      <internalNodes>
        0 -1 5389 1299703589 -365515969 -1051856387 808320607 -822743179
        1161242239 1951676385 205911540</internalNodes>
      <leafValues>
        -2.1574153006076813e-01 1.4753350615501404e-01</leafValues></_>
    <_>
      <internalNodes>
        0 -1 7802 -551829573 -1414791238 -1212769283 -132175 2079309741
        -1887109891 1542401469 -842015233</internalNodes>
      <leafValues>
        -1.1349208652973175e-01 2.6864790916442871e-01</leafValues></_>
    <_>
      <internalNodes>
        0 -1 6114 -74820528 102630740 -82608514 1583224400 -2035524641
        -805390603 282040490 -1655828479</internalNodes>
      <leafValues>
        -3.1148579716682434e-01 9.8957031965255737e-02</leafValues></_>
    <_>
      <internalNodes>
        0 -1 6306 443869990 1143275048 1727777522 -802684964 -685771000
        -951833688 1744250547 1696396597</internalNodes>
      <leafValues>
        -2.7630478143692017e-01 1.0647065937519073e-01</leafValues></_>
    <_>
      <internalNodes>
        0 -1 6523 -335830081 1672527293 -1112046154 542563518 -30437877
        -1177028626 -606138482 -865708468</internalNodes>
      <leafValues>
        -1.6800926625728607e-01 1.7277248203754425e-01</leafValues></_>
    <_>
      <internalNodes>
        0 -1 1851 -361585854 1929978727 -17633540 -84350752 1204781312
        1461255143 -805337089 -145765049</internalNodes>
      <leafValues>
        -2.3929238319396973e-01 1.2300793826580048e-01</leafValues></_>
    <_>
      <internalNodes>
        0 -1 2247 -1935388932 -1078264577 1273228860 41028353 918177012
        -1107962652 1977083377 -214559629</internalNodes>
      <leafValues>
        -2.9494518041610718e-01 9.5751747488975525e-02</leafValues></_>
    <_>
      <internalNodes>
        0 -1 3836 -1908226124 -1398747166 1700081583 -1089081477
        -134939628 -1249876800 -42607316 798957368</internalNodes>
      <leafValues>
        -2.2890543937683105e-01 1.2791350483894348e-01</leafValues></_>
    <_>
      <internalNodes>
        0 -1 5456 935329779 -54811278 958322895 807452526 1879016964
        -1375251131 687316647 -8946066</internalNodes>
      <leafValues>
        -1.4272759854793549e-01 2.0510706305503845e-01</leafValues></_>
    <_>
      <internalNodes>
        0 -1 4679 123248472 1865988913 -1074316304 1354904434
        -1798305167 1064925045 738082488 2463890</internalNodes>
      <leafValues>
        -3.0864113569259644e-01 8.9444637298583984e-02</leafValues></_>
    <_>
      <internalNodes>
        0 -1 1944 -2032156673 -35719210 1060896639 -1619544417 -17414928
        1542751476 -60515233 -554722625</internalNodes>
      <leafValues>
        -1.0673690587282181e-01 2.5934663414955139e-01</leafValues></_>
    <_>
      <internalNodes>
        0 -1 6345 -1031899616 1109453996 -17088845 -1196533211 98457484
        1438432921 -520797791 -921905618</internalNodes>
      <leafValues>
        -2.4007315933704376e-01 1.1774411052465439e-01</leafValues></_>
    <_>
      <internalNodes>
        0 -1 3502 824509473 -977211734 870298359 1392473232 990341115
        222674833 1459386198 1609916308</internalNodes>
      <leafValues>
        -2.5032079219818115e-01 1.1135711520910263e-01</leafValues></_>
    <_>
      <internalNodes>
        0 -1 6064 1152667493 620523487 -1167378 -285610018 -548016265
        2013114366 -67651217 -453021913</internalNodes>
      <leafValues>
        -1.6825512051582336e-01 1.7083558440208435e-01</leafValues></_>
    <_>
      <internalNodes>
        0 -1 295 1370371962 -857889041 1328053994 -1392181816
        -1626407648 -1462524176 -638196830 122717603</internalNodes>
      <leafValues>
        -2.2332756221294403e-01 1.2058503925800323e-01</leafValues></_>
    <_>
      <internalNodes>
        0 -1 4423 -1534399472 101415832 -1112146241 -729219503
        1290630419 -2105132160 -2076732373 216845632</internalNodes>
      <leafValues>
        -3.3144530653953552e-01 7.8663796186447144e-02</leafValues></_>
    <_>
      <internalNodes>
        0 -1 7503 1783263248 923952094 1871234138 520753004 169484720
        1444434088 640860344 470828240</internalNodes>
      <leafValues>
        -3.9055296778678894e-01 6.6405951976776123e-02</leafValues></_>
    <_>
      <internalNodes>
        0 -1 5618 -6313555 1544825082 1052687740 -2097421 1610421493
        -271253765 144178366 -1614870441</internalNodes>
      <leafValues>
        -1.2924601137638092e-01 2.0695707201957703e-01</leafValues></_>
    <_>
      <internalNodes>
        0 -1 7345 -2046261455 -1128735020 -557699 -713232683 1014984701
        -2132513 1037852142 154410101</internalNodes>
      <leafValues>
        -2.2392927110195160e-01 1.1885894834995270e-01</leafValues></_>
    <_>
      <internalNodes>
        0 -1 699 -923799675 -958620528 796724524 267734400 1088725988
        1953764021 89140480 1078327360</internalNodes>
      <leafValues>
        -2.0378637313842773e-01 1.2494699656963348e-01</leafValues></_>
    <_>
      <internalNodes>
        0 -1 4621 546353340 169284756 2134583648 521024548 292564365
        -943191617 149236664 683422039</internalNodes>
      <leafValues>
        -3.0624908208847046e-01 8.1229850649833679e-02</leafValues></_>
    <_>
      <internalNodes>
        0 -1 8219 -25170105 -77906101 -22544707 -453385906 -85103065
        -1048617 -889237554 -187355610</internalNodes>
      <leafValues>
        -1.3319572806358337e-01 1.9058465957641602e-01</leafValues></_>
    <_>
      <internalNodes>
        0 -1 2459 -876629775 463708859 342521012 1606152570 -1879666288
        -828395695 506638488 -542744834</internalNodes>
      <leafValues>
        -1.2633343040943146e-01 2.0253825187683105e-01</leafValues></_>
    <_>
      <internalNodes>
        0 -1 4894 751808307 -819741906 -789310640 1944190449 -1912029195
        62631864 75331572 82804731</internalNodes>
      <leafValues>
        -2.2385700047016144e-01 1.2166263163089752e-01</leafValues></_>
    <_>
      <internalNodes>
        0 -1 3402 849496280 261029891 -1909199284 1078014481 -405262758
        -1911937580 693528316 1293633648</internalNodes>
      <leafValues>
        -2.7904725074768066e-01 9.2639267444610596e-02</leafValues></_>
    <_>
      <internalNodes>
        0 -1 4340 -16912323 -1765971593 -1153135684 -33948609 -318934859
        901590959 -388387927 -1936892102</internalNodes>
      <leafValues>
        -1.3515694439411163e-01 1.8928350508213043e-01</leafValues></_>
    <_>
      <internalNodes>
        0 -1 1493 -84935685 -1645563167 -671191046 -706260174 -343081541
        -18879561 -807797765 -68614</internalNodes>
      <leafValues>
        -8.2075558602809906e-02 3.0742761492729187e-01</leafValues></_>
    <_>
      <internalNodes>
        0 -1 6070 -385896698 1583664949 -34964690 739809042 1734813184
        886242101 979724815 -1460148473</internalNodes>
      <leafValues>
        -1.9502897560596466e-01 1.3039390742778778e-01</leafValues></_>
    <_>
      <internalNodes>
        0 -1 6188 788483805 -365212553 570651387 1392262878 -50471932
        254770732 2020654069 2137980372</internalNodes>
      <leafValues>
        -2.1224935352802277e-01 1.1570896208286285e-01</leafValues></_>
    <_>
      <internalNodes>
        0 -1 3510 -868571804 -1411634775 1865998204 2070247911
        -444971586 -537482101 -1893050950 -634606109</internalNodes>
      <leafValues>
        -1.8700733780860901e-01 1.3482788205146790e-01</leafValues></_>
    <_>
      <internalNodes>
        0 -1 1023 -680544526 -1450408704 -218667086 -1080489458
        1845362239 224263709 1140618706 1207296685</internalNodes>
      <leafValues>
        -2.1230204403400421e-01 1.2152550369501114e-01</leafValues></_>
    <_>
      <internalNodes>
        0 -1 2957 1608234294 -863596890 -738222597 318702583 419355828
        512264194 1471438063 1809273668</internalNodes>
      <leafValues>
        -1.9732233881950378e-01 1.2846191227436066e-01</leafValues></_>
    <_>
      <internalNodes>
        0 -1 4085 1059356597 -39141709 1308620638 -564011722 -1430618699
        631416750 411746746 -1005944960</internalNodes>
      <leafValues>
        -1.8564581871032715e-01 1.4657346904277802e-01</leafValues></_>
    <_>
      <internalNodes>
        0 -1 351 2120097552 -543685968 -290142390 -823593374 -25548032
        490046645 2138564132 3162224</internalNodes>
      <leafValues>
        -3.5973152518272400e-01 6.9774180650711060e-02</leafValues></_>
    <_>
      <internalNodes>
        0 -1 3724 660684601 1157678536 2077225870 2075619671 -1686875139
        2046099425 737755135 436404553</internalNodes>
      <leafValues>
        -1.6165515780448914e-01 1.5345755219459534e-01</leafValues></_>
    <_>
      <internalNodes>
        0 -1 3703 -1065384314 2011065967 553590956 1363823743 1431653764
        2132301384 -176816132 -6617175</internalNodes>
      <leafValues>
        -1.4913992583751678e-01 1.7086383700370789e-01</leafValues></_>
    <_>
      <internalNodes>
        0 -1 5139 -1889621643 1310211889 524139488 -537984719
        -1359671683 -80405507 197113976 -1773861353</internalNodes>
      <leafValues>
        -1.5650866925716400e-01 1.5502221882343292e-01</leafValues></_>
    <_>
      <internalNodes>
        0 -1 866 708210352 654282378 1069473706 246859149 2049292924
        813130274 -1842668989 1718572058</internalNodes>
      <leafValues>
        -2.8835561871528625e-01 8.6947515606880188e-02</leafValues></_>
    <_>
      <internalNodes>
        0 -1 3943 -910220225 -1629487414 1038861615 -1656836985
        2041457130 -1733112133 -596697668 -157155406</internalNodes>
      <leafValues>
        -1.1264784634113312e-01 2.2698150575160980e-01</leafValues></_>
    <_>
      <internalNodes>
        0 -1 1898 -1091671360 1839614735 -1560886558 1381024750
        381357132 1297899268 1948115138 1381158731</internalNodes>
      <leafValues>
        -2.9445812106132507e-01 8.4972105920314789e-02</leafValues></_>
    <_>
      <internalNodes>
        0 -1 6029 -1071579747 -1107513473 -21189125 -1926468396
        1330064301 -126305067 -1394393649 -238553289</internalNodes>
      <leafValues>
        -1.0745169967412949e-01 2.3543193936347961e-01</leafValues></_>
    <_>
      <internalNodes>
        0 -1 3982 -1985062373 -911559766 301818737 -591543308
        -1364329739 262487907 564094449 1155296574</internalNodes>
      <leafValues>
        -2.2744156420230865e-01 1.1020833253860474e-01</leafValues></_>
    <_>
      <internalNodes>
        0 -1 2080 -2018910285 -1145348366 -890253586 -1079066898
        293418559 1073082359 -1073220 -335699467</internalNodes>
      <leafValues>
        -1.4523491263389587e-01 1.7356556653976440e-01</leafValues></_>
    <_>
      <internalNodes>
        0 -1 6966 -1150154628 1991378428 704599992 501421333 779595515
        -214847556 -1359790337 -1101806115</internalNodes>
      <leafValues>
        -1.8329773843288422e-01 1.3947138190269470e-01</leafValues></_>
    <_>
      <internalNodes>
        0 -1 3473 -79473457 -745594169 1559358807 -1868481613
        -1236822158 -129219648 1953877862 -989939061</internalNodes>
      <leafValues>
        -1.2226762622594833e-01 2.0182012021541595e-01</leafValues></_>
    <_>
      <internalNodes>
        0 -1 8074 1190653454 -1553666261 2060447473 578745590 1365003854
        1330836943 1691712596 1886746196</internalNodes>
      <leafValues>
        -3.0435228347778320e-01 8.2616440951824188e-02</leafValues></_>
    <_>
      <internalNodes>
        0 -1 6372 2067249849 -79816038 257167198 -1610780962 1735395263
        -596339270 -1659109921 -1115171830</internalNodes>
      <leafValues>
        -1.0248485952615738e-01 2.4203771352767944e-01</leafValues></_>
    <_>
      <internalNodes>
        0 -1 4237 -891941336 180788091 989427638 1926397566 2021461580
        1567909724 -160301704 19931992</internalNodes>
      <leafValues>
        -3.5213264822959900e-01 7.1080230176448822e-02</leafValues></_>
    <_>
      <internalNodes>
        0 -1 3113 -1361441627 1876849788 779638645 -1250010946
        1325194486 -268702563 -915214440 -1883628175</internalNodes>
      <leafValues>
        -2.1344080567359924e-01 1.1397795379161835e-01</leafValues></_>
    <_>
      <internalNodes>
        0 -1 6081 -392175369 1123263623 -1887487638 -604484058
        1796351005 -73292163 947281752 -282923245</internalNodes>
      <leafValues>
        -1.3463090360164642e-01 1.8540640175342560e-01</leafValues></_>
    <_>
      <internalNodes>
        0 -1 4128 -1275820958 -1511325243 2142247612 -1884612171
        -2132493533 -266897607 -539012860 103102978</internalNodes>
      <leafValues>
        -2.4398356676101685e-01 1.0239055752754211e-01</leafValues></_>
    <_>
      <internalNodes>
        0 -1 2195 35677906 235883018 772101136 1090469973 -1714629431
        -1373886939 50667415 -475668207</internalNodes>
      <leafValues>
        -2.9839482903480530e-01 8.1938579678535461e-02</leafValues></_>
    <_>
      <internalNodes>
        0 -1 4401 -105719539 -747126659 1332697054 1441056277
        -1078301716 -63784 1064027134 530813100</internalNodes>
      <leafValues>
        -1.6203303635120392e-01 1.6600738465785980e-01</leafValues></_>
    <_>
      <internalNodes>
        0 -1 5387 1083141324 -857162579 746375321 -923997636 1981102896
        -1725304131 490159360 811410037</internalNodes>
      <leafValues>
        -3.3082577586174011e-01 7.4837826192378998e-02</leafValues></_>
    <_>
      <internalNodes>
        0 -1 7030 604972577 -1348308174 803360229 -1455902608 997191436
        235859533 1181589728 2988251</internalNodes>
      <leafValues>
        -2.5238487124443054e-01 9.7845248878002167e-02</leafValues></_>
    <_>
      <internalNodes>
        0 -1 3534 -1212434639 -557875166 804781559 1568085171 524195237
        -201548623 -1493510657 -574619649</internalNodes>
      <leafValues>
        -9.8198682069778442e-02 2.5440528988838196e-01</leafValues></_>
    <_>
      <internalNodes>
        0 -1 73 -2000485728 30155378 1828172028 547631346 476558193
        812946145 -339261236 70578736</internalNodes>
      <leafValues>
        -3.4662240743637085e-01 7.1685247123241425e-02</leafValues></_>
    <_>
      <internalNodes>
        0 -1 3767 -1521488027 -1966226829 -438850227 -1351146595
        -1949182539 1996094325 1090480669 -1058592793</internalNodes>
      <leafValues>
        -1.4503249526023865e-01 1.7189203202724457e-01</leafValues></_>
    <_>
      <internalNodes>
        0 -1 2060 1539098047 313712059 500061631 1476320495 398483444
        -141408324 1592663027 -558575208</internalNodes>
      <leafValues>
        -9.5963872969150543e-02 2.5621378421783447e-01</leafValues></_>
    <_>
      <internalNodes>
        0 -1 3913 1250053204 512453512 39562852 1097154344 453521397
        -1110724956 1195735535 781069640</internalNodes>
      <leafValues>
        -2.7204492688179016e-01 9.5019325613975525e-02</leafValues></_>
    <_>
      <internalNodes>
        0 -1 6654 330610336 1617216940 1889777200 -1540958210 1599555332
        1141150977 608322320 354401117</internalNodes>
      <leafValues>
        -3.8497996330261230e-01 6.1829838901758194e-02</leafValues></_>
    <_>
      <internalNodes>
        0 -1 2234 583987891 -1355898198 1830108121 272705075 1171077023
        -1427585096 1096775737 -817268944</internalNodes>
      <leafValues>
        -2.2591568529605865e-01 1.0501220077276230e-01</leafValues></_>
    <_>
      <internalNodes>
        0 -1 7791 -1096618177 -642581200 204363767 1339124853 549189048
        -1213522152 607268591 2121784531</internalNodes>
      <leafValues>
        -1.3898941874504089e-01 1.8310029804706573e-01</leafValues></_>
    <_>
      <internalNodes>
        0 -1 2951 -408361998 -37760046 1736429847 1939669527 -834945902
        -1494784988 1277253119 -637383309</internalNodes>
      <leafValues>
        -1.3958179950714111e-01 1.7410585284233093e-01</leafValues></_>
    <_>
      <internalNodes>
        0 -1 7666 1589447703 519995207 -419538006 1870296028 2063029884
        2136241461 439509624 1889697388</internalNodes>
      <leafValues>
        -2.4925208091735840e-01 9.8618298768997192e-02</leafValues></_>
    <_>
      <internalNodes>
        0 -1 4060 -176163603 1468925839 -571216338 763830263 -84421005
        2127331310 -568471733 -44319830</internalNodes>
      <leafValues>
        -9.6423335373401642e-02 2.5304186344146729e-01</leafValues></_>
    <_>
      <internalNodes>
        0 -1 3514 -1019556712 102835982 255040842 706879370 -1762849704
        184163165 248338303 1476727090</internalNodes>
      <leafValues>
        -3.0711722373962402e-01 8.3188056945800781e-02</leafValues></_>
    <_>
      <internalNodes>
        0 -1 6931 717162503 1656114239 1929089785 543077484 -831697920
        -343950241 448013252 845719308</internalNodes>
      <leafValues>
        -3.1497031450271606e-01 7.4704855680465698e-02</leafValues></_>
    <_>
      <internalNodes>
        0 -1 5857 10974882 1043398324 -1362510158 -1334644573 1314864908
        1218739997 402592519 267856891</internalNodes>
      <leafValues>
        -2.5363758206367493e-01 9.1835886240005493e-02</leafValues></_>
    <_>
      <internalNodes>
        0 -1 7241 -1427391778 -1220845862 1846230906 1042812126
        -502304069 1461933058 1779008410 -1911956296</internalNodes>
      <leafValues>
        -1.3544778525829315e-01 1.7714902758598328e-01</leafValues></_>
    <_>
      <internalNodes>
        0 -1 8107 1985722247 -1155395793 2130164248 -2086260732
        -683278931 1013574979 -92467776 -328366810</internalNodes>
      <leafValues>
        -1.4543430507183075e-01 1.6469523310661316e-01</leafValues></_>
    <_>
      <internalNodes>
        0 -1 3763 277915622 1900041191 1587560366 -1577611 572970669
        905261944 1259073039 1948501993</internalNodes>
      <leafValues>
        -1.9078004360198975e-01 1.2357898801565170e-01</leafValues></_>
    <_>
      <internalNodes>
        0 -1 3617 782374192 -1416754881 -788581572 727586550 523421169
        -1984229298 1337332464 1297240379</internalNodes>
      <leafValues>
        -2.5856316089630127e-01 9.0275093913078308e-02</leafValues></_>
    <_>
      <internalNodes>
        0 -1 5876 461045640 -1170476124 2009825165 -1250741401
        1056808970 -1275223967 -1860312441 -150571170</internalNodes>
      <leafValues>
        -1.6164264082908630e-01 1.4760598540306091e-01</leafValues></_>
    <_>
      <internalNodes>
        0 -1 87 1114040324 15346771 -1923661890 263922398 1091851264
        1060447447 761584644 113669360</internalNodes>
      <leafValues>
        -3.9758223295211792e-01 6.0394819825887680e-02</leafValues></_></weakClassifiers></stage9>
</opencv_storage>
