<?xml version="1.0"?>
<opencv_storage>
<stage8>
  <maxWeakCount>85</maxWeakCount>
  <stageThreshold>-1.9376341104507446e+00</stageThreshold>
  <weakClassifiers>
    <_>
      <internalNodes>
        0 -1 7769 -8389637 -1078198278 2004089336 -8659463 -71568389
        789249978 1528549881 -616824837</internalNodes>
      <leafValues>
        -3.6831006407737732e-01 3.8870888948440552e-01</leafValues></_>
    <_>
      <internalNodes>
        0 -1 6479 -8225 -1 -4194305 -532513 -83895590 -1 -1157891329
        -1157660673</internalNodes>
      <leafValues>
        -1.6787271201610565e-01 6.1208271980285645e-01</leafValues></_>
    <_>
      <internalNodes>
        0 -1 2435 -17109265 -4214801 -1363493185 -1140867329 -822426482
        -826355827 1257950463 -620756993</internalNodes>
      <leafValues>
        -2.5720793008804321e-01 3.5389733314514160e-01</leafValues></_>
    <_>
      <internalNodes>
        0 -1 6920 -335545617 1073725055 -1073758277 1056963291
        -276825592 -30147040 855089911 -67109893</internalNodes>
      <leafValues>
        -2.2008565068244934e-01 3.0707868933677673e-01</leafValues></_>
    <_>
      <internalNodes>
        0 -1 1103 -1280574465 -570426369 -1086398466 2143223754
        1597967612 1509709236 -65542 -1028</internalNodes>
      <leafValues>
        -1.9806836545467377e-01 3.1772461533546448e-01</leafValues></_>
    <_>
      <internalNodes>
        0 -1 1510 -278860033 -1627402537 -549462085 1337972063
        -554894596 -1166020993 -821559605 -342898885</internalNodes>
      <leafValues>
        -2.1065771579742432e-01 2.6248294115066528e-01</leafValues></_>
    <_>
      <internalNodes>
        0 -1 3451 -84106575 -924744 655044680 1472566005 -1114121
        -1702678278 -183501298 856664763</internalNodes>
      <leafValues>
        -2.8152224421501160e-01 1.8626622855663300e-01</leafValues></_>
    <_>
      <internalNodes>
        0 -1 3740 -67633355 892663097 -1539 -1077946403 -1145438280
        -1112148227 -4195016 -1665147489</internalNodes>
      <leafValues>
        -1.6819091141223907e-01 2.8742697834968567e-01</leafValues></_>
    <_>
      <internalNodes>
        0 -1 3439 2080290727 -1145357903 -176165380 1557880181 -21054033
        -1683967709 1325326270 1485503998</internalNodes>
      <leafValues>
        -2.2432172298431396e-01 2.1120578050613403e-01</leafValues></_>
    <_>
      <internalNodes>
        0 -1 6933 -1493351012 -1243671051 2144096766 1605328350
        2133065726 -235801675 657653738 353569148</internalNodes>
      <leafValues>
        -2.8687369823455811e-01 1.6455584764480591e-01</leafValues></_>
    <_>
      <internalNodes>
        0 -1 891 -273681477 -36720208 -838860803 -135269646 1610554622
        -126877985 -285409281 -34605067</internalNodes>
      <leafValues>
        -1.4143453538417816e-01 3.0900833010673523e-01</leafValues></_>
    <_>
      <internalNodes>
        0 -1 6267 2136403777 -30146574 -298061893 -550404107 -9328113
        -11760444 -141171725 -552730658</internalNodes>
      <leafValues>
        -1.6914486885070801e-01 2.5407722592353821e-01</leafValues></_>
    <_>
      <internalNodes>
        0 -1 5328 976669716 990952709 2135981887 1510439775 -554936418
        -1079103574 -583494435 -1145138791</internalNodes>
      <leafValues>
        -2.8429129719734192e-01 1.4305385947227478e-01</leafValues></_>
    <_>
      <internalNodes>
        0 -1 647 -436277577 -134967593 -1398343937 -871568802 -144441344
        -9157520 1781792565 -599296913</internalNodes>
      <leafValues>
        -2.4477165937423706e-01 1.6412213444709778e-01</leafValues></_>
    <_>
      <internalNodes>
        0 -1 4055 -1181899 -206901614 1340069887 -671089605 -1438974537
        -1960063569 46855934 -790691844</internalNodes>
      <leafValues>
        -1.6129764914512634e-01 2.4786882102489471e-01</leafValues></_>
    <_>
      <internalNodes>
        0 -1 6317 -1023416397 -1061227073 -272729166 -1732575301
        530439453 -1648496755 -1344324670 -2138178097</internalNodes>
      <leafValues>
        -2.1932980418205261e-01 1.7635634541511536e-01</leafValues></_>
    <_>
      <internalNodes>
        0 -1 4299 1431697383 2002386935 1440071407 -35835922 -67830529
        -117610513 -285229137 -4145</internalNodes>
      <leafValues>
        -9.4502143561840057e-02 3.8395902514457703e-01</leafValues></_>
    <_>
      <internalNodes>
        0 -1 2886 1708271101 -946960637 -11215504 1111973655 -271581721
        -1614268926 1180094942 1598521207</internalNodes>
      <leafValues>
        -2.3773147165775299e-01 1.5735557675361633e-01</leafValues></_>
    <_>
      <internalNodes>
        0 -1 7778 774029109 -202314220 -142639745 -8581307 775069352
        -5611524 707816830 757095805</internalNodes>
      <leafValues>
        -3.0513191223144531e-01 1.1252240091562271e-01</leafValues></_>
    <_>
      <internalNodes>
        0 -1 4201 -884169844 -363025577 -1318636814 1606628034
        1288514364 1582578997 2077703420 10289152</internalNodes>
      <leafValues>
        -3.5213974118232727e-01 9.5929034054279327e-02</leafValues></_>
    <_>
      <internalNodes>
        0 -1 5485 389537739 1145254101 82836751 895664114 1107283340
        -180042044 1087357623 -170492602</internalNodes>
      <leafValues>
        -1.6298112273216248e-01 2.1157045662403107e-01</leafValues></_>
    <_>
      <internalNodes>
        0 -1 2096 -861220942 154994683 -315138180 1162690425 1862962784
        1853288695 1191625184 1275021034</internalNodes>
      <leafValues>
        -3.2950669527053833e-01 1.0132063925266266e-01</leafValues></_>
    <_>
      <internalNodes>
        0 -1 4596 -1017711652 890221094 1327648040 235839008 -1494967395
        36982943 136583356 481571057</internalNodes>
      <leafValues>
        -3.3817872405052185e-01 1.0141530632972717e-01</leafValues></_>
    <_>
      <internalNodes>
        0 -1 5820 1683975205 -44082625 -213099523 276496379 -354444196
        -8508881 2019884724 1884356272</internalNodes>
      <leafValues>
        -2.5657334923744202e-01 1.2957945466041565e-01</leafValues></_>
    <_>
      <internalNodes>
        0 -1 1255 -5246977 -5252878 -2123058177 -13631754 -121680648
        -45833 -1091125249 -525345</internalNodes>
      <leafValues>
        -8.8441871106624603e-02 3.8924115896224976e-01</leafValues></_>
    <_>
      <internalNodes>
        0 -1 7769 1051411540 1655572489 -1691141577 1092881956 374086298
        -811516620 -1387042185 751230740</internalNodes>
      <leafValues>
        -2.2183141112327576e-01 1.4857810735702515e-01</leafValues></_>
    <_>
      <internalNodes>
        0 -1 2801 -1095041349 -605384207 -1342187789 -1679234576
        799784927 -136783 798688975 -1881188867</internalNodes>
      <leafValues>
        -1.8175843358039856e-01 1.8151430785655975e-01</leafValues></_>
    <_>
      <internalNodes>
        0 -1 6668 -1107431505 768532094 -1235819666 644873055 -266484
        2004840991 -25254922 -1556218883</internalNodes>
      <leafValues>
        -1.8564622104167938e-01 1.7768986523151398e-01</leafValues></_>
    <_>
      <internalNodes>
        0 -1 7380 -33558745 1471676407 -805306585 -167809665 2096552901
        -555893315 -348295540 -385979530</internalNodes>
      <leafValues>
        -1.5152013301849365e-01 2.1936123073101044e-01</leafValues></_>
    <_>
      <internalNodes>
        0 -1 3569 -285274700 -1871794259 -554401988 542242751
        -1645194822 -679700053 -537895237 856154037</internalNodes>
      <leafValues>
        -2.1521304547786713e-01 1.4516590535640717e-01</leafValues></_>
    <_>
      <internalNodes>
        0 -1 6373 -862921227 -894138204 -1082343682 -1112230435
        389031853 -336306883 205138267 227741461</internalNodes>
      <leafValues>
        -2.4046991765499115e-01 1.3294382393360138e-01</leafValues></_>
    <_>
      <internalNodes>
        0 -1 7719 -16786355 2147212414 -894542081 620729470 -1314856
        -276630528 1382015694 -790888497</internalNodes>
      <leafValues>
        -1.2920521199703217e-01 2.4404524266719818e-01</leafValues></_>
    <_>
      <internalNodes>
        0 -1 1681 1472510718 1328344815 -553853417 -1966092390
        -1754316873 1381762403 -126608041 323999222</internalNodes>
      <leafValues>
        -2.5266030430793762e-01 1.2841267883777618e-01</leafValues></_>
    <_>
      <internalNodes>
        0 -1 1176 -218896539 1590357903 50445046 -15076374 -673479484
        -1638130338 1625472766 -78751138</internalNodes>
      <leafValues>
        -1.4244844019412994e-01 2.2133855521678925e-01</leafValues></_>
    <_>
      <internalNodes>
        0 -1 5523 1220479212 1120055038 -671232803 -863056641 1751103156
        1827794623 -996374207 421639955</internalNodes>
      <leafValues>
        -2.8900948166847229e-01 1.0591084510087967e-01</leafValues></_>
    <_>
      <internalNodes>
        0 -1 4469 -1086390477 -282280158 1946145745 -541495568
        -2019563099 252690365 1475311603 1572534239</internalNodes>
      <leafValues>
        -1.7726023495197296e-01 1.6870865225791931e-01</leafValues></_>
    <_>
      <internalNodes>
        0 -1 4505 393445231 931043198 -1657177089 1037107158 1341589317
        -1880119539 -1216907276 1355020970</internalNodes>
      <leafValues>
        -1.8135803937911987e-01 1.6512641310691833e-01</leafValues></_>
    <_>
      <internalNodes>
        0 -1 281 -437260345 1676652200 -1377851406 -1880820286
        -302695937 -1200103745 -404396297 -127863833</internalNodes>
      <leafValues>
        -1.5222942829132080e-01 2.0295374095439911e-01</leafValues></_>
    <_>
      <internalNodes>
        0 -1 3012 -1347548880 536845943 532602302 465229111 1034851760
        -542040078 799718826 -612739677</internalNodes>
      <leafValues>
        -2.3128935694694519e-01 1.3114750385284424e-01</leafValues></_>
    <_>
      <internalNodes>
        0 -1 4220 -2124787527 1752889581 2138782556 301203183 -8578308
        -9142467 -1220611 722156515</internalNodes>
      <leafValues>
        -1.6749781370162964e-01 1.8606847524642944e-01</leafValues></_>
    <_>
      <internalNodes>
        0 -1 5515 1943919360 1940797414 1565519650 -445743315 1537212172
        -846921844 -51907408 -170919938</internalNodes>
      <leafValues>
        -2.3830135166645050e-01 1.3722254335880280e-01</leafValues></_>
    <_>
      <internalNodes>
        0 -1 6436 -327889137 1862166503 -1150290322 -1374753226
        1951235911 2006170603 -327857 -492672249</internalNodes>
      <leafValues>
        -1.6919113695621490e-01 1.8174886703491211e-01</leafValues></_>
    <_>
      <internalNodes>
        0 -1 5792 1853816885 -232840441 -128851201 844758780 -304165760
        -183558233 -597900296 1028501319</internalNodes>
      <leafValues>
        -2.2267015278339386e-01 1.3739387691020966e-01</leafValues></_>
    <_>
      <internalNodes>
        0 -1 5973 222997920 -1985431318 226135034 -277923718 1340020029
        1596811199 294957557 1295742203</internalNodes>
      <leafValues>
        -2.6023826003074646e-01 1.1546142399311066e-01</leafValues></_>
    <_>
      <internalNodes>
        0 -1 2737 1958266592 -649011479 628271350 271670615 -2040182899
        1020283784 -185156945 1431772480</internalNodes>
      <leafValues>
        -2.6156872510910034e-01 1.1644305288791656e-01</leafValues></_>
    <_>
      <internalNodes>
        0 -1 745 33805035 531272447 -1388916818 -542318338 2118122835
        1820312565 -1886449912 1210634720</internalNodes>
      <leafValues>
        -2.2083260118961334e-01 1.3337048888206482e-01</leafValues></_>
    <_>
      <internalNodes>
        0 -1 3445 -96801031 1429311218 789797711 -569340724 -1130474015
        -1145227888 -534777503 -726725321</internalNodes>
      <leafValues>
        -1.6280624270439148e-01 1.8035380542278290e-01</leafValues></_>
    <_>
      <internalNodes>
        0 -1 6648 787343279 914257919 -211182610 2071756542 -543699444
        -143008738 -1209732362 -212803908</internalNodes>
      <leafValues>
        -1.6793170571327209e-01 1.7031535506248474e-01</leafValues></_>
    <_>
      <internalNodes>
        0 -1 4451 -709247527 -1611538818 1346019311 502636379 1976008115
        -336192848 926641963 -1358972513</internalNodes>
      <leafValues>
        -1.2024240195751190e-01 2.4170786142349243e-01</leafValues></_>
    <_>
      <internalNodes>
        0 -1 4559 1021790499 -810641566 -402693130 -537412064 1811392215
        234356534 1465513875 3260171</internalNodes>
      <leafValues>
        -1.9857299327850342e-01 1.4521656930446625e-01</leafValues></_>
    <_>
      <internalNodes>
        0 -1 4820 -847368944 1983039176 -1081201094 -1797740938
        122621697 396997347 -1699312850 343342958</internalNodes>
      <leafValues>
        -3.6047813296318054e-01 7.9023160040378571e-02</leafValues></_>
    <_>
      <internalNodes>
        0 -1 3983 -696069262 -217345872 1174237691 -637712027 -268699718
        263190968 239071903 -332469444</internalNodes>
      <leafValues>
        -1.5912462770938873e-01 1.8099905550479889e-01</leafValues></_>
    <_>
      <internalNodes>
        0 -1 3228 -542441483 531299280 2113604238 -1661999996 703885247
        2045566455 1236210120 -302027019</internalNodes>
      <leafValues>
        -1.3926458358764648e-01 2.0658400654792786e-01</leafValues></_>
    <_>
      <internalNodes>
        0 -1 5115 903615932 984636913 -1418776824 440217023 771435877
        867719103 1858018644 33584662</internalNodes>
      <leafValues>
        -3.5141989588737488e-01 8.3049140870571136e-02</leafValues></_>
    <_>
      <internalNodes>
        0 -1 3959 168175364 101326594 10627836 33879016 327095877
        755769088 1077370944 88277032</internalNodes>
      <leafValues>
        -5.3130751848220825e-01 5.1768977195024490e-02</leafValues></_>
    <_>
      <internalNodes>
        0 -1 4282 116460629 1600933183 1046265821 524516471 -269398788
        -671540099 -1090732040 523268073</internalNodes>
      <leafValues>
        -2.3289544880390167e-01 1.2073737382888794e-01</leafValues></_>
    <_>
      <internalNodes>
        0 -1 2339 -84892944 -70865680 562299108 -359994890 -1412896774
        -2143224076 1385887070 1343542349</internalNodes>
      <leafValues>
        -3.7314119935035706e-01 7.8597083687782288e-02</leafValues></_>
    <_>
      <internalNodes>
        0 -1 3016 -757586136 172665996 -58753486 1355510450 1314213056
        1515243652 1425431893 1380336432</internalNodes>
      <leafValues>
        -3.5020250082015991e-01 8.1809483468532562e-02</leafValues></_>
    <_>
      <internalNodes>
        0 -1 2019 -454824030 -2064193301 -269733908 1336256002 807806644
        1621194425 1081288196 1088900837</internalNodes>
      <leafValues>
        -2.6130959391593933e-01 1.0935094952583313e-01</leafValues></_>
    <_>
      <internalNodes>
        0 -1 7209 -1570107376 1962627445 802037566 529226454 606779320
        1744524261 2793402 353518872</internalNodes>
      <leafValues>
        -3.2489079236984253e-01 8.8490575551986694e-02</leafValues></_>
    <_>
      <internalNodes>
        0 -1 497 1330753231 -1996489333 106169982 -1565720854
        -1653125873 2134643285 -4355559 -1935352301</internalNodes>
      <leafValues>
        -2.0576977729797363e-01 1.4236053824424744e-01</leafValues></_>
    <_>
      <internalNodes>
        0 -1 1590 -94374295 1810801312 -318893218 -498109662 256817704
        1338179466 1364815573 -406620890</internalNodes>
      <leafValues>
        -1.9630494713783264e-01 1.4499694108963013e-01</leafValues></_>
    <_>
      <internalNodes>
        0 -1 2148 -279839930 -1577200635 -274764470 -551356932
        -542021802 -1296174188 -1571875126 -51390054</internalNodes>
      <leafValues>
        -1.5177164971828461e-01 1.9468119740486145e-01</leafValues></_>
    <_>
      <internalNodes>
        0 -1 3562 494794243 -825692758 2013262354 1350563620 1543198234
        845070 1174275926 1465676925</internalNodes>
      <leafValues>
        -2.6724511384963989e-01 1.0841138660907745e-01</leafValues></_>
    <_>
      <internalNodes>
        0 -1 1989 184026645 934973431 -1217728625 800616382 1075594356
        1039149053 82189572 6585860</internalNodes>
      <leafValues>
        -3.4800991415977478e-01 8.1507273018360138e-02</leafValues></_>
    <_>
      <internalNodes>
        0 -1 6581 844840961 1014789631 -1082167489 1802098543 -357396040
        -269059813 1646067627 -1015887049</internalNodes>
      <leafValues>
        -1.8716830015182495e-01 1.5244472026824951e-01</leafValues></_>
    <_>
      <internalNodes>
        0 -1 6768 -285803763 -1292566784 -4252772 -571200912 -75745345
        -1594199884 -1351368919 -724065517</internalNodes>
      <leafValues>
        -1.4727783203125000e-01 1.9345693290233612e-01</leafValues></_>
    <_>
      <internalNodes>
        0 -1 4364 117495968 60866264 -2031397168 766828784 258322613
        131956702 266303093 234176765</internalNodes>
      <leafValues>
        -3.3768132328987122e-01 8.4003776311874390e-02</leafValues></_>
    <_>
      <internalNodes>
        0 -1 3074 -1827131320 185609981 1333575614 828535742 -1007640538
        1602189181 1341127675 -766014269</internalNodes>
      <leafValues>
        -2.1533519029617310e-01 1.3336206972599030e-01</leafValues></_>
    <_>
      <internalNodes>
        0 -1 2571 -416619980 1438391229 -5956579 1568632335 -625306372
        1016626423 -1590157545 -990140898</internalNodes>
      <leafValues>
        -1.4763772487640381e-01 2.0647138357162476e-01</leafValues></_>
    <_>
      <internalNodes>
        0 -1 5234 -1109111515 -1930367489 -5378098 -285374531
        -1208500955 -1208000523 -67207329 -1527837909</internalNodes>
      <leafValues>
        -1.6244974732398987e-01 1.6958920657634735e-01</leafValues></_>
    <_>
      <internalNodes>
        0 -1 4537 -146891608 -1985932334 1294344136 1513095830
        -1125088062 -776463692 76498382 145133896</internalNodes>
      <leafValues>
        -2.8496253490447998e-01 9.7101479768753052e-02</leafValues></_>
    <_>
      <internalNodes>
        0 -1 3474 1434432953 1408213927 -248389642 -897625633 -788556354
        1025036544 -992125065 -270533669</internalNodes>
      <leafValues>
        -1.0100057721138000e-01 2.7444681525230408e-01</leafValues></_>
    <_>
      <internalNodes>
        0 -1 6392 -1381810383 -2095514960 -136577840 -1619675280
        598814585 -1899470871 1432245686 534730197</internalNodes>
      <leafValues>
        -2.1877874433994293e-01 1.2923303246498108e-01</leafValues></_>
    <_>
      <internalNodes>
        0 -1 8094 1977593735 -772014669 745416520 231615402 2006214624
        -1178620469 -657429 -781898832</internalNodes>
      <leafValues>
        -1.5315787494182587e-01 1.8017472326755524e-01</leafValues></_>
    <_>
      <internalNodes>
        0 -1 3312 -1692233415 -1783029247 -673453219 198295576 997911929
        -134482347 456889211 219352078</internalNodes>
      <leafValues>
        -2.3404523730278015e-01 1.1812636256217957e-01</leafValues></_>
    <_>
      <internalNodes>
        0 -1 7547 -126092289 -1078326672 2134638332 -575435446
        -897656069 1682843658 1595658746 -146018321</internalNodes>
      <leafValues>
        -9.2786461114883423e-02 3.0829942226409912e-01</leafValues></_>
    <_>
      <internalNodes>
        0 -1 573 -353129641 -674369740 -268436741 -559962546 -982006528
        1205829513 -630892963 -301076665</internalNodes>
      <leafValues>
        -1.4292325079441071e-01 1.9894632697105408e-01</leafValues></_>
    <_>
      <internalNodes>
        0 -1 5462 712916608 1075428116 1783512310 -1460011093 1339957004
        -834306290 385244420 41520954</internalNodes>
      <leafValues>
        -3.5613650083541870e-01 7.9389937222003937e-02</leafValues></_>
    <_>
      <internalNodes>
        0 -1 6072 1760348637 1442065083 2111273723 240812025 -541173556
        2147279823 -277845428 -1356169225</internalNodes>
      <leafValues>
        -1.5920054912567139e-01 1.7707309126853943e-01</leafValues></_>
    <_>
      <internalNodes>
        0 -1 2321 1311539030 2101210878 -1884790608 -444943697
        -537527992 498326442 -1933172478 214975993</internalNodes>
      <leafValues>
        -2.6443603634834290e-01 1.0556586086750031e-01</leafValues></_>
    <_>
      <internalNodes>
        0 -1 691 -1609399866 272776784 -805916724 -1645288466 2051433972
        888159382 1178797375 1870686208</internalNodes>
      <leafValues>
        -2.6429933309555054e-01 1.0482950508594513e-01</leafValues></_>
    <_>
      <internalNodes>
        0 -1 6266 400504229 1627291516 -458900555 820247462 794031873
        -553191991 107300658 -1375411393</internalNodes>
      <leafValues>
        -2.1214820444583893e-01 1.3312470912933350e-01</leafValues></_>
    <_>
      <internalNodes>
        0 -1 1709 -403840029 -509281750 -590149852 -571998526 2147216685
        1226178383 326335797 1162999911</internalNodes>
      <leafValues>
        -2.2500656545162201e-01 1.2584145367145538e-01</leafValues></_>
    <_>
      <internalNodes>
        0 -1 6212 1785662997 -539462689 1114010619 846396415 -966928184
        -629192065 1526004220 1381781828</internalNodes>
      <leafValues>
        -2.3320332169532776e-01 1.1922030895948410e-01</leafValues></_></weakClassifiers></stage8>
</opencv_storage>
