<?xml version="1.0"?>
<opencv_storage>
<stage7>
  <maxWeakCount>73</maxWeakCount>
  <stageThreshold>-1.9715392589569092e+00</stageThreshold>
  <weakClassifiers>
    <_>
      <internalNodes>
        0 -1 1752 -805306373 -805306369 255523770 -549781574 -537919489
        -536916738 -536872517 -536879617</internalNodes>
      <leafValues>
        -3.8600704073905945e-01 3.6808532476425171e-01</leafValues></_>
    <_>
      <internalNodes>
        0 -1 3268 -4980743 -4457996 -1 -10763 -1 -1 -1 -8707</internalNodes>
      <leafValues>
        -1.9313186407089233e-01 5.7412046194076538e-01</leafValues></_>
    <_>
      <internalNodes>
        0 -1 4902 1414852132 -1119879377 1568538623 964295551 -536916049
        -40923509 -839059472 -41049350</internalNodes>
      <leafValues>
        -3.9674621820449829e-01 2.1870388090610504e-01</leafValues></_>
    <_>
      <internalNodes>
        0 -1 3186 -1338394724 2002244957 -1275085842 1935636991
        -1424949252 2001597405 -1281705270 856295432</internalNodes>
      <leafValues>
        -3.6852774024009705e-01 2.0251345634460449e-01</leafValues></_>
    <_>
      <internalNodes>
        0 -1 7866 -67114417 -67109009 -142623873 -219 -1304708438
        -262216 844365819 -227016833</internalNodes>
      <leafValues>
        -1.5280310809612274e-01 4.3203639984130859e-01</leafValues></_>
    <_>
      <internalNodes>
        0 -1 4153 600519599 391196567 670249834 1162154802 -1073762161
        1600065327 400405375 1188321141</internalNodes>
      <leafValues>
        -3.0535581707954407e-01 2.2731411457061768e-01</leafValues></_>
    <_>
      <internalNodes>
        0 -1 2108 1941045216 -2110051 806363686 1979178495 -1210581001
        -9630577 933740539 939465199</internalNodes>
      <leafValues>
        -2.8154486417770386e-01 2.0132677257061005e-01</leafValues></_>
    <_>
      <internalNodes>
        0 -1 6630 2130447548 2075854077 -56405 1069240311 -352868097
        -76165153 -494927941 -550269583</internalNodes>
      <leafValues>
        -2.5961932539939880e-01 2.2409422695636749e-01</leafValues></_>
    <_>
      <internalNodes>
        0 -1 339 -352387073 -67108865 -16778497 -391190850 2138457124
        -656653196 -20737 -285278618</internalNodes>
      <leafValues>
        -2.1185149252414703e-01 2.5622138381004333e-01</leafValues></_>
    <_>
      <internalNodes>
        0 -1 2543 -75541001 -2207499 368556031 1562072511 -268476930
        -1359062800 -571284481 -544473153</internalNodes>
      <leafValues>
        -1.2884311378002167e-01 3.8693973422050476e-01</leafValues></_>
    <_>
      <internalNodes>
        0 -1 6635 -150995013 -1324107781 -4456453 -1156859137 -279466225
        -183464051 -147852365 -1088421890</internalNodes>
      <leafValues>
        -1.6964526474475861e-01 3.2444965839385986e-01</leafValues></_>
    <_>
      <internalNodes>
        0 -1 1007 -1849362689 -1610678281 -817509027 98700802 -218509059
        -1208494091 -187701763 -594633</internalNodes>
      <leafValues>
        -1.8462499976158142e-01 2.8454142808914185e-01</leafValues></_>
    <_>
      <internalNodes>
        0 -1 5279 -16844013 1458765779 -88150146 886242422 -1195499745
        1056946171 1069157182 349338962</internalNodes>
      <leafValues>
        -3.4367170929908752e-01 1.3681520521640778e-01</leafValues></_>
    <_>
      <internalNodes>
        0 -1 5990 -214368772 -285448104 -537096966 -2166788 924132793
        -1365230148 257625851 529729797</internalNodes>
      <leafValues>
        -3.0761706829071045e-01 1.5642178058624268e-01</leafValues></_>
    <_>
      <internalNodes>
        0 -1 5599 -1088438403 990916602 -1107313154 -4317200 905422333
        653534899 955190524 515336263</internalNodes>
      <leafValues>
        -2.5576373934745789e-01 1.8531207740306854e-01</leafValues></_>
    <_>
      <internalNodes>
        0 -1 2276 -219680005 -269571158 -627646701 -227069135 234616570
        -271718168 1893167345 -2449</internalNodes>
      <leafValues>
        -1.8849630653858185e-01 2.2326937317848206e-01</leafValues></_>
    <_>
      <internalNodes>
        0 -1 178 -873463837 -5770301 -135004161 -1208485917 -1054979
        -18874401 -69211137 -135792905</internalNodes>
      <leafValues>
        -1.1292210221290588e-01 3.8248634338378906e-01</leafValues></_>
    <_>
      <internalNodes>
        0 -1 3511 -71640300 790110961 -1616099500 1528134517 -1363655680
        -1078313288 -1373700137 136453439</internalNodes>
      <leafValues>
        -3.5794204473495483e-01 1.2345033138990402e-01</leafValues></_>
    <_>
      <internalNodes>
        0 -1 6556 -16822529 -8429729 -223087873 1920892926 -21639992
        -9478561 -21186339 2050719740</internalNodes>
      <leafValues>
        -1.7900645732879639e-01 2.3221902549266815e-01</leafValues></_>
    <_>
      <internalNodes>
        0 -1 4584 -1212326621 -336921618 -58806426 -84230224 -1698709765
        -1964280133 -706937394 -990122411</internalNodes>
      <leafValues>
        -2.0360764861106873e-01 2.0820426940917969e-01</leafValues></_>
    <_>
      <internalNodes>
        0 -1 2326 -775627532 -1898018642 406476924 139645430 -708262692
        -1726480251 -897819494 440260040</internalNodes>
      <leafValues>
        -3.7202385067939758e-01 1.0546402633190155e-01</leafValues></_>
    <_>
      <internalNodes>
        0 -1 1752 -1807073482 2067720838 -571464669 703983455
        -1986493136 1844750124 -985617860 708866560</internalNodes>
      <leafValues>
        -2.5284314155578613e-01 1.5391808748245239e-01</leafValues></_>
    <_>
      <internalNodes>
        0 -1 628 -419958865 -1118257 2147480063 -3010574 2139057989
        -806354995 -1342179329 -9209484</internalNodes>
      <leafValues>
        -1.6562813520431519e-01 2.5376719236373901e-01</leafValues></_>
    <_>
      <internalNodes>
        0 -1 7591 -4733533 715304882 1677720560 -1245718544 -9458424
        -2029125851 1501507828 1432878582</internalNodes>
      <leafValues>
        -2.7163204550743103e-01 1.5158128738403320e-01</leafValues></_>
    <_>
      <internalNodes>
        0 -1 807 -899228683 201302706 805162942 1600009010 -683163653
        -1107597341 1595210659 -269555790</internalNodes>
      <leafValues>
        -2.0014214515686035e-01 1.9422629475593567e-01</leafValues></_>
    <_>
      <internalNodes>
        0 -1 3733 -417135323 1442738036 -1082278577 -1522049683
        -152380932 -201803815 -33845281 -454337105</internalNodes>
      <leafValues>
        -1.5068270266056061e-01 2.5550559163093567e-01</leafValues></_>
    <_>
      <internalNodes>
        0 -1 3906 -1313153860 -585661951 536870623 1427490309
        -1087685379 -71568147 523214334 -1617966036</internalNodes>
      <leafValues>
        -2.3423485457897186e-01 1.6374878585338593e-01</leafValues></_>
    <_>
      <internalNodes>
        0 -1 5386 1163898089 -1057179172 -1225070780 1323364173
        1329424418 -2135999943 -1900056826 1160204134</internalNodes>
      <leafValues>
        -3.1044501066207886e-01 1.2191797047853470e-01</leafValues></_>
    <_>
      <internalNodes>
        0 -1 3905 -644164613 -1150444816 1203753439 1573744729
        -1358759942 -282083337 1602991611 -551692322</internalNodes>
      <leafValues>
        -1.2900285422801971e-01 2.8117468953132629e-01</leafValues></_>
    <_>
      <internalNodes>
        0 -1 4943 362184661 -1085444267 -262417 -649595362 1728018139
        -276418621 720306131 -1095580465</internalNodes>
      <leafValues>
        -1.4862121641635895e-01 2.5248491764068604e-01</leafValues></_>
    <_>
      <internalNodes>
        0 -1 7604 -277940355 -1749373038 1302592957 -112298571
        -454492744 -1280264024 -277250899 2102916970</internalNodes>
      <leafValues>
        -1.5896007418632507e-01 2.2529377043247223e-01</leafValues></_>
    <_>
      <internalNodes>
        0 -1 5119 -1906332740 -14139461 -1611199762 -269600094
        1542924973 1970757311 -1979762566 -486706633</internalNodes>
      <leafValues>
        -1.9587481021881104e-01 1.8643084168434143e-01</leafValues></_>
    <_>
      <internalNodes>
        0 -1 3130 -17076609 -268546225 -151191847 2051211263 -83993507
        1340038879 -287408932 2050103818</internalNodes>
      <leafValues>
        -2.4528211355209351e-01 1.4470784366130829e-01</leafValues></_>
    <_>
      <internalNodes>
        0 -1 6280 1073606575 518516561 -1528846482 1918811534 2126368268
        1937729047 -423301534 1951790164</internalNodes>
      <leafValues>
        -2.4771486222743988e-01 1.3478600978851318e-01</leafValues></_>
    <_>
      <internalNodes>
        0 -1 7483 -475067697 805191454 -1569193985 842721279 -335591348
        1598889039 -218303290 -796917938</internalNodes>
      <leafValues>
        -2.0360404253005981e-01 1.6318689286708832e-01</leafValues></_>
    <_>
      <internalNodes>
        0 -1 6162 807555536 1018633707 1946115563 1073631711 1319126447
        -1073856769 1334231822 53085345</internalNodes>
      <leafValues>
        -3.4945306181907654e-01 9.6590235829353333e-02</leafValues></_>
    <_>
      <internalNodes>
        0 -1 1923 -704905488 2077892284 -16548005 257670446 -1158200088
        481347700 -61744103 1449068159</internalNodes>
      <leafValues>
        -1.8246087431907654e-01 1.8463000655174255e-01</leafValues></_>
    <_>
      <internalNodes>
        0 -1 2956 -1337974684 1158327215 2059296530 316914438 1400259781
        1531757706 1945526099 1247171382</internalNodes>
      <leafValues>
        -3.3930459618568420e-01 9.9024161696434021e-02</leafValues></_>
    <_>
      <internalNodes>
        0 -1 6627 -521507700 264043518 -872420819 -604087345 -674104331
        -1636368389 -209733888 -1986660538</internalNodes>
      <leafValues>
        -2.2180986404418945e-01 1.5331558883190155e-01</leafValues></_>
    <_>
      <internalNodes>
        0 -1 4399 118800177 799567012 -1577200912 -571622300 100660983
        788455423 223826420 206918889</internalNodes>
      <leafValues>
        -3.3105438947677612e-01 1.0311809182167053e-01</leafValues></_>
    <_>
      <internalNodes>
        0 -1 7680 -22560169 -536871041 -218240771 -76021763 -84949282
        -536911939 -889553281 -84213894</internalNodes>
      <leafValues>
        -1.1710345745086670e-01 2.9261958599090576e-01</leafValues></_>
    <_>
      <internalNodes>
        0 -1 6260 -268439633 -1228968097 -479463441 1941962687
        -343937460 -1350615203 -218104338 -75631633</internalNodes>
      <leafValues>
        -1.1079970747232437e-01 3.0268961191177368e-01</leafValues></_>
    <_>
      <internalNodes>
        0 -1 4090 1937265761 1428832042 1794273132 1525887986 1517950002
        1667912610 -2097248918 1826095072</internalNodes>
      <leafValues>
        -2.2893284261226654e-01 1.4755447208881378e-01</leafValues></_>
    <_>
      <internalNodes>
        0 -1 2311 -1493191757 -1884377174 -130096974 1924462112
        769331194 1326447951 1207915719 1466955223</internalNodes>
      <leafValues>
        -2.6751756668090820e-01 1.2651872634887695e-01</leafValues></_>
    <_>
      <internalNodes>
        0 -1 5680 1684327749 -1226833921 1845476271 -864051673 -59105531
        -1241647113 -1204597457 -521731549</internalNodes>
      <leafValues>
        -1.6107709705829620e-01 2.0272868871688843e-01</leafValues></_>
    <_>
      <internalNodes>
        0 -1 7057 -2111539423 -1491009568 -8970446 -1073941036 749301753
        -1347715089 533419429 488834101</internalNodes>
      <leafValues>
        -2.9128658771514893e-01 1.1301052570343018e-01</leafValues></_>
    <_>
      <internalNodes>
        0 -1 4889 -1509526606 1414545296 -1128382660 -1125324294
        -833671412 349599594 232724238 290683986</internalNodes>
      <leafValues>
        -2.7245834469795227e-01 1.2202059477567673e-01</leafValues></_>
    <_>
      <internalNodes>
        0 -1 8101 -587768353 437416954 -1380552524 523283382 1912561145
        758799869 -856220944 1029523142</internalNodes>
      <leafValues>
        -2.0528709888458252e-01 1.6643388569355011e-01</leafValues></_>
    <_>
      <internalNodes>
        0 -1 5087 -525399812 -1071207894 -838899116 -269557795 660585908
        -844311554 -924278967 -869216014</internalNodes>
      <leafValues>
        -2.5713932514190674e-01 1.2651082873344421e-01</leafValues></_>
    <_>
      <internalNodes>
        0 -1 4478 1882245264 1420916722 1090768774 1278574670 -125781200
        -755351952 -1389789854 -1255794320</internalNodes>
      <leafValues>
        -3.1230154633522034e-01 1.1099191755056381e-01</leafValues></_>
    <_>
      <internalNodes>
        0 -1 6004 -1087397967 -1078457614 230432118 -570527760
        1667225016 1286895035 -1916335005 531825822</internalNodes>
      <leafValues>
        -1.9682775437831879e-01 1.7985029518604279e-01</leafValues></_>
    <_>
      <internalNodes>
        0 -1 5574 226299789 754719959 268283810 -2098316822 1272343927
        372341719 -1304737532 -2134704298</internalNodes>
      <leafValues>
        -2.4721439182758331e-01 1.3552917540073395e-01</leafValues></_>
    <_>
      <internalNodes>
        0 -1 5715 -21347120 1511951108 -135201509 -146788588 385645806
        -1155612738 -1982002146 1028297782</internalNodes>
      <leafValues>
        -2.6715746521949768e-01 1.2127516418695450e-01</leafValues></_>
    <_>
      <internalNodes>
        0 -1 3503 -1926121183 -1826447310 1207431679 1507709013
        455507446 -1515475777 1591107007 -545591959</internalNodes>
      <leafValues>
        -1.7424476146697998e-01 1.8907938897609711e-01</leafValues></_>
    <_>
      <internalNodes>
        0 -1 193 1156511526 1191175822 -829325378 106429504 375568160
        -9161716 2113190784 1155922952</internalNodes>
      <leafValues>
        -3.2233616709709167e-01 1.0417719930410385e-01</leafValues></_>
    <_>
      <internalNodes>
        0 -1 711 -487346386 1890516382 -436224081 1940963308 1366818628
        829788150 1845360298 1907490564</internalNodes>
      <leafValues>
        -2.3403133451938629e-01 1.4260873198509216e-01</leafValues></_>
    <_>
      <internalNodes>
        0 -1 7558 -357606485 -1415254198 1658835490 1928311392 -2119089
        105312015 1674934245 1164830668</internalNodes>
      <leafValues>
        -2.5776287913322449e-01 1.2645211815834045e-01</leafValues></_>
    <_>
      <internalNodes>
        0 -1 2723 -1448411148 -1851530062 257843196 -319962912 200631539
        687193599 1234075486 234584038</internalNodes>
      <leafValues>
        -2.2177515923976898e-01 1.5054729580879211e-01</leafValues></_>
    <_>
      <internalNodes>
        0 -1 4571 -1011026983 1049605110 117590303 991310654 -1804217797
        -1422281805 498981410 -1860946945</internalNodes>
      <leafValues>
        -1.6589936614036560e-01 1.9494360685348511e-01</leafValues></_>
    <_>
      <internalNodes>
        0 -1 6913 784010327 -59553953 -1300434209 307519406 -624967616
        -1355456937 2024852452 441110798</internalNodes>
      <leafValues>
        -2.7480337023735046e-01 1.1826536059379578e-01</leafValues></_>
    <_>
      <internalNodes>
        0 -1 6300 1576905519 1857992687 1735176076 1251934050 -92295412
        1060601727 -736249130 -1237975175</internalNodes>
      <leafValues>
        -1.8298709392547607e-01 1.7843924462795258e-01</leafValues></_>
    <_>
      <internalNodes>
        0 -1 5202 -1005518867 1975434990 2094453724 -1101678354
        -1141607948 -168201990 -347309751 -2058549246</internalNodes>
      <leafValues>
        -1.8709604442119598e-01 1.7566064000129700e-01</leafValues></_>
    <_>
      <internalNodes>
        0 -1 6883 -154677131 1520042552 1009045564 859894867 -832107558
        -1965225712 1096249750 -1856865701</internalNodes>
      <leafValues>
        -2.0012809336185455e-01 1.5812027454376221e-01</leafValues></_>
    <_>
      <internalNodes>
        0 -1 2987 -269291224 -2092192857 -536970753 -799024141
        1560200356 1523630607 -1845830145 -615026733</internalNodes>
      <leafValues>
        -1.7089980840682983e-01 1.8426240980625153e-01</leafValues></_>
    <_>
      <internalNodes>
        0 -1 528 -998249969 1584390135 -1191198994 -659489170 104814405
        2137603644 2042133596 1074917190</internalNodes>
      <leafValues>
        -2.5466698408126831e-01 1.2567342817783356e-01</leafValues></_>
    <_>
      <internalNodes>
        0 -1 3369 -299308807 -1108086817 1526865735 1354830704
        -637938064 -105256902 -1106378833 -1230306892</internalNodes>
      <leafValues>
        -1.7958924174308777e-01 1.7833466827869415e-01</leafValues></_>
    <_>
      <internalNodes>
        0 -1 2740 1604504992 1454431984 4451633 739663789 -1846131984
        907040448 1432878129 290477528</internalNodes>
      <leafValues>
        -3.6917206645011902e-01 9.0959616005420685e-02</leafValues></_>
    <_>
      <internalNodes>
        0 -1 4989 -302551289 -1410662486 -1784948327 -167906734
        212422453 -1895957631 1325266756 310114242</internalNodes>
      <leafValues>
        -1.9828723371028900e-01 1.6301690042018890e-01</leafValues></_>
    <_>
      <internalNodes>
        0 -1 4781 1073934115 382294909 -1319899314 -575844729 -168325785
        905297636 -335554033 1088800551</internalNodes>
      <leafValues>
        -2.1238045394420624e-01 1.5002043545246124e-01</leafValues></_>
    <_>
      <internalNodes>
        0 -1 5004 1444836863 -1886464300 1303663049 648792694
        -1275853519 2101193652 481154056 -4851977</internalNodes>
      <leafValues>
        -1.5479867160320282e-01 2.0271058380603790e-01</leafValues></_>
    <_>
      <internalNodes>
        0 -1 2389 -339808186 -1842360310 1537134902 -748289958 781923348
        -1570102060 119297229 -548974498</internalNodes>
      <leafValues>
        -1.8491293489933014e-01 1.7255812883377075e-01</leafValues></_>
    <_>
      <internalNodes>
        0 -1 2550 -482736194 -583455883 -46879778 798176797 -289880902
        -620964619 -730587617 -453049207</internalNodes>
      <leafValues>
        -1.5979349613189697e-01 1.9866292178630829e-01</leafValues></_>
    <_>
      <internalNodes>
        0 -1 3780 267446242 463513588 301829356 1844403364 895313653
        956071933 -860156243 -682015291</internalNodes>
      <leafValues>
        -2.1032314002513885e-01 1.5249617397785187e-01</leafValues></_></weakClassifiers></stage7>
</opencv_storage>
