<?xml version="1.0"?>
<opencv_storage>
<stage5>
  <maxWeakCount>52</maxWeakCount>
  <stageThreshold>-2.0654187202453613e+00</stageThreshold>
  <weakClassifiers>
    <_>
      <internalNodes>
        0 -1 2425 -1281 -536884993 1606090750 1569382394 -1 -43585
        -65538 -536879621</internalNodes>
      <leafValues>
        -3.7913933396339417e-01 5.5385518074035645e-01</leafValues></_>
    <_>
      <internalNodes>
        0 -1 3788 -202331480 -33753091 -36389891 -655363 -671747 -671745
        -147457 -715785267</internalNodes>
      <leafValues>
        -3.5390865802764893e-01 3.8526815176010132e-01</leafValues></_>
    <_>
      <internalNodes>
        0 -1 4660 -572727812 -65539 -805511682 -546120198 670858741
        2138398709 -1 -17410</internalNodes>
      <leafValues>
        -3.4319067001342773e-01 3.3166205883026123e-01</leafValues></_>
    <_>
      <internalNodes>
        0 -1 892 -269487125 -134219789 -1 -705170445 -268435457 -2057
        -268435457 -671090697</internalNodes>
      <leafValues>
        -2.0145708322525024e-01 5.5041050910949707e-01</leafValues></_>
    <_>
      <internalNodes>
        0 -1 2781 -4011030 -5111825 829619185 -682361857 -1075376146
        -1371267260 -34079235 1064771562</internalNodes>
      <leafValues>
        -3.8505384325981140e-01 2.4924170970916748e-01</leafValues></_>
    <_>
      <internalNodes>
        0 -1 7784 -1101 -1884553302 1929343664 1925182387 -276826341
        -1894776981 1476391409 1199568375</internalNodes>
      <leafValues>
        -3.1921792030334473e-01 2.6762783527374268e-01</leafValues></_>
    <_>
      <internalNodes>
        0 -1 5337 -537115584 -539177914 -298324153 -851072673 782958499
        -1157631581 238017855 -1347421189</internalNodes>
      <leafValues>
        -4.0848460793495178e-01 1.7998678982257843e-01</leafValues></_>
    <_>
      <internalNodes>
        0 -1 1300 -2049 -65793 -16842881 -7012353 -604044044 -768898
        -85131265 -1</internalNodes>
      <leafValues>
        -1.3318163156509399e-01 4.7497403621673584e-01</leafValues></_>
    <_>
      <internalNodes>
        0 -1 5632 -1346425035 673988376 -1077953546 1069531130
        2138439165 1073560575 -637534980 -1375734532</internalNodes>
      <leafValues>
        -2.4158988893032074e-01 2.8342491388320923e-01</leafValues></_>
    <_>
      <internalNodes>
        0 -1 2435 -332050 -79713489 -26050828 -1288044553 -558219252
        -616708467 1610405567 324263761</internalNodes>
      <leafValues>
        -3.0085554718971252e-01 2.0769585669040680e-01</leafValues></_>
    <_>
      <internalNodes>
        0 -1 4066 -212020259 -144706561 991108602 1060618146 -25184033
        -1143073959 1024456702 -103304193</internalNodes>
      <leafValues>
        -1.7759039998054504e-01 3.4944450855255127e-01</leafValues></_>
    <_>
      <internalNodes>
        0 -1 1486 -1700004869 -648163087 -536870913 -547367439 -8626977
        -2097153 -874774785 -606087691</internalNodes>
      <leafValues>
        -1.7183773219585419e-01 3.6411902308464050e-01</leafValues></_>
    <_>
      <internalNodes>
        0 -1 7173 -487718904 -205898138 -17825793 -362886 -1574818885
        -21299215 -2112689528 -166013752</internalNodes>
      <leafValues>
        -3.3375737071037292e-01 1.8585309386253357e-01</leafValues></_>
    <_>
      <internalNodes>
        0 -1 5419 -271061201 -276824193 -1107953793 1977417727
        -268439755 -1887715782 1878327285 1282206656</internalNodes>
      <leafValues>
        -2.5173407793045044e-01 2.3952233791351318e-01</leafValues></_>
    <_>
      <internalNodes>
        0 -1 3862 1069285361 -1559495712 -527373 -1188384 796917695
        -1351090177 402388977 233774525</internalNodes>
      <leafValues>
        -2.8634586930274963e-01 1.9403003156185150e-01</leafValues></_>
    <_>
      <internalNodes>
        0 -1 6688 -1342329041 805240703 -834794802 -17827846 -4339
        1998452591 -452991241 -132099</internalNodes>
      <leafValues>
        -2.1434247493743896e-01 2.7429577708244324e-01</leafValues></_>
    <_>
      <internalNodes>
        0 -1 5270 -620759279 -665256107 -59048194 -1676362982 1985983498
        2130706395 711965307 -1292632198</internalNodes>
      <leafValues>
        -2.8040963411331177e-01 2.0004446804523468e-01</leafValues></_>
    <_>
      <internalNodes>
        0 -1 7319 -88080965 -1416904782 -465568271 -1107330319
        1937768376 -1129734232 -849519107 -849348769</internalNodes>
      <leafValues>
        -1.7683653533458710e-01 2.9726958274841309e-01</leafValues></_>
    <_>
      <internalNodes>
        0 -1 6160 249498869 -75554977 -252056833 305558751 -1627435968
        -8446083 -122621198 976387959</internalNodes>
      <leafValues>
        -3.3442711830139160e-01 1.5749597549438477e-01</leafValues></_>
    <_>
      <internalNodes>
        0 -1 3467 -954062045 -1750880224 1476391295 -536981452
        -809828421 -1880097370 1606350269 -624232076</internalNodes>
      <leafValues>
        -2.4886161088943481e-01 2.1123151481151581e-01</leafValues></_>
    <_>
      <internalNodes>
        0 -1 3509 1601492901 -1150582357 527752446 1379218227 1434113199
        1535869314 1316902075 -858267728</internalNodes>
      <leafValues>
        -2.0556475222110748e-01 2.5091439485549927e-01</leafValues></_>
    <_>
      <internalNodes>
        0 -1 1972 -222059770 1366753148 599602158 935851982 -1371406424
        335648972 582583214 252510216</internalNodes>
      <leafValues>
        -3.2260841131210327e-01 1.5715435147285461e-01</leafValues></_>
    <_>
      <internalNodes>
        0 -1 4499 801926003 -274006174 -264375437 -33952784 268398591
        -810558017 2008905718 518584311</internalNodes>
      <leafValues>
        -2.7380719780921936e-01 1.8179887533187866e-01</leafValues></_>
    <_>
      <internalNodes>
        0 -1 954 -68255962 -1964005814 444505278 212847636 1044394848
        811791978 1531428097 1115649058</internalNodes>
      <leafValues>
        -3.9053604006767273e-01 1.2603691220283508e-01</leafValues></_>
    <_>
      <internalNodes>
        0 -1 4749 72357173 2147245949 -25297155 1011899517 -654770571
        -165881 -21185027 708460541</internalNodes>
      <leafValues>
        -3.1185987591743469e-01 1.5680165588855743e-01</leafValues></_>
    <_>
      <internalNodes>
        0 -1 2958 -1411451084 -102782038 -67177097 2033284983 1845118376
        -1656968446 -838968865 -81212929</internalNodes>
      <leafValues>
        -2.2424714267253876e-01 2.1840646862983704e-01</leafValues></_>
    <_>
      <internalNodes>
        0 -1 8064 -67109049 -167788780 -336330753 -36307387 -58725854
        -274438 -386043910 -520619145</internalNodes>
      <leafValues>
        -1.4615088701248169e-01 3.5811358690261841e-01</leafValues></_>
    <_>
      <internalNodes>
        0 -1 3493 -1393756104 -250872230 -222680828 1895512725
        -417137295 -843778626 1881094344 270197475</internalNodes>
      <leafValues>
        -3.8479098677635193e-01 1.2779137492179871e-01</leafValues></_>
    <_>
      <internalNodes>
        0 -1 7406 -360984365 -134516737 -205558785 -1076212433
        -667756295 -25362465 -1162674453 -1976928769</internalNodes>
      <leafValues>
        -1.7148002982139587e-01 2.9509299993515015e-01</leafValues></_>
    <_>
      <internalNodes>
        0 -1 3640 -18395485 -806402577 -27905487 -201342981 2130134082
        1333513439 -220571905 -786433</internalNodes>
      <leafValues>
        -1.5717367827892303e-01 3.0034595727920532e-01</leafValues></_>
    <_>
      <internalNodes>
        0 -1 2716 973668307 918216176 -2586 -559116 802611199 -17839913
        -1711838354 503256561</internalNodes>
      <leafValues>
        -2.3686482012271881e-01 2.1797344088554382e-01</leafValues></_>
    <_>
      <internalNodes>
        0 -1 5875 -1610956825 -537004203 1968321655 948233598 653245960
        -565383355 783726214 -11010195</internalNodes>
      <leafValues>
        -2.0103375613689423e-01 2.3280364274978638e-01</leafValues></_>
    <_>
      <internalNodes>
        0 -1 2227 -289408005 -810549430 -536895051 -201625104 767524351
        -805306417 1337947639 -807405577</internalNodes>
      <leafValues>
        -1.6900286078453064e-01 2.8891068696975708e-01</leafValues></_>
    <_>
      <internalNodes>
        0 -1 5173 -921659012 -27984524 -1629613352 -1122012303
        1599471601 -1153566992 736967288 797646990</internalNodes>
      <leafValues>
        -2.5589755177497864e-01 1.7444178462028503e-01</leafValues></_>
    <_>
      <internalNodes>
        0 -1 5764 1280654421 1920417590 -1306969378 679149153 -641868600
        -17880779 -1192045831 70287127</internalNodes>
      <leafValues>
        -3.1115138530731201e-01 1.4237046241760254e-01</leafValues></_>
    <_>
      <internalNodes>
        0 -1 2885 -257539854 -382799894 -92815822 844183074 871333874
        -905119254 1081540091 1331691512</internalNodes>
      <leafValues>
        -2.8248080611228943e-01 1.6161732375621796e-01</leafValues></_>
    <_>
      <internalNodes>
        0 -1 6286 922525344 3043438 1823407786 -1607991314 1730127628
        1598481804 -449846605 655750460</internalNodes>
      <leafValues>
        -3.4977748990058899e-01 1.2611578404903412e-01</leafValues></_>
    <_>
      <internalNodes>
        0 -1 260 1877272178 1827647162 -854938615 -1343880994 -78514589
        2071962320 -1073531119 1108017394</internalNodes>
      <leafValues>
        -3.5331737995147705e-01 1.2499682605266571e-01</leafValues></_>
    <_>
      <internalNodes>
        0 -1 2488 -807005923 1505363067 1303363325 496586865 -1396941844
        -1078061932 -990085699 -559785825</internalNodes>
      <leafValues>
        -2.3957650363445282e-01 1.8433912098407745e-01</leafValues></_>
    <_>
      <internalNodes>
        0 -1 2775 -1976902448 -1359360013 1875328355 343212593
        -1751119632 -1326196528 1162180546 -270447440</internalNodes>
      <leafValues>
        -3.4449926018714905e-01 1.2486930191516876e-01</leafValues></_>
    <_>
      <internalNodes>
        0 -1 3112 -18882961 -819180532 1991816944 2050029564 -151036707
        -805354018 -226822464 2049058398</internalNodes>
      <leafValues>
        -2.7128186821937561e-01 1.6377441585063934e-01</leafValues></_>
    <_>
      <internalNodes>
        0 -1 5235 272686916 1895692285 -411435601 -302128151 1929198535
        2007085046 -4194513 -2031776986</internalNodes>
      <leafValues>
        -2.1589472889900208e-01 2.1119232475757599e-01</leafValues></_>
    <_>
      <internalNodes>
        0 -1 1227 -538444097 -7613730 1270510335 -780470405 -968686372
        1584286911 -71903762 -9445510</internalNodes>
      <leafValues>
        -1.2138671427965164e-01 3.4977975487709045e-01</leafValues></_>
    <_>
      <internalNodes>
        0 -1 6587 518505159 847248988 1053488100 819198930 -2389496
        -1403094520 318121910 459774715</internalNodes>
      <leafValues>
        -2.4457910656929016e-01 1.8401095271110535e-01</leafValues></_>
    <_>
      <internalNodes>
        0 -1 7315 532640513 -1356137184 -1596333135 -1233979984
        770440744 -1962148574 216880341 1585431796</internalNodes>
      <leafValues>
        -3.1491893529891968e-01 1.4372397959232330e-01</leafValues></_>
    <_>
      <internalNodes>
        0 -1 3046 -365198044 1102950279 -293650660 1286978489 1324402082
        -71032606 -575514689 -630760261</internalNodes>
      <leafValues>
        -2.0699004828929901e-01 2.2488009929656982e-01</leafValues></_>
    <_>
      <internalNodes>
        0 -1 3300 811388944 1089488568 -313533297 -12157250 718095159
        2092437424 1110114231 -1902098524</internalNodes>
      <leafValues>
        -3.2419022917747498e-01 1.2978421151638031e-01</leafValues></_>
    <_>
      <internalNodes>
        0 -1 2824 1832567483 -1904292098 1296871197 391540545
        -1644750594 -1309145884 -709956313 1730577763</internalNodes>
      <leafValues>
        -2.0070366561412811e-01 2.1421782672405243e-01</leafValues></_>
    <_>
      <internalNodes>
        0 -1 4096 -514011176 -1517821259 252387000 455356840 -690582545
        1541133246 215812830 -54259521</internalNodes>
      <leafValues>
        -2.4717502295970917e-01 1.8159668147563934e-01</leafValues></_>
    <_>
      <internalNodes>
        0 -1 7255 467627531 -1886439970 -1564282334 577437258
        -1075852464 1280309071 -252185648 1080942077</internalNodes>
      <leafValues>
        -3.2831609249114990e-01 1.2474956363439560e-01</leafValues></_>
    <_>
      <internalNodes>
        0 -1 6238 917521540 -147503628 2140540711 1005456446 -2112672008
        -210035489 -2111636689 105907236</internalNodes>
      <leafValues>
        -4.5220789313316345e-01 9.0042755007743835e-02</leafValues></_>
    <_>
      <internalNodes>
        0 -1 4114 -10092765 1300938664 -134286826 -227018446 -1079310358
        -1882509633 2133190588 -740825219</internalNodes>
      <leafValues>
        -1.8265171349048615e-01 2.2724181413650513e-01</leafValues></_></weakClassifiers></stage5>
</opencv_storage>
