<?xml version="1.0"?>
<opencv_storage>
<cascade>
  <stageType>BOOST</stageType>
  <featureType>LBP</featureType>
  <height>24</height>
  <width>24</width>
  <stageParams>
    <boostType>GAB</boostType>
    <minHitRate>9.9900001287460327e-01</minHitRate>
    <maxFalseAlarm>2.0000000298023224e-01</maxFalseAlarm>
    <weightTrimRate>9.4999999999999996e-01</weightTrimRate>
    <maxDepth>1</maxDepth>
    <maxWeakCount>100</maxWeakCount></stageParams>
  <featureParams>
    <maxCatCount>256</maxCatCount>
    <featSize>1</featSize></featureParams>
  <stageNum>10</stageNum>
  <stages>
    <!-- stage 0 -->
    <_>
      <maxWeakCount>5</maxWeakCount>
      <stageThreshold>-2.1963529586791992e+00</stageThreshold>
      <weakClassifiers>
        <_>
          <internalNodes>
            0 -1 29 -235671302 -538969601 -461908513 -4195361 -73401605
            -6577733 -744760581 -1025</internalNodes>
          <leafValues>
            -9.0249592065811157e-01 7.5299972295761108e-01</leafValues></_>
        <_>
          <internalNodes>
            0 -1 58 -1 -16842753 -136315010 -252248322 -36439201
            2139086719 -1 -134479873</internalNodes>
          <leafValues>
            -8.3426070213317871e-01 6.8993526697158813e-01</leafValues></_>
        <_>
          <internalNodes>
            0 -1 78 -1 -2097153 -100666630 -8924430 -100925443
            -838860817 -2134116112 -579341061</internalNodes>
          <leafValues>
            -7.7565163373947144e-01 6.6832900047302246e-01</leafValues></_>
        <_>
          <internalNodes>
            0 -1 79 -32769 -38945 -50333953 1886322686 -691 -15728817
            2063400932 -156565537</internalNodes>
          <leafValues>
            -6.4631974697113037e-01 6.4133298397064209e-01</leafValues></_>
        <_>
          <internalNodes>
            0 -1 44 -65601 -4784721 -84091920 1883437026 -6 -549204321
            -339739713 -139198469</internalNodes>
          <leafValues>
            -6.9312071800231934e-01 6.1994379758834839e-01</leafValues></_></weakClassifiers></_>
    <!-- stage 1 -->
    <_>
      <maxWeakCount>8</maxWeakCount>
      <stageThreshold>-1.6644883155822754e+00</stageThreshold>
      <weakClassifiers>
        <_>
          <internalNodes>
            0 -1 77 -2098177 -69206017 -69206278 -8396038 -1 -280577
            -251661072 -1</internalNodes>
          <leafValues>
            -8.4881514310836792e-01 6.5614235401153564e-01</leafValues></_>
        <_>
          <internalNodes>
            0 -1 46 -1 -2113 -12976193 -251659269 -177 -8388741 -6311937
            -134217729</internalNodes>
          <leafValues>
            -6.9770824909210205e-01 7.3272657394409180e-01</leafValues></_>
        <_>
          <internalNodes>
            0 -1 28 583187370 -74187781 -142631937 -4211721 921697275
            -1051201 -335545349 -1074014277</internalNodes>
          <leafValues>
            -8.4867066144943237e-01 4.7691792249679565e-01</leafValues></_>
        <_>
          <internalNodes>
            0 -1 66 -536873985 -35661857 -262964614 2134057202 -69215237
            -72091810 1111225080 -818679157</internalNodes>
          <leafValues>
            -7.0639616250991821e-01 4.9956667423248291e-01</leafValues></_>
        <_>
          <internalNodes>
            0 -1 68 -10528129 -8432897 -696263425 1920892415 -70291628
            1398793562 -536904837 -29687809</internalNodes>
          <leafValues>
            -5.9898984432220459e-01 5.7145220041275024e-01</leafValues></_>
        <_>
          <internalNodes>
            0 -1 31 -1147410931 -12888961 -197528361 855681535
            -1084228740 -10755489 -336077057 -13698049</internalNodes>
          <leafValues>
            -6.0179507732391357e-01 5.8810466527938843e-01</leafValues></_>
        <_>
          <internalNodes>
            0 -1 122 -268435521 -268959841 -524301 -8388690 -1879310373
            -808452129 -134220009 -545268395</internalNodes>
          <leafValues>
            -5.4320442676544189e-01 6.6172069311141968e-01</leafValues></_>
        <_>
          <internalNodes>
            0 -1 128 -1343225941 -1360072786 -13 -285278222 -1073741841
            -816906289 -1208093213 -268706435</internalNodes>
          <leafValues>
            -5.3932207822799683e-01 6.5358227491378784e-01</leafValues></_></weakClassifiers></_>
    <!-- stage 2 -->
    <_>
      <maxWeakCount>9</maxWeakCount>
      <stageThreshold>-1.1863331794738770e+00</stageThreshold>
      <weakClassifiers>
        <_>
          <internalNodes>
            0 -1 24 -486539345 -10748001 -67633153 -789317637 -335545345
            -10485921 -1409287169 -8193</internalNodes>
          <leafValues>
            -7.1410393714904785e-01 6.9287389516830444e-01</leafValues></_>
        <_>
          <internalNodes>
            0 -1 47 -6304257 -571253249 -792743182 -143394830 -880047105
            -79169121 -268705861 -8915457</internalNodes>
          <leafValues>
            -7.2553467750549316e-01 5.5348384380340576e-01</leafValues></_>
        <_>
          <internalNodes>
            0 -1 74 -436994850 -944507425 -1737754502 -4720001
            -1061422597 -541873157 -1048192840 -570425345</internalNodes>
          <leafValues>
            -6.8525516986846924e-01 4.8326152563095093e-01</leafValues></_>
        <_>
          <internalNodes>
            0 -1 80 -32897 -8421505 -16781569 1920630774 -32897
            -10485937 -67109378 -77861889</internalNodes>
          <leafValues>
            -5.2522766590118408e-01 6.1493825912475586e-01</leafValues></_>
        <_>
          <internalNodes>
            0 -1 27 -1957430121 -767569649 -251792656 -744636417
            -877969689 1451984919 -405800996 1366818815</internalNodes>
          <leafValues>
            -7.3174268007278442e-01 4.4780656695365906e-01</leafValues></_>
        <_>
          <internalNodes>
            0 -1 2 -487591937 -1 -58371 -5376001 1122725863 -540673
            -131587 -536597</internalNodes>
          <leafValues>
            -4.5601478219032288e-01 7.5105059146881104e-01</leafValues></_>
        <_>
          <internalNodes>
            0 -1 35 -61867 -8037585 -425467883 307584731 -922767547
            -11747836 -537203172 -563159425</internalNodes>
          <leafValues>
            -5.8715021610260010e-01 5.2096569538116455e-01</leafValues></_>
        <_>
          <internalNodes>
            0 -1 110 -1220581609 -671128997 -1764782636 -134226293
            -51644481 1437581755 -1799916364 -139232545</internalNodes>
          <leafValues>
            -6.0597735643386841e-01 5.0700849294662476e-01</leafValues></_>
        <_>
          <internalNodes>
            0 -1 103 767524831 -805873571 -187891713 1182758782
            -1228931213 -236193280 -311441901 206004003</internalNodes>
          <leafValues>
            -7.4253898859024048e-01 3.8849139213562012e-01</leafValues></_></weakClassifiers></_>
    <!-- stage 3 -->
    <_>
      <maxWeakCount>12</maxWeakCount>
      <stageThreshold>-1.4159446954727173e+00</stageThreshold>
      <weakClassifiers>
        <_>
          <internalNodes>
            0 -1 83 -167808781 -168331267 -33554435 -1 -513 -1 -1 -8257</internalNodes>
          <leafValues>
            -6.3363599777221680e-01 7.2554963827133179e-01</leafValues></_>
        <_>
          <internalNodes>
            0 -1 53 -67477505 -33825 -558138793 2044403935 -603994241
            -11797921 -71574537 -16057345</internalNodes>
          <leafValues>
            -6.4078766107559204e-01 5.3668421506881714e-01</leafValues></_>
        <_>
          <internalNodes>
            0 -1 126 -13500431 -279462945 -605034601 -8390817
            -1696595969 -808739045 1461187569 -538977832</internalNodes>
          <leafValues>
            -5.9750008583068848e-01 5.3687256574630737e-01</leafValues></_>
        <_>
          <internalNodes>
            0 -1 20 1090910157 1158613103 -671638057 1461988342
            -182119429 2004857039 -1409290017 -9442689</internalNodes>
          <leafValues>
            -5.3678786754608154e-01 4.9507865309715271e-01</leafValues></_>
        <_>
          <internalNodes>
            0 -1 106 668262367 -1440038513 1396002778 -2109154 536469503
            1225824209 293056688 1129793651</internalNodes>
          <leafValues>
            -7.5510758161544800e-01 3.6146402359008789e-01</leafValues></_>
        <_>
          <internalNodes>
            0 -1 104 536838143 -537922565 1594677247 1323302103 -2097153
            -4198497 2111826707 1309666903</internalNodes>
          <leafValues>
            -6.3099068403244019e-01 3.8449588418006897e-01</leafValues></_>
        <_>
          <internalNodes>
            0 -1 49 368096516 292928951 503176703 2101152639 -1178091521
            -1292786433 1032138431 455745407</internalNodes>
          <leafValues>
            -6.9958263635635376e-01 3.7913787364959717e-01</leafValues></_>
        <_>
          <internalNodes>
            0 -1 76 -211834151 1595343762 -338701605 -1384882086
            -1616397061 -1550875137 282159128 -545392385</internalNodes>
          <leafValues>
            -5.8715164661407471e-01 4.1522076725959778e-01</leafValues></_>
        <_>
          <internalNodes>
            0 -1 42 -1426399701 -2057 -89399534 1390147998 -1950643925
            -16014291 -1685192722 -407144501</internalNodes>
          <leafValues>
            -5.7926017045974731e-01 4.3489354848861694e-01</leafValues></_>
        <_>
          <internalNodes>
            0 -1 131 -1360304783 -355467379 -491051657 -220209299
            714696890 -1498477780 555950570 -547400204</internalNodes>
          <leafValues>
            -6.4323985576629639e-01 3.5478493571281433e-01</leafValues></_>
        <_>
          <internalNodes>
            0 -1 43 -562405505 -686095329 -980977385 1393056197
            -1077027227 -546580401 -341263563 1511718655</internalNodes>
          <leafValues>
            -6.4070326089859009e-01 3.6841312050819397e-01</leafValues></_>
        <_>
          <internalNodes>
            0 -1 23 581053674 -135039535 -177106475 -13131497 591523317
            -2591343 -2106784837 934742447</internalNodes>
          <leafValues>
            -8.0573588609695435e-01 2.9475405812263489e-01</leafValues></_></weakClassifiers></_>
    <!-- stage 4 -->
    <_>
      <maxWeakCount>13</maxWeakCount>
      <stageThreshold>-1.2931470870971680e+00</stageThreshold>
      <weakClassifiers>
        <_>
          <internalNodes>
            0 -1 22 -84148309 -8400897 -65 -1 -8650757 -8396801
            -70254625 -67123265</internalNodes>
          <leafValues>
            -5.8411216735839844e-01 6.6355139017105103e-01</leafValues></_>
        <_>
          <internalNodes>
            0 -1 87 -146319395 -46187553 469203294 1599333106 -754459713
            -314593925 410908920 -549724705</internalNodes>
          <leafValues>
            -5.5844795703887939e-01 5.0681620836257935e-01</leafValues></_>
        <_>
          <internalNodes>
            0 -1 67 -2097409 -537167009 -673206601 1916759807 -336970993
            -10534642 -8338 -4522241</internalNodes>
          <leafValues>
            -5.0634729862213135e-01 4.7608831524848938e-01</leafValues></_>
        <_>
          <internalNodes>
            0 -1 120 -269486223 -272675889 -17959257 -33608289
            -807419955 1337707676 1936193527 2004876639</internalNodes>
          <leafValues>
            -6.2573570013046265e-01 3.9604294300079346e-01</leafValues></_>
        <_>
          <internalNodes>
            0 -1 64 -1778437762 -168089474 368660735 2007835483
            -1694778625 -1129663749 28793076 -1192015125</internalNodes>
          <leafValues>
            -5.7306975126266479e-01 4.1688886284828186e-01</leafValues></_>
        <_>
          <internalNodes>
            0 -1 26 -33599889 -10529155 1478881179 1501512190 -72366251
            -284182689 -71372833 -1048577</internalNodes>
          <leafValues>
            -4.4462686777114868e-01 5.2219033241271973e-01</leafValues></_>
        <_>
          <internalNodes>
            0 -1 37 -1325583712 -1258818845 1372823039 502860467
            -1292689921 -1129786125 -1104105989 -323285592</internalNodes>
          <leafValues>
            -7.5598806142807007e-01 3.3968153595924377e-01</leafValues></_>
        <_>
          <internalNodes>
            0 -1 5 789570799 1850732239 -476854817 -318908705 1663039503
            -612510451 -8390177 1558037935</internalNodes>
          <leafValues>
            -6.1661261320114136e-01 3.1721416115760803e-01</leafValues></_>
        <_>
          <internalNodes>
            0 -1 94 -135268365 1442150237 -134235269 -1026640386
            2038431743 -571232610 460976487 1330642438</internalNodes>
          <leafValues>
            -5.2996069192886353e-01 3.5694095492362976e-01</leafValues></_>
        <_>
          <internalNodes>
            0 -1 136 -1363163907 -1413546369 -822099977 -24588
            -1448439878 -1879917136 1057224122 -585369858</internalNodes>
          <leafValues>
            -3.9872819185256958e-01 5.1662635803222656e-01</leafValues></_>
        <_>
          <internalNodes>
            0 -1 54 -72433731 -8650801 -69687 -314180643 -16385
            -167905289 -1107347799 -328353030</internalNodes>
          <leafValues>
            -3.9906278252601624e-01 5.3357744216918945e-01</leafValues></_>
        <_>
          <internalNodes>
            0 -1 124 -1494433878 1877885902 -230621193 -37955630
            -2029519957 -808934418 1880602919 -608437577</internalNodes>
          <leafValues>
            -4.8806005716323853e-01 4.1435527801513672e-01</leafValues></_>
        <_>
          <internalNodes>
            0 -1 33 -488967877 -10561777 -225594830 -803499297
            -916473105 2131558985 -1171553406 1273692585</internalNodes>
          <leafValues>
            -6.0241603851318359e-01 3.6719110608100891e-01</leafValues></_></weakClassifiers></_>
    <!-- stage 5 -->
    <_>
      <maxWeakCount>15</maxWeakCount>
      <stageThreshold>-1.0919307470321655e+00</stageThreshold>
      <weakClassifiers>
        <_>
          <internalNodes>
            0 -1 14 -218365969 -536875009 -532481 -1025 -80748545
            -536875009 -67109393 -67117585</internalNodes>
          <leafValues>
            -5.4338413476943970e-01 6.6541194915771484e-01</leafValues></_>
        <_>
          <internalNodes>
            0 -1 70 -2561 -18433 -761531654 -210502158 -560988161
            -13787554 -185602049 -557845513</internalNodes>
          <leafValues>
            -5.0432419776916504e-01 4.8626324534416199e-01</leafValues></_>
        <_>
          <internalNodes>
            0 -1 112 2139062271 -69210633 -33816769 1339996622
            2144337919 -289729289 1942665079 1331552007</internalNodes>
          <leafValues>
            -5.3360110521316528e-01 3.8303685188293457e-01</leafValues></_>
        <_>
          <internalNodes>
            0 -1 129 -1075314689 -290525202 -14 -1281 -1744831493
            -842006577 401864695 -134218241</internalNodes>
          <leafValues>
            -3.9203965663909912e-01 5.0835245847702026e-01</leafValues></_>
        <_>
          <internalNodes>
            0 -1 59 -975735877 -2146561 -804826510 2071164658 -917595153
            1969733965 -627051526 1966306687</internalNodes>
          <leafValues>
            -6.9105970859527588e-01 2.6672911643981934e-01</leafValues></_>
        <_>
          <internalNodes>
            0 -1 99 833028146 -136720035 -1110046241 -1647677969
            -1433475395 -1194408712 -1934824481 455760632</internalNodes>
          <leafValues>
            -5.9435898065567017e-01 3.4418380260467529e-01</leafValues></_>
        <_>
          <internalNodes>
            0 -1 92 527659999 2004195286 -118525089 649920255 -121128457
            1373398761 1594980183 140506711</internalNodes>
          <leafValues>
            -5.4755008220672607e-01 3.3834132552146912e-01</leafValues></_>
        <_>
          <internalNodes>
            0 -1 57 -1610672577 2147290671 -201078057 1919939999
            -1147435401 -82115810 735540791 2143992831</internalNodes>
          <leafValues>
            -6.1537522077560425e-01 2.8304746747016907e-01</leafValues></_>
        <_>
          <internalNodes>
            0 -1 51 -137778502 1621300619 -1032044527 1195765771
            -711437153 16909905 12675600 1910897999</internalNodes>
          <leafValues>
            -5.7749223709106445e-01 3.2460495829582214e-01</leafValues></_>
        <_>
          <internalNodes>
            0 -1 127 -1087938573 -822185617 -171739660 -160212022
            527956975 1326156174 125039586 -818420053</internalNodes>
          <leafValues>
            -5.0878536701202393e-01 3.2949721813201904e-01</leafValues></_>
        <_>
          <internalNodes>
            0 -1 13 -1975997899 -1655481066 -1122930793 -1122524107
            -2127358255 -1186173111 261663165 162531476</internalNodes>
          <leafValues>
            -6.4954280853271484e-01 2.9287376999855042e-01</leafValues></_>
        <_>
          <internalNodes>
            0 -1 138 -1079091777 -1014957100 -534239955 -196643459
            -1551160838 -824458608 995577771 526341375</internalNodes>
          <leafValues>
            -4.6875521540641785e-01 3.8093155622482300e-01</leafValues></_>
        <_>
          <internalNodes>
            0 -1 62 -562215555 -1144565195 -527109733 1597110239
            -556312560 -888435712 -895812764 -430645505</internalNodes>
          <leafValues>
            -5.0079131126403809e-01 3.5740920901298523e-01</leafValues></_>
        <_>
          <internalNodes>
            0 -1 81 1912021189 1435429711 -2145858337 1441410151
            -1429542545 721997503 -1475941185 -559540098</internalNodes>
          <leafValues>
            -5.6229448318481445e-01 3.2075580954551697e-01</leafValues></_>
        <_>
          <internalNodes>
            0 -1 101 -1951709761 -541254553 -477247129 1816711150
            -1938818085 972741099 827823636 -418715281</internalNodes>
          <leafValues>
            -5.2234005928039551e-01 3.5326439142227173e-01</leafValues></_></weakClassifiers></_>
    <!-- stage 6 -->
    <_>
      <maxWeakCount>18</maxWeakCount>
      <stageThreshold>-1.2144093513488770e+00</stageThreshold>
      <weakClassifiers>
        <_>
          <internalNodes>
            0 -1 125 -138414089 1467744255 -2049 -257 -138543105 -524289
            -4195329 -262241</internalNodes>
          <leafValues>
            -4.8750665783882141e-01 7.0596796274185181e-01</leafValues></_>
        <_>
          <internalNodes>
            0 -1 41 -1627390025 -570427509 1406402359 -218104321
            -1085023381 -15221991 -1148584449 -8397827</internalNodes>
          <leafValues>
            -4.6062514185905457e-01 4.8327821493148804e-01</leafValues></_>
        <_>
          <internalNodes>
            0 -1 25 1963257855 1057713765 2012509098 1291866418 26188459
            -519987047 -2134144117 1968534895</internalNodes>
          <leafValues>
            -7.5639921426773071e-01 2.4430684745311737e-01</leafValues></_>
        <_>
          <internalNodes>
            0 -1 119 -1084883491 -358403441 -1325341209 -216550768
            -1416904967 -2087198327 937687518 1599593881</internalNodes>
          <leafValues>
            -5.3454041481018066e-01 3.5146716237068176e-01</leafValues></_>
        <_>
          <internalNodes>
            0 -1 82 -940189552 -1828648305 -246948037 -4932685
            -976232561 1654760107 403543837 -9962705</internalNodes>
          <leafValues>
            -6.0318064689636230e-01 2.5578325986862183e-01</leafValues></_>
        <_>
          <internalNodes>
            0 -1 6 -285422354 -304264053 -1073551205 -1731800269
            2052008829 -69623788 -628409347 -88229889</internalNodes>
          <leafValues>
            -5.4977190494537354e-01 2.7270928025245667e-01</leafValues></_>
        <_>
          <internalNodes>
            0 -1 36 1014511349 -3715244 -784515113 2011126101
            -1253541645 -43437351 -1149996828 997458164</internalNodes>
          <leafValues>
            -4.2531922459602356e-01 4.0403100848197937e-01</leafValues></_>
        <_>
          <internalNodes>
            0 -1 90 1048587605 -1982442627 -540192046 2104509008
            -1526407415 -1578773381 -2010502984 487057099</internalNodes>
          <leafValues>
            -5.4791533946990967e-01 3.0229651927947998e-01</leafValues></_>
        <_>
          <internalNodes>
            0 -1 133 -414194079 1319039043 395667155 -1081726692
            -1410140724 1318641604 -148396651 -14696875</internalNodes>
          <leafValues>
            -5.0675255060195923e-01 3.1368318200111389e-01</leafValues></_>
        <_>
          <internalNodes>
            0 -1 93 534609919 2107632607 -99365889 -389049763 -99616963
            -354827277 1526691350 1309243651</internalNodes>
          <leafValues>
            -5.1806366443634033e-01 3.0360317230224609e-01</leafValues></_>
        <_>
          <internalNodes>
            0 -1 89 -305323 -547982369 -1878682210 1912608242 1000438063
            1981509391 1238231292 522941902</internalNodes>
          <leafValues>
            -5.4419547319412231e-01 2.7940937876701355e-01</leafValues></_>
        <_>
          <internalNodes>
            0 -1 134 2013265826 -33882185 -1074397217 -381739027
            -16253013 -137953481 -143155553 -19574</internalNodes>
          <leafValues>
            -2.8025108575820923e-01 5.5627989768981934e-01</leafValues></_>
        <_>
          <internalNodes>
            0 -1 18 -893654021 -234959364 -524417 -8710 2130442683
            -33751186 -1375731767 -1919558276</internalNodes>
          <leafValues>
            -3.0780339241027832e-01 5.6090366840362549e-01</leafValues></_>
        <_>
          <internalNodes>
            0 -1 11 2147344878 -171523834 1006677902 -809008826
            1227676671 1824827642 -1316574449 -590414647</internalNodes>
          <leafValues>
            -3.9096760749816895e-01 4.0441671013832092e-01</leafValues></_>
        <_>
          <internalNodes>
            0 -1 102 -1676780043 -1761407717 -788130025 -1672986226
            1288420319 1788429499 2001142722 -472909585</internalNodes>
          <leafValues>
            -4.5350381731987000e-01 3.3887609839439392e-01</leafValues></_>
        <_>
          <internalNodes>
            0 -1 61 -572715787 -67943406 1631797690 461195508 -719146979
            -377220468 -609470244 457411959</internalNodes>
          <leafValues>
            -4.5002198219299316e-01 3.5270324349403381e-01</leafValues></_>
        <_>
          <internalNodes>
            0 -1 19 -1532515792 -47101935 453070103 1370550716
            -1301735111 -78440406 856292279 239106344</internalNodes>
          <leafValues>
            -5.3822451829910278e-01 2.8661116957664490e-01</leafValues></_>
        <_>
          <internalNodes>
            0 -1 4 -889262353 -536872221 -303108609 -843976770
            -805329318 -269179507 -855664385 -1750829313</internalNodes>
          <leafValues>
            -3.3925071358680725e-01 4.9048623442649841e-01</leafValues></_></weakClassifiers></_>
    <!-- stage 7 -->
    <_>
      <maxWeakCount>20</maxWeakCount>
      <stageThreshold>-1.2726515531539917e+00</stageThreshold>
      <weakClassifiers>
        <_>
          <internalNodes>
            0 -1 30 -327777 -49554657 -576370729 -712838393 -3157377
            -12074345 -70260501 -1059873</internalNodes>
          <leafValues>
            -5.2173042297363281e-01 4.8284766077995300e-01</leafValues></_>
        <_>
          <internalNodes>
            0 -1 132 -1082163273 -874679870 -321160233 -2133507 -336193
            -1920345969 -204736521 -146867202</internalNodes>
          <leafValues>
            -4.2441719770431519e-01 4.2098230123519897e-01</leafValues></_>
        <_>
          <internalNodes>
            0 -1 15 839325579 794121537 -1618110531 -1881289829
            992952829 1871433920 -1287819101 332465475</internalNodes>
          <leafValues>
            -6.0806459188461304e-01 2.6996862888336182e-01</leafValues></_>
        <_>
          <internalNodes>
            0 -1 80 -303731969 -76587010 -2113314338 1884452598
            -847021220 1528635915 999275182 1396964843</internalNodes>
          <leafValues>
            -6.1778277158737183e-01 2.6953411102294922e-01</leafValues></_>
        <_>
          <internalNodes>
            0 -1 45 400508239 85721187 -208667169 -72231555 1261408650
            -67146565 1523601244 457234393</internalNodes>
          <leafValues>
            -5.1020157337188721e-01 2.7217164635658264e-01</leafValues></_>
        <_>
          <internalNodes>
            0 -1 114 2068805119 -637685513 1371785437 1335268814
            -18096657 -812799249 910545555 1733090122</internalNodes>
          <leafValues>
            -4.2299902439117432e-01 3.4668630361557007e-01</leafValues></_>
        <_>
          <internalNodes>
            0 -1 86 -1183088769 1070424985 184909295 1659074394
            1974073847 1004258299 1594490183 1146388317</internalNodes>
          <leafValues>
            -5.5190116167068481e-01 2.4217513203620911e-01</leafValues></_>
        <_>
          <internalNodes>
            0 -1 88 -455646209 -37921 -1795041794 845700734 -1446040771
            958996751 -542133788 -1691688996</internalNodes>
          <leafValues>
            -5.5336576700210571e-01 2.6817724108695984e-01</leafValues></_>
        <_>
          <internalNodes>
            0 -1 115 -1527187459 1693987257 -661698235 -6336111
            -1345407489 730505634 491770266 1573115314</internalNodes>
          <leafValues>
            -4.1503992676734924e-01 3.3925652503967285e-01</leafValues></_>
        <_>
          <internalNodes>
            0 -1 73 -523791081 282074517 -2008004001 941412864
            1552874425 -1182556966 -1176389176 -1930896436</internalNodes>
          <leafValues>
            -4.1529482603073120e-01 3.4372359514236450e-01</leafValues></_>
        <_>
          <internalNodes>
            0 -1 135 -1419282443 -1367365234 -204910189 -1496689702
            -4747265 185311692 1667856375 -739783563</internalNodes>
          <leafValues>
            -5.2469432353973389e-01 2.7219447493553162e-01</leafValues></_>
        <_>
          <internalNodes>
            0 -1 32 -899946705 1341081221 1535418521 -262932069
            -225978005 1778450690 722389994 -268468019</internalNodes>
          <leafValues>
            -4.1647741198539734e-01 3.4029090404510498e-01</leafValues></_>
        <_>
          <internalNodes>
            0 -1 75 -2058136325 2145247219 1411243005 1927268863
            985260919 1985169534 -1386775718 1189040638</internalNodes>
          <leafValues>
            -4.5693969726562500e-01 3.4610006213188171e-01</leafValues></_>
        <_>
          <internalNodes>
            0 -1 121 -1119109699 -514097015 -997625793 -461141601
            -206865602 -2113207704 497285050 -11051639</internalNodes>
          <leafValues>
            -4.4004485011100769e-01 3.2047107815742493e-01</leafValues></_>
        <_>
          <internalNodes>
            0 -1 12 -1932461712 -183315572 -1726459604 -583691826
            1335945885 -340303781 2088991262 466682325</internalNodes>
          <leafValues>
            -4.0805223584175110e-01 3.6722341179847717e-01</leafValues></_>
        <_>
          <internalNodes>
            0 -1 142 -67764439 1974337215 2147284659 -20971658 499096609
            -1342220898 -1573937 -151742568</internalNodes>
          <leafValues>
            -3.5762488842010498e-01 4.3394899368286133e-01</leafValues></_>
        <_>
          <internalNodes>
            0 -1 91 875986943 159791106 -1331831969 -617457262 424765496
            -920730360 -1466966882 1531920990</internalNodes>
          <leafValues>
            -4.1667214035987854e-01 3.5580486059188843e-01</leafValues></_>
        <_>
          <internalNodes>
            0 -1 9 414817727 -369061433 144463996 1430778201 136874171
            -159182670 -2137845905 -1655757441</internalNodes>
          <leafValues>
            -3.9947900176048279e-01 3.6811161041259766e-01</leafValues></_>
        <_>
          <internalNodes>
            0 -1 72 -671747087 2113859567 -152072227 -655427091
            -46280742 -637771804 -1124402006 148496342</internalNodes>
          <leafValues>
            -2.9133886098861694e-01 4.6754088997840881e-01</leafValues></_>
        <_>
          <internalNodes>
            0 -1 55 -360017 -6616689 5128503 -667940577 -1048281014
            944504905 -1940126586 -694445122</internalNodes>
          <leafValues>
            -4.7666534781455994e-01 3.0572295188903809e-01</leafValues></_></weakClassifiers></_>
    <!-- stage 8 -->
    <_>
      <maxWeakCount>23</maxWeakCount>
      <stageThreshold>-1.1599434614181519e+00</stageThreshold>
      <weakClassifiers>
        <_>
          <internalNodes>
            0 -1 100 -135800843 -138936841 -841351681 -33652737 -16387
            -4273681 -33562631 -2097153</internalNodes>
          <leafValues>
            -4.6329942345619202e-01 5.6999999284744263e-01</leafValues></_>
        <_>
          <internalNodes>
            0 -1 69 -463516939 -588567043 -419180069 2000712400
            706857977 -1741322177 -375219285 -78907393</internalNodes>
          <leafValues>
            -4.1086325049400330e-01 3.7569904327392578e-01</leafValues></_>
        <_>
          <internalNodes>
            0 -1 17 1327983118 1602216283 -1242199905 2130718915
            -817942044 -604008310 -639254461 -16190</internalNodes>
          <leafValues>
            -4.1731727123260498e-01 3.5096883773803711e-01</leafValues></_>
        <_>
          <internalNodes>
            0 -1 116 -1107361799 -840499336 -9081251 -36307071
            -1415069765 -1433751902 455053787 -540058437</internalNodes>
          <leafValues>
            -2.8574082255363464e-01 4.7199866175651550e-01</leafValues></_>
        <_>
          <internalNodes>
            0 -1 105 2012610559 -33844737 434627071 1826551755
            1606417403 -40592391 2004467543 1279523667</internalNodes>
          <leafValues>
            -4.8373717069625854e-01 2.7873259782791138e-01</leafValues></_>
        <_>
          <internalNodes>
            0 -1 63 -404444934 -1251668725 -1476354549 -1108053105
            1744676847 -1345925119 720277060 1054342999</internalNodes>
          <leafValues>
            -5.1324212551116943e-01 2.7065104246139526e-01</leafValues></_>
        <_>
          <internalNodes>
            0 -1 0 -555751185 -641075078 -1719693825 -570427396
            1188017374 -16912449 -159477707 1567282500</internalNodes>
          <leafValues>
            -3.3155566453933716e-01 3.8973185420036316e-01</leafValues></_>
        <_>
          <internalNodes>
            0 -1 8 -34607377 262950452 -117446149 2107768830 -526597
            -553918785 -136454468 -1158695313</internalNodes>
          <leafValues>
            -3.0208954215049744e-01 4.3611863255500793e-01</leafValues></_>
        <_>
          <internalNodes>
            0 -1 128 -1320816734 -1366625910 -1723772528 1994117616
            -1153696950 1192061839 59347875 1476380925</internalNodes>
          <leafValues>
            -5.6195765733718872e-01 2.6479735970497131e-01</leafValues></_>
        <_>
          <internalNodes>
            0 -1 52 -589374545 -606379065 -687406636 -1208805946
            -1713536133 -1088454653 -1147567198 -1638212130</internalNodes>
          <leafValues>
            -3.8413721323013306e-01 3.1938979029655457e-01</leafValues></_>
        <_>
          <internalNodes>
            0 -1 98 -581566714 -1972759933 -264576069 1402700426
            1366474207 866756507 -1695470943 -142276558</internalNodes>
          <leafValues>
            -4.3029555678367615e-01 2.6071888208389282e-01</leafValues></_>
        <_>
          <internalNodes>
            0 -1 118 -1169132208 -792313617 -1842640497 -1863482457
            -1477452561 143327245 730458268 928852141</internalNodes>
          <leafValues>
            -6.0388946533203125e-01 2.0390783250331879e-01</leafValues></_>
        <_>
          <internalNodes>
            0 -1 21 -789852950 2042326542 -88332746 -714355458
            -293622452 -1370501300 -352849921 -570436263</internalNodes>
          <leafValues>
            -3.0353817343711853e-01 4.2414137721061707e-01</leafValues></_>
        <_>
          <internalNodes>
            0 -1 104 95371231 -305674401 -784809649 1151476735
            2086402413 -127936265 2064292358 1281288735</internalNodes>
          <leafValues>
            -5.3073811531066895e-01 2.5740060210227966e-01</leafValues></_>
        <_>
          <internalNodes>
            0 -1 71 2062543566 1342748765 8593262 -1081305986 -494821896
            818991562 2052520744 -552574131</internalNodes>
          <leafValues>
            -4.0648683905601501e-01 2.9451385140419006e-01</leafValues></_>
        <_>
          <internalNodes>
            0 -1 107 -2084274399 221407242 85832510 -146779054
            -1351955459 -825392376 -2056408876 294904783</internalNodes>
          <leafValues>
            -5.0024646520614624e-01 2.4898095428943634e-01</leafValues></_>
        <_>
          <internalNodes>
            0 -1 10 1931311180 -259405618 1595516407 2108490312
            1805860276 -1309298440 -121037171 -400251460</internalNodes>
          <leafValues>
            -3.7530556321144104e-01 3.2955676317214966e-01</leafValues></_>
        <_>
          <internalNodes>
            0 -1 139 -202116285 179082958 -268468895 -92389582 726116282
            -168790712 -512544800 -383618574</internalNodes>
          <leafValues>
            -3.4334924817085266e-01 3.6279037594795227e-01</leafValues></_>
        <_>
          <internalNodes>
            0 -1 34 -238598969 -15049652 -1072396153 276107519
            -2138838187 -1639136675 -1557480740 191164647</internalNodes>
          <leafValues>
            -5.7660794258117676e-01 2.0602452754974365e-01</leafValues></_>
        <_>
          <internalNodes>
            0 -1 48 -1625242772 1029181704 2030426601 -1644195816
            1781571216 2041089037 413350412 1024464953</internalNodes>
          <leafValues>
            -4.7900339961051941e-01 2.5223067402839661e-01</leafValues></_>
        <_>
          <internalNodes>
            0 -1 140 799014143 -1513233467 1741149041 774436051
            470237286 -970342201 168130719 -169576917</internalNodes>
          <leafValues>
            -3.7454050779342651e-01 3.2561421394348145e-01</leafValues></_>
        <_>
          <internalNodes>
            0 -1 109 -1057012939 478039380 -867301761 1339574294
            1097493589 -23883173 -1383129284 680127270</internalNodes>
          <leafValues>
            -4.7787436842918396e-01 2.7614358067512512e-01</leafValues></_>
        <_>
          <internalNodes>
            0 -1 39 -504302370 -1299005073 -2091812773 -1155854065
            -1350988905 -129367509 -2013077044 -1126177875</internalNodes>
          <leafValues>
            -4.9609494209289551e-01 2.4522836506366730e-01</leafValues></_></weakClassifiers></_>
    <!-- stage 9 -->
    <_>
      <maxWeakCount>24</maxWeakCount>
      <stageThreshold>-1.2479493618011475e+00</stageThreshold>
      <weakClassifiers>
        <_>
          <internalNodes>
            0 -1 130 -2101763 -201596145 -84092725 -137373041 -754529335
            -685053403 1107659145 -3149905</internalNodes>
          <leafValues>
            -5.0701075792312622e-01 4.3083003163337708e-01</leafValues></_>
        <_>
          <internalNodes>
            0 -1 60 -542146563 -45864 -1583181029 -649629441 -995186084
            -83229628 1521239384 -565191937</internalNodes>
          <leafValues>
            -3.9726492762565613e-01 3.5346993803977966e-01</leafValues></_>
        <_>
          <internalNodes>
            0 -1 111 -4720719 -202472875 -725381242 -41351162
            -1163149857 1114278503 1162328055 1470888879</internalNodes>
          <leafValues>
            -5.0392597913742065e-01 2.5796425342559814e-01</leafValues></_>
        <_>
          <internalNodes>
            0 -1 16 -488380021 1205432826 -1387998249 -16398775
            1879088085 1460295303 1670109635 265605188</internalNodes>
          <leafValues>
            -4.2225423455238342e-01 3.0223146080970764e-01</leafValues></_>
        <_>
          <internalNodes>
            0 -1 95 -67110913 -613557921 -1626120289 1791679462
            -763940161 -320104387 2067098450 1279980367</internalNodes>
          <leafValues>
            -4.7134196758270264e-01 2.4721291661262512e-01</leafValues></_>
        <_>
          <internalNodes>
            0 -1 97 -1134659595 -1511239292 -1723115020 391262834
            -1353089059 -284557047 751828220 -983566149</internalNodes>
          <leafValues>
            -3.8131111860275269e-01 3.0708831548690796e-01</leafValues></_>
        <_>
          <internalNodes>
            0 -1 50 -1094799128 -1556496435 72211597 1158794777
            -1588730432 1082753297 978308085 -194137358</internalNodes>
          <leafValues>
            -4.1818106174468994e-01 2.7907454967498779e-01</leafValues></_>
        <_>
          <internalNodes>
            0 -1 38 -25524729 -547683311 -620656253 1385386925
            -854652663 520716288 -888962936 926626266</internalNodes>
          <leafValues>
            -4.5615860819816589e-01 2.6163029670715332e-01</leafValues></_>
        <_>
          <internalNodes>
            0 -1 123 -1254294713 1881723008 1678836049 -263974520
            646627370 -635624824 922892458 525801784</internalNodes>
          <leafValues>
            -5.4240387678146362e-01 2.0088987052440643e-01</leafValues></_>
        <_>
          <internalNodes>
            0 -1 40 -2084941903 -1915522596 1078200693 1509769418
            -1834956167 -662188028 -392937334 487258266</internalNodes>
          <leafValues>
            -6.0686457157135010e-01 1.8832243978977203e-01</leafValues></_>
        <_>
          <internalNodes>
            0 -1 3 -541725443 -39854082 1056898303 -1074746369
            -956891084 1601159156 -185273702 -389677538</internalNodes>
          <leafValues>
            -2.9155951738357544e-01 4.2910310626029968e-01</leafValues></_>
        <_>
          <internalNodes>
            0 -1 85 531595259 2145546735 160118235 -398111843 1226665843
            2032574480 1935373908 1177147291</internalNodes>
          <leafValues>
            -4.2358720302581787e-01 2.9352802038192749e-01</leafValues></_>
        <_>
          <internalNodes>
            0 -1 141 1061089067 2045630463 -114080068 -1646604414
            1946266437 -130762711 -613070726 1007959828</internalNodes>
          <leafValues>
            -4.4104072451591492e-01 2.5471815466880798e-01</leafValues></_>
        <_>
          <internalNodes>
            0 -1 20 -452334776 75042515 598954116 -177590028 -1577746357
            1656586251 -496533439 -26803711</internalNodes>
          <leafValues>
            -4.8657017946243286e-01 2.3371008038520813e-01</leafValues></_>
        <_>
          <internalNodes>
            0 -1 96 -1601013823 -3530618 -1660036290 1916938206
            603060273 51221482 -2126781200 -1018439473</internalNodes>
          <leafValues>
            -4.1826209425926208e-01 2.6892596483230591e-01</leafValues></_>
        <_>
          <internalNodes>
            0 -1 1 -320017666 -67395333 -779939325 -1528126782
            -763396028 1291419803 105074761 1246839211</internalNodes>
          <leafValues>
            -4.4614410400390625e-01 2.5806865096092224e-01</leafValues></_>
        <_>
          <internalNodes>
            0 -1 117 1416594772 1464502235 -986462339 -1736935215
            -1347621972 -1400664931 -660878387 137141182</internalNodes>
          <leafValues>
            -3.7999793887138367e-01 3.0836510658264160e-01</leafValues></_>
        <_>
          <internalNodes>
            0 -1 137 -368351456 -290565208 695305043 -1389602548
            -115098656 -972961280 -1290800205 395865131</internalNodes>
          <leafValues>
            -5.5173122882843018e-01 2.1109168231487274e-01</leafValues></_>
        <_>
          <internalNodes>
            0 -1 7 -583294735 1333714877 1861103207 1063645093
            -713693249 234321622 2029219324 -1109587660</internalNodes>
          <leafValues>
            -2.9513844847679138e-01 4.2660987377166748e-01</leafValues></_>
        <_>
          <internalNodes>
            0 -1 56 -1700272641 1599189263 -585690865 1389869675
            -1314390215 -1316711624 287031872 -539312872</internalNodes>
          <leafValues>
            -4.0587389469146729e-01 2.9728943109512329e-01</leafValues></_>
        <_>
          <internalNodes>
            0 -1 113 834762000 268506452 -683552126 1963209749
            2067722272 -1632966690 -77922506 1937683542</internalNodes>
          <leafValues>
            -4.3537971377372742e-01 2.5972616672515869e-01</leafValues></_>
        <_>
          <internalNodes>
            0 -1 65 395413655 -1911553783 -1188849473 1287807034
            -1073381231 -2133882816 -2132610504 1710321611</internalNodes>
          <leafValues>
            -4.2826244235038757e-01 2.6973786950111389e-01</leafValues></_>
        <_>
          <internalNodes>
            0 -1 84 891766143 1903350487 960173499 1223885307 1394045037
            1670062236 991567943 18102634</internalNodes>
          <leafValues>
            -5.2680671215057373e-01 1.9976648688316345e-01</leafValues></_>
        <_>
          <internalNodes>
            0 -1 108 -1401540815 -276554007 1879031280 233925562
            1065336604 -1358336147 1551233242 -821838342</internalNodes>
          <leafValues>
            -3.3607640862464905e-01 3.5688972473144531e-01</leafValues></_></weakClassifiers></_></stages>
  <features>
    <_>
      <rect>
        0 0 2 3</rect></_>
    <_>
      <rect>
        0 0 4 8</rect></_>
    <_>
      <rect>
        0 2 4 2</rect></_>
    <_>
      <rect>
        0 3 1 2</rect></_>
    <_>
      <rect>
        0 5 2 4</rect></_>
    <_>
      <rect>
        0 5 3 3</rect></_>
    <_>
      <rect>
        0 7 3 4</rect></_>
    <_>
      <rect>
        0 9 1 1</rect></_>
    <_>
      <rect>
        0 9 2 2</rect></_>
    <_>
      <rect>
        0 9 6 3</rect></_>
    <_>
      <rect>
        0 11 6 4</rect></_>
    <_>
      <rect>
        0 14 7 3</rect></_>
    <_>
      <rect>
        1 1 2 1</rect></_>
    <_>
      <rect>
        2 0 4 3</rect></_>
    <_>
      <rect>
        2 1 2 3</rect></_>
    <_>
      <rect>
        2 1 3 4</rect></_>
    <_>
      <rect>
        2 2 2 2</rect></_>
    <_>
      <rect>
        2 2 3 6</rect></_>
    <_>
      <rect>
        2 3 2 1</rect></_>
    <_>
      <rect>
        2 3 4 1</rect></_>
    <_>
      <rect>
        2 3 4 6</rect></_>
    <_>
      <rect>
        2 7 1 1</rect></_>
    <_>
      <rect>
        3 2 2 3</rect></_>
    <_>
      <rect>
        3 2 4 3</rect></_>
    <_>
      <rect>
        3 5 2 2</rect></_>
    <_>
      <rect>
        3 7 4 4</rect></_>
    <_>
      <rect>
        3 11 2 2</rect></_>
    <_>
      <rect>
        3 11 6 2</rect></_>
    <_>
      <rect>
        4 1 4 5</rect></_>
    <_>
      <rect>
        4 1 5 6</rect></_>
    <_>
      <rect>
        4 2 1 3</rect></_>
    <_>
      <rect>
        4 5 2 4</rect></_>
    <_>
      <rect>
        4 6 1 1</rect></_>
    <_>
      <rect>
        4 6 2 2</rect></_>
    <_>
      <rect>
        4 11 2 2</rect></_>
    <_>
      <rect>
        4 12 2 2</rect></_>
    <_>
      <rect>
        5 2 3 1</rect></_>
    <_>
      <rect>
        5 2 5 4</rect></_>
    <_>
      <rect>
        5 5 2 3</rect></_>
    <_>
      <rect>
        5 5 6 5</rect></_>
    <_>
      <rect>
        5 6 1 3</rect></_>
    <_>
      <rect>
        5 7 1 1</rect></_>
    <_>
      <rect>
        5 7 2 2</rect></_>
    <_>
      <rect>
        5 9 1 2</rect></_>
    <_>
      <rect>
        5 9 3 2</rect></_>
    <_>
      <rect>
        5 9 6 4</rect></_>
    <_>
      <rect>
        5 10 2 1</rect></_>
    <_>
      <rect>
        5 10 4 2</rect></_>
    <_>
      <rect>
        6 1 2 1</rect></_>
    <_>
      <rect>
        6 2 6 3</rect></_>
    <_>
      <rect>
        6 5 3 6</rect></_>
    <_>
      <rect>
        6 5 4 6</rect></_>
    <_>
      <rect>
        6 6 1 2</rect></_>
    <_>
      <rect>
        6 6 1 3</rect></_>
    <_>
      <rect>
        6 6 3 6</rect></_>
    <_>
      <rect>
        6 7 2 3</rect></_>
    <_>
      <rect>
        6 8 1 1</rect></_>
    <_>
      <rect>
        6 10 1 1</rect></_>
    <_>
      <rect>
        6 11 2 1</rect></_>
    <_>
      <rect>
        6 11 3 2</rect></_>
    <_>
      <rect>
        6 12 1 2</rect></_>
    <_>
      <rect>
        6 12 1 3</rect></_>
    <_>
      <rect>
        6 13 1 2</rect></_>
    <_>
      <rect>
        7 3 4 7</rect></_>
    <_>
      <rect>
        7 5 5 3</rect></_>
    <_>
      <rect>
        7 8 3 4</rect></_>
    <_>
      <rect>
        7 10 3 3</rect></_>
    <_>
      <rect>
        7 11 1 1</rect></_>
    <_>
      <rect>
        7 12 1 1</rect></_>
    <_>
      <rect>
        7 13 2 2</rect></_>
    <_>
      <rect>
        7 13 3 1</rect></_>
    <_>
      <rect>
        7 18 3 2</rect></_>
    <_>
      <rect>
        8 1 5 1</rect></_>
    <_>
      <rect>
        8 2 5 2</rect></_>
    <_>
      <rect>
        8 4 4 5</rect></_>
    <_>
      <rect>
        8 8 1 1</rect></_>
    <_>
      <rect>
        8 8 3 4</rect></_>
    <_>
      <rect>
        8 10 3 2</rect></_>
    <_>
      <rect>
        8 11 3 2</rect></_>
    <_>
      <rect>
        8 13 1 1</rect></_>
    <_>
      <rect>
        8 14 1 1</rect></_>
    <_>
      <rect>
        9 0 4 5</rect></_>
    <_>
      <rect>
        9 2 3 7</rect></_>
    <_>
      <rect>
        9 2 4 3</rect></_>
    <_>
      <rect>
        9 6 1 1</rect></_>
    <_>
      <rect>
        9 8 1 1</rect></_>
    <_>
      <rect>
        9 9 1 1</rect></_>
    <_>
      <rect>
        9 12 2 2</rect></_>
    <_>
      <rect>
        9 13 1 1</rect></_>
    <_>
      <rect>
        9 14 1 1</rect></_>
    <_>
      <rect>
        9 14 2 2</rect></_>
    <_>
      <rect>
        9 16 1 1</rect></_>
    <_>
      <rect>
        10 8 1 1</rect></_>
    <_>
      <rect>
        10 9 1 1</rect></_>
    <_>
      <rect>
        10 10 1 1</rect></_>
    <_>
      <rect>
        10 11 1 1</rect></_>
    <_>
      <rect>
        10 15 1 1</rect></_>
    <_>
      <rect>
        10 16 1 1</rect></_>
    <_>
      <rect>
        11 1 4 7</rect></_>
    <_>
      <rect>
        11 2 3 2</rect></_>
    <_>
      <rect>
        11 2 4 2</rect></_>
    <_>
      <rect>
        11 7 2 1</rect></_>
    <_>
      <rect>
        11 7 2 2</rect></_>
    <_>
      <rect>
        11 8 1 1</rect></_>
    <_>
      <rect>
        11 9 1 1</rect></_>
    <_>
      <rect>
        11 10 1 1</rect></_>
    <_>
      <rect>
        11 12 2 2</rect></_>
    <_>
      <rect>
        11 15 1 1</rect></_>
    <_>
      <rect>
        11 16 1 1</rect></_>
    <_>
      <rect>
        12 0 4 2</rect></_>
    <_>
      <rect>
        12 5 2 2</rect></_>
    <_>
      <rect>
        12 5 2 3</rect></_>
    <_>
      <rect>
        12 9 1 1</rect></_>
    <_>
      <rect>
        12 9 4 5</rect></_>
    <_>
      <rect>
        12 10 1 1</rect></_>
    <_>
      <rect>
        12 14 1 2</rect></_>
    <_>
      <rect>
        12 15 1 2</rect></_>
    <_>
      <rect>
        13 1 3 1</rect></_>
    <_>
      <rect>
        13 3 1 3</rect></_>
    <_>
      <rect>
        13 7 1 3</rect></_>
    <_>
      <rect>
        13 7 2 2</rect></_>
    <_>
      <rect>
        13 8 1 3</rect></_>
    <_>
      <rect>
        13 11 1 1</rect></_>
    <_>
      <rect>
        13 12 1 3</rect></_>
    <_>
      <rect>
        13 12 3 2</rect></_>
    <_>
      <rect>
        14 2 2 2</rect></_>
    <_>
      <rect>
        14 5 1 3</rect></_>
    <_>
      <rect>
        14 8 1 1</rect></_>
    <_>
      <rect>
        14 12 1 1</rect></_>
    <_>
      <rect>
        14 13 1 1</rect></_>
    <_>
      <rect>
        15 2 1 3</rect></_>
    <_>
      <rect>
        15 5 1 3</rect></_>
    <_>
      <rect>
        15 6 1 1</rect></_>
    <_>
      <rect>
        15 6 2 2</rect></_>
    <_>
      <rect>
        15 8 3 4</rect></_>
    <_>
      <rect>
        15 10 1 1</rect></_>
    <_>
      <rect>
        16 5 1 3</rect></_>
    <_>
      <rect>
        16 7 1 1</rect></_>
    <_>
      <rect>
        16 8 1 3</rect></_>
    <_>
      <rect>
        17 1 2 3</rect></_>
    <_>
      <rect>
        17 10 1 2</rect></_>
    <_>
      <rect>
        18 6 2 3</rect></_>
    <_>
      <rect>
        18 9 2 2</rect></_></features></cascade>
</opencv_storage>
