<?xml version="1.0"?>
<opencv_storage>
<stage3>
  <maxWeakCount>12</maxWeakCount>
  <stageThreshold>-1.4159446954727173e+00</stageThreshold>
  <weakClassifiers>
    <_>
      <internalNodes>
        0 -1 5342 -167808781 -168331267 -33554435 -1 -513 -1 -1 -8257</internalNodes>
      <leafValues>
        -6.3363599777221680e-01 7.2554963827133179e-01</leafValues></_>
    <_>
      <internalNodes>
        0 -1 4020 -67477505 -33825 -558138793 2044403935 -603994241
        -11797921 -71574537 -16057345</internalNodes>
      <leafValues>
        -6.4078766107559204e-01 5.3668421506881714e-01</leafValues></_>
    <_>
      <internalNodes>
        0 -1 7191 -13500431 -279462945 -605034601 -8390817 -1696595969
        -808739045 1461187569 -538977832</internalNodes>
      <leafValues>
        -5.9750008583068848e-01 5.3687256574630737e-01</leafValues></_>
    <_>
      <internalNodes>
        0 -1 1560 1090910157 1158613103 -671638057 1461988342 -182119429
        2004857039 -1409290017 -9442689</internalNodes>
      <leafValues>
        -5.3678786754608154e-01 4.9507865309715271e-01</leafValues></_>
    <_>
      <internalNodes>
        0 -1 6357 668262367 -1440038513 1396002778 -2109154 536469503
        1225824209 293056688 1129793651</internalNodes>
      <leafValues>
        -7.5510758161544800e-01 3.6146402359008789e-01</leafValues></_>
    <_>
      <internalNodes>
        0 -1 6300 536838143 -537922565 1594677247 1323302103 -2097153
        -4198497 2111826707 1309666903</internalNodes>
      <leafValues>
        -6.3099068403244019e-01 3.8449588418006897e-01</leafValues></_>
    <_>
      <internalNodes>
        0 -1 3899 368096516 292928951 503176703 2101152639 -1178091521
        -1292786433 1032138431 455745407</internalNodes>
      <leafValues>
        -6.9958263635635376e-01 3.7913787364959717e-01</leafValues></_>
    <_>
      <internalNodes>
        0 -1 5057 -211834151 1595343762 -338701605 -1384882086
        -1616397061 -1550875137 282159128 -545392385</internalNodes>
      <leafValues>
        -5.8715164661407471e-01 4.1522076725959778e-01</leafValues></_>
    <_>
      <internalNodes>
        0 -1 3508 -1426399701 -2057 -89399534 1390147998 -1950643925
        -16014291 -1685192722 -407144501</internalNodes>
      <leafValues>
        -5.7926017045974731e-01 4.3489354848861694e-01</leafValues></_>
    <_>
      <internalNodes>
        0 -1 7467 -1360304783 -355467379 -491051657 -220209299 714696890
        -1498477780 555950570 -547400204</internalNodes>
      <leafValues>
        -6.4323985576629639e-01 3.5478493571281433e-01</leafValues></_>
    <_>
      <internalNodes>
        0 -1 3563 -562405505 -686095329 -980977385 1393056197
        -1077027227 -546580401 -341263563 1511718655</internalNodes>
      <leafValues>
        -6.4070326089859009e-01 3.6841312050819397e-01</leafValues></_>
    <_>
      <internalNodes>
        0 -1 2152 581053674 -135039535 -177106475 -13131497 591523317
        -2591343 -2106784837 934742447</internalNodes>
      <leafValues>
        -8.0573588609695435e-01 2.9475405812263489e-01</leafValues></_></weakClassifiers></stage3>
</opencv_storage>
