<?xml version="1.0"?>
<opencv_storage>
<stage5>
  <maxWeakCount>15</maxWeakCount>
  <stageThreshold>-1.0919307470321655e+00</stageThreshold>
  <weakClassifiers>
    <_>
      <internalNodes>
        0 -1 1445 -218365969 -536875009 -532481 -1025 -80748545
        -536875009 -67109393 -67117585</internalNodes>
      <leafValues>
        -5.4338413476943970e-01 6.6541194915771484e-01</leafValues></_>
    <_>
      <internalNodes>
        0 -1 4700 -2561 -18433 -761531654 -210502158 -560988161
        -13787554 -185602049 -557845513</internalNodes>
      <leafValues>
        -5.0432419776916504e-01 4.8626324534416199e-01</leafValues></_>
    <_>
      <internalNodes>
        0 -1 6668 2139062271 -69210633 -33816769 1339996622 2144337919
        -289729289 1942665079 1331552007</internalNodes>
      <leafValues>
        -5.3360110521316528e-01 3.8303685188293457e-01</leafValues></_>
    <_>
      <internalNodes>
        0 -1 7306 -1075314689 -290525202 -14 -1281 -1744831493
        -842006577 401864695 -134218241</internalNodes>
      <leafValues>
        -3.9203965663909912e-01 5.0835245847702026e-01</leafValues></_>
    <_>
      <internalNodes>
        0 -1 4177 -975735877 -2146561 -804826510 2071164658 -917595153
        1969733965 -627051526 1966306687</internalNodes>
      <leafValues>
        -6.9105970859527588e-01 2.6672911643981934e-01</leafValues></_>
    <_>
      <internalNodes>
        0 -1 6147 833028146 -136720035 -1110046241 -1647677969
        -1433475395 -1194408712 -1934824481 455760632</internalNodes>
      <leafValues>
        -5.9435898065567017e-01 3.4418380260467529e-01</leafValues></_>
    <_>
      <internalNodes>
        0 -1 5912 527659999 2004195286 -118525089 649920255 -121128457
        1373398761 1594980183 140506711</internalNodes>
      <leafValues>
        -5.4755008220672607e-01 3.3834132552146912e-01</leafValues></_>
    <_>
      <internalNodes>
        0 -1 4144 -1610672577 2147290671 -201078057 1919939999
        -1147435401 -82115810 735540791 2143992831</internalNodes>
      <leafValues>
        -6.1537522077560425e-01 2.8304746747016907e-01</leafValues></_>
    <_>
      <internalNodes>
        0 -1 4005 -137778502 1621300619 -1032044527 1195765771
        -711437153 16909905 12675600 1910897999</internalNodes>
      <leafValues>
        -5.7749223709106445e-01 3.2460495829582214e-01</leafValues></_>
    <_>
      <internalNodes>
        0 -1 7240 -1087938573 -822185617 -171739660 -160212022 527956975
        1326156174 125039586 -818420053</internalNodes>
      <leafValues>
        -5.0878536701202393e-01 3.2949721813201904e-01</leafValues></_>
    <_>
      <internalNodes>
        0 -1 1406 -1975997899 -1655481066 -1122930793 -1122524107
        -2127358255 -1186173111 261663165 162531476</internalNodes>
      <leafValues>
        -6.4954280853271484e-01 2.9287376999855042e-01</leafValues></_>
    <_>
      <internalNodes>
        0 -1 7742 -1079091777 -1014957100 -534239955 -196643459
        -1551160838 -824458608 995577771 526341375</internalNodes>
      <leafValues>
        -4.6875521540641785e-01 3.8093155622482300e-01</leafValues></_>
    <_>
      <internalNodes>
        0 -1 4217 -562215555 -1144565195 -527109733 1597110239
        -556312560 -888435712 -895812764 -430645505</internalNodes>
      <leafValues>
        -5.0079131126403809e-01 3.5740920901298523e-01</leafValues></_>
    <_>
      <internalNodes>
        0 -1 5272 1912021189 1435429711 -2145858337 1441410151
        -1429542545 721997503 -1475941185 -559540098</internalNodes>
      <leafValues>
        -5.6229448318481445e-01 3.2075580954551697e-01</leafValues></_>
    <_>
      <internalNodes>
        0 -1 6265 -1951709761 -541254553 -477247129 1816711150
        -1938818085 972741099 827823636 -418715281</internalNodes>
      <leafValues>
        -5.2234005928039551e-01 3.5326439142227173e-01</leafValues></_></weakClassifiers></stage5>
</opencv_storage>
