<?xml version="1.0"?>
<opencv_storage>
<stage4>
  <maxWeakCount>13</maxWeakCount>
  <stageThreshold>-1.2931470870971680e+00</stageThreshold>
  <weakClassifiers>
    <_>
      <internalNodes>
        0 -1 2138 -84148309 -8400897 -65 -1 -8650757 -8396801 -70254625
        -67123265</internalNodes>
      <leafValues>
        -5.8411216735839844e-01 6.6355139017105103e-01</leafValues></_>
    <_>
      <internalNodes>
        0 -1 5599 -146319395 -46187553 469203294 1599333106 -754459713
        -314593925 410908920 -549724705</internalNodes>
      <leafValues>
        -5.5844795703887939e-01 5.0681620836257935e-01</leafValues></_>
    <_>
      <internalNodes>
        0 -1 4654 -2097409 -537167009 -673206601 1916759807 -336970993
        -10534642 -8338 -4522241</internalNodes>
      <leafValues>
        -5.0634729862213135e-01 4.7608831524848938e-01</leafValues></_>
    <_>
      <internalNodes>
        0 -1 6955 -269486223 -272675889 -17959257 -33608289 -807419955
        1337707676 1936193527 2004876639</internalNodes>
      <leafValues>
        -6.2573570013046265e-01 3.9604294300079346e-01</leafValues></_>
    <_>
      <internalNodes>
        0 -1 4525 -1778437762 -168089474 368660735 2007835483
        -1694778625 -1129663749 28793076 -1192015125</internalNodes>
      <leafValues>
        -5.7306975126266479e-01 4.1688886284828186e-01</leafValues></_>
    <_>
      <internalNodes>
        0 -1 2491 -33599889 -10529155 1478881179 1501512190 -72366251
        -284182689 -71372833 -1048577</internalNodes>
      <leafValues>
        -4.4462686777114868e-01 5.2219033241271973e-01</leafValues></_>
    <_>
      <internalNodes>
        0 -1 3341 -1325583712 -1258818845 1372823039 502860467
        -1292689921 -1129786125 -1104105989 -323285592</internalNodes>
      <leafValues>
        -7.5598806142807007e-01 3.3968153595924377e-01</leafValues></_>
    <_>
      <internalNodes>
        0 -1 294 789570799 1850732239 -476854817 -318908705 1663039503
        -612510451 -8390177 1558037935</internalNodes>
      <leafValues>
        -6.1661261320114136e-01 3.1721416115760803e-01</leafValues></_>
    <_>
      <internalNodes>
        0 -1 5952 -135268365 1442150237 -134235269 -1026640386
        2038431743 -571232610 460976487 1330642438</internalNodes>
      <leafValues>
        -5.2996069192886353e-01 3.5694095492362976e-01</leafValues></_>
    <_>
      <internalNodes>
        0 -1 7708 -1363163907 -1413546369 -822099977 -24588 -1448439878
        -1879917136 1057224122 -585369858</internalNodes>
      <leafValues>
        -3.9872819185256958e-01 5.1662635803222656e-01</leafValues></_>
    <_>
      <internalNodes>
        0 -1 4035 -72433731 -8650801 -69687 -314180643 -16385 -167905289
        -1107347799 -328353030</internalNodes>
      <leafValues>
        -3.9906278252601624e-01 5.3357744216918945e-01</leafValues></_>
    <_>
      <internalNodes>
        0 -1 7027 -1494433878 1877885902 -230621193 -37955630
        -2029519957 -808934418 1880602919 -608437577</internalNodes>
      <leafValues>
        -4.8806005716323853e-01 4.1435527801513672e-01</leafValues></_>
    <_>
      <internalNodes>
        0 -1 2921 -488967877 -10561777 -225594830 -803499297 -916473105
        2131558985 -1171553406 1273692585</internalNodes>
      <leafValues>
        -6.0241603851318359e-01 3.6719110608100891e-01</leafValues></_></weakClassifiers></stage4>
</opencv_storage>
