<?xml version="1.0"?>
<opencv_storage>
<stage9>
  <maxWeakCount>24</maxWeakCount>
  <stageThreshold>-1.2479493618011475e+00</stageThreshold>
  <weakClassifiers>
    <_>
      <internalNodes>
        0 -1 7407 -2101763 -201596145 -84092725 -137373041 -754529335
        -685053403 1107659145 -3149905</internalNodes>
      <leafValues>
        -5.0701075792312622e-01 4.3083003163337708e-01</leafValues></_>
    <_>
      <internalNodes>
        0 -1 4193 -542146563 -45864 -1583181029 -649629441 -995186084
        -83229628 1521239384 -565191937</internalNodes>
      <leafValues>
        -3.9726492762565613e-01 3.5346993803977966e-01</leafValues></_>
    <_>
      <internalNodes>
        0 -1 6588 -4720719 -202472875 -725381242 -41351162 -1163149857
        1114278503 1162328055 1470888879</internalNodes>
      <leafValues>
        -5.0392597913742065e-01 2.5796425342559814e-01</leafValues></_>
    <_>
      <internalNodes>
        0 -1 1493 -488380021 1205432826 -1387998249 -16398775 1879088085
        1460295303 1670109635 265605188</internalNodes>
      <leafValues>
        -4.2225423455238342e-01 3.0223146080970764e-01</leafValues></_>
    <_>
      <internalNodes>
        0 -1 5968 -67110913 -613557921 -1626120289 1791679462 -763940161
        -320104387 2067098450 1279980367</internalNodes>
      <leafValues>
        -4.7134196758270264e-01 2.4721291661262512e-01</leafValues></_>
    <_>
      <internalNodes>
        0 -1 6036 -1134659595 -1511239292 -1723115020 391262834
        -1353089059 -284557047 751828220 -983566149</internalNodes>
      <leafValues>
        -3.8131111860275269e-01 3.0708831548690796e-01</leafValues></_>
    <_>
      <internalNodes>
        0 -1 3999 -1094799128 -1556496435 72211597 1158794777
        -1588730432 1082753297 978308085 -194137358</internalNodes>
      <leafValues>
        -4.1818106174468994e-01 2.7907454967498779e-01</leafValues></_>
    <_>
      <internalNodes>
        0 -1 3438 -25524729 -547683311 -620656253 1385386925 -854652663
        520716288 -888962936 926626266</internalNodes>
      <leafValues>
        -4.5615860819816589e-01 2.6163029670715332e-01</leafValues></_>
    <_>
      <internalNodes>
        0 -1 7020 -1254294713 1881723008 1678836049 -263974520 646627370
        -635624824 922892458 525801784</internalNodes>
      <leafValues>
        -5.4240387678146362e-01 2.0088987052440643e-01</leafValues></_>
    <_>
      <internalNodes>
        0 -1 3468 -2084941903 -1915522596 1078200693 1509769418
        -1834956167 -662188028 -392937334 487258266</internalNodes>
      <leafValues>
        -6.0686457157135010e-01 1.8832243978977203e-01</leafValues></_>
    <_>
      <internalNodes>
        0 -1 177 -541725443 -39854082 1056898303 -1074746369 -956891084
        1601159156 -185273702 -389677538</internalNodes>
      <leafValues>
        -2.9155951738357544e-01 4.2910310626029968e-01</leafValues></_>
    <_>
      <internalNodes>
        0 -1 5504 531595259 2145546735 160118235 -398111843 1226665843
        2032574480 1935373908 1177147291</internalNodes>
      <leafValues>
        -4.2358720302581787e-01 2.9352802038192749e-01</leafValues></_>
    <_>
      <internalNodes>
        0 -1 8094 1061089067 2045630463 -114080068 -1646604414
        1946266437 -130762711 -613070726 1007959828</internalNodes>
      <leafValues>
        -4.4104072451591492e-01 2.5471815466880798e-01</leafValues></_>
    <_>
      <internalNodes>
        0 -1 1560 -452334776 75042515 598954116 -177590028 -1577746357
        1656586251 -496533439 -26803711</internalNodes>
      <leafValues>
        -4.8657017946243286e-01 2.3371008038520813e-01</leafValues></_>
    <_>
      <internalNodes>
        0 -1 6024 -1601013823 -3530618 -1660036290 1916938206 603060273
        51221482 -2126781200 -1018439473</internalNodes>
      <leafValues>
        -4.1826209425926208e-01 2.6892596483230591e-01</leafValues></_>
    <_>
      <internalNodes>
        0 -1 31 -320017666 -67395333 -779939325 -1528126782 -763396028
        1291419803 105074761 1246839211</internalNodes>
      <leafValues>
        -4.4614410400390625e-01 2.5806865096092224e-01</leafValues></_>
    <_>
      <internalNodes>
        0 -1 6846 1416594772 1464502235 -986462339 -1736935215
        -1347621972 -1400664931 -660878387 137141182</internalNodes>
      <leafValues>
        -3.7999793887138367e-01 3.0836510658264160e-01</leafValues></_>
    <_>
      <internalNodes>
        0 -1 7730 -368351456 -290565208 695305043 -1389602548 -115098656
        -972961280 -1290800205 395865131</internalNodes>
      <leafValues>
        -5.5173122882843018e-01 2.1109168231487274e-01</leafValues></_>
    <_>
      <internalNodes>
        0 -1 456 -583294735 1333714877 1861103207 1063645093 -713693249
        234321622 2029219324 -1109587660</internalNodes>
      <leafValues>
        -2.9513844847679138e-01 4.2660987377166748e-01</leafValues></_>
    <_>
      <internalNodes>
        0 -1 4084 -1700272641 1599189263 -585690865 1389869675
        -1314390215 -1316711624 287031872 -539312872</internalNodes>
      <leafValues>
        -4.0587389469146729e-01 2.9728943109512329e-01</leafValues></_>
    <_>
      <internalNodes>
        0 -1 6687 834762000 268506452 -683552126 1963209749 2067722272
        -1632966690 -77922506 1937683542</internalNodes>
      <leafValues>
        -4.3537971377372742e-01 2.5972616672515869e-01</leafValues></_>
    <_>
      <internalNodes>
        0 -1 4597 395413655 -1911553783 -1188849473 1287807034
        -1073381231 -2133882816 -2132610504 1710321611</internalNodes>
      <leafValues>
        -4.2826244235038757e-01 2.6973786950111389e-01</leafValues></_>
    <_>
      <internalNodes>
        0 -1 5449 891766143 1903350487 960173499 1223885307 1394045037
        1670062236 991567943 18102634</internalNodes>
      <leafValues>
        -5.2680671215057373e-01 1.9976648688316345e-01</leafValues></_>
    <_>
      <internalNodes>
        0 -1 6404 -1401540815 -276554007 1879031280 233925562 1065336604
        -1358336147 1551233242 -821838342</internalNodes>
      <leafValues>
        -3.3607640862464905e-01 3.5688972473144531e-01</leafValues></_></weakClassifiers></stage9>
</opencv_storage>
