<?xml version="1.0"?>
<opencv_storage>
<stage6>
  <maxWeakCount>18</maxWeakCount>
  <stageThreshold>-1.2144093513488770e+00</stageThreshold>
  <weakClassifiers>
    <_>
      <internalNodes>
        0 -1 7137 -138414089 1467744255 -2049 -257 -138543105 -524289
        -4195329 -262241</internalNodes>
      <leafValues>
        -4.8750665783882141e-01 7.0596796274185181e-01</leafValues></_>
    <_>
      <internalNodes>
        0 -1 3502 -1627390025 -570427509 1406402359 -218104321
        -1085023381 -15221991 -1148584449 -8397827</internalNodes>
      <leafValues>
        -4.6062514185905457e-01 4.8327821493148804e-01</leafValues></_>
    <_>
      <internalNodes>
        0 -1 2371 1963257855 1057713765 2012509098 1291866418 26188459
        -519987047 -2134144117 1968534895</internalNodes>
      <leafValues>
        -7.5639921426773071e-01 2.4430684745311737e-01</leafValues></_>
    <_>
      <internalNodes>
        0 -1 6951 -1084883491 -358403441 -1325341209 -216550768
        -1416904967 -2087198327 937687518 1599593881</internalNodes>
      <leafValues>
        -5.3454041481018066e-01 3.5146716237068176e-01</leafValues></_>
    <_>
      <internalNodes>
        0 -1 5339 -940189552 -1828648305 -246948037 -4932685 -976232561
        1654760107 403543837 -9962705</internalNodes>
      <leafValues>
        -6.0318064689636230e-01 2.5578325986862183e-01</leafValues></_>
    <_>
      <internalNodes>
        0 -1 389 -285422354 -304264053 -1073551205 -1731800269
        2052008829 -69623788 -628409347 -88229889</internalNodes>
      <leafValues>
        -5.4977190494537354e-01 2.7270928025245667e-01</leafValues></_>
    <_>
      <internalNodes>
        0 -1 3324 1014511349 -3715244 -784515113 2011126101 -1253541645
        -43437351 -1149996828 997458164</internalNodes>
      <leafValues>
        -4.2531922459602356e-01 4.0403100848197937e-01</leafValues></_>
    <_>
      <internalNodes>
        0 -1 5633 1048587605 -1982442627 -540192046 2104509008
        -1526407415 -1578773381 -2010502984 487057099</internalNodes>
      <leafValues>
        -5.4791533946990967e-01 3.0229651927947998e-01</leafValues></_>
    <_>
      <internalNodes>
        0 -1 7490 -414194079 1319039043 395667155 -1081726692
        -1410140724 1318641604 -148396651 -14696875</internalNodes>
      <leafValues>
        -5.0675255060195923e-01 3.1368318200111389e-01</leafValues></_>
    <_>
      <internalNodes>
        0 -1 5932 534609919 2107632607 -99365889 -389049763 -99616963
        -354827277 1526691350 1309243651</internalNodes>
      <leafValues>
        -5.1806366443634033e-01 3.0360317230224609e-01</leafValues></_>
    <_>
      <internalNodes>
        0 -1 5629 -305323 -547982369 -1878682210 1912608242 1000438063
        1981509391 1238231292 522941902</internalNodes>
      <leafValues>
        -5.4419547319412231e-01 2.7940937876701355e-01</leafValues></_>
    <_>
      <internalNodes>
        0 -1 7529 2013265826 -33882185 -1074397217 -381739027 -16253013
        -137953481 -143155553 -19574</internalNodes>
      <leafValues>
        -2.8025108575820923e-01 5.5627989768981934e-01</leafValues></_>
    <_>
      <internalNodes>
        0 -1 1541 -893654021 -234959364 -524417 -8710 2130442683
        -33751186 -1375731767 -1919558276</internalNodes>
      <leafValues>
        -3.0780339241027832e-01 5.6090366840362549e-01</leafValues></_>
    <_>
      <internalNodes>
        0 -1 636 2147344878 -171523834 1006677902 -809008826 1227676671
        1824827642 -1316574449 -590414647</internalNodes>
      <leafValues>
        -3.9096760749816895e-01 4.0441671013832092e-01</leafValues></_>
    <_>
      <internalNodes>
        0 -1 6266 -1676780043 -1761407717 -788130025 -1672986226
        1288420319 1788429499 2001142722 -472909585</internalNodes>
      <leafValues>
        -4.5350381731987000e-01 3.3887609839439392e-01</leafValues></_>
    <_>
      <internalNodes>
        0 -1 4194 -572715787 -67943406 1631797690 461195508 -719146979
        -377220468 -609470244 457411959</internalNodes>
      <leafValues>
        -4.5002198219299316e-01 3.5270324349403381e-01</leafValues></_>
    <_>
      <internalNodes>
        0 -1 1555 -1532515792 -47101935 453070103 1370550716 -1301735111
        -78440406 856292279 239106344</internalNodes>
      <leafValues>
        -5.3822451829910278e-01 2.8661116957664490e-01</leafValues></_>
    <_>
      <internalNodes>
        0 -1 289 -889262353 -536872221 -303108609 -843976770 -805329318
        -269179507 -855664385 -1750829313</internalNodes>
      <leafValues>
        -3.3925071358680725e-01 4.9048623442649841e-01</leafValues></_></weakClassifiers></stage6>
</opencv_storage>
