<?xml version="1.0"?>
<opencv_storage>
<stage2>
  <maxWeakCount>9</maxWeakCount>
  <stageThreshold>-1.1863331794738770e+00</stageThreshold>
  <weakClassifiers>
    <_>
      <internalNodes>
        0 -1 2276 -486539345 -10748001 -67633153 -789317637 -335545345
        -10485921 -1409287169 -8193</internalNodes>
      <leafValues>
        -7.1410393714904785e-01 6.9287389516830444e-01</leafValues></_>
    <_>
      <internalNodes>
        0 -1 3605 -6304257 -571253249 -792743182 -143394830 -880047105
        -79169121 -268705861 -8915457</internalNodes>
      <leafValues>
        -7.2553467750549316e-01 5.5348384380340576e-01</leafValues></_>
    <_>
      <internalNodes>
        0 -1 4951 -436994850 -944507425 -1737754502 -4720001 -1061422597
        -541873157 -1048192840 -570425345</internalNodes>
      <leafValues>
        -6.8525516986846924e-01 4.8326152563095093e-01</leafValues></_>
    <_>
      <internalNodes>
        0 -1 5169 -32897 -8421505 -16781569 1920630774 -32897 -10485937
        -67109378 -77861889</internalNodes>
      <leafValues>
        -5.2522766590118408e-01 6.1493825912475586e-01</leafValues></_>
    <_>
      <internalNodes>
        0 -1 2507 -1957430121 -767569649 -251792656 -744636417
        -877969689 1451984919 -405800996 1366818815</internalNodes>
      <leafValues>
        -7.3174268007278442e-01 4.4780656695365906e-01</leafValues></_>
    <_>
      <internalNodes>
        0 -1 142 -487591937 -1 -58371 -5376001 1122725863 -540673
        -131587 -536597</internalNodes>
      <leafValues>
        -4.5601478219032288e-01 7.5105059146881104e-01</leafValues></_>
    <_>
      <internalNodes>
        0 -1 3093 -61867 -8037585 -425467883 307584731 -922767547
        -11747836 -537203172 -563159425</internalNodes>
      <leafValues>
        -5.8715021610260010e-01 5.2096569538116455e-01</leafValues></_>
    <_>
      <internalNodes>
        0 -1 6587 -1220581609 -671128997 -1764782636 -134226293
        -51644481 1437581755 -1799916364 -139232545</internalNodes>
      <leafValues>
        -6.0597735643386841e-01 5.0700849294662476e-01</leafValues></_>
    <_>
      <internalNodes>
        0 -1 6280 767524831 -805873571 -187891713 1182758782 -1228931213
        -236193280 -311441901 206004003</internalNodes>
      <leafValues>
        -7.4253898859024048e-01 3.8849139213562012e-01</leafValues></_></weakClassifiers></stage2>
</opencv_storage>
