<?xml version="1.0"?>
<opencv_storage>
<stage7>
  <maxWeakCount>20</maxWeakCount>
  <stageThreshold>-1.2726515531539917e+00</stageThreshold>
  <weakClassifiers>
    <_>
      <internalNodes>
        0 -1 2760 -327777 -49554657 -576370729 -712838393 -3157377
        -12074345 -70260501 -1059873</internalNodes>
      <leafValues>
        -5.2173042297363281e-01 4.8284766077995300e-01</leafValues></_>
    <_>
      <internalNodes>
        0 -1 7483 -1082163273 -874679870 -321160233 -2133507 -336193
        -1920345969 -204736521 -146867202</internalNodes>
      <leafValues>
        -4.2441719770431519e-01 4.2098230123519897e-01</leafValues></_>
    <_>
      <internalNodes>
        0 -1 1453 839325579 794121537 -1618110531 -1881289829 992952829
        1871433920 -1287819101 332465475</internalNodes>
      <leafValues>
        -6.0806459188461304e-01 2.6996862888336182e-01</leafValues></_>
    <_>
      <internalNodes>
        0 -1 5169 -303731969 -76587010 -2113314338 1884452598 -847021220
        1528635915 999275182 1396964843</internalNodes>
      <leafValues>
        -6.1778277158737183e-01 2.6953411102294922e-01</leafValues></_>
    <_>
      <internalNodes>
        0 -1 3590 400508239 85721187 -208667169 -72231555 1261408650
        -67146565 1523601244 457234393</internalNodes>
      <leafValues>
        -5.1020157337188721e-01 2.7217164635658264e-01</leafValues></_>
    <_>
      <internalNodes>
        0 -1 6688 2068805119 -637685513 1371785437 1335268814 -18096657
        -812799249 910545555 1733090122</internalNodes>
      <leafValues>
        -4.2299902439117432e-01 3.4668630361557007e-01</leafValues></_>
    <_>
      <internalNodes>
        0 -1 5529 -1183088769 1070424985 184909295 1659074394 1974073847
        1004258299 1594490183 1146388317</internalNodes>
      <leafValues>
        -5.5190116167068481e-01 2.4217513203620911e-01</leafValues></_>
    <_>
      <internalNodes>
        0 -1 5614 -455646209 -37921 -1795041794 845700734 -1446040771
        958996751 -542133788 -1691688996</internalNodes>
      <leafValues>
        -5.5336576700210571e-01 2.6817724108695984e-01</leafValues></_>
    <_>
      <internalNodes>
        0 -1 6749 -1527187459 1693987257 -661698235 -6336111 -1345407489
        730505634 491770266 1573115314</internalNodes>
      <leafValues>
        -4.1503992676734924e-01 3.3925652503967285e-01</leafValues></_>
    <_>
      <internalNodes>
        0 -1 4888 -523791081 282074517 -2008004001 941412864 1552874425
        -1182556966 -1176389176 -1930896436</internalNodes>
      <leafValues>
        -4.1529482603073120e-01 3.4372359514236450e-01</leafValues></_>
    <_>
      <internalNodes>
        0 -1 7546 -1419282443 -1367365234 -204910189 -1496689702
        -4747265 185311692 1667856375 -739783563</internalNodes>
      <leafValues>
        -5.2469432353973389e-01 2.7219447493553162e-01</leafValues></_>
    <_>
      <internalNodes>
        0 -1 2914 -899946705 1341081221 1535418521 -262932069 -225978005
        1778450690 722389994 -268468019</internalNodes>
      <leafValues>
        -4.1647741198539734e-01 3.4029090404510498e-01</leafValues></_>
    <_>
      <internalNodes>
        0 -1 5044 -2058136325 2145247219 1411243005 1927268863 985260919
        1985169534 -1386775718 1189040638</internalNodes>
      <leafValues>
        -4.5693969726562500e-01 3.4610006213188171e-01</leafValues></_>
    <_>
      <internalNodes>
        0 -1 6966 -1119109699 -514097015 -997625793 -461141601
        -206865602 -2113207704 497285050 -11051639</internalNodes>
      <leafValues>
        -4.4004485011100769e-01 3.2047107815742493e-01</leafValues></_>
    <_>
      <internalNodes>
        0 -1 799 -1932461712 -183315572 -1726459604 -583691826
        1335945885 -340303781 2088991262 466682325</internalNodes>
      <leafValues>
        -4.0805223584175110e-01 3.6722341179847717e-01</leafValues></_>
    <_>
      <internalNodes>
        0 -1 8124 -67764439 1974337215 2147284659 -20971658 499096609
        -1342220898 -1573937 -151742568</internalNodes>
      <leafValues>
        -3.5762488842010498e-01 4.3394899368286133e-01</leafValues></_>
    <_>
      <internalNodes>
        0 -1 5659 875986943 159791106 -1331831969 -617457262 424765496
        -920730360 -1466966882 1531920990</internalNodes>
      <leafValues>
        -4.1667214035987854e-01 3.5580486059188843e-01</leafValues></_>
    <_>
      <internalNodes>
        0 -1 483 414817727 -369061433 144463996 1430778201 136874171
        -159182670 -2137845905 -1655757441</internalNodes>
      <leafValues>
        -3.9947900176048279e-01 3.6811161041259766e-01</leafValues></_>
    <_>
      <internalNodes>
        0 -1 4852 -671747087 2113859567 -152072227 -655427091 -46280742
        -637771804 -1124402006 148496342</internalNodes>
      <leafValues>
        -2.9133886098861694e-01 4.6754088997840881e-01</leafValues></_>
    <_>
      <internalNodes>
        0 -1 4061 -360017 -6616689 5128503 -667940577 -1048281014
        944504905 -1940126586 -694445122</internalNodes>
      <leafValues>
        -4.7666534781455994e-01 3.0572295188903809e-01</leafValues></_></weakClassifiers></stage7>
</opencv_storage>
