<?xml version="1.0"?>
<opencv_storage>
<stage1>
  <maxWeakCount>8</maxWeakCount>
  <stageThreshold>-1.6644883155822754e+00</stageThreshold>
  <weakClassifiers>
    <_>
      <internalNodes>
        0 -1 5103 -2098177 -69206017 -69206278 -8396038 -1 -280577
        -251661072 -1</internalNodes>
      <leafValues>
        -8.4881514310836792e-01 6.5614235401153564e-01</leafValues></_>
    <_>
      <internalNodes>
        0 -1 3596 -1 -2113 -12976193 -251659269 -177 -8388741 -6311937
        -134217729</internalNodes>
      <leafValues>
        -6.9770824909210205e-01 7.3272657394409180e-01</leafValues></_>
    <_>
      <internalNodes>
        0 -1 2741 583187370 -74187781 -142631937 -4211721 921697275
        -1051201 -335545349 -1074014277</internalNodes>
      <leafValues>
        -8.4867066144943237e-01 4.7691792249679565e-01</leafValues></_>
    <_>
      <internalNodes>
        0 -1 4644 -536873985 -35661857 -262964614 2134057202 -69215237
        -72091810 1111225080 -818679157</internalNodes>
      <leafValues>
        -7.0639616250991821e-01 4.9956667423248291e-01</leafValues></_>
    <_>
      <internalNodes>
        0 -1 4674 -10528129 -8432897 -696263425 1920892415 -70291628
        1398793562 -536904837 -29687809</internalNodes>
      <leafValues>
        -5.9898984432220459e-01 5.7145220041275024e-01</leafValues></_>
    <_>
      <internalNodes>
        0 -1 2887 -1147410931 -12888961 -197528361 855681535 -1084228740
        -10755489 -336077057 -13698049</internalNodes>
      <leafValues>
        -6.0179507732391357e-01 5.8810466527938843e-01</leafValues></_>
    <_>
      <internalNodes>
        0 -1 7006 -268435521 -268959841 -524301 -8388690 -1879310373
        -808452129 -134220009 -545268395</internalNodes>
      <leafValues>
        -5.4320442676544189e-01 6.6172069311141968e-01</leafValues></_>
    <_>
      <internalNodes>
        0 -1 7294 -1343225941 -1360072786 -13 -285278222 -1073741841
        -816906289 -1208093213 -268706435</internalNodes>
      <leafValues>
        -5.3932207822799683e-01 6.5358227491378784e-01</leafValues></_></weakClassifiers></stage1>
</opencv_storage>
