<?xml version="1.0"?>
<opencv_storage>
<cascade>
  <stageType>BOOST</stageType>
  <featureType>LBP</featureType>
  <height>24</height>
  <width>24</width>
  <stageParams>
    <boostType>GAB</boostType>
    <minHitRate>9.9900001287460327e-01</minHitRate>
    <maxFalseAlarm>3.0000001192092896e-01</maxFalseAlarm>
    <weightTrimRate>9.4999999999999996e-01</weightTrimRate>
    <maxDepth>1</maxDepth>
    <maxWeakCount>100</maxWeakCount></stageParams>
  <featureParams>
    <maxCatCount>256</maxCatCount>
    <featSize>1</featSize></featureParams>
  <stageNum>11</stageNum>
  <stages>
    <!-- stage 0 -->
    <_>
      <maxWeakCount>6</maxWeakCount>
      <stageThreshold>-1.7927252054214478e+00</stageThreshold>
      <weakClassifiers>
        <_>
          <internalNodes>
            0 -1 6 -68161554 -2114586 -341583409 -138412049 -542113810
            -357848914 -124794113 -8257</internalNodes>
          <leafValues>
            -8.7536311149597168e-01 6.7882686853408813e-01</leafValues></_>
        <_>
          <internalNodes>
            0 -1 24 -95228166 -12598566 -771558401 -584007014
            -1033905153 -39859041 -17835265 -536879109</internalNodes>
          <leafValues>
            -7.7964681386947632e-01 6.2291097640991211e-01</leafValues></_>
        <_>
          <internalNodes>
            0 -1 9 -67110150 -211840364 -450916168 -6293573 -1146356998
            -73412641 -1175987032 -1025</internalNodes>
          <leafValues>
            -7.6515370607376099e-01 6.1442333459854126e-01</leafValues></_>
        <_>
          <internalNodes>
            0 -1 87 -43563 -8432161 -671088641 2147433279 -74654516
            -647038916 -641943144 -67371009</internalNodes>
          <leafValues>
            -6.7229384183883667e-01 6.9137120246887207e-01</leafValues></_>
        <_>
          <internalNodes>
            0 -1 58 -1879162881 803929596 -546316300 -68093072
            -1375731713 -284230021 -566510612 -62853204</internalNodes>
          <leafValues>
            -6.8216568231582642e-01 6.0318070650100708e-01</leafValues></_>
        <_>
          <internalNodes>
            0 -1 89 -8916067 1600115805 1375195379 1937766495 -182852720
            -127240822 947399552 -1195639877</internalNodes>
          <leafValues>
            -6.9460940361022949e-01 6.1823296546936035e-01</leafValues></_></weakClassifiers></_>
    <!-- stage 1 -->
    <_>
      <maxWeakCount>7</maxWeakCount>
      <stageThreshold>-1.1205343008041382e+00</stageThreshold>
      <weakClassifiers>
        <_>
          <internalNodes>
            0 -1 1 -540082433 -605650254 -168566785 -940643602
            -538970145 -3886905 -536872961 -1</internalNodes>
          <leafValues>
            -7.7878785133361816e-01 6.3553184270858765e-01</leafValues></_>
        <_>
          <internalNodes>
            0 -1 77 -83888265 -75841665 435813375 2076179327 2122317653
            2100543289 -53477379 -83886081</internalNodes>
          <leafValues>
            -7.1453839540481567e-01 5.9428900480270386e-01</leafValues></_>
        <_>
          <internalNodes>
            0 -1 85 -4194509 -9438417 -2884813 -129 -33554497 -805326850
            -705170988 -671093577</internalNodes>
          <leafValues>
            -6.1734765768051147e-01 6.4418876171112061e-01</leafValues></_>
        <_>
          <internalNodes>
            0 -1 14 -471878657 -1007801410 1944056799 -36393234
            -403706881 1329856430 1206907871 -524297</internalNodes>
          <leafValues>
            -6.0671049356460571e-01 6.1626416444778442e-01</leafValues></_>
        <_>
          <internalNodes>
            0 -1 94 -79735467 -67152611 -682135073 -1222676137
            -211054789 -68427681 -1308362497 -1221099649</internalNodes>
          <leafValues>
            -6.7181164026260376e-01 5.4312390089035034e-01</leafValues></_>
        <_>
          <internalNodes>
            0 -1 16 -486872321 1543498430 -791483657 -147816334
            -940053761 2085114623 -772019233 -11018245</internalNodes>
          <leafValues>
            -6.2048959732055664e-01 6.1649513244628906e-01</leafValues></_>
        <_>
          <internalNodes>
            0 -1 48 -548872708 -144713857 167941145 354354239 -37028865
            -607657313 -583070463 -549511617</internalNodes>
          <leafValues>
            -7.9216754436492920e-01 4.5124113559722900e-01</leafValues></_></weakClassifiers></_>
    <!-- stage 2 -->
    <_>
      <maxWeakCount>8</maxWeakCount>
      <stageThreshold>-1.2803683280944824e+00</stageThreshold>
      <weakClassifiers>
        <_>
          <internalNodes>
            0 -1 8 -1048577 -1114114 -1 -69650 -269500417 -537198593
            -1048577 -1</internalNodes>
          <leafValues>
            -6.6788488626480103e-01 6.8344670534133911e-01</leafValues></_>
        <_>
          <internalNodes>
            0 -1 5 -67110146 -639946057 -538181633 -3713 -921702657
            -604794717 -73401361 -1537</internalNodes>
          <leafValues>
            -6.3664323091506958e-01 5.7086169719696045e-01</leafValues></_>
        <_>
          <internalNodes>
            0 -1 66 1061109631 1073741823 -1073857601 -4309064
            2147442687 -1 -643604 -21037076</internalNodes>
          <leafValues>
            -5.4740178585052490e-01 6.3309907913208008e-01</leafValues></_>
        <_>
          <internalNodes>
            0 -1 93 -205 -1476396241 -153128591 -135274889 -8389791
            -808792246 -939526699 -673186314</internalNodes>
          <leafValues>
            -5.7184398174285889e-01 5.8305627107620239e-01</leafValues></_>
        <_>
          <internalNodes>
            0 -1 63 -1082703881 -1 -10649603 -633536747 2129559039
            -262150 -810704940 -17533712</internalNodes>
          <leafValues>
            -6.1420869827270508e-01 5.4237896203994751e-01</leafValues></_>
        <_>
          <internalNodes>
            0 -1 23 -290460061 -286262418 -58733856 2063593058
            -270546081 1714413395 -143146427 -134742153</internalNodes>
          <leafValues>
            -6.1885911226272583e-01 5.4855465888977051e-01</leafValues></_>
        <_>
          <internalNodes>
            0 -1 82 -838863373 1199044471 -33687579 -571080713 532009147
            469496307 -50765 -1029</internalNodes>
          <leafValues>
            -4.9082049727439880e-01 6.6754138469696045e-01</leafValues></_>
        <_>
          <internalNodes>
            0 -1 92 -1078504099 1056661374 -583019137 -549487745
            -383780370 -341837107 -13959169 -1103462402</internalNodes>
          <leafValues>
            -5.7924133539199829e-01 5.5234426259994507e-01</leafValues></_></weakClassifiers></_>
    <!-- stage 3 -->
    <_>
      <maxWeakCount>9</maxWeakCount>
      <stageThreshold>-1.4096994400024414e+00</stageThreshold>
      <weakClassifiers>
        <_>
          <internalNodes>
            0 -1 10 -3148801 -1118482 -1048577 -12562 -269484033
            -806357001 -940574721 -2113</internalNodes>
          <leafValues>
            -6.2494528293609619e-01 7.1485346555709839e-01</leafValues></_>
        <_>
          <internalNodes>
            0 -1 61 -100664048 -587731977 -171443875 -69207169
            -571491140 -886068753 -571609891 -1441</internalNodes>
          <leafValues>
            -6.9706445932388306e-01 4.8267883062362671e-01</leafValues></_>
        <_>
          <internalNodes>
            0 -1 107 -150994993 -940578833 -460463422 -521408530
            -206572026 109048131 -18352414 1962934271</internalNodes>
          <leafValues>
            -6.7805910110473633e-01 4.3432766199111938e-01</leafValues></_>
        <_>
          <internalNodes>
            0 -1 76 -34122275 -1080330369 1534801407 -44048161 -4325412
            -335943683 -637730884 -4210705</internalNodes>
          <leafValues>
            -5.6229859590530396e-01 5.2111595869064331e-01</leafValues></_>
        <_>
          <internalNodes>
            0 -1 29 -294138241 -21260833 -520705794 -766316742
            1863580651 -138651509 1073741823 -681050113</internalNodes>
          <leafValues>
            -5.9693104028701782e-01 5.0183856487274170e-01</leafValues></_>
        <_>
          <internalNodes>
            0 -1 59 2063654556 -545566755 -33605633 536824279
            -1413809219 -1056839 799390587 499059886</internalNodes>
          <leafValues>
            -7.6856839656829834e-01 3.2955351471900940e-01</leafValues></_>
        <_>
          <internalNodes>
            0 -1 38 -959795457 -1074925880 -755434753 -143572922
            -742835749 1187958463 -3158305 2134837247</internalNodes>
          <leafValues>
            -6.3488638401031494e-01 4.3512552976608276e-01</leafValues></_>
        <_>
          <internalNodes>
            0 -1 33 -274209929 -277168390 -1006636302 -68223874
            -947918850 -814219649 1476130741 -8661513</internalNodes>
          <leafValues>
            -4.9291661381721497e-01 5.7631039619445801e-01</leafValues></_>
        <_>
          <internalNodes>
            0 -1 43 -278462465 -1161474 -9175586 1575259356 -492830785
            -75374337 -4153877 2079465898</internalNodes>
          <leafValues>
            -6.6099667549133301e-01 4.0860962867736816e-01</leafValues></_></weakClassifiers></_>
    <!-- stage 4 -->
    <_>
      <maxWeakCount>9</maxWeakCount>
      <stageThreshold>-1.2185702323913574e+00</stageThreshold>
      <weakClassifiers>
        <_>
          <internalNodes>
            0 -1 22 -4194309 -269549854 -134218761 -1311750 -268435457
            -807665665 -137627657 -10753</internalNodes>
          <leafValues>
            -6.3207548856735229e-01 6.5556079149246216e-01</leafValues></_>
        <_>
          <internalNodes>
            0 -1 79 -8388643 -8650881 1535347707 -540549461 -104
            -33695279 1564253960 -16777217</internalNodes>
          <leafValues>
            -6.0864371061325073e-01 5.3204357624053955e-01</leafValues></_>
        <_>
          <internalNodes>
            0 -1 27 -16777617 -16787713 -354485108 1891631071 -539014324
            2131708989 -141601193 -134218753</internalNodes>
          <leafValues>
            -5.4484206438064575e-01 5.3160691261291504e-01</leafValues></_>
        <_>
          <internalNodes>
            0 -1 83 -134221005 2006315831 -713173581 -143158313
            -87162978 -2022326274 -1791896654 1429200831</internalNodes>
          <leafValues>
            -6.4467126131057739e-01 4.5099613070487976e-01</leafValues></_>
        <_>
          <internalNodes>
            0 -1 53 -878130180 -2973729 -570535433 2147179359 -371262466
            -1094727230 -270729285 -5031256</internalNodes>
          <leafValues>
            -6.3010931015014648e-01 4.3539923429489136e-01</leafValues></_>
        <_>
          <internalNodes>
            0 -1 15 -23071873 1936712302 -495263049 -220476849
            -137166883 -733694120 -174066305 -704653313</internalNodes>
          <leafValues>
            -5.2443885803222656e-01 4.8466005921363831e-01</leafValues></_>
        <_>
          <internalNodes>
            0 -1 35 -1078991951 -342950166 -1277560890 -672861964
            -1352664577 -847793243 -1580207360 -541600267</internalNodes>
          <leafValues>
            -4.8845237493515015e-01 5.3706097602844238e-01</leafValues></_>
        <_>
          <internalNodes>
            0 -1 102 -1709180125 789492520 -174722592 2080371109
            992935933 -1959087339 -1756891663 -536912395</internalNodes>
          <leafValues>
            -5.8344888687133789e-01 4.6753704547882080e-01</leafValues></_>
        <_>
          <internalNodes>
            0 -1 100 -84191905 -134520545 -660951576 -1031840934
            2120702028 2064102007 2021479646 859406271</internalNodes>
          <leafValues>
            -7.2393548488616943e-01 3.3957186341285706e-01</leafValues></_></weakClassifiers></_>
    <!-- stage 5 -->
    <_>
      <maxWeakCount>10</maxWeakCount>
      <stageThreshold>-1.8033896684646606e+00</stageThreshold>
      <weakClassifiers>
        <_>
          <internalNodes>
            0 -1 54 -1077952513 -6 -1 -4203009 -1073741825 -67109121
            -1610612737 -8707</internalNodes>
          <leafValues>
            -6.0466140508651733e-01 6.5503686666488647e-01</leafValues></_>
        <_>
          <internalNodes>
            0 -1 4 -486544641 -21762 -490738977 -142638370 -476319777
            -599738385 -4470801 -2099233</internalNodes>
          <leafValues>
            -4.9624893069267273e-01 5.9669053554534912e-01</leafValues></_>
        <_>
          <internalNodes>
            0 -1 31 -823466260 -134221091 -677512247 -532513 -270337109
            -1141705952 -270010373 -67650629</internalNodes>
          <leafValues>
            -7.0742553472518921e-01 3.5634905099868774e-01</leafValues></_>
        <_>
          <internalNodes>
            0 -1 97 -807413837 -986186219 -172003024 -216273121
            1604245384 -683815100 -804662870 320855871</internalNodes>
          <leafValues>
            -5.7674753665924072e-01 4.0695002675056458e-01</leafValues></_>
        <_>
          <internalNodes>
            0 -1 12 -44081569 1436151288 -140813953 790821855 -52471137
            176774792 -8699239 1828716523</internalNodes>
          <leafValues>
            -4.9711894989013672e-01 4.8287117481231689e-01</leafValues></_>
        <_>
          <internalNodes>
            0 -1 62 -140839564 -102804099 -2443905 2098879829 2067463989
            -552536018 523935295 1060834607</internalNodes>
          <leafValues>
            -7.3460304737091064e-01 2.9032739996910095e-01</leafValues></_>
        <_>
          <internalNodes>
            0 -1 90 -169872079 -141888017 -137669259 -704652569
            -908199254 -1279399544 -975259470 -581569617</internalNodes>
          <leafValues>
            -5.3041470050811768e-01 4.3353611230850220e-01</leafValues></_>
        <_>
          <internalNodes>
            0 -1 57 -824198413 -286294545 -548597770 -1224969360
            -273940483 -2170116 -611935260 -24602144</internalNodes>
          <leafValues>
            -5.4655522108078003e-01 4.2949739098548889e-01</leafValues></_>
        <_>
          <internalNodes>
            0 -1 60 64435519 2145975159 1012841343 -7260430 -541328917
            -822340 -306500212 -1664041564</internalNodes>
          <leafValues>
            -5.1434099674224854e-01 4.4986394047737122e-01</leafValues></_>
        <_>
          <internalNodes>
            0 -1 45 -757117723 -578862889 -1832592257 1380482047
            -253996224 -363265008 -1427590148 1460338687</internalNodes>
          <leafValues>
            -6.2817341089248657e-01 3.8358786702156067e-01</leafValues></_></weakClassifiers></_>
    <!-- stage 6 -->
    <_>
      <maxWeakCount>11</maxWeakCount>
      <stageThreshold>-1.6610586643218994e+00</stageThreshold>
      <weakClassifiers>
        <_>
          <internalNodes>
            0 -1 7 -537923077 -1126410 -732440641 -2101506 -269485057
            -817632934 -675282945 -536870913</internalNodes>
          <leafValues>
            -6.0847038030624390e-01 5.9888058900833130e-01</leafValues></_>
        <_>
          <internalNodes>
            0 -1 71 -143949827 -782513697 764394485 -808530049 -8668264
            -44266595 2071661848 -1077936209</internalNodes>
          <leafValues>
            -6.0341626405715942e-01 4.0769511461257935e-01</leafValues></_>
        <_>
          <internalNodes>
            0 -1 40 -16777553 -620797993 -53818802 -233768193 1324501068
            -765763046 -4263042 -142606337</internalNodes>
          <leafValues>
            -5.5118209123611450e-01 4.4835782051086426e-01</leafValues></_>
        <_>
          <internalNodes>
            0 -1 42 -1427197441 -269819908 -205529809 -236915460
            -1352681473 -805328195 328841209 -841179140</internalNodes>
          <leafValues>
            -5.9371733665466309e-01 3.7467089295387268e-01</leafValues></_>
        <_>
          <internalNodes>
            0 -1 75 -134824833 -547474053 407601115 1920537815
            -215106724 -1101281170 2116671999 -130434049</internalNodes>
          <leafValues>
            -4.8466733098030090e-01 4.7984200716018677e-01</leafValues></_>
        <_>
          <internalNodes>
            0 -1 108 -8527958 789235490 -305412704 -2035399217 -35129354
            130396523 -136349709 1475870703</internalNodes>
          <leafValues>
            -6.7531722784042358e-01 3.2842823863029480e-01</leafValues></_>
        <_>
          <internalNodes>
            0 -1 47 -1615269892 -245476515 -809436964 -1311777
            -262162211 -2147286717 -235065140 -33554433</internalNodes>
          <leafValues>
            -6.6997057199478149e-01 3.1969258189201355e-01</leafValues></_>
        <_>
          <internalNodes>
            0 -1 81 -4205131 -712005449 -684918416 -174069579
            -1146486884 -1433155880 1823014202 421549493</internalNodes>
          <leafValues>
            -7.3073941469192505e-01 2.8611013293266296e-01</leafValues></_>
        <_>
          <internalNodes>
            0 -1 67 669351295 -1356921393 2013265887 -545539329
            1643863007 -1430500753 -605290507 -563544652</internalNodes>
          <leafValues>
            -5.0697374343872070e-01 4.4643083214759827e-01</leafValues></_>
        <_>
          <internalNodes>
            0 -1 20 -134679557 333903818 -292867303 -1544288660
            -1366556741 -949686360 -2116066341 -1073785873</internalNodes>
          <leafValues>
            -5.0755053758621216e-01 4.2389291524887085e-01</leafValues></_>
        <_>
          <internalNodes>
            0 -1 37 -1156841485 -424938006 -764407594 1062327168
            -1443168269 1207673830 399107456 1467307029</internalNodes>
          <leafValues>
            -6.1421620845794678e-01 3.5853177309036255e-01</leafValues></_></weakClassifiers></_>
    <!-- stage 7 -->
    <_>
      <maxWeakCount>13</maxWeakCount>
      <stageThreshold>-1.5765423774719238e+00</stageThreshold>
      <weakClassifiers>
        <_>
          <internalNodes>
            0 -1 13 -9440257 -204477746 -145303617 -13108 -70255713
            1154209727 -136581185 -9217</internalNodes>
          <leafValues>
            -6.0692560672760010e-01 5.0974446535110474e-01</leafValues></_>
        <_>
          <internalNodes>
            0 -1 32 -873471497 -69534018 2080372479 -33834434 1333771259
            -537395211 1610606463 -35993</internalNodes>
          <leafValues>
            -4.5407250523567200e-01 5.4798549413681030e-01</leafValues></_>
        <_>
          <internalNodes>
            0 -1 103 -88187555 -268735617 -85989170 1652517615 -88289268
            1999077935 -52896530 1916534779</internalNodes>
          <leafValues>
            -5.9477245807647705e-01 3.7046077847480774e-01</leafValues></_>
        <_>
          <internalNodes>
            0 -1 2 -614532353 -3237634 2147483647 -1074812179 -892403850
            -541786113 -536870913 -62465</internalNodes>
          <leafValues>
            -4.5226931571960449e-01 5.0981390476226807e-01</leafValues></_>
        <_>
          <internalNodes>
            0 -1 52 375131868 1003955198 -78336873 -1090540300
            -874206725 -1279566925 -606945297 1072240037</internalNodes>
          <leafValues>
            -7.7294254302978516e-01 3.0703541636466980e-01</leafValues></_>
        <_>
          <internalNodes>
            0 -1 28 -153097041 -146846627 -32186625 1376933887
            -119863208 -615625718 -179783154 1329326815</internalNodes>
          <leafValues>
            -5.8169412612915039e-01 3.2536774873733521e-01</leafValues></_>
        <_>
          <internalNodes>
            0 -1 80 -540674568 -936130823 -1602097443 -47882081
            2144320443 1673985203 1830154417 -247464005</internalNodes>
          <leafValues>
            -5.5231857299804688e-01 3.7100625038146973e-01</leafValues></_>
        <_>
          <internalNodes>
            0 -1 72 1333247799 1019019571 1465838591 -1633750586
            -1342876164 -20030476 -40808972 1022685908</internalNodes>
          <leafValues>
            -6.4740723371505737e-01 3.1692731380462646e-01</leafValues></_>
        <_>
          <internalNodes>
            0 -1 25 -671128865 -201632804 -132983604 428396955 -91551560
            1382886195 -20038132 1610538669</internalNodes>
          <leafValues>
            -4.9254742264747620e-01 3.9785385131835938e-01</leafValues></_>
        <_>
          <internalNodes>
            0 -1 69 520306453 -1171818044 -69218447 -47703262 500784047
            -1410629387 -1110770223 -549459330</internalNodes>
          <leafValues>
            -4.7418653964996338e-01 4.0205681324005127e-01</leafValues></_>
        <_>
          <internalNodes>
            0 -1 73 -707791437 -976891961 -322840070 1403470047
            969645982 -1134774067 1308490682 299222461</internalNodes>
          <leafValues>
            -4.8547494411468506e-01 4.1427290439605713e-01</leafValues></_>
        <_>
          <internalNodes>
            0 -1 74 1059011873 -1119891081 -1108659564 -1083050669
            1337712629 -1141229430 1301005557 -91862033</internalNodes>
          <leafValues>
            -5.6394612789154053e-01 3.4185272455215454e-01</leafValues></_>
        <_>
          <internalNodes>
            0 -1 55 -1417619971 765261558 488069105 2103742468
            -1143341145 -861816656 328135665 1602016689</internalNodes>
          <leafValues>
            -5.8032345771789551e-01 3.3601585030555725e-01</leafValues></_></weakClassifiers></_>
    <!-- stage 8 -->
    <_>
      <maxWeakCount>12</maxWeakCount>
      <stageThreshold>-1.9495465755462646e+00</stageThreshold>
      <weakClassifiers>
        <_>
          <internalNodes>
            0 -1 18 -6291533 -814812266 -671624970 -44043816 -69534725
            -1879196261 1463284663 -536874505</internalNodes>
          <leafValues>
            -6.4431935548782349e-01 4.1158878803253174e-01</leafValues></_>
        <_>
          <internalNodes>
            0 -1 98 -620857249 -6332545 -522716934 846676455 -151004072
            1796968235 1396350910 1931148287</internalNodes>
          <leafValues>
            -6.7811495065689087e-01 2.9972302913665771e-01</leafValues></_>
        <_>
          <internalNodes>
            0 -1 21 1607135999 -740965690 2076785431 1272398917
            -538248257 -128976189 1166801851 -537963585</internalNodes>
          <leafValues>
            -4.9888017773628235e-01 4.5209935307502747e-01</leafValues></_>
        <_>
          <internalNodes>
            0 -1 30 -687911283 -7907891 1276778239 1929533695 -3441576
            -9631739 -392263425 2138823535</internalNodes>
          <leafValues>
            -4.5669692754745483e-01 4.3622040748596191e-01</leafValues></_>
        <_>
          <internalNodes>
            0 -1 78 482807263 1572295101 -1042295817 -572952115
            -546089287 -1128819457 1489070588 1280606676</internalNodes>
          <leafValues>
            -6.3760650157928467e-01 3.2663625478744507e-01</leafValues></_>
        <_>
          <internalNodes>
            0 -1 84 -1614956624 -49028429 -505938187 2102100397
            990896126 -86357281 406489501 447418367</internalNodes>
          <leafValues>
            -6.5269416570663452e-01 3.1717151403427124e-01</leafValues></_>
        <_>
          <internalNodes>
            0 -1 106 -294658866 -138979489 -632901298 1719425646
            1414091776 1904141095 2020081210 1920203643</internalNodes>
          <leafValues>
            -6.0554301738739014e-01 2.9974251985549927e-01</leafValues></_>
        <_>
          <internalNodes>
            0 -1 96 1305339801 -884102305 1949542398 1377012695
            2071402378 -77667726 -1326400862 -109051905</internalNodes>
          <leafValues>
            -4.3994942307472229e-01 4.2404747009277344e-01</leafValues></_>
        <_>
          <internalNodes>
            0 -1 56 -176104484 31273355 -888406129 -7877923 1344467036
            1082130561 -720424891 -16012025</internalNodes>
          <leafValues>
            -6.2970483303070068e-01 3.2235643267631531e-01</leafValues></_>
        <_>
          <internalNodes>
            0 -1 86 -1074145807 -875613201 -768629697 -375439269
            -630277489 -1970026354 -455580689 -1082169681</internalNodes>
          <leafValues>
            -4.9302563071250916e-01 4.0451249480247498e-01</leafValues></_>
        <_>
          <internalNodes>
            0 -1 109 -1347495133 -1366769362 -741384239 2146950228
            -1198616595 -1962751342 357295349 1576660159</internalNodes>
          <leafValues>
            -5.1874274015426636e-01 3.8541010022163391e-01</leafValues></_>
        <_>
          <internalNodes>
            0 -1 65 903576511 1597789561 -44551179 1435557637 152272375
            263928689 1284507370 -122262554</internalNodes>
          <leafValues>
            -4.9495089054107666e-01 4.2736354470252991e-01</leafValues></_></weakClassifiers></_>
    <!-- stage 9 -->
    <_>
      <maxWeakCount>13</maxWeakCount>
      <stageThreshold>-1.9504152536392212e+00</stageThreshold>
      <weakClassifiers>
        <_>
          <internalNodes>
            0 -1 49 -270849 -1 -536871427 1602214397 -71303169 -1 -1
            -16470</internalNodes>
          <leafValues>
            -5.3528398275375366e-01 5.5348837375640869e-01</leafValues></_>
        <_>
          <internalNodes>
            0 -1 0 -218109185 -37770497 -486805505 -44064001 -134217729
            -17025799 -167772161 -8523521</internalNodes>
          <leafValues>
            -3.9524206519126892e-01 5.5960011482238770e-01</leafValues></_>
        <_>
          <internalNodes>
            0 -1 34 -1347694191 -292889510 -763399520 -549128080
            -1544945731 -812917179 392819447 1598017769</internalNodes>
          <leafValues>
            -6.1325800418853760e-01 3.2176673412322998e-01</leafValues></_>
        <_>
          <internalNodes>
            0 -1 19 -702327264 2063421056 -272370849 1609580628
            -290750481 -627317951 -359721628 1409282519</internalNodes>
          <leafValues>
            -5.7006090879440308e-01 3.2391244173049927e-01</leafValues></_>
        <_>
          <internalNodes>
            0 -1 41 -139799586 -1849436257 -257274660 -7097861
            -511223313 -535739774 -889250555 -9439489</internalNodes>
          <leafValues>
            -6.0934597253799438e-01 3.0029180645942688e-01</leafValues></_>
        <_>
          <internalNodes>
            0 -1 36 -717424802 -1252988289 -106647277 -539901189
            1614541571 -1296219647 -648789176 -536874027</internalNodes>
          <leafValues>
            -4.8254179954528809e-01 3.7157985568046570e-01</leafValues></_>
        <_>
          <internalNodes>
            0 -1 88 -578867713 -788185077 -81985643 1967309198 -78517944
            1813439978 -1107756920 -1312752649</internalNodes>
          <leafValues>
            -5.0826722383499146e-01 3.8511660695075989e-01</leafValues></_>
        <_>
          <internalNodes>
            0 -1 99 -405277958 2075820881 -645815722 -733491063
            1464193720 1929671077 486929049 1500901263</internalNodes>
          <leafValues>
            -5.2194124460220337e-01 3.4725794196128845e-01</leafValues></_>
        <_>
          <internalNodes>
            0 -1 68 -1359274755 -359980417 747501021 1546601693
            -1691896840 -91736863 -889892899 1410601940</internalNodes>
          <leafValues>
            -5.6015771627426147e-01 3.4145647287368774e-01</leafValues></_>
        <_>
          <internalNodes>
            0 -1 91 -156239049 -299115916 268948853 -1140924139
            -683413825 -1956976376 -2128297513 -681604641</internalNodes>
          <leafValues>
            -4.5027765631675720e-01 4.0568566322326660e-01</leafValues></_>
        <_>
          <internalNodes>
            0 -1 17 -17865681 1063086689 -1699550532 1880327675
            -265335720 1578782234 -298935442 1935666095</internalNodes>
          <leafValues>
            -5.2259325981140137e-01 3.4461599588394165e-01</leafValues></_>
        <_>
          <internalNodes>
            0 -1 104 -1140850753 -21233689 234708439 -81922 2105073326
            1042306804 1293702495 -34079641</internalNodes>
          <leafValues>
            -3.8455867767333984e-01 5.0470352172851562e-01</leafValues></_>
        <_>
          <internalNodes>
            0 -1 64 1975986111 -650817938 -238352370 -45786898
            -620225569 -103440707 -314636248 -1467914234</internalNodes>
          <leafValues>
            -4.7252911329269409e-01 4.0128776431083679e-01</leafValues></_></weakClassifiers></_>
    <!-- stage 10 -->
    <_>
      <maxWeakCount>13</maxWeakCount>
      <stageThreshold>-1.4598919153213501e+00</stageThreshold>
      <weakClassifiers>
        <_>
          <internalNodes>
            0 -1 70 -119537793 -8451233 1531572223 2136749021 -119606273
            -4327173 -74589189 -1145049089</internalNodes>
          <leafValues>
            -5.3317171335220337e-01 4.8973608016967773e-01</leafValues></_>
        <_>
          <internalNodes>
            0 -1 3 1968059259 332311134 1698902399 -268439842 -410086759
            -884459632 1200353723 -1029</internalNodes>
          <leafValues>
            -5.2006947994232178e-01 4.1354760527610779e-01</leafValues></_>
        <_>
          <internalNodes>
            0 -1 39 1791999970 -286267198 -1109660122 -204085310
            1270565807 33225161 2012434755 2012575607</internalNodes>
          <leafValues>
            -6.5385288000106812e-01 2.7409794926643372e-01</leafValues></_>
        <_>
          <internalNodes>
            0 -1 101 -1535639759 2098249888 -58338864 -67675120
            -1214062660 -1776663176 486659577 1610566877</internalNodes>
          <leafValues>
            -6.3209396600723267e-01 3.0033925175666809e-01</leafValues></_>
        <_>
          <internalNodes>
            0 -1 26 5973743 1065612734 -99365154 -205590330 327774711
            253952753 -1692898369 1895068599</internalNodes>
          <leafValues>
            -6.7429864406585693e-01 2.2858640551567078e-01</leafValues></_>
        <_>
          <internalNodes>
            0 -1 44 -622917563 -581285429 -300437348 273304927
            -895870956 -1004977848 -1445011718 1058700286</internalNodes>
          <leafValues>
            -6.7564535140991211e-01 2.5520485639572144e-01</leafValues></_>
        <_>
          <internalNodes>
            0 -1 51 1602747134 -2003658539 -1709981468 -167562725
            168277196 479963433 -2818468 -33822465</internalNodes>
          <leafValues>
            -6.7136573791503906e-01 1.8647317588329315e-01</leafValues></_>
        <_>
          <internalNodes>
            0 -1 46 354235808 -985535511 83899445 -1600819196 -372556113
            1022060930 1086868203 1613097643</internalNodes>
          <leafValues>
            -6.6037940979003906e-01 2.9882547259330750e-01</leafValues></_>
        <_>
          <internalNodes>
            0 -1 95 -109355841 -67938209 -590227237 1372209879
            1369177164 -233110993 1489549502 454601727</internalNodes>
          <leafValues>
            -4.8744571208953857e-01 3.4938707947731018e-01</leafValues></_>
        <_>
          <internalNodes>
            0 -1 11 -704656390 323091144 -1320757831 1527960171
            -66694310 1886443693 1366786459 1240452539</internalNodes>
          <leafValues>
            -4.9615681171417236e-01 3.6709526181221008e-01</leafValues></_>
        <_>
          <internalNodes>
            0 -1 58 -1923932673 -1342377000 -1291601503 -1332686812
            -1424322309 -17431713 -1171539288 -530797816</internalNodes>
          <leafValues>
            -6.0040730237960815e-01 3.1054249405860901e-01</leafValues></_>
        <_>
          <internalNodes>
            0 -1 105 -484274994 -82884769 -2045598694 1381899087
            -438433138 -619710156 -80527941 571730539</internalNodes>
          <leafValues>
            -5.1776921749114990e-01 3.5223999619483948e-01</leafValues></_>
        <_>
          <internalNodes>
            0 -1 50 -214378244 -801005313 -206440039 -1961047971
            -124325456 -2139057463 -82128556 -549512673</internalNodes>
          <leafValues>
            -6.2094759941101074e-01 2.6903745532035828e-01</leafValues></_></weakClassifiers></_></stages>
  <features>
    <_>
      <rect>
        0 11 4 2</rect></_>
    <_>
      <rect>
        1 6 4 3</rect></_>
    <_>
      <rect>
        1 6 5 3</rect></_>
    <_>
      <rect>
        1 7 3 2</rect></_>
    <_>
      <rect>
        1 10 3 2</rect></_>
    <_>
      <rect>
        2 0 7 8</rect></_>
    <_>
      <rect>
        2 1 6 5</rect></_>
    <_>
      <rect>
        2 6 2 2</rect></_>
    <_>
      <rect>
        2 6 4 2</rect></_>
    <_>
      <rect>
        2 6 7 6</rect></_>
    <_>
      <rect>
        2 7 2 2</rect></_>
    <_>
      <rect>
        2 7 2 4</rect></_>
    <_>
      <rect>
        2 7 2 5</rect></_>
    <_>
      <rect>
        2 8 2 2</rect></_>
    <_>
      <rect>
        2 8 3 1</rect></_>
    <_>
      <rect>
        2 9 2 2</rect></_>
    <_>
      <rect>
        2 11 3 2</rect></_>
    <_>
      <rect>
        2 13 1 1</rect></_>
    <_>
      <rect>
        3 6 1 1</rect></_>
    <_>
      <rect>
        3 6 1 3</rect></_>
    <_>
      <rect>
        3 6 2 2</rect></_>
    <_>
      <rect>
        3 6 2 3</rect></_>
    <_>
      <rect>
        3 7 1 1</rect></_>
    <_>
      <rect>
        3 10 1 1</rect></_>
    <_>
      <rect>
        3 10 3 3</rect></_>
    <_>
      <rect>
        3 11 1 2</rect></_>
    <_>
      <rect>
        3 11 3 1</rect></_>
    <_>
      <rect>
        3 12 1 1</rect></_>
    <_>
      <rect>
        3 14 1 1</rect></_>
    <_>
      <rect>
        3 14 3 1</rect></_>
    <_>
      <rect>
        3 15 1 1</rect></_>
    <_>
      <rect>
        4 0 4 7</rect></_>
    <_>
      <rect>
        4 3 3 1</rect></_>
    <_>
      <rect>
        4 4 2 1</rect></_>
    <_>
      <rect>
        4 6 1 1</rect></_>
    <_>
      <rect>
        4 7 1 1</rect></_>
    <_>
      <rect>
        4 7 3 4</rect></_>
    <_>
      <rect>
        4 8 1 1</rect></_>
    <_>
      <rect>
        4 9 2 2</rect></_>
    <_>
      <rect>
        4 10 1 1</rect></_>
    <_>
      <rect>
        4 13 1 1</rect></_>
    <_>
      <rect>
        5 5 5 3</rect></_>
    <_>
      <rect>
        5 7 2 1</rect></_>
    <_>
      <rect>
        5 8 3 2</rect></_>
    <_>
      <rect>
        5 15 1 1</rect></_>
    <_>
      <rect>
        5 16 1 1</rect></_>
    <_>
      <rect>
        6 1 6 4</rect></_>
    <_>
      <rect>
        6 3 4 7</rect></_>
    <_>
      <rect>
        6 5 4 4</rect></_>
    <_>
      <rect>
        6 6 3 3</rect></_>
    <_>
      <rect>
        6 6 4 4</rect></_>
    <_>
      <rect>
        6 6 6 6</rect></_>
    <_>
      <rect>
        6 10 2 2</rect></_>
    <_>
      <rect>
        6 12 3 3</rect></_>
    <_>
      <rect>
        7 3 1 1</rect></_>
    <_>
      <rect>
        7 5 1 1</rect></_>
    <_>
      <rect>
        7 5 4 5</rect></_>
    <_>
      <rect>
        7 7 3 1</rect></_>
    <_>
      <rect>
        7 8 2 1</rect></_>
    <_>
      <rect>
        7 9 3 3</rect></_>
    <_>
      <rect>
        7 10 2 1</rect></_>
    <_>
      <rect>
        7 11 5 3</rect></_>
    <_>
      <rect>
        8 8 3 3</rect></_>
    <_>
      <rect>
        9 8 2 1</rect></_>
    <_>
      <rect>
        9 9 1 1</rect></_>
    <_>
      <rect>
        9 10 2 1</rect></_>
    <_>
      <rect>
        9 11 2 1</rect></_>
    <_>
      <rect>
        9 14 2 1</rect></_>
    <_>
      <rect>
        10 7 2 1</rect></_>
    <_>
      <rect>
        10 15 2 1</rect></_>
    <_>
      <rect>
        11 3 2 1</rect></_>
    <_>
      <rect>
        11 8 4 2</rect></_>
    <_>
      <rect>
        11 9 2 1</rect></_>
    <_>
      <rect>
        11 9 3 2</rect></_>
    <_>
      <rect>
        11 12 2 1</rect></_>
    <_>
      <rect>
        12 4 2 1</rect></_>
    <_>
      <rect>
        12 5 2 2</rect></_>
    <_>
      <rect>
        12 6 3 1</rect></_>
    <_>
      <rect>
        12 7 1 1</rect></_>
    <_>
      <rect>
        12 7 3 2</rect></_>
    <_>
      <rect>
        12 7 3 4</rect></_>
    <_>
      <rect>
        12 8 2 2</rect></_>
    <_>
      <rect>
        12 9 4 3</rect></_>
    <_>
      <rect>
        12 10 3 2</rect></_>
    <_>
      <rect>
        12 11 2 2</rect></_>
    <_>
      <rect>
        12 14 3 1</rect></_>
    <_>
      <rect>
        13 3 1 3</rect></_>
    <_>
      <rect>
        13 6 2 2</rect></_>
    <_>
      <rect>
        13 8 2 1</rect></_>
    <_>
      <rect>
        13 8 3 2</rect></_>
    <_>
      <rect>
        13 11 3 2</rect></_>
    <_>
      <rect>
        13 15 2 1</rect></_>
    <_>
      <rect>
        14 3 1 2</rect></_>
    <_>
      <rect>
        14 15 2 1</rect></_>
    <_>
      <rect>
        15 3 1 3</rect></_>
    <_>
      <rect>
        15 7 1 1</rect></_>
    <_>
      <rect>
        15 8 2 2</rect></_>
    <_>
      <rect>
        15 10 2 2</rect></_>
    <_>
      <rect>
        16 6 1 1</rect></_>
    <_>
      <rect>
        16 6 2 4</rect></_>
    <_>
      <rect>
        16 7 1 1</rect></_>
    <_>
      <rect>
        16 13 1 2</rect></_>
    <_>
      <rect>
        16 14 1 1</rect></_>
    <_>
      <rect>
        17 8 1 1</rect></_>
    <_>
      <rect>
        17 9 2 5</rect></_>
    <_>
      <rect>
        18 6 1 2</rect></_>
    <_>
      <rect>
        18 7 1 2</rect></_>
    <_>
      <rect>
        18 10 1 1</rect></_>
    <_>
      <rect>
        18 12 1 1</rect></_>
    <_>
      <rect>
        18 15 1 1</rect></_></features></cascade>
</opencv_storage>
