<?xml version="1.0"?>
<opencv_storage>
<stage1>
  <maxWeakCount>7</maxWeakCount>
  <stageThreshold>-1.1205343008041382e+00</stageThreshold>
  <weakClassifiers>
    <_>
      <internalNodes>
        0 -1 1043 -540082433 -605650254 -168566785 -940643602 -538970145
        -3886905 -536872961 -1</internalNodes>
      <leafValues>
        -7.7878785133361816e-01 6.3553184270858765e-01</leafValues></_>
    <_>
      <internalNodes>
        0 -1 6616 -83888265 -75841665 435813375 2076179327 2122317653
        2100543289 -53477379 -83886081</internalNodes>
      <leafValues>
        -7.1453839540481567e-01 5.9428900480270386e-01</leafValues></_>
    <_>
      <internalNodes>
        0 -1 6754 -4194509 -9438417 -2884813 -129 -33554497 -805326850
        -705170988 -671093577</internalNodes>
      <leafValues>
        -6.1734765768051147e-01 6.4418876171112061e-01</leafValues></_>
    <_>
      <internalNodes>
        0 -1 1754 -471878657 -1007801410 1944056799 -36393234 -403706881
        1329856430 1206907871 -524297</internalNodes>
      <leafValues>
        -6.0671049356460571e-01 6.1626416444778442e-01</leafValues></_>
    <_>
      <internalNodes>
        0 -1 7428 -79735467 -67152611 -682135073 -1222676137 -211054789
        -68427681 -1308362497 -1221099649</internalNodes>
      <leafValues>
        -6.7181164026260376e-01 5.4312390089035034e-01</leafValues></_>
    <_>
      <internalNodes>
        0 -1 1851 -486872321 1543498430 -791483657 -147816334 -940053761
        2085114623 -772019233 -11018245</internalNodes>
      <leafValues>
        -6.2048959732055664e-01 6.1649513244628906e-01</leafValues></_>
    <_>
      <internalNodes>
        0 -1 4003 -548872708 -144713857 167941145 354354239 -37028865
        -607657313 -583070463 -549511617</internalNodes>
      <leafValues>
        -7.9216754436492920e-01 4.5124113559722900e-01</leafValues></_></weakClassifiers></stage1>
</opencv_storage>
