<?xml version="1.0"?>
<opencv_storage>
<stage5>
  <maxWeakCount>10</maxWeakCount>
  <stageThreshold>-1.8033896684646606e+00</stageThreshold>
  <weakClassifiers>
    <_>
      <internalNodes>
        0 -1 4434 -1077952513 -6 -1 -4203009 -1073741825 -67109121
        -1610612737 -8707</internalNodes>
      <leafValues>
        -6.0466140508651733e-01 6.5503686666488647e-01</leafValues></_>
    <_>
      <internalNodes>
        0 -1 1179 -486544641 -21762 -490738977 -142638370 -476319777
        -599738385 -4470801 -2099233</internalNodes>
      <leafValues>
        -4.9624893069267273e-01 5.9669053554534912e-01</leafValues></_>
    <_>
      <internalNodes>
        0 -1 2698 -823466260 -134221091 -677512247 -532513 -270337109
        -1141705952 -270010373 -67650629</internalNodes>
      <leafValues>
        -7.0742553472518921e-01 3.5634905099868774e-01</leafValues></_>
    <_>
      <internalNodes>
        0 -1 7551 -807413837 -986186219 -172003024 -216273121 1604245384
        -683815100 -804662870 320855871</internalNodes>
      <leafValues>
        -5.7674753665924072e-01 4.0695002675056458e-01</leafValues></_>
    <_>
      <internalNodes>
        0 -1 1718 -44081569 1436151288 -140813953 790821855 -52471137
        176774792 -8699239 1828716523</internalNodes>
      <leafValues>
        -4.9711894989013672e-01 4.8287117481231689e-01</leafValues></_>
    <_>
      <internalNodes>
        0 -1 5056 -140839564 -102804099 -2443905 2098879829 2067463989
        -552536018 523935295 1060834607</internalNodes>
      <leafValues>
        -7.3460304737091064e-01 2.9032739996910095e-01</leafValues></_>
    <_>
      <internalNodes>
        0 -1 7015 -169872079 -141888017 -137669259 -704652569 -908199254
        -1279399544 -975259470 -581569617</internalNodes>
      <leafValues>
        -5.3041470050811768e-01 4.3353611230850220e-01</leafValues></_>
    <_>
      <internalNodes>
        0 -1 4569 -824198413 -286294545 -548597770 -1224969360
        -273940483 -2170116 -611935260 -24602144</internalNodes>
      <leafValues>
        -5.4655522108078003e-01 4.2949739098548889e-01</leafValues></_>
    <_>
      <internalNodes>
        0 -1 4638 64435519 2145975159 1012841343 -7260430 -541328917
        -822340 -306500212 -1664041564</internalNodes>
      <leafValues>
        -5.1434099674224854e-01 4.4986394047737122e-01</leafValues></_>
    <_>
      <internalNodes>
        0 -1 3718 -757117723 -578862889 -1832592257 1380482047
        -253996224 -363265008 -1427590148 1460338687</internalNodes>
      <leafValues>
        -6.2817341089248657e-01 3.8358786702156067e-01</leafValues></_></weakClassifiers></stage5>
</opencv_storage>
