<?xml version="1.0"?>
<opencv_storage>
<stage7>
  <maxWeakCount>13</maxWeakCount>
  <stageThreshold>-1.5765423774719238e+00</stageThreshold>
  <weakClassifiers>
    <_>
      <internalNodes>
        0 -1 1750 -9440257 -204477746 -145303617 -13108 -70255713
        1154209727 -136581185 -9217</internalNodes>
      <leafValues>
        -6.0692560672760010e-01 5.0974446535110474e-01</leafValues></_>
    <_>
      <internalNodes>
        0 -1 2814 -873471497 -69534018 2080372479 -33834434 1333771259
        -537395211 1610606463 -35993</internalNodes>
      <leafValues>
        -4.5407250523567200e-01 5.4798549413681030e-01</leafValues></_>
    <_>
      <internalNodes>
        0 -1 7924 -88187555 -268735617 -85989170 1652517615 -88289268
        1999077935 -52896530 1916534779</internalNodes>
      <leafValues>
        -5.9477245807647705e-01 3.7046077847480774e-01</leafValues></_>
    <_>
      <internalNodes>
        0 -1 1049 -614532353 -3237634 2147483647 -1074812179 -892403850
        -541786113 -536870913 -62465</internalNodes>
      <leafValues>
        -4.5226931571960449e-01 5.0981390476226807e-01</leafValues></_>
    <_>
      <internalNodes>
        0 -1 4149 375131868 1003955198 -78336873 -1090540300 -874206725
        -1279566925 -606945297 1072240037</internalNodes>
      <leafValues>
        -7.7294254302978516e-01 3.0703541636466980e-01</leafValues></_>
    <_>
      <internalNodes>
        0 -1 2563 -153097041 -146846627 -32186625 1376933887 -119863208
        -615625718 -179783154 1329326815</internalNodes>
      <leafValues>
        -5.8169412612915039e-01 3.2536774873733521e-01</leafValues></_>
    <_>
      <internalNodes>
        0 -1 6641 -540674568 -936130823 -1602097443 -47882081 2144320443
        1673985203 1830154417 -247464005</internalNodes>
      <leafValues>
        -5.5231857299804688e-01 3.7100625038146973e-01</leafValues></_>
    <_>
      <internalNodes>
        0 -1 6305 1333247799 1019019571 1465838591 -1633750586
        -1342876164 -20030476 -40808972 1022685908</internalNodes>
      <leafValues>
        -6.4740723371505737e-01 3.1692731380462646e-01</leafValues></_>
    <_>
      <internalNodes>
        0 -1 2487 -671128865 -201632804 -132983604 428396955 -91551560
        1382886195 -20038132 1610538669</internalNodes>
      <leafValues>
        -4.9254742264747620e-01 3.9785385131835938e-01</leafValues></_>
    <_>
      <internalNodes>
        0 -1 6027 520306453 -1171818044 -69218447 -47703262 500784047
        -1410629387 -1110770223 -549459330</internalNodes>
      <leafValues>
        -4.7418653964996338e-01 4.0205681324005127e-01</leafValues></_>
    <_>
      <internalNodes>
        0 -1 6311 -707791437 -976891961 -322840070 1403470047 969645982
        -1134774067 1308490682 299222461</internalNodes>
      <leafValues>
        -4.8547494411468506e-01 4.1427290439605713e-01</leafValues></_>
    <_>
      <internalNodes>
        0 -1 6356 1059011873 -1119891081 -1108659564 -1083050669
        1337712629 -1141229430 1301005557 -91862033</internalNodes>
      <leafValues>
        -5.6394612789154053e-01 3.4185272455215454e-01</leafValues></_>
    <_>
      <internalNodes>
        0 -1 4499 -1417619971 765261558 488069105 2103742468 -1143341145
        -861816656 328135665 1602016689</internalNodes>
      <leafValues>
        -5.8032345771789551e-01 3.3601585030555725e-01</leafValues></_></weakClassifiers></stage7>
</opencv_storage>
