<?xml version="1.0"?>
<opencv_storage>
<stage8>
  <maxWeakCount>12</maxWeakCount>
  <stageThreshold>-1.9495465755462646e+00</stageThreshold>
  <weakClassifiers>
    <_>
      <internalNodes>
        0 -1 2311 -6291533 -814812266 -671624970 -44043816 -69534725
        -1879196261 1463284663 -536874505</internalNodes>
      <leafValues>
        -6.4431935548782349e-01 4.1158878803253174e-01</leafValues></_>
    <_>
      <internalNodes>
        0 -1 7718 -620857249 -6332545 -522716934 846676455 -151004072
        1796968235 1396350910 1931148287</internalNodes>
      <leafValues>
        -6.7811495065689087e-01 2.9972302913665771e-01</leafValues></_>
    <_>
      <internalNodes>
        0 -1 2319 1607135999 -740965690 2076785431 1272398917 -538248257
        -128976189 1166801851 -537963585</internalNodes>
      <leafValues>
        -4.9888017773628235e-01 4.5209935307502747e-01</leafValues></_>
    <_>
      <internalNodes>
        0 -1 2584 -687911283 -7907891 1276778239 1929533695 -3441576
        -9631739 -392263425 2138823535</internalNodes>
      <leafValues>
        -4.5669692754745483e-01 4.3622040748596191e-01</leafValues></_>
    <_>
      <internalNodes>
        0 -1 6628 482807263 1572295101 -1042295817 -572952115 -546089287
        -1128819457 1489070588 1280606676</internalNodes>
      <leafValues>
        -6.3760650157928467e-01 3.2663625478744507e-01</leafValues></_>
    <_>
      <internalNodes>
        0 -1 6709 -1614956624 -49028429 -505938187 2102100397 990896126
        -86357281 406489501 447418367</internalNodes>
      <leafValues>
        -6.5269416570663452e-01 3.1717151403427124e-01</leafValues></_>
    <_>
      <internalNodes>
        0 -1 8099 -294658866 -138979489 -632901298 1719425646 1414091776
        1904141095 2020081210 1920203643</internalNodes>
      <leafValues>
        -6.0554301738739014e-01 2.9974251985549927e-01</leafValues></_>
    <_>
      <internalNodes>
        0 -1 7522 1305339801 -884102305 1949542398 1377012695 2071402378
        -77667726 -1326400862 -109051905</internalNodes>
      <leafValues>
        -4.3994942307472229e-01 4.2404747009277344e-01</leafValues></_>
    <_>
      <internalNodes>
        0 -1 4521 -176104484 31273355 -888406129 -7877923 1344467036
        1082130561 -720424891 -16012025</internalNodes>
      <leafValues>
        -6.2970483303070068e-01 3.2235643267631531e-01</leafValues></_>
    <_>
      <internalNodes>
        0 -1 6876 -1074145807 -875613201 -768629697 -375439269
        -630277489 -1970026354 -455580689 -1082169681</internalNodes>
      <leafValues>
        -4.9302563071250916e-01 4.0451249480247498e-01</leafValues></_>
    <_>
      <internalNodes>
        0 -1 8164 -1347495133 -1366769362 -741384239 2146950228
        -1198616595 -1962751342 357295349 1576660159</internalNodes>
      <leafValues>
        -5.1874274015426636e-01 3.8541010022163391e-01</leafValues></_>
    <_>
      <internalNodes>
        0 -1 5558 903576511 1597789561 -44551179 1435557637 152272375
        263928689 1284507370 -122262554</internalNodes>
      <leafValues>
        -4.9495089054107666e-01 4.2736354470252991e-01</leafValues></_></weakClassifiers></stage8>
</opencv_storage>
