<?xml version="1.0"?>
<opencv_storage>
<stage6>
  <maxWeakCount>11</maxWeakCount>
  <stageThreshold>-1.6610586643218994e+00</stageThreshold>
  <weakClassifiers>
    <_>
      <internalNodes>
        0 -1 1674 -537923077 -1126410 -732440641 -2101506 -269485057
        -817632934 -675282945 -536870913</internalNodes>
      <leafValues>
        -6.0847038030624390e-01 5.9888058900833130e-01</leafValues></_>
    <_>
      <internalNodes>
        0 -1 6296 -143949827 -782513697 764394485 -808530049 -8668264
        -44266595 2071661848 -1077936209</internalNodes>
      <leafValues>
        -6.0341626405715942e-01 4.0769511461257935e-01</leafValues></_>
    <_>
      <internalNodes>
        0 -1 3112 -16777553 -620797993 -53818802 -233768193 1324501068
        -765763046 -4263042 -142606337</internalNodes>
      <leafValues>
        -5.5118209123611450e-01 4.4835782051086426e-01</leafValues></_>
    <_>
      <internalNodes>
        0 -1 3507 -1427197441 -269819908 -205529809 -236915460
        -1352681473 -805328195 328841209 -841179140</internalNodes>
      <leafValues>
        -5.9371733665466309e-01 3.7467089295387268e-01</leafValues></_>
    <_>
      <internalNodes>
        0 -1 6562 -134824833 -547474053 407601115 1920537815 -215106724
        -1101281170 2116671999 -130434049</internalNodes>
      <leafValues>
        -4.8466733098030090e-01 4.7984200716018677e-01</leafValues></_>
    <_>
      <internalNodes>
        0 -1 8144 -8527958 789235490 -305412704 -2035399217 -35129354
        130396523 -136349709 1475870703</internalNodes>
      <leafValues>
        -6.7531722784042358e-01 3.2842823863029480e-01</leafValues></_>
    <_>
      <internalNodes>
        0 -1 3931 -1615269892 -245476515 -809436964 -1311777 -262162211
        -2147286717 -235065140 -33554433</internalNodes>
      <leafValues>
        -6.6997057199478149e-01 3.1969258189201355e-01</leafValues></_>
    <_>
      <internalNodes>
        0 -1 6654 -4205131 -712005449 -684918416 -174069579 -1146486884
        -1433155880 1823014202 421549493</internalNodes>
      <leafValues>
        -7.3073941469192505e-01 2.8611013293266296e-01</leafValues></_>
    <_>
      <internalNodes>
        0 -1 5632 669351295 -1356921393 2013265887 -545539329 1643863007
        -1430500753 -605290507 -563544652</internalNodes>
      <leafValues>
        -5.0697374343872070e-01 4.4643083214759827e-01</leafValues></_>
    <_>
      <internalNodes>
        0 -1 2318 -134679557 333903818 -292867303 -1544288660
        -1366556741 -949686360 -2116066341 -1073785873</internalNodes>
      <leafValues>
        -5.0755053758621216e-01 4.2389291524887085e-01</leafValues></_>
    <_>
      <internalNodes>
        0 -1 2980 -1156841485 -424938006 -764407594 1062327168
        -1443168269 1207673830 399107456 1467307029</internalNodes>
      <leafValues>
        -6.1421620845794678e-01 3.5853177309036255e-01</leafValues></_></weakClassifiers></stage6>
</opencv_storage>
