<?xml version="1.0"?>
<opencv_storage>
<stage10>
  <maxWeakCount>13</maxWeakCount>
  <stageThreshold>-1.4598919153213501e+00</stageThreshold>
  <weakClassifiers>
    <_>
      <internalNodes>
        0 -1 6167 -119537793 -8451233 1531572223 2136749021 -119606273
        -4327173 -74589189 -1145049089</internalNodes>
      <leafValues>
        -5.3317171335220337e-01 4.8973608016967773e-01</leafValues></_>
    <_>
      <internalNodes>
        0 -1 1076 1968059259 332311134 1698902399 -268439842 -410086759
        -884459632 1200353723 -1029</internalNodes>
      <leafValues>
        -5.2006947994232178e-01 4.1354760527610779e-01</leafValues></_>
    <_>
      <internalNodes>
        0 -1 3040 1791999970 -286267198 -1109660122 -204085310
        1270565807 33225161 2012434755 2012575607</internalNodes>
      <leafValues>
        -6.5385288000106812e-01 2.7409794926643372e-01</leafValues></_>
    <_>
      <internalNodes>
        0 -1 7785 -1535639759 2098249888 -58338864 -67675120 -1214062660
        -1776663176 486659577 1610566877</internalNodes>
      <leafValues>
        -6.3209396600723267e-01 3.0033925175666809e-01</leafValues></_>
    <_>
      <internalNodes>
        0 -1 2494 5973743 1065612734 -99365154 -205590330 327774711
        253952753 -1692898369 1895068599</internalNodes>
      <leafValues>
        -6.7429864406585693e-01 2.2858640551567078e-01</leafValues></_>
    <_>
      <internalNodes>
        0 -1 3700 -622917563 -581285429 -300437348 273304927 -895870956
        -1004977848 -1445011718 1058700286</internalNodes>
      <leafValues>
        -6.7564535140991211e-01 2.5520485639572144e-01</leafValues></_>
    <_>
      <internalNodes>
        0 -1 4053 1602747134 -2003658539 -1709981468 -167562725
        168277196 479963433 -2818468 -33822465</internalNodes>
      <leafValues>
        -6.7136573791503906e-01 1.8647317588329315e-01</leafValues></_>
    <_>
      <internalNodes>
        0 -1 3858 354235808 -985535511 83899445 -1600819196 -372556113
        1022060930 1086868203 1613097643</internalNodes>
      <leafValues>
        -6.6037940979003906e-01 2.9882547259330750e-01</leafValues></_>
    <_>
      <internalNodes>
        0 -1 7501 -109355841 -67938209 -590227237 1372209879 1369177164
        -233110993 1489549502 454601727</internalNodes>
      <leafValues>
        -4.8744571208953857e-01 3.4938707947731018e-01</leafValues></_>
    <_>
      <internalNodes>
        0 -1 1717 -704656390 323091144 -1320757831 1527960171 -66694310
        1886443693 1366786459 1240452539</internalNodes>
      <leafValues>
        -4.9615681171417236e-01 3.6709526181221008e-01</leafValues></_>
    <_>
      <internalNodes>
        0 -1 4589 -1923932673 -1342377000 -1291601503 -1332686812
        -1424322309 -17431713 -1171539288 -530797816</internalNodes>
      <leafValues>
        -6.0040730237960815e-01 3.1054249405860901e-01</leafValues></_>
    <_>
      <internalNodes>
        0 -1 8087 -484274994 -82884769 -2045598694 1381899087 -438433138
        -619710156 -80527941 571730539</internalNodes>
      <leafValues>
        -5.1776921749114990e-01 3.5223999619483948e-01</leafValues></_>
    <_>
      <internalNodes>
        0 -1 4039 -214378244 -801005313 -206440039 -1961047971
        -124325456 -2139057463 -82128556 -549512673</internalNodes>
      <leafValues>
        -6.2094759941101074e-01 2.6903745532035828e-01</leafValues></_></weakClassifiers></stage10>
</opencv_storage>
